# DATE: 2024-07-07  UNITS: metal  CONTRIBUTOR: By STUDENT			
# FHEP: Temp 303 [K], mr 1 [g/mol], Sigma 2.96 [A], Epsilon 0.002947127975604 [eV]			
			
ENTRY			
N 1200 R 1.0 12.99			
			
1	1.00	9.982162.E+03	8.681439.E+04
2	1.01	8.776707.E+03	7.533984.E+04
3	1.02	7.727332.E+03	6.548409.E+04
4	1.03	6.812497.E+03	5.700490.E+04
5	1.04	6.013816.E+03	4.969827.E+04
6	1.05	5.315567.E+03	4.339210.E+04
7	1.06	4.704285.E+03	3.794097.E+04
8	1.07	4.168419.E+03	3.322179.E+04
9	1.08	3.698046.E+03	2.913017.E+04
10	1.09	3.284630.E+03	2.557746.E+04
11	1.10	2.920812.E+03	2.248824.E+04
12	1.11	2.600245.E+03	1.979824.E+04
13	1.12	2.317443.E+03	1.745262.E+04
14	1.13	2.067658.E+03	1.540449.E+04
15	1.14	1.846777.E+03	1.361373.E+04
16	1.15	1.651230.E+03	1.204594.E+04
17	1.16	1.477915.E+03	1.067157.E+04
18	1.17	1.324134.E+03	9.465228.E+03
19	1.18	1.187537.E+03	8.405047.E+03
20	1.19	1.066073.E+03	7.472172.E+03
21	1.20	9.579523.E+02	6.650321.E+03
22	1.21	8.616097.E+02	5.925422.E+03
23	1.22	7.756748.E+02	5.285288.E+03
24	1.23	6.989468.E+02	4.719357.E+03
25	1.24	6.303720.E+02	4.218461.E+03
26	1.25	5.690250.E+02	3.774633.E+03
27	1.26	5.140919.E+02	3.380940.E+03
28	1.27	4.648563.E+02	3.031342.E+03
29	1.28	4.206869.E+02	2.720572.E+03
30	1.29	3.810267.E+02	2.444027.E+03
31	1.30	3.453837.E+02	2.197687.E+03
32	1.31	3.133232.E+02	1.978030.E+03
33	1.32	2.844603.E+02	1.781971.E+03
34	1.33	2.584541.E+02	1.606803.E+03
35	1.34	2.350026.E+02	1.450149.E+03
36	1.35	2.138375.E+02	1.309919.E+03
37	1.36	1.947204.E+02	1.184274.E+03
38	1.37	1.774397.E+02	1.071592.E+03
39	1.38	1.618066.E+02	9.704457.E+02
40	1.39	1.476534.E+02	8.795719.E+02
41	1.40	1.348302.E+02	7.978556.E+02
42	1.41	1.232034.E+02	7.243102.E+02
43	1.42	1.126536.E+02	6.580623.E+02
44	1.43	1.030743.E+02	5.983374.E+02
45	1.44	9.436998.E+01	5.444486.E+02
46	1.45	8.645517.E+01	4.957859.E+02
47	1.46	7.925332.E+01	4.518071.E+02
48	1.47	7.269578.E+01	4.120297.E+02
49	1.48	6.672090.E+01	3.760244.E+02
50	1.49	6.127334.E+01	3.434082.E+02
51	1.50	5.630334.E+01	3.138396.E+02
52	1.51	5.176613.E+01	2.870140.E+02
53	1.52	4.762143.E+01	2.626587.E+02
54	1.53	4.383293.E+01	2.405303.E+02
55	1.54	4.036790.E+01	2.204107.E+02
56	1.55	3.719682.E+01	2.021047.E+02
57	1.56	3.429302.E+01	1.854370.E+02
58	1.57	3.163242.E+01	1.702507.E+02
59	1.58	2.919325.E+01	1.564047.E+02
60	1.59	2.695580.E+01	1.437723.E+02
61	1.60	2.490225.E+01	1.322395.E+02
62	1.61	2.301643.E+01	1.217038.E+02
63	1.62	2.128371.E+01	1.120727.E+02
64	1.63	1.969079.E+01	1.032631.E+02
65	1.64	1.822562.E+01	9.519982.E+01
66	1.65	1.687726.E+01	8.781510.E+01
67	1.66	1.563575.E+01	8.104774.E+01
68	1.67	1.449204.E+01	7.484242.E+01
69	1.68	1.343790.E+01	6.914909.E+01
70	1.69	1.246583.E+01	6.392248.E+01
71	1.70	1.156902.E+01	5.912155.E+01
72	1.71	1.074123.E+01	5.470915.E+01
73	1.72	9.976789.E+00	5.065156.E+01
74	1.73	9.270523.E+00	4.691818.E+01
75	1.74	8.617700.E+00	4.348125.E+01
76	1.75	8.014004.E+00	4.031552.E+01
77	1.76	7.455486.E+00	3.739804.E+01
78	1.77	6.938537.E+00	3.470794.E+01
79	1.78	6.459853.E+00	3.222622.E+01
80	1.79	6.016412.E+00	2.993556.E+01
81	1.80	5.605445.E+00	2.782021.E+01
82	1.81	5.224413.E+00	2.586576.E+01
83	1.82	4.870990.E+00	2.405909.E+01
84	1.83	4.543041.E+00	2.238823.E+01
85	1.84	4.238609.E+00	2.084223.E+01
86	1.85	3.955895.E+00	1.941108.E+01
87	1.86	3.693247.E+00	1.808563.E+01
88	1.87	3.449145.E+00	1.685751.E+01
89	1.88	3.222195.E+00	1.571907.E+01
90	1.89	3.011112.E+00	1.466328.E+01
91	1.90	2.814713.E+00	1.368370.E+01
92	1.91	2.631911.E+00	1.277444.E+01
93	1.92	2.461703.E+00	1.193010.E+01
94	1.93	2.303165.E+00	1.114569.E+01
95	1.94	2.155444.E+00	1.041666.E+01
96	1.95	2.017756.E+00	9.738829.E+00
97	1.96	1.889376.E+00	9.108332.E+00
98	1.97	1.769632.E+00	8.521631.E+00
99	1.98	1.657909.E+00	7.975466.E+00
100	1.99	1.553634.E+00	7.466836.E+00
101	2.00	1.456280.E+00	6.992978.E+00
102	2.01	1.365358.E+00	6.551345.E+00
103	2.02	1.280417.E+00	6.139590.E+00
104	2.03	1.201039.E+00	5.755549.E+00
105	2.04	1.126837.E+00	5.397224.E+00
106	2.05	1.057452.E+00	5.062770.E+00
107	2.06	9.925537.E-01	4.750487.E+00
108	2.07	9.318334.E-01	4.458800.E+00
109	2.08	8.750060.E-01	4.186256.E+00
110	2.09	8.218070.E-01	3.931509.E+00
111	2.10	7.719908.E-01	3.693318.E+00
112	2.11	7.253295.E-01	3.470530.E+00
113	2.12	6.816116.E-01	3.262081.E+00
114	2.13	6.406407.E-01	3.066983.E+00
115	2.14	6.022339.E-01	2.884322.E+00
116	2.15	5.662218.E-01	2.713250.E+00
117	2.16	5.324463.E-01	2.552982.E+00
118	2.17	5.007608.E-01	2.402788.E+00
119	2.18	4.710287.E-01	2.261992.E+00
120	2.19	4.431228.E-01	2.129965.E+00
121	2.20	4.169247.E-01	2.006125.E+00
122	2.21	3.923244.E-01	1.889929.E+00
123	2.22	3.692191.E-01	1.780874.E+00
124	2.23	3.475130.E-01	1.678491.E+00
125	2.24	3.271170.E-01	1.582345.E+00
126	2.25	3.079478.E-01	1.492030.E+00
127	2.26	2.899279.E-01	1.407169.E+00
128	2.27	2.729849.E-01	1.327412.E+00
129	2.28	2.570512.E-01	1.252430.E+00
130	2.29	2.420636.E-01	1.181920.E+00
131	2.30	2.279633.E-01	1.115597.E+00
132	2.31	2.146951.E-01	1.053197.E+00
133	2.32	2.022077.E-01	9.944716.E-01
134	2.33	1.904530.E-01	9.391917.E-01
135	2.34	1.793860.E-01	8.871419.E-01
136	2.35	1.689647.E-01	8.381214.E-01
137	2.36	1.591497.E-01	7.919428.E-01
138	2.37	1.499042.E-01	7.484311.E-01
139	2.38	1.411938.E-01	7.074225.E-01
140	2.39	1.329862.E-01	6.687642.E-01
141	2.40	1.252513.E-01	6.323132.E-01
142	2.41	1.179607.E-01	5.979358.E-01
143	2.42	1.110879.E-01	5.655068.E-01
144	2.43	1.046081.E-01	5.349091.E-01
145	2.44	9.849801.E-02	5.060332.E-01
146	2.45	9.273576.E-02	4.787764.E-01
147	2.46	8.730089.E-02	4.530426.E-01
148	2.47	8.217417.E-02	4.287417.E-01
149	2.48	7.733758.E-02	4.057894.E-01
150	2.49	7.277419.E-02	3.841065.E-01
151	2.50	6.846812.E-02	3.636188.E-01
152	2.51	6.440445.E-02	3.442567.E-01
153	2.52	6.056917.E-02	3.259550.E-01
154	2.53	5.694912.E-02	3.086524.E-01
155	2.54	5.353193.E-02	2.922913.E-01
156	2.55	5.030598.E-02	2.768179.E-01
157	2.56	4.726033.E-02	2.621813.E-01
158	2.57	4.438472.E-02	2.483339.E-01
159	2.58	4.166948.E-02	2.352310.E-01
160	2.59	3.910553.E-02	2.228305.E-01
161	2.60	3.668430.E-02	2.110929.E-01
162	2.61	3.439777.E-02	1.999808.E-01
163	2.62	3.223834.E-02	1.894595.E-01
164	2.63	3.019889.E-02	1.794959.E-01
165	2.64	2.827271.E-02	1.700590.E-01
166	2.65	2.645348.E-02	1.611198.E-01
167	2.66	2.473523.E-02	1.526508.E-01
168	2.67	2.311235.E-02	1.446261.E-01
169	2.68	2.157957.E-02	1.370214.E-01
170	2.69	2.013188.E-02	1.298137.E-01
171	2.70	1.876461.E-02	1.229815.E-01
172	2.71	1.747331.E-02	1.165044.E-01
173	2.72	1.625380.E-02	1.103631.E-01
174	2.73	1.510216.E-02	1.045396.E-01
175	2.74	1.401466.E-02	9.901682.E-02
176	2.75	1.298779.E-02	9.377859.E-02
177	2.76	1.201826.E-02	8.880973.E-02
178	2.77	1.110292.E-02	8.409591.E-02
179	2.78	1.023885.E-02	7.962359.E-02
180	2.79	9.423247.E-03	7.537997.E-02
181	2.80	8.653491.E-03	7.135299.E-02
182	2.81	7.927099.E-03	6.753125.E-02
183	2.82	7.241727.E-03	6.390398.E-02
184	2.83	6.595161.E-03	6.046100.E-02
185	2.84	5.985307.E-03	5.719269.E-02
186	2.85	5.410189.E-03	5.408997.E-02
187	2.86	4.867939.E-03	5.114423.E-02
188	2.87	4.356789.E-03	4.834736.E-02
189	2.88	3.875071.E-03	4.569166.E-02
190	2.89	3.421205.E-03	4.316987.E-02
191	2.90	2.993699.E-03	4.077511.E-02
192	2.91	2.591141.E-03	3.850087.E-02
193	2.92	2.212196.E-03	3.634099.E-02
194	2.93	1.855600.E-03	3.428964.E-02
195	2.94	1.520159.E-03	3.234130.E-02
196	2.95	1.204740.E-03	3.049075.E-02
197	2.96	9.082755.E-04	2.873303.E-02
198	2.97	6.297514.E-04	2.706346.E-02
199	2.98	3.682094.E-04	2.547758.E-02
200	2.99	1.227420.E-04	2.397121.E-02
201	3.00	-1.075097.E-04	2.254033.E-02
202	3.01	-3.233592.E-04	2.118118.E-02
203	3.02	-5.255765.E-04	1.989017.E-02
204	3.03	-7.148911.E-04	1.866390.E-02
205	3.04	-8.919937.E-04	1.749915.E-02
206	3.05	-1.057539.E-03	1.639286.E-02
207	3.06	-1.212146.E-03	1.534214.E-02
208	3.07	-1.356402.E-03	1.434423.E-02
209	3.08	-1.490864.E-03	1.339652.E-02
210	3.09	-1.616058.E-03	1.249655.E-02
211	3.10	-1.732484.E-03	1.164194.E-02
212	3.11	-1.840615.E-03	1.083049.E-02
213	3.12	-1.940900.E-03	1.006007.E-02
214	3.13	-2.033764.E-03	9.328660.E-03
215	3.14	-2.119610.E-03	8.634362.E-03
216	3.15	-2.198819.E-03	7.975360.E-03
217	3.16	-2.271753.E-03	7.349929.E-03
218	3.17	-2.338757.E-03	6.756435.E-03
219	3.18	-2.400154.E-03	6.193322.E-03
220	3.19	-2.456254.E-03	5.659113.E-03
221	3.20	-2.507349.E-03	5.152404.E-03
222	3.21	-2.553716.E-03	4.671860.E-03
223	3.22	-2.595619.E-03	4.216214.E-03
224	3.23	-2.633305.E-03	3.784259.E-03
225	3.24	-2.667013.E-03	3.374849.E-03
226	3.25	-2.696966.E-03	2.986894.E-03
227	3.26	-2.723376.E-03	2.619357.E-03
228	3.27	-2.746445.E-03	2.271252.E-03
229	3.28	-2.766364.E-03	1.941642.E-03
230	3.29	-2.783314.E-03	1.629634.E-03
231	3.30	-2.797468.E-03	1.334380.E-03
232	3.31	-2.808988.E-03	1.055072.E-03
233	3.32	-2.818029.E-03	7.909416.E-04
234	3.33	-2.824738.E-03	5.412577.E-04
235	3.34	-2.829252.E-03	3.053243.E-04
236	3.35	-2.831705.E-03	8.247892.E-05
237	3.36	-2.832220.E-03	-1.279090.E-04
238	3.37	-2.830917.E-03	-3.264398.E-04
239	3.38	-2.827908.E-03	-5.136850.E-04
240	3.39	-2.823299.E-03	-6.901887.E-04
241	3.40	-2.817192.E-03	-8.564693.E-04
242	3.41	-2.809681.E-03	-1.013020.E-03
243	3.42	-2.800857.E-03	-1.160311.E-03
244	3.43	-2.790807.E-03	-1.298790.E-03
245	3.44	-2.779613.E-03	-1.428883.E-03
246	3.45	-2.767350.E-03	-1.550996.E-03
247	3.46	-2.754092.E-03	-1.665517.E-03
248	3.47	-2.739909.E-03	-1.772813.E-03
249	3.48	-2.724867.E-03	-1.873236.E-03
250	3.49	-2.709026.E-03	-1.967122.E-03
251	3.50	-2.692447.E-03	-2.054787.E-03
252	3.51	-2.675185.E-03	-2.136537.E-03
253	3.52	-2.657293.E-03	-2.212661.E-03
254	3.53	-2.638820.E-03	-2.283435.E-03
255	3.54	-2.619815.E-03	-2.349122.E-03
256	3.55	-2.600321.E-03	-2.409973.E-03
257	3.56	-2.580382.E-03	-2.466226.E-03
258	3.57	-2.560037.E-03	-2.518109.E-03
259	3.58	-2.539323.E-03	-2.565840.E-03
260	3.59	-2.518278.E-03	-2.609625.E-03
261	3.60	-2.496934.E-03	-2.649661.E-03
262	3.61	-2.475324.E-03	-2.686137.E-03
263	3.62	-2.453478.E-03	-2.719233.E-03
264	3.63	-2.431424.E-03	-2.749118.E-03
265	3.64	-2.409190.E-03	-2.775956.E-03
266	3.65	-2.386799.E-03	-2.799902.E-03
267	3.66	-2.364278.E-03	-2.821105.E-03
268	3.67	-2.341648.E-03	-2.839705.E-03
269	3.68	-2.318930.E-03	-2.855838.E-03
270	3.69	-2.296145.E-03	-2.869631.E-03
271	3.70	-2.273311.E-03	-2.881207.E-03
272	3.71	-2.250446.E-03	-2.890683.E-03
273	3.72	-2.227567.E-03	-2.898170.E-03
274	3.73	-2.204689.E-03	-2.903774.E-03
275	3.74	-2.181828.E-03	-2.907596.E-03
276	3.75	-2.158997.E-03	-2.909733.E-03
277	3.76	-2.136210.E-03	-2.910276.E-03
278	3.77	-2.113477.E-03	-2.909314.E-03
279	3.78	-2.090811.E-03	-2.906929.E-03
280	3.79	-2.068223.E-03	-2.903201.E-03
281	3.80	-2.045722.E-03	-2.898207.E-03
282	3.81	-2.023317.E-03	-2.892018.E-03
283	3.82	-2.001019.E-03	-2.884704.E-03
284	3.83	-1.978833.E-03	-2.876329.E-03
285	3.84	-1.956768.E-03	-2.866958.E-03
286	3.85	-1.934832.E-03	-2.856649.E-03
287	3.86	-1.913030.E-03	-2.845460.E-03
288	3.87	-1.891368.E-03	-2.833444.E-03
289	3.88	-1.869853.E-03	-2.820653.E-03
290	3.89	-1.848488.E-03	-2.807136.E-03
291	3.90	-1.827280.E-03	-2.792941.E-03
292	3.91	-1.806232.E-03	-2.778111.E-03
293	3.92	-1.785347.E-03	-2.762690.E-03
294	3.93	-1.764631.E-03	-2.746717.E-03
295	3.94	-1.744086.E-03	-2.730232.E-03
296	3.95	-1.723715.E-03	-2.713270.E-03
297	3.96	-1.703520.E-03	-2.695867.E-03
298	3.97	-1.683505.E-03	-2.678056.E-03
299	3.98	-1.663670.E-03	-2.659869.E-03
300	3.99	-1.644019.E-03	-2.641335.E-03
301	4.00	-1.624553.E-03	-2.622483.E-03
302	4.01	-1.605273.E-03	-2.603341.E-03
303	4.02	-1.586180.E-03	-2.583934.E-03
304	4.03	-1.567276.E-03	-2.564287.E-03
305	4.04	-1.548562.E-03	-2.544423.E-03
306	4.05	-1.530037.E-03	-2.524364.E-03
307	4.06	-1.511703.E-03	-2.504132.E-03
308	4.07	-1.493559.E-03	-2.483746.E-03
309	4.08	-1.475607.E-03	-2.463226.E-03
310	4.09	-1.457845.E-03	-2.442589.E-03
311	4.10	-1.440275.E-03	-2.421852.E-03
312	4.11	-1.422895.E-03	-2.401033.E-03
313	4.12	-1.405706.E-03	-2.380146.E-03
314	4.13	-1.388707.E-03	-2.359205.E-03
315	4.14	-1.371898.E-03	-2.338225.E-03
316	4.15	-1.355277.E-03	-2.317219.E-03
317	4.16	-1.338845.E-03	-2.296199.E-03
318	4.17	-1.322600.E-03	-2.275176.E-03
319	4.18	-1.306542.E-03	-2.254163.E-03
320	4.19	-1.290669.E-03	-2.233169.E-03
321	4.20	-1.274981.E-03	-2.212204.E-03
322	4.21	-1.259477.E-03	-2.191278.E-03
323	4.22	-1.244155.E-03	-2.170399.E-03
324	4.23	-1.229015.E-03	-2.149575.E-03
325	4.24	-1.214054.E-03	-2.128816.E-03
326	4.25	-1.199273.E-03	-2.108127.E-03
327	4.26	-1.184668.E-03	-2.087516.E-03
328	4.27	-1.170240.E-03	-2.066989.E-03
329	4.28	-1.155987.E-03	-2.046553.E-03
330	4.29	-1.141907.E-03	-2.026212.E-03
331	4.30	-1.127999.E-03	-2.005974.E-03
332	4.31	-1.114261.E-03	-1.985842.E-03
333	4.32	-1.100692.E-03	-1.965821.E-03
334	4.33	-1.087291.E-03	-1.945916.E-03
335	4.34	-1.074055.E-03	-1.926131.E-03
336	4.35	-1.060984.E-03	-1.906469.E-03
337	4.36	-1.048075.E-03	-1.886934.E-03
338	4.37	-1.035328.E-03	-1.867530.E-03
339	4.38	-1.022740.E-03	-1.848259.E-03
340	4.39	-1.010309.E-03	-1.829124.E-03
341	4.40	-9.980354.E-04	-1.810128.E-03
342	4.41	-9.859162.E-04	-1.791273.E-03
343	4.42	-9.739499.E-04	-1.772561.E-03
344	4.43	-9.621351.E-04	-1.753994.E-03
345	4.44	-9.504699.E-04	-1.735575.E-03
346	4.45	-9.389530.E-04	-1.717303.E-03
347	4.46	-9.275824.E-04	-1.699182.E-03
348	4.47	-9.163567.E-04	-1.681213.E-03
349	4.48	-9.052743.E-04	-1.663395.E-03
350	4.49	-8.943334.E-04	-1.645731.E-03
351	4.50	-8.835324.E-04	-1.628221.E-03
352	4.51	-8.728698.E-04	-1.610867.E-03
353	4.52	-8.623439.E-04	-1.593667.E-03
354	4.53	-8.519531.E-04	-1.576624.E-03
355	4.54	-8.416958.E-04	-1.559738.E-03
356	4.55	-8.315704.E-04	-1.543008.E-03
357	4.56	-8.215754.E-04	-1.526435.E-03
358	4.57	-8.117091.E-04	-1.510018.E-03
359	4.58	-8.019700.E-04	-1.493759.E-03
360	4.59	-7.923565.E-04	-1.477657.E-03
361	4.60	-7.828671.E-04	-1.461712.E-03
362	4.61	-7.735003.E-04	-1.445923.E-03
363	4.62	-7.642544.E-04	-1.430290.E-03
364	4.63	-7.551281.E-04	-1.414813.E-03
365	4.64	-7.461198.E-04	-1.399491.E-03
366	4.65	-7.372280.E-04	-1.384324.E-03
367	4.66	-7.284513.E-04	-1.369311.E-03
368	4.67	-7.197882.E-04	-1.354452.E-03
369	4.68	-7.112372.E-04	-1.339747.E-03
370	4.69	-7.027969.E-04	-1.325193.E-03
371	4.70	-6.944659.E-04	-1.310791.E-03
372	4.71	-6.862428.E-04	-1.296540.E-03
373	4.72	-6.781261.E-04	-1.282439.E-03
374	4.73	-6.701145.E-04	-1.268487.E-03
375	4.74	-6.622067.E-04	-1.254683.E-03
376	4.75	-6.544012.E-04	-1.241026.E-03
377	4.76	-6.466968.E-04	-1.227516.E-03
378	4.77	-6.390921.E-04	-1.214151.E-03
379	4.78	-6.315858.E-04	-1.200930.E-03
380	4.79	-6.241766.E-04	-1.187853.E-03
381	4.80	-6.168632.E-04	-1.174918.E-03
382	4.81	-6.096443.E-04	-1.162125.E-03
383	4.82	-6.025188.E-04	-1.149471.E-03
384	4.83	-5.954853.E-04	-1.136956.E-03
385	4.84	-5.885427.E-04	-1.124580.E-03
386	4.85	-5.816896.E-04	-1.112340.E-03
387	4.86	-5.749250.E-04	-1.100236.E-03
388	4.87	-5.682477.E-04	-1.088266.E-03
389	4.88	-5.616564.E-04	-1.076430.E-03
390	4.89	-5.551500.E-04	-1.064725.E-03
391	4.90	-5.487275.E-04	-1.053152.E-03
392	4.91	-5.423875.E-04	-1.041709.E-03
393	4.92	-5.361292.E-04	-1.030394.E-03
394	4.93	-5.299512.E-04	-1.019207.E-03
395	4.94	-5.238527.E-04	-1.008145.E-03
396	4.95	-5.178324.E-04	-9.972093.E-04
397	4.96	-5.118893.E-04	-9.863970.E-04
398	4.97	-5.060224.E-04	-9.757073.E-04
399	4.98	-5.002307.E-04	-9.651391.E-04
400	4.99	-4.945131.E-04	-9.546910.E-04
401	5.00	-4.888687.E-04	-9.443620.E-04
402	5.01	-4.832964.E-04	-9.341508.E-04
403	5.02	-4.777952.E-04	-9.240562.E-04
404	5.03	-4.723643.E-04	-9.140771.E-04
405	5.04	-4.670026.E-04	-9.042121.E-04
406	5.05	-4.617092.E-04	-8.944603.E-04
407	5.06	-4.564832.E-04	-8.848202.E-04
408	5.07	-4.513236.E-04	-8.752909.E-04
409	5.08	-4.462296.E-04	-8.658711.E-04
410	5.09	-4.412003.E-04	-8.565596.E-04
411	5.10	-4.362347.E-04	-8.473552.E-04
412	5.11	-4.313320.E-04	-8.382569.E-04
413	5.12	-4.264915.E-04	-8.292634.E-04
414	5.13	-4.217121.E-04	-8.203737.E-04
415	5.14	-4.169931.E-04	-8.115865.E-04
416	5.15	-4.123337.E-04	-8.029008.E-04
417	5.16	-4.077330.E-04	-7.943154.E-04
418	5.17	-4.031903.E-04	-7.858292.E-04
419	5.18	-3.987047.E-04	-7.774410.E-04
420	5.19	-3.942756.E-04	-7.691499.E-04
421	5.20	-3.899020.E-04	-7.609547.E-04
422	5.21	-3.855833.E-04	-7.528543.E-04
423	5.22	-3.813188.E-04	-7.448476.E-04
424	5.23	-3.771076.E-04	-7.369336.E-04
425	5.24	-3.729491.E-04	-7.291112.E-04
426	5.25	-3.688425.E-04	-7.213793.E-04
427	5.26	-3.647871.E-04	-7.137370.E-04
428	5.27	-3.607823.E-04	-7.061831.E-04
429	5.28	-3.568274.E-04	-6.987167.E-04
430	5.29	-3.529216.E-04	-6.913368.E-04
431	5.30	-3.490643.E-04	-6.840423.E-04
432	5.31	-3.452549.E-04	-6.768322.E-04
433	5.32	-3.414927.E-04	-6.697056.E-04
434	5.33	-3.377771.E-04	-6.626615.E-04
435	5.34	-3.341074.E-04	-6.556988.E-04
436	5.35	-3.304830.E-04	-6.488168.E-04
437	5.36	-3.269034.E-04	-6.420143.E-04
438	5.37	-3.233678.E-04	-6.352905.E-04
439	5.38	-3.198757.E-04	-6.286444.E-04
440	5.39	-3.164266.E-04	-6.220751.E-04
441	5.40	-3.130198.E-04	-6.155817.E-04
442	5.41	-3.096547.E-04	-6.091633.E-04
443	5.42	-3.063309.E-04	-6.028189.E-04
444	5.43	-3.030477.E-04	-5.965478.E-04
445	5.44	-2.998046.E-04	-5.903491.E-04
446	5.45	-2.966011.E-04	-5.842218.E-04
447	5.46	-2.934366.E-04	-5.781651.E-04
448	5.47	-2.903107.E-04	-5.721782.E-04
449	5.48	-2.872227.E-04	-5.662602.E-04
450	5.49	-2.841722.E-04	-5.604104.E-04
451	5.50	-2.811587.E-04	-5.546278.E-04
452	5.51	-2.781817.E-04	-5.489117.E-04
453	5.52	-2.752407.E-04	-5.432612.E-04
454	5.53	-2.723352.E-04	-5.376757.E-04
455	5.54	-2.694648.E-04	-5.321542.E-04
456	5.55	-2.666289.E-04	-5.266960.E-04
457	5.56	-2.638272.E-04	-5.213004.E-04
458	5.57	-2.610591.E-04	-5.159667.E-04
459	5.58	-2.583242.E-04	-5.106939.E-04
460	5.59	-2.556222.E-04	-5.054815.E-04
461	5.60	-2.529524.E-04	-5.003286.E-04
462	5.61	-2.503146.E-04	-4.952346.E-04
463	5.62	-2.477082.E-04	-4.901987.E-04
464	5.63	-2.451330.E-04	-4.852203.E-04
465	5.64	-2.425884.E-04	-4.802986.E-04
466	5.65	-2.400740.E-04	-4.754330.E-04
467	5.66	-2.375895.E-04	-4.706227.E-04
468	5.67	-2.351345.E-04	-4.658671.E-04
469	5.68	-2.327085.E-04	-4.611656.E-04
470	5.69	-2.303113.E-04	-4.565174.E-04
471	5.70	-2.279423.E-04	-4.519219.E-04
472	5.71	-2.256013.E-04	-4.473786.E-04
473	5.72	-2.232879.E-04	-4.428867.E-04
474	5.73	-2.210017.E-04	-4.384456.E-04
475	5.74	-2.187423.E-04	-4.340547.E-04
476	5.75	-2.165095.E-04	-4.297134.E-04
477	5.76	-2.143028.E-04	-4.254210.E-04
478	5.77	-2.121219.E-04	-4.211771.E-04
479	5.78	-2.099665.E-04	-4.169810.E-04
480	5.79	-2.078363.E-04	-4.128321.E-04
481	5.80	-2.057309.E-04	-4.087299.E-04
482	5.81	-2.036500.E-04	-4.046737.E-04
483	5.82	-2.015933.E-04	-4.006631.E-04
484	5.83	-1.995604.E-04	-3.966974.E-04
485	5.84	-1.975511.E-04	-3.927762.E-04
486	5.85	-1.955651.E-04	-3.888988.E-04
487	5.86	-1.936020.E-04	-3.850648.E-04
488	5.87	-1.916616.E-04	-3.812736.E-04
489	5.88	-1.897435.E-04	-3.775247.E-04
490	5.89	-1.878475.E-04	-3.738176.E-04
491	5.90	-1.859733.E-04	-3.701518.E-04
492	5.91	-1.841207.E-04	-3.665267.E-04
493	5.92	-1.822892.E-04	-3.629420.E-04
494	5.93	-1.804787.E-04	-3.593970.E-04
495	5.94	-1.786890.E-04	-3.558914.E-04
496	5.95	-1.769196.E-04	-3.524246.E-04
497	5.96	-1.751704.E-04	-3.489961.E-04
498	5.97	-1.734412.E-04	-3.456056.E-04
499	5.98	-1.717316.E-04	-3.422525.E-04
500	5.99	-1.700414.E-04	-3.389364.E-04
501	6.00	-1.683703.E-04	-3.356569.E-04
502	6.01	-1.667182.E-04	-3.324134.E-04
503	6.02	-1.650848.E-04	-3.292057.E-04
504	6.03	-1.634698.E-04	-3.260331.E-04
505	6.04	-1.618730.E-04	-3.228954.E-04
506	6.05	-1.602942.E-04	-3.197921.E-04
507	6.06	-1.587331.E-04	-3.167228.E-04
508	6.07	-1.571896.E-04	-3.136870.E-04
509	6.08	-1.556633.E-04	-3.106844.E-04
510	6.09	-1.541542.E-04	-3.077146.E-04
511	6.10	-1.526619.E-04	-3.047771.E-04
512	6.11	-1.511863.E-04	-3.018717.E-04
513	6.12	-1.497272.E-04	-2.989978.E-04
514	6.13	-1.482843.E-04	-2.961552.E-04
515	6.14	-1.468574.E-04	-2.933434.E-04
516	6.15	-1.454464.E-04	-2.905621.E-04
517	6.16	-1.440510.E-04	-2.878109.E-04
518	6.17	-1.426710.E-04	-2.850895.E-04
519	6.18	-1.413064.E-04	-2.823974.E-04
520	6.19	-1.399568.E-04	-2.797345.E-04
521	6.20	-1.386220.E-04	-2.771002.E-04
522	6.21	-1.373020.E-04	-2.744943.E-04
523	6.22	-1.359965.E-04	-2.719164.E-04
524	6.23	-1.347053.E-04	-2.693662.E-04
525	6.24	-1.334283.E-04	-2.668434.E-04
526	6.25	-1.321652.E-04	-2.643476.E-04
527	6.26	-1.309160.E-04	-2.618785.E-04
528	6.27	-1.296804.E-04	-2.594358.E-04
529	6.28	-1.284583.E-04	-2.570192.E-04
530	6.29	-1.272495.E-04	-2.546284.E-04
531	6.30	-1.260538.E-04	-2.522630.E-04
532	6.31	-1.248711.E-04	-2.499228.E-04
533	6.32	-1.237013.E-04	-2.476075.E-04
534	6.33	-1.225441.E-04	-2.453168.E-04
535	6.34	-1.213994.E-04	-2.430504.E-04
536	6.35	-1.202670.E-04	-2.408079.E-04
537	6.36	-1.191469.E-04	-2.385892.E-04
538	6.37	-1.180389.E-04	-2.363939.E-04
539	6.38	-1.169427.E-04	-2.342218.E-04
540	6.39	-1.158584.E-04	-2.320726.E-04
541	6.40	-1.147856.E-04	-2.299460.E-04
542	6.41	-1.137244.E-04	-2.278418.E-04
543	6.42	-1.126745.E-04	-2.257597.E-04
544	6.43	-1.116358.E-04	-2.236994.E-04
545	6.44	-1.106081.E-04	-2.216607.E-04
546	6.45	-1.095915.E-04	-2.196434.E-04
547	6.46	-1.085856.E-04	-2.176471.E-04
548	6.47	-1.075904.E-04	-2.156716.E-04
549	6.48	-1.066058.E-04	-2.137168.E-04
550	6.49	-1.056316.E-04	-2.117823.E-04
551	6.50	-1.046677.E-04	-2.098679.E-04
552	6.51	-1.037140.E-04	-2.079735.E-04
553	6.52	-1.027703.E-04	-2.060986.E-04
554	6.53	-1.018366.E-04	-2.042432.E-04
555	6.54	-1.009127.E-04	-2.024070.E-04
556	6.55	-9.999847.E-05	-2.005898.E-04
557	6.56	-9.909386.E-05	-1.987914.E-04
558	6.57	-9.819872.E-05	-1.970115.E-04
559	6.58	-9.731294.E-05	-1.952499.E-04
560	6.59	-9.643642.E-05	-1.935065.E-04
561	6.60	-9.556903.E-05	-1.917809.E-04
562	6.61	-9.471069.E-05	-1.900731.E-04
563	6.62	-9.386126.E-05	-1.883828.E-04
564	6.63	-9.302067.E-05	-1.867097.E-04
565	6.64	-9.218879.E-05	-1.850538.E-04
566	6.65	-9.136553.E-05	-1.834148.E-04
567	6.66	-9.055078.E-05	-1.817925.E-04
568	6.67	-8.974446.E-05	-1.801867.E-04
569	6.68	-8.894645.E-05	-1.785973.E-04
570	6.69	-8.815666.E-05	-1.770240.E-04
571	6.70	-8.737499.E-05	-1.754667.E-04
572	6.71	-8.660136.E-05	-1.739252.E-04
573	6.72	-8.583567.E-05	-1.723992.E-04
574	6.73	-8.507782.E-05	-1.708887.E-04
575	6.74	-8.432772.E-05	-1.693935.E-04
576	6.75	-8.358529.E-05	-1.679133.E-04
577	6.76	-8.285044.E-05	-1.664480.E-04
578	6.77	-8.212307.E-05	-1.649975.E-04
579	6.78	-8.140310.E-05	-1.635616.E-04
580	6.79	-8.069045.E-05	-1.621400.E-04
581	6.80	-7.998504.E-05	-1.607327.E-04
582	6.81	-7.928677.E-05	-1.593395.E-04
583	6.82	-7.859557.E-05	-1.579602.E-04
584	6.83	-7.791136.E-05	-1.565947.E-04
585	6.84	-7.723405.E-05	-1.552429.E-04
586	6.85	-7.656357.E-05	-1.539044.E-04
587	6.86	-7.589984.E-05	-1.525793.E-04
588	6.87	-7.524278.E-05	-1.512674.E-04
589	6.88	-7.459232.E-05	-1.499685.E-04
590	6.89	-7.394838.E-05	-1.486824.E-04
591	6.90	-7.331088.E-05	-1.474091.E-04
592	6.91	-7.267976.E-05	-1.461484.E-04
593	6.92	-7.205494.E-05	-1.449001.E-04
594	6.93	-7.143636.E-05	-1.436641.E-04
595	6.94	-7.082393.E-05	-1.424403.E-04
596	6.95	-7.021759.E-05	-1.412286.E-04
597	6.96	-6.961728.E-05	-1.400287.E-04
598	6.97	-6.902291.E-05	-1.388407.E-04
599	6.98	-6.843444.E-05	-1.376642.E-04
600	6.99	-6.785179.E-05	-1.364993.E-04
601	7.00	-6.727489.E-05	-1.353458.E-04
602	7.01	-6.670368.E-05	-1.342035.E-04
603	7.02	-6.613810.E-05	-1.330724.E-04
604	7.03	-6.557809.E-05	-1.319523.E-04
605	7.04	-6.502358.E-05	-1.308430.E-04
606	7.05	-6.447451.E-05	-1.297446.E-04
607	7.06	-6.393082.E-05	-1.286568.E-04
608	7.07	-6.339245.E-05	-1.275796.E-04
609	7.08	-6.285934.E-05	-1.265128.E-04
610	7.09	-6.233144.E-05	-1.254563.E-04
611	7.10	-6.180868.E-05	-1.244100.E-04
612	7.11	-6.129101.E-05	-1.233738.E-04
613	7.12	-6.077838.E-05	-1.223475.E-04
614	7.13	-6.027072.E-05	-1.213312.E-04
615	7.14	-5.976798.E-05	-1.203246.E-04
616	7.15	-5.927011.E-05	-1.193276.E-04
617	7.16	-5.877706.E-05	-1.183402.E-04
618	7.17	-5.828877.E-05	-1.173623.E-04
619	7.18	-5.780519.E-05	-1.163937.E-04
620	7.19	-5.732626.E-05	-1.154344.E-04
621	7.20	-5.685194.E-05	-1.144842.E-04
622	7.21	-5.638218.E-05	-1.135431.E-04
623	7.22	-5.591693.E-05	-1.126109.E-04
624	7.23	-5.545613.E-05	-1.116875.E-04
625	7.24	-5.499975.E-05	-1.107730.E-04
626	7.25	-5.454772.E-05	-1.098671.E-04
627	7.26	-5.410001.E-05	-1.089697.E-04
628	7.27	-5.365657.E-05	-1.080809.E-04
629	7.28	-5.321735.E-05	-1.072004.E-04
630	7.29	-5.278231.E-05	-1.063283.E-04
631	7.30	-5.235139.E-05	-1.054643.E-04
632	7.31	-5.192456.E-05	-1.046085.E-04
633	7.32	-5.150177.E-05	-1.037608.E-04
634	7.33	-5.108299.E-05	-1.029209.E-04
635	7.34	-5.066815.E-05	-1.020890.E-04
636	7.35	-5.025723.E-05	-1.012648.E-04
637	7.36	-4.985019.E-05	-1.004484.E-04
638	7.37	-4.944697.E-05	-9.963955.E-05
639	7.38	-4.904754.E-05	-9.883827.E-05
640	7.39	-4.865186.E-05	-9.804444.E-05
641	7.40	-4.825988.E-05	-9.725800.E-05
642	7.41	-4.787158.E-05	-9.647887.E-05
643	7.42	-4.748691.E-05	-9.570697.E-05
644	7.43	-4.710582.E-05	-9.494222.E-05
645	7.44	-4.672829.E-05	-9.418456.E-05
646	7.45	-4.635428.E-05	-9.343390.E-05
647	7.46	-4.598375.E-05	-9.269017.E-05
648	7.47	-4.561665.E-05	-9.195330.E-05
649	7.48	-4.525296.E-05	-9.122321.E-05
650	7.49	-4.489264.E-05	-9.049985.E-05
651	7.50	-4.453566.E-05	-8.978313.E-05
652	7.51	-4.418197.E-05	-8.907299.E-05
653	7.52	-4.383155.E-05	-8.836936.E-05
654	7.53	-4.348436.E-05	-8.767217.E-05
655	7.54	-4.314036.E-05	-8.698136.E-05
656	7.55	-4.279953.E-05	-8.629686.E-05
657	7.56	-4.246183.E-05	-8.561860.E-05
658	7.57	-4.212722.E-05	-8.494652.E-05
659	7.58	-4.179568.E-05	-8.428056.E-05
660	7.59	-4.146717.E-05	-8.362065.E-05
661	7.60	-4.114166.E-05	-8.296673.E-05
662	7.61	-4.081912.E-05	-8.231874.E-05
663	7.62	-4.049952.E-05	-8.167662.E-05
664	7.63	-4.018283.E-05	-8.104030.E-05
665	7.64	-3.986902.E-05	-8.040974.E-05
666	7.65	-3.955806.E-05	-7.978486.E-05
667	7.66	-3.924991.E-05	-7.916562.E-05
668	7.67	-3.894456.E-05	-7.855195.E-05
669	7.68	-3.864197.E-05	-7.794380.E-05
670	7.69	-3.834211.E-05	-7.734110.E-05
671	7.70	-3.804496.E-05	-7.674382.E-05
672	7.71	-3.775048.E-05	-7.615188.E-05
673	7.72	-3.745866.E-05	-7.556524.E-05
674	7.73	-3.716945.E-05	-7.498384.E-05
675	7.74	-3.688285.E-05	-7.440763.E-05
676	7.75	-3.659881.E-05	-7.383656.E-05
677	7.76	-3.631731.E-05	-7.327057.E-05
678	7.77	-3.603834.E-05	-7.270962.E-05
679	7.78	-3.576185.E-05	-7.215364.E-05
680	7.79	-3.548784.E-05	-7.160261.E-05
681	7.80	-3.521626.E-05	-7.105645.E-05
682	7.81	-3.494710.E-05	-7.051513.E-05
683	7.82	-3.468033.E-05	-6.997859.E-05
684	7.83	-3.441593.E-05	-6.944679.E-05
685	7.84	-3.415387.E-05	-6.891968.E-05
686	7.85	-3.389414.E-05	-6.839722.E-05
687	7.86	-3.363670.E-05	-6.787935.E-05
688	7.87	-3.338153.E-05	-6.736603.E-05
689	7.88	-3.312862.E-05	-6.685721.E-05
690	7.89	-3.287794.E-05	-6.635286.E-05
691	7.90	-3.262946.E-05	-6.585292.E-05
692	7.91	-3.238316.E-05	-6.535736.E-05
693	7.92	-3.213903.E-05	-6.486612.E-05
694	7.93	-3.189704.E-05	-6.437917.E-05
695	7.94	-3.165717.E-05	-6.389647.E-05
696	7.95	-3.141939.E-05	-6.341796.E-05
697	7.96	-3.118369.E-05	-6.294362.E-05
698	7.97	-3.095005.E-05	-6.247339.E-05
699	7.98	-3.071845.E-05	-6.200724.E-05
700	7.99	-3.048886.E-05	-6.154514.E-05
701	8.00	-3.026127.E-05	-6.108703.E-05
702	8.01	-3.003565.E-05	-6.063287.E-05
703	8.02	-2.981199.E-05	-6.018264.E-05
704	8.03	-2.959027.E-05	-5.973630.E-05
705	8.04	-2.937046.E-05	-5.929379.E-05
706	8.05	-2.915256.E-05	-5.885509.E-05
707	8.06	-2.893653.E-05	-5.842016.E-05
708	8.07	-2.872237.E-05	-5.798897.E-05
709	8.08	-2.851005.E-05	-5.756147.E-05
710	8.09	-2.829956.E-05	-5.713763.E-05
711	8.10	-2.809088.E-05	-5.671741.E-05
712	8.11	-2.788398.E-05	-5.630079.E-05
713	8.12	-2.767886.E-05	-5.588771.E-05
714	8.13	-2.747550.E-05	-5.547816.E-05
715	8.14	-2.727387.E-05	-5.507210.E-05
716	8.15	-2.707396.E-05	-5.466948.E-05
717	8.16	-2.687576.E-05	-5.427029.E-05
718	8.17	-2.667925.E-05	-5.387448.E-05
719	8.18	-2.648441.E-05	-5.348203.E-05
720	8.19	-2.629122.E-05	-5.309289.E-05
721	8.20	-2.609967.E-05	-5.270705.E-05
722	8.21	-2.590975.E-05	-5.232446.E-05
723	8.22	-2.572144.E-05	-5.194510.E-05
724	8.23	-2.553472.E-05	-5.156894.E-05
725	8.24	-2.534957.E-05	-5.119594.E-05
726	8.25	-2.516599.E-05	-5.082607.E-05
727	8.26	-2.498395.E-05	-5.045931.E-05
728	8.27	-2.480345.E-05	-5.009562.E-05
729	8.28	-2.462447.E-05	-4.973498.E-05
730	8.29	-2.444698.E-05	-4.937736.E-05
731	8.30	-2.427099.E-05	-4.902272.E-05
732	8.31	-2.409647.E-05	-4.867105.E-05
733	8.32	-2.392341.E-05	-4.832230.E-05
734	8.33	-2.375180.E-05	-4.797646.E-05
735	8.34	-2.358162.E-05	-4.763350.E-05
736	8.35	-2.341285.E-05	-4.729338.E-05
737	8.36	-2.324550.E-05	-4.695609.E-05
738	8.37	-2.307953.E-05	-4.662160.E-05
739	8.38	-2.291495.E-05	-4.628987.E-05
740	8.39	-2.275173.E-05	-4.596088.E-05
741	8.40	-2.258986.E-05	-4.563462.E-05
742	8.41	-2.242934.E-05	-4.531104.E-05
743	8.42	-2.227014.E-05	-4.499013.E-05
744	8.43	-2.211226.E-05	-4.467187.E-05
745	8.44	-2.195568.E-05	-4.435622.E-05
746	8.45	-2.180039.E-05	-4.404316.E-05
747	8.46	-2.164638.E-05	-4.373267.E-05
748	8.47	-2.149363.E-05	-4.342473.E-05
749	8.48	-2.134214.E-05	-4.311930.E-05
750	8.49	-2.119189.E-05	-4.281638.E-05
751	8.50	-2.104288.E-05	-4.251592.E-05
752	8.51	-2.089508.E-05	-4.221792.E-05
753	8.52	-2.074849.E-05	-4.192235.E-05
754	8.53	-2.060310.E-05	-4.162918.E-05
755	8.54	-2.045889.E-05	-4.133840.E-05
756	8.55	-2.031586.E-05	-4.104997.E-05
757	8.56	-2.017399.E-05	-4.076389.E-05
758	8.57	-2.003328.E-05	-4.048012.E-05
759	8.58	-1.989371.E-05	-4.019865.E-05
760	8.59	-1.975527.E-05	-3.991946.E-05
761	8.60	-1.961795.E-05	-3.964252.E-05
762	8.61	-1.948174.E-05	-3.936782.E-05
763	8.62	-1.934664.E-05	-3.909533.E-05
764	8.63	-1.921262.E-05	-3.882503.E-05
765	8.64	-1.907969.E-05	-3.855690.E-05
766	8.65	-1.894782.E-05	-3.829093.E-05
767	8.66	-1.881702.E-05	-3.802709.E-05
768	8.67	-1.868727.E-05	-3.776537.E-05
769	8.68	-1.855856.E-05	-3.750574.E-05
770	8.69	-1.843088.E-05	-3.724818.E-05
771	8.70	-1.830422.E-05	-3.699268.E-05
772	8.71	-1.817858.E-05	-3.673922.E-05
773	8.72	-1.805394.E-05	-3.648778.E-05
774	8.73	-1.793030.E-05	-3.623835.E-05
775	8.74	-1.780764.E-05	-3.599089.E-05
776	8.75	-1.768596.E-05	-3.574540.E-05
777	8.76	-1.756525.E-05	-3.550186.E-05
778	8.77	-1.744549.E-05	-3.526024.E-05
779	8.78	-1.732669.E-05	-3.502054.E-05
780	8.79	-1.720883.E-05	-3.478274.E-05
781	8.80	-1.709190.E-05	-3.454681.E-05
782	8.81	-1.697590.E-05	-3.431274.E-05
783	8.82	-1.686081.E-05	-3.408052.E-05
784	8.83	-1.674663.E-05	-3.385013.E-05
785	8.84	-1.663336.E-05	-3.362154.E-05
786	8.85	-1.652097.E-05	-3.339476.E-05
787	8.86	-1.640947.E-05	-3.316975.E-05
788	8.87	-1.629884.E-05	-3.294651.E-05
789	8.88	-1.618909.E-05	-3.272501.E-05
790	8.89	-1.608019.E-05	-3.250525.E-05
791	8.90	-1.597215.E-05	-3.228720.E-05
792	8.91	-1.586495.E-05	-3.207085.E-05
793	8.92	-1.575859.E-05	-3.185620.E-05
794	8.93	-1.565306.E-05	-3.164321.E-05
795	8.94	-1.554835.E-05	-3.143188.E-05
796	8.95	-1.544446.E-05	-3.122219.E-05
797	8.96	-1.534138.E-05	-3.101413.E-05
798	8.97	-1.523909.E-05	-3.080768.E-05
799	8.98	-1.513760.E-05	-3.060283.E-05
800	8.99	-1.503690.E-05	-3.039956.E-05
801	9.00	-1.493698.E-05	-3.019787.E-05
802	9.01	-1.483783.E-05	-2.999773.E-05
803	9.02	-1.473945.E-05	-2.979913.E-05
804	9.03	-1.464183.E-05	-2.960207.E-05
805	9.04	-1.454496.E-05	-2.940652.E-05
806	9.05	-1.444884.E-05	-2.921247.E-05
807	9.06	-1.435346.E-05	-2.901992.E-05
808	9.07	-1.425881.E-05	-2.882884.E-05
809	9.08	-1.416488.E-05	-2.863922.E-05
810	9.09	-1.407168.E-05	-2.845106.E-05
811	9.10	-1.397919.E-05	-2.826433.E-05
812	9.11	-1.388741.E-05	-2.807903.E-05
813	9.12	-1.379633.E-05	-2.789515.E-05
814	9.13	-1.370595.E-05	-2.771266.E-05
815	9.14	-1.361626.E-05	-2.753157.E-05
816	9.15	-1.352724.E-05	-2.735185.E-05
817	9.16	-1.343891.E-05	-2.717350.E-05
818	9.17	-1.335125.E-05	-2.699650.E-05
819	9.18	-1.326426.E-05	-2.682084.E-05
820	9.19	-1.317792.E-05	-2.664651.E-05
821	9.20	-1.309224.E-05	-2.647350.E-05
822	9.21	-1.300721.E-05	-2.630180.E-05
823	9.22	-1.292282.E-05	-2.613139.E-05
824	9.23	-1.283907.E-05	-2.596227.E-05
825	9.24	-1.275595.E-05	-2.579442.E-05
826	9.25	-1.267346.E-05	-2.562783.E-05
827	9.26	-1.259159.E-05	-2.546250.E-05
828	9.27	-1.251034.E-05	-2.529841.E-05
829	9.28	-1.242969.E-05	-2.513555.E-05
830	9.29	-1.234965.E-05	-2.497391.E-05
831	9.30	-1.227021.E-05	-2.481347.E-05
832	9.31	-1.219137.E-05	-2.465424.E-05
833	9.32	-1.211312.E-05	-2.449620.E-05
834	9.33	-1.203545.E-05	-2.433934.E-05
835	9.34	-1.195836.E-05	-2.418364.E-05
836	9.35	-1.188185.E-05	-2.402911.E-05
837	9.36	-1.180591.E-05	-2.387572.E-05
838	9.37	-1.173053.E-05	-2.372347.E-05
839	9.38	-1.165571.E-05	-2.357236.E-05
840	9.39	-1.158145.E-05	-2.342236.E-05
841	9.40	-1.150774.E-05	-2.327348.E-05
842	9.41	-1.143458.E-05	-2.312569.E-05
843	9.42	-1.136195.E-05	-2.297900.E-05
844	9.43	-1.128987.E-05	-2.283339.E-05
845	9.44	-1.121832.E-05	-2.268886.E-05
846	9.45	-1.114729.E-05	-2.254539.E-05
847	9.46	-1.107679.E-05	-2.240298.E-05
848	9.47	-1.100681.E-05	-2.226161.E-05
849	9.48	-1.093735.E-05	-2.212128.E-05
850	9.49	-1.086839.E-05	-2.198199.E-05
851	9.50	-1.079994.E-05	-2.184371.E-05
852	9.51	-1.073200.E-05	-2.170644.E-05
853	9.52	-1.066455.E-05	-2.157018.E-05
854	9.53	-1.059759.E-05	-2.143492.E-05
855	9.54	-1.053113.E-05	-2.130064.E-05
856	9.55	-1.046515.E-05	-2.116734.E-05
857	9.56	-1.039965.E-05	-2.103502.E-05
858	9.57	-1.033463.E-05	-2.090365.E-05
859	9.58	-1.027008.E-05	-2.077324.E-05
860	9.59	-1.020600.E-05	-2.064378.E-05
861	9.60	-1.014239.E-05	-2.051526.E-05
862	9.61	-1.007924.E-05	-2.038767.E-05
863	9.62	-1.001655.E-05	-2.026100.E-05
864	9.63	-9.954313.E-06	-2.013525.E-05
865	9.64	-9.892525.E-06	-2.001041.E-05
866	9.65	-9.831185.E-06	-1.988647.E-05
867	9.66	-9.770287.E-06	-1.976342.E-05
868	9.67	-9.709829.E-06	-1.964126.E-05
869	9.68	-9.649807.E-06	-1.951998.E-05
870	9.69	-9.590217.E-06	-1.939956.E-05
871	9.70	-9.531055.E-06	-1.928002.E-05
872	9.71	-9.472319.E-06	-1.916133.E-05
873	9.72	-9.414004.E-06	-1.904349.E-05
874	9.73	-9.356108.E-06	-1.892650.E-05
875	9.74	-9.298626.E-06	-1.881034.E-05
876	9.75	-9.241556.E-06	-1.869502.E-05
877	9.76	-9.184894.E-06	-1.858051.E-05
878	9.77	-9.128637.E-06	-1.846683.E-05
879	9.78	-9.072781.E-06	-1.835395.E-05
880	9.79	-9.017323.E-06	-1.824188.E-05
881	9.80	-8.962260.E-06	-1.813060.E-05
882	9.81	-8.907588.E-06	-1.802011.E-05
883	9.82	-8.853305.E-06	-1.791041.E-05
884	9.83	-8.799408.E-06	-1.780149.E-05
885	9.84	-8.745893.E-06	-1.769333.E-05
886	9.85	-8.692757.E-06	-1.758595.E-05
887	9.86	-8.639997.E-06	-1.747932.E-05
888	9.87	-8.587610.E-06	-1.737344.E-05
889	9.88	-8.535593.E-06	-1.726831.E-05
890	9.89	-8.483943.E-06	-1.716392.E-05
891	9.90	-8.432658.E-06	-1.706027.E-05
892	9.91	-8.381733.E-06	-1.695734.E-05
893	9.92	-8.331167.E-06	-1.685514.E-05
894	9.93	-8.280956.E-06	-1.675365.E-05
895	9.94	-8.231098.E-06	-1.665288.E-05
896	9.95	-8.181590.E-06	-1.655281.E-05
897	9.96	-8.132428.E-06	-1.645345.E-05
898	9.97	-8.083610.E-06	-1.635477.E-05
899	9.98	-8.035134.E-06	-1.625679.E-05
900	9.99	-7.986997.E-06	-1.615949.E-05
901	10.00	-7.939196.E-06	-1.606287.E-05
902	10.01	-7.891728.E-06	-1.596692.E-05
903	10.02	-7.844590.E-06	-1.587164.E-05
904	10.03	-7.797781.E-06	-1.577702.E-05
905	10.04	-7.751297.E-06	-1.568305.E-05
906	10.05	-7.705136.E-06	-1.558974.E-05
907	10.06	-7.659295.E-06	-1.549708.E-05
908	10.07	-7.613772.E-06	-1.540506.E-05
909	10.08	-7.568564.E-06	-1.531367.E-05
910	10.09	-7.523669.E-06	-1.522291.E-05
911	10.10	-7.479084.E-06	-1.513278.E-05
912	10.11	-7.434807.E-06	-1.504328.E-05
913	10.12	-7.390835.E-06	-1.495439.E-05
914	10.13	-7.347166.E-06	-1.486611.E-05
915	10.14	-7.303798.E-06	-1.477843.E-05
916	10.15	-7.260729.E-06	-1.469136.E-05
917	10.16	-7.217955.E-06	-1.460489.E-05
918	10.17	-7.175474.E-06	-1.451901.E-05
919	10.18	-7.133285.E-06	-1.443372.E-05
920	10.19	-7.091386.E-06	-1.434901.E-05
921	10.20	-7.049772.E-06	-1.426488.E-05
922	10.21	-7.008444.E-06	-1.418133.E-05
923	10.22	-6.967397.E-06	-1.409834.E-05
924	10.23	-6.926631.E-06	-1.401592.E-05
925	10.24	-6.886143.E-06	-1.393406.E-05
926	10.25	-6.845930.E-06	-1.385276.E-05
927	10.26	-6.805991.E-06	-1.377201.E-05
928	10.27	-6.766323.E-06	-1.369181.E-05
929	10.28	-6.726925.E-06	-1.361216.E-05
930	10.29	-6.687794.E-06	-1.353304.E-05
931	10.30	-6.648929.E-06	-1.345446.E-05
932	10.31	-6.610326.E-06	-1.337641.E-05
933	10.32	-6.571985.E-06	-1.329889.E-05
934	10.33	-6.533903.E-06	-1.322189.E-05
935	10.34	-6.496077.E-06	-1.314541.E-05
936	10.35	-6.458508.E-06	-1.306944.E-05
937	10.36	-6.421191.E-06	-1.299399.E-05
938	10.37	-6.384125.E-06	-1.291904.E-05
939	10.38	-6.347309.E-06	-1.284460.E-05
940	10.39	-6.310740.E-06	-1.277066.E-05
941	10.40	-6.274417.E-06	-1.269721.E-05
942	10.41	-6.238337.E-06	-1.262426.E-05
943	10.42	-6.202499.E-06	-1.255179.E-05
944	10.43	-6.166901.E-06	-1.247981.E-05
945	10.44	-6.131541.E-06	-1.240830.E-05
946	10.45	-6.096417.E-06	-1.233728.E-05
947	10.46	-6.061528.E-06	-1.226673.E-05
948	10.47	-6.026871.E-06	-1.219665.E-05
949	10.48	-5.992445.E-06	-1.212703.E-05
950	10.49	-5.958248.E-06	-1.205788.E-05
951	10.50	-5.924279.E-06	-1.198919.E-05
952	10.51	-5.890535.E-06	-1.192095.E-05
953	10.52	-5.857016.E-06	-1.185317.E-05
954	10.53	-5.823718.E-06	-1.178584.E-05
955	10.54	-5.790642.E-06	-1.171895.E-05
956	10.55	-5.757784.E-06	-1.165250.E-05
957	10.56	-5.725143.E-06	-1.158649.E-05
958	10.57	-5.692718.E-06	-1.152092.E-05
959	10.58	-5.660507.E-06	-1.145578.E-05
960	10.59	-5.628508.E-06	-1.139106.E-05
961	10.60	-5.596720.E-06	-1.132678.E-05
962	10.61	-5.565142.E-06	-1.126292.E-05
963	10.62	-5.533771.E-06	-1.119947.E-05
964	10.63	-5.502606.E-06	-1.113644.E-05
965	10.64	-5.471645.E-06	-1.107383.E-05
966	10.65	-5.440888.E-06	-1.101163.E-05
967	10.66	-5.410332.E-06	-1.094983.E-05
968	10.67	-5.379976.E-06	-1.088844.E-05
969	10.68	-5.349818.E-06	-1.082744.E-05
970	10.69	-5.319857.E-06	-1.076685.E-05
971	10.70	-5.290092.E-06	-1.070665.E-05
972	10.71	-5.260521.E-06	-1.064684.E-05
973	10.72	-5.231143.E-06	-1.058743.E-05
974	10.73	-5.201956.E-06	-1.052840.E-05
975	10.74	-5.172958.E-06	-1.046975.E-05
976	10.75	-5.144149.E-06	-1.041148.E-05
977	10.76	-5.115527.E-06	-1.035359.E-05
978	10.77	-5.087091.E-06	-1.029608.E-05
979	10.78	-5.058838.E-06	-1.023893.E-05
980	10.79	-5.030769.E-06	-1.018216.E-05
981	10.80	-5.002881.E-06	-1.012575.E-05
982	10.81	-4.975173.E-06	-1.006971.E-05
983	10.82	-4.947644.E-06	-1.001403.E-05
984	10.83	-4.920293.E-06	-9.958709.E-06
985	10.84	-4.893118.E-06	-9.903742.E-06
986	10.85	-4.866117.E-06	-9.849130.E-06
987	10.86	-4.839291.E-06	-9.794868.E-06
988	10.87	-4.812636.E-06	-9.740954.E-06
989	10.88	-4.786153.E-06	-9.687386.E-06
990	10.89	-4.759839.E-06	-9.634162.E-06
991	10.90	-4.733695.E-06	-9.581278.E-06
992	10.91	-4.707717.E-06	-9.528732.E-06
993	10.92	-4.681906.E-06	-9.476522.E-06
994	10.93	-4.656259.E-06	-9.424645.E-06
995	10.94	-4.630776.E-06	-9.373099.E-06
996	10.95	-4.605456.E-06	-9.321882.E-06
997	10.96	-4.580297.E-06	-9.270990.E-06
998	10.97	-4.555299.E-06	-9.220423.E-06
999	10.98	-4.530459.E-06	-9.170176.E-06
1000	10.99	-4.505777.E-06	-9.120249.E-06
1001	11.00	-4.481252.E-06	-9.070638.E-06
1002	11.01	-4.456882.E-06	-9.021342.E-06
1003	11.02	-4.432667.E-06	-8.972358.E-06
1004	11.03	-4.408605.E-06	-8.923684.E-06
1005	11.04	-4.384696.E-06	-8.875317.E-06
1006	11.05	-4.360937.E-06	-8.827256.E-06
1007	11.06	-4.337329.E-06	-8.779498.E-06
1008	11.07	-4.313869.E-06	-8.732041.E-06
1009	11.08	-4.290558.E-06	-8.684883.E-06
1010	11.09	-4.267393.E-06	-8.638022.E-06
1011	11.10	-4.244374.E-06	-8.591455.E-06
1012	11.11	-4.221499.E-06	-8.545181.E-06
1013	11.12	-4.198769.E-06	-8.499197.E-06
1014	11.13	-4.176181.E-06	-8.453502.E-06
1015	11.14	-4.153734.E-06	-8.408092.E-06
1016	11.15	-4.131428.E-06	-8.362967.E-06
1017	11.16	-4.109262.E-06	-8.318124.E-06
1018	11.17	-4.087234.E-06	-8.273562.E-06
1019	11.18	-4.065344.E-06	-8.229277.E-06
1020	11.19	-4.043591.E-06	-8.185269.E-06
1021	11.20	-4.021973.E-06	-8.141535.E-06
1022	11.21	-4.000490.E-06	-8.098073.E-06
1023	11.22	-3.979141.E-06	-8.054881.E-06
1024	11.23	-3.957924.E-06	-8.011958.E-06
1025	11.24	-3.936840.E-06	-7.969301.E-06
1026	11.25	-3.915886.E-06	-7.926909.E-06
1027	11.26	-3.895062.E-06	-7.884780.E-06
1028	11.27	-3.874367.E-06	-7.842912.E-06
1029	11.28	-3.853801.E-06	-7.801302.E-06
1030	11.29	-3.833361.E-06	-7.759950.E-06
1031	11.30	-3.813048.E-06	-7.718853.E-06
1032	11.31	-3.792861.E-06	-7.678010.E-06
1033	11.32	-3.772798.E-06	-7.637419.E-06
1034	11.33	-3.752858.E-06	-7.597078.E-06
1035	11.34	-3.733042.E-06	-7.556985.E-06
1036	11.35	-3.713347.E-06	-7.517138.E-06
1037	11.36	-3.693774.E-06	-7.477537.E-06
1038	11.37	-3.674320.E-06	-7.438178.E-06
1039	11.38	-3.654987.E-06	-7.399061.E-06
1040	11.39	-3.635771.E-06	-7.360184.E-06
1041	11.40	-3.616674.E-06	-7.321544.E-06
1042	11.41	-3.597693.E-06	-7.283141.E-06
1043	11.42	-3.578829.E-06	-7.244973.E-06
1044	11.43	-3.560079.E-06	-7.207038.E-06
1045	11.44	-3.541445.E-06	-7.169334.E-06
1046	11.45	-3.522924.E-06	-7.131860.E-06
1047	11.46	-3.504515.E-06	-7.094614.E-06
1048	11.47	-3.486219.E-06	-7.057595.E-06
1049	11.48	-3.468035.E-06	-7.020801.E-06
1050	11.49	-3.449960.E-06	-6.984231.E-06
1051	11.50	-3.431996.E-06	-6.947882.E-06
1052	11.51	-3.414141.E-06	-6.911754.E-06
1053	11.52	-3.396394.E-06	-6.875845.E-06
1054	11.53	-3.378754.E-06	-6.840153.E-06
1055	11.54	-3.361221.E-06	-6.804677.E-06
1056	11.55	-3.343794.E-06	-6.769416.E-06
1057	11.56	-3.326473.E-06	-6.734367.E-06
1058	11.57	-3.309256.E-06	-6.699530.E-06
1059	11.58	-3.292143.E-06	-6.664903.E-06
1060	11.59	-3.275133.E-06	-6.630485.E-06
1061	11.60	-3.258226.E-06	-6.596273.E-06
1062	11.61	-3.241420.E-06	-6.562267.E-06
1063	11.62	-3.224715.E-06	-6.528466.E-06
1064	11.63	-3.208111.E-06	-6.494868.E-06
1065	11.64	-3.191606.E-06	-6.461470.E-06
1066	11.65	-3.175200.E-06	-6.428274.E-06
1067	11.66	-3.158893.E-06	-6.395275.E-06
1068	11.67	-3.142683.E-06	-6.362475.E-06
1069	11.68	-3.126570.E-06	-6.329870.E-06
1070	11.69	-3.110553.E-06	-6.297460.E-06
1071	11.70	-3.094633.E-06	-6.265243.E-06
1072	11.71	-3.078807.E-06	-6.233219.E-06
1073	11.72	-3.063075.E-06	-6.201385.E-06
1074	11.73	-3.047437.E-06	-6.169740.E-06
1075	11.74	-3.031892.E-06	-6.138284.E-06
1076	11.75	-3.016439.E-06	-6.107015.E-06
1077	11.76	-3.001079.E-06	-6.075931.E-06
1078	11.77	-2.985809.E-06	-6.045032.E-06
1079	11.78	-2.970630.E-06	-6.014315.E-06
1080	11.79	-2.955541.E-06	-5.983781.E-06
1081	11.80	-2.940541.E-06	-5.953427.E-06
1082	11.81	-2.925630.E-06	-5.923253.E-06
1083	11.82	-2.910808.E-06	-5.893257.E-06
1084	11.83	-2.896072.E-06	-5.863438.E-06
1085	11.84	-2.881424.E-06	-5.833795.E-06
1086	11.85	-2.866862.E-06	-5.804327.E-06
1087	11.86	-2.852386.E-06	-5.775031.E-06
1088	11.87	-2.837995.E-06	-5.745909.E-06
1089	11.88	-2.823688.E-06	-5.716957.E-06
1090	11.89	-2.809466.E-06	-5.688175.E-06
1091	11.90	-2.795327.E-06	-5.659563.E-06
1092	11.91	-2.781271.E-06	-5.631118.E-06
1093	11.92	-2.767297.E-06	-5.602839.E-06
1094	11.93	-2.753406.E-06	-5.574726.E-06
1095	11.94	-2.739595.E-06	-5.546778.E-06
1096	11.95	-2.725866.E-06	-5.518993.E-06
1097	11.96	-2.712216.E-06	-5.491370.E-06
1098	11.97	-2.698646.E-06	-5.463908.E-06
1099	11.98	-2.685156.E-06	-5.436606.E-06
1100	11.99	-2.671743.E-06	-5.409463.E-06
1101	12.00	-2.658409.E-06	-5.382478.E-06
1102	12.01	-2.645153.E-06	-5.355650.E-06
1103	12.02	-2.631974.E-06	-5.328978.E-06
1104	12.03	-2.618871.E-06	-5.302460.E-06
1105	12.04	-2.605844.E-06	-5.276097.E-06
1106	12.05	-2.592893.E-06	-5.249886.E-06
1107	12.06	-2.580016.E-06	-5.223827.E-06
1108	12.07	-2.567215.E-06	-5.197918.E-06
1109	12.08	-2.554487.E-06	-5.172160.E-06
1110	12.09	-2.541833.E-06	-5.146550.E-06
1111	12.10	-2.529252.E-06	-5.121088.E-06
1112	12.11	-2.516743.E-06	-5.095772.E-06
1113	12.12	-2.504307.E-06	-5.070603.E-06
1114	12.13	-2.491942.E-06	-5.045578.E-06
1115	12.14	-2.479649.E-06	-5.020698.E-06
1116	12.15	-2.467426.E-06	-4.995960.E-06
1117	12.16	-2.455273.E-06	-4.971364.E-06
1118	12.17	-2.443190.E-06	-4.946910.E-06
1119	12.18	-2.431177.E-06	-4.922596.E-06
1120	12.19	-2.419232.E-06	-4.898421.E-06
1121	12.20	-2.407355.E-06	-4.874384.E-06
1122	12.21	-2.395547.E-06	-4.850485.E-06
1123	12.22	-2.383806.E-06	-4.826722.E-06
1124	12.23	-2.372132.E-06	-4.803095.E-06
1125	12.24	-2.360525.E-06	-4.779603.E-06
1126	12.25	-2.348984.E-06	-4.756245.E-06
1127	12.26	-2.337509.E-06	-4.733020.E-06
1128	12.27	-2.326099.E-06	-4.709927.E-06
1129	12.28	-2.314754.E-06	-4.686965.E-06
1130	12.29	-2.303474.E-06	-4.664134.E-06
1131	12.30	-2.292258.E-06	-4.641432.E-06
1132	12.31	-2.281105.E-06	-4.618859.E-06
1133	12.32	-2.270015.E-06	-4.596415.E-06
1134	12.33	-2.258989.E-06	-4.574097.E-06
1135	12.34	-2.248025.E-06	-4.551905.E-06
1136	12.35	-2.237123.E-06	-4.529839.E-06
1137	12.36	-2.226282.E-06	-4.507898.E-06
1138	12.37	-2.215503.E-06	-4.486081.E-06
1139	12.38	-2.204784.E-06	-4.464386.E-06
1140	12.39	-2.194126.E-06	-4.442814.E-06
1141	12.40	-2.183528.E-06	-4.421363.E-06
1142	12.41	-2.172990.E-06	-4.400033.E-06
1143	12.42	-2.162511.E-06	-4.378823.E-06
1144	12.43	-2.152091.E-06	-4.357733.E-06
1145	12.44	-2.141730.E-06	-4.336760.E-06
1146	12.45	-2.131426.E-06	-4.315905.E-06
1147	12.46	-2.121181.E-06	-4.295167.E-06
1148	12.47	-2.110992.E-06	-4.274546.E-06
1149	12.48	-2.100861.E-06	-4.254039.E-06
1150	12.49	-2.090787.E-06	-4.233648.E-06
1151	12.50	-2.080769.E-06	-4.213370.E-06
1152	12.51	-2.070806.E-06	-4.193205.E-06
1153	12.52	-2.060900.E-06	-4.173153.E-06
1154	12.53	-2.051048.E-06	-4.153213.E-06
1155	12.54	-2.041252.E-06	-4.133383.E-06
1156	12.55	-2.031510.E-06	-4.113664.E-06
1157	12.56	-2.021822.E-06	-4.094055.E-06
1158	12.57	-2.012188.E-06	-4.074555.E-06
1159	12.58	-2.002608.E-06	-4.055163.E-06
1160	12.59	-1.993081.E-06	-4.035878.E-06
1161	12.60	-1.983606.E-06	-4.016700.E-06
1162	12.61	-1.974184.E-06	-3.997629.E-06
1163	12.62	-1.964815.E-06	-3.978663.E-06
1164	12.63	-1.955497.E-06	-3.959802.E-06
1165	12.64	-1.946230.E-06	-3.941045.E-06
1166	12.65	-1.937015.E-06	-3.922392.E-06
1167	12.66	-1.927851.E-06	-3.903841.E-06
1168	12.67	-1.918737.E-06	-3.885393.E-06
1169	12.68	-1.909674.E-06	-3.867047.E-06
1170	12.69	-1.900660.E-06	-3.848801.E-06
1171	12.70	-1.891696.E-06	-3.830656.E-06
1172	12.71	-1.882781.E-06	-3.812611.E-06
1173	12.72	-1.873915.E-06	-3.794664.E-06
1174	12.73	-1.865098.E-06	-3.776816.E-06
1175	12.74	-1.856329.E-06	-3.759066.E-06
1176	12.75	-1.847609.E-06	-3.741413.E-06
1177	12.76	-1.838936.E-06	-3.723857.E-06
1178	12.77	-1.830310.E-06	-3.706397.E-06
1179	12.78	-1.821732.E-06	-3.689032.E-06
1180	12.79	-1.813200.E-06	-3.671762.E-06
1181	12.80	-1.804715.E-06	-3.654586.E-06
1182	12.81	-1.796277.E-06	-3.637504.E-06
1183	12.82	-1.787884.E-06	-3.620515.E-06
1184	12.83	-1.779537.E-06	-3.603619.E-06
1185	12.84	-1.771236.E-06	-3.586814.E-06
1186	12.85	-1.762979.E-06	-3.570101.E-06
1187	12.86	-1.754768.E-06	-3.553478.E-06
1188	12.87	-1.746601.E-06	-3.536946.E-06
1189	12.88	-1.738478.E-06	-3.520503.E-06
1190	12.89	-1.730400.E-06	-3.504150.E-06
1191	12.90	-1.722365.E-06	-3.487885.E-06
1192	12.91	-1.714374.E-06	-3.471708.E-06
1193	12.92	-1.706426.E-06	-3.455618.E-06
1194	12.93	-1.698521.E-06	-3.439615.E-06
1195	12.94	-1.690658.E-06	-3.423699.E-06
1196	12.95	-1.682838.E-06	-3.407869.E-06
1197	12.96	-1.675060.E-06	-3.392124.E-06
1198	12.97	-1.667324.E-06	-3.376463.E-06
1199	12.98	-1.659630.E-06	-3.360887.E-06
1200	12.99	-1.651977.E-06	-3.345395.E-06
