# DATE: 2024-07-07  UNITS: metal  CONTRIBUTOR: By STUDENT			
# FHEP: Temp 303 [K], mr 0.666666666666667 [g/mol], Sigma 2.765 [A], Epsilon 0.0023712358386385 [eV]			
			
ENTRY			
N 1200 R 1.0 12.99			
			
1	1.00	4.370379.E+03	4.294706.E+04
2	1.01	3.834813.E+03	3.720569.E+04
3	1.02	3.369519.E+03	3.228184.E+04
4	1.03	2.964682.E+03	2.805225.E+04
5	1.04	2.611938.E+03	2.441323.E+04
6	1.05	2.304150.E+03	2.127741.E+04
7	1.06	2.035217.E+03	1.857105.E+04
8	1.07	1.799915.E+03	1.623182.E+04
9	1.08	1.593763.E+03	1.420691.E+04
10	1.09	1.412915.E+03	1.245154.E+04
11	1.10	1.254061.E+03	1.092766.E+04
12	1.11	1.114351.E+03	9.602873.E+03
13	1.12	9.913264.E+02	8.449584.E+03
14	1.13	8.828630.E+02	7.444232.E+03
15	1.14	7.871237.E+02	6.566671.E+03
16	1.15	7.025171.E+02	5.799654.E+03
17	1.16	6.276630.E+02	5.128394.E+03
18	1.17	5.613627.E+02	4.540192.E+03
19	1.18	5.025739.E+02	4.024129.E+03
20	1.19	4.503888.E+02	3.570804.E+03
21	1.20	4.040162.E+02	3.172111.E+03
22	1.21	3.627656.E+02	2.821049.E+03
23	1.22	3.260334.E+02	2.511569.E+03
24	1.23	2.932915.E+02	2.238433.E+03
25	1.24	2.640775.E+02	1.997100.E+03
26	1.25	2.379857.E+02	1.783631.E+03
27	1.26	2.146599.E+02	1.594602.E+03
28	1.27	1.937874.E+02	1.427035.E+03
29	1.28	1.750926.E+02	1.278337.E+03
30	1.29	1.583331.E+02	1.146245.E+03
31	1.30	1.432950.E+02	1.028784.E+03
32	1.31	1.297895.E+02	9.242276.E+02
33	1.32	1.176499.E+02	8.310661.E+02
34	1.33	1.067287.E+02	7.479762.E+02
35	1.34	9.689539.E+01	6.737974.E+02
36	1.35	8.803420.E+01	6.075111.E+02
37	1.36	8.004253.E+01	5.482221.E+02
38	1.37	7.282927.E+01	4.951429.E+02
39	1.38	6.631345.E+01	4.475798.E+02
40	1.39	6.042307.E+01	4.049214.E+02
41	1.40	5.509400.E+01	3.666283.E+02
42	1.41	5.026913.E+01	3.322238.E+02
43	1.42	4.589751.E+01	3.012865.E+02
44	1.43	4.193366.E+01	2.734436.E+02
45	1.44	3.833697.E+01	2.483647.E+02
46	1.45	3.507110.E+01	2.257568.E+02
47	1.46	3.210356.E+01	2.053600.E+02
48	1.47	2.940525.E+01	1.869435.E+02
49	1.48	2.695008.E+01	1.703018.E+02
50	1.49	2.471464.E+01	1.552522.E+02
51	1.50	2.267794.E+01	1.416321.E+02
52	1.51	2.082111.E+01	1.292964.E+02
53	1.52	1.912717.E+01	1.181156.E+02
54	1.53	1.758088.E+01	1.079743.E+02
55	1.54	1.616848.E+01	9.876905.E+01
56	1.55	1.487760.E+01	9.040759.E+01
57	1.56	1.369707.E+01	8.280722.E+01
58	1.57	1.261682.E+01	7.589387.E+01
59	1.58	1.162775.E+01	6.960115.E+01
60	1.59	1.072165.E+01	6.386947.E+01
61	1.60	9.891085.E+00	5.864534.E+01
62	1.61	9.129333.E+00	5.388069.E+01
63	1.62	8.430308.E+00	4.953230.E+01
64	1.63	7.788497.E+00	4.556127.E+01
65	1.64	7.198903.E+00	4.193256.E+01
66	1.65	6.656990.E+00	3.861461.E+01
67	1.66	6.158644.E+00	3.557894.E+01
68	1.67	5.700128.E+00	3.279985.E+01
69	1.68	5.278046.E+00	3.025414.E+01
70	1.69	4.889309.E+00	2.792084.E+01
71	1.70	4.531106.E+00	2.578098.E+01
72	1.71	4.200881.E+00	2.381740.E+01
73	1.72	3.896302.E+00	2.201456.E+01
74	1.73	3.615247.E+00	2.035837.E+01
75	1.74	3.355777.E+00	1.883607.E+01
76	1.75	3.116127.E+00	1.743607.E+01
77	1.76	2.894681.E+00	1.614786.E+01
78	1.77	2.689968.E+00	1.496188.E+01
79	1.78	2.500640.E+00	1.386944.E+01
80	1.79	2.325465.E+00	1.286266.E+01
81	1.80	2.163316.E+00	1.193434.E+01
82	1.81	2.013162.E+00	1.107794.E+01
83	1.82	1.874059.E+00	1.028749.E+01
84	1.83	1.745140.E+00	9.557557.E+00
85	1.84	1.625612.E+00	8.883185.E+00
86	1.85	1.514748.E+00	8.259846.E+00
87	1.86	1.411880.E+00	7.683407.E+00
88	1.87	1.316394.E+00	7.150092.E+00
89	1.88	1.227727.E+00	6.656448.E+00
90	1.89	1.145361.E+00	6.199319.E+00
91	1.90	1.068822.E+00	5.775813.E+00
92	1.91	9.976699.E-01	5.383285.E+00
93	1.92	9.315037.E-01	5.019312.E+00
94	1.93	8.699519.E-01	4.681670.E+00
95	1.94	8.126732.E-01	4.368322.E+00
96	1.95	7.593528.E-01	4.077399.E+00
97	1.96	7.097007.E-01	3.807185.E+00
98	1.97	6.634493.E-01	3.556103.E+00
99	1.98	6.203519.E-01	3.322705.E+00
100	1.99	5.801805.E-01	3.105659.E+00
101	2.00	5.427250.E-01	2.903741.E+00
102	2.01	5.077909.E-01	2.715824.E+00
103	2.02	4.751987.E-01	2.540871.E+00
104	2.03	4.447823.E-01	2.377926.E+00
105	2.04	4.163883.E-01	2.226108.E+00
106	2.05	3.898746.E-01	2.084606.E+00
107	2.06	3.651097.E-01	1.952672.E+00
108	2.07	3.419719.E-01	1.829614.E+00
109	2.08	3.203484.E-01	1.714796.E+00
110	2.09	3.001347.E-01	1.607628.E+00
111	2.10	2.812340.E-01	1.507567.E+00
112	2.11	2.635565.E-01	1.414110.E+00
113	2.12	2.470188.E-01	1.326791.E+00
114	2.13	2.315438.E-01	1.245182.E+00
115	2.14	2.170595.E-01	1.168883.E+00
116	2.15	2.034994.E-01	1.097528.E+00
117	2.16	1.908015.E-01	1.030774.E+00
118	2.17	1.789084.E-01	9.683054.E-01
119	2.18	1.677667.E-01	9.098295.E-01
120	2.19	1.573265.E-01	8.550745.E-01
121	2.20	1.475417.E-01	8.037884.E-01
122	2.21	1.383693.E-01	7.557375.E-01
123	2.22	1.297691.E-01	7.107047.E-01
124	2.23	1.217040.E-01	6.684885.E-01
125	2.24	1.141392.E-01	6.289017.E-01
126	2.25	1.070423.E-01	5.917703.E-01
127	2.26	1.003833.E-01	5.569325.E-01
128	2.27	9.413405.E-02	5.242381.E-01
129	2.28	8.826833.E-02	4.935470.E-01
130	2.29	8.276172.E-02	4.647291.E-01
131	2.30	7.759143.E-02	4.376631.E-01
132	2.31	7.273618.E-02	4.122363.E-01
133	2.32	6.817612.E-02	3.883434.E-01
134	2.33	6.389271.E-02	3.658866.E-01
135	2.34	5.986862.E-02	3.447744.E-01
136	2.35	5.608768.E-02	3.249217.E-01
137	2.36	5.253476.E-02	3.062491.E-01
138	2.37	4.919572.E-02	2.886825.E-01
139	2.38	4.605736.E-02	2.721527.E-01
140	2.39	4.310730.E-02	2.565951.E-01
141	2.40	4.033399.E-02	2.419495.E-01
142	2.41	3.772661.E-02	2.281595.E-01
143	2.42	3.527502.E-02	2.151724.E-01
144	2.43	3.296975.E-02	2.029390.E-01
145	2.44	3.080191.E-02	1.914134.E-01
146	2.45	2.876319.E-02	1.805524.E-01
147	2.46	2.684580.E-02	1.703158.E-01
148	2.47	2.504244.E-02	1.606660.E-01
149	2.48	2.334626.E-02	1.515676.E-01
150	2.49	2.175085.E-02	1.429876.E-01
151	2.50	2.025018.E-02	1.348951.E-01
152	2.51	1.883863.E-02	1.272611.E-01
153	2.52	1.751089.E-02	1.200584.E-01
154	2.53	1.626199.E-02	1.132617.E-01
155	2.54	1.508728.E-02	1.068469.E-01
156	2.55	1.398237.E-02	1.007918.E-01
157	2.56	1.294316.E-02	9.507526.E-02
158	2.57	1.196579.E-02	8.967766.E-02
159	2.58	1.104663.E-02	8.458048.E-02
160	2.59	1.018228.E-02	7.976634.E-02
161	2.60	9.369539.E-03	7.521895.E-02
162	2.61	8.605394.E-03	7.092298.E-02
163	2.62	7.887022.E-03	6.686405.E-02
164	2.63	7.211763.E-03	6.302864.E-02
165	2.64	6.577118.E-03	5.940402.E-02
166	2.65	5.980736.E-03	5.597826.E-02
167	2.66	5.420405.E-03	5.274011.E-02
168	2.67	4.894044.E-03	4.967900.E-02
169	2.68	4.399695.E-03	4.678499.E-02
170	2.69	3.935514.E-03	4.404872.E-02
171	2.70	3.499767.E-03	4.146138.E-02
172	2.71	3.090820.E-03	3.901469.E-02
173	2.72	2.707136.E-03	3.670082.E-02
174	2.73	2.347266.E-03	3.451243.E-02
175	2.74	2.009845.E-03	3.244259.E-02
176	2.75	1.693588.E-03	3.048477.E-02
177	2.76	1.397284.E-03	2.863282.E-02
178	2.77	1.119792.E-03	2.688094.E-02
179	2.78	8.600361.E-04	2.522367.E-02
180	2.79	6.170032.E-04	2.365584.E-02
181	2.80	3.897373.E-04	2.217260.E-02
182	2.81	1.773374.E-04	2.076936.E-02
183	2.82	-2.104606.E-05	1.944179.E-02
184	2.83	-2.062144.E-04	1.818581.E-02
185	2.84	-3.789231.E-04	1.699757.E-02
186	2.85	-5.398851.E-04	1.587341.E-02
187	2.86	-6.897729.E-04	1.480992.E-02
188	2.87	-8.292207.E-04	1.380383.E-02
189	2.88	-9.588273.E-04	1.285210.E-02
190	2.89	-1.079158.E-03	1.195181.E-02
191	2.90	-1.190745.E-03	1.110024.E-02
192	2.91	-1.294091.E-03	1.029480.E-02
193	2.92	-1.389673.E-03	9.533050.E-03
194	2.93	-1.477938.E-03	8.812672.E-03
195	2.94	-1.559310.E-03	8.131484.E-03
196	2.95	-1.634188.E-03	7.487422.E-03
197	2.96	-1.702949.E-03	6.878532.E-03
198	2.97	-1.765950.E-03	6.302964.E-03
199	2.98	-1.823528.E-03	5.758972.E-03
200	2.99	-1.875999.E-03	5.244900.E-03
201	3.00	-1.923665.E-03	4.759182.E-03
202	3.01	-1.966809.E-03	4.300338.E-03
203	3.02	-2.005698.E-03	3.866964.E-03
204	3.03	-2.040585.E-03	3.457732.E-03
205	3.04	-2.071709.E-03	3.071384.E-03
206	3.05	-2.099297.E-03	2.706730.E-03
207	3.06	-2.123560.E-03	2.362641.E-03
208	3.07	-2.144701.E-03	2.038049.E-03
209	3.08	-2.162909.E-03	1.731942.E-03
210	3.09	-2.178365.E-03	1.443360.E-03
211	3.10	-2.191238.E-03	1.171395.E-03
212	3.11	-2.201688.E-03	9.151859.E-04
213	3.12	-2.209867.E-03	6.739152.E-04
214	3.13	-2.215918.E-03	4.468096.E-04
215	3.14	-2.219977.E-03	2.331352.E-04
216	3.15	-2.222171.E-03	3.219634.E-05
217	3.16	-2.222620.E-03	-1.566666.E-04
218	3.17	-2.221439.E-03	-3.340792.E-04
219	3.18	-2.218736.E-03	-5.006349.E-04
220	3.19	-2.214611.E-03	-6.568965.E-04
221	3.20	-2.209161.E-03	-8.033979.E-04
222	3.21	-2.202477.E-03	-9.406455.E-04
223	3.22	-2.194644.E-03	-1.069120.E-03
224	3.23	-2.185742.E-03	-1.189278.E-03
225	3.24	-2.175849.E-03	-1.301551.E-03
226	3.25	-2.165037.E-03	-1.406350.E-03
227	3.26	-2.153372.E-03	-1.504066.E-03
228	3.27	-2.140920.E-03	-1.595067.E-03
229	3.28	-2.127741.E-03	-1.679706.E-03
230	3.29	-2.113892.E-03	-1.758316.E-03
231	3.30	-2.099426.E-03	-1.831213.E-03
232	3.31	-2.084396.E-03	-1.898698.E-03
233	3.32	-2.068847.E-03	-1.961056.E-03
234	3.33	-2.052827.E-03	-2.018559.E-03
235	3.34	-2.036377.E-03	-2.071462.E-03
236	3.35	-2.019537.E-03	-2.120012.E-03
237	3.36	-2.002345.E-03	-2.164439.E-03
238	3.37	-1.984837.E-03	-2.204964.E-03
239	3.38	-1.967046.E-03	-2.241797.E-03
240	3.39	-1.949004.E-03	-2.275137.E-03
241	3.40	-1.930740.E-03	-2.305171.E-03
242	3.41	-1.912282.E-03	-2.332081.E-03
243	3.42	-1.893657.E-03	-2.356035.E-03
244	3.43	-1.874889.E-03	-2.377196.E-03
245	3.44	-1.856001.E-03	-2.395717.E-03
246	3.45	-1.837016.E-03	-2.411746.E-03
247	3.46	-1.817953.E-03	-2.425419.E-03
248	3.47	-1.798831.E-03	-2.436870.E-03
249	3.48	-1.779669.E-03	-2.446223.E-03
250	3.49	-1.760484.E-03	-2.453597.E-03
251	3.50	-1.741291.E-03	-2.459106.E-03
252	3.51	-1.722104.E-03	-2.462856.E-03
253	3.52	-1.702938.E-03	-2.464949.E-03
254	3.53	-1.683806.E-03	-2.465483.E-03
255	3.54	-1.664719.E-03	-2.464550.E-03
256	3.55	-1.645688.E-03	-2.462235.E-03
257	3.56	-1.626725.E-03	-2.458624.E-03
258	3.57	-1.607839.E-03	-2.453794.E-03
259	3.58	-1.589038.E-03	-2.447820.E-03
260	3.59	-1.570332.E-03	-2.440774.E-03
261	3.60	-1.551728.E-03	-2.432723.E-03
262	3.61	-1.533233.E-03	-2.423730.E-03
263	3.62	-1.514854.E-03	-2.413857.E-03
264	3.63	-1.496597.E-03	-2.403162.E-03
265	3.64	-1.478467.E-03	-2.391698.E-03
266	3.65	-1.460470.E-03	-2.379520.E-03
267	3.66	-1.442611.E-03	-2.366674.E-03
268	3.67	-1.424894.E-03	-2.353210.E-03
269	3.68	-1.407322.E-03	-2.339170.E-03
270	3.69	-1.389900.E-03	-2.324598.E-03
271	3.70	-1.372631.E-03	-2.309533.E-03
272	3.71	-1.355517.E-03	-2.294013.E-03
273	3.72	-1.338561.E-03	-2.278074.E-03
274	3.73	-1.321766.E-03	-2.261750.E-03
275	3.74	-1.305134.E-03	-2.245074.E-03
276	3.75	-1.288665.E-03	-2.228076.E-03
277	3.76	-1.272363.E-03	-2.210785.E-03
278	3.77	-1.256228.E-03	-2.193229.E-03
279	3.78	-1.240262.E-03	-2.175434.E-03
280	3.79	-1.224465.E-03	-2.157424.E-03
281	3.80	-1.208837.E-03	-2.139223.E-03
282	3.81	-1.193381.E-03	-2.120853.E-03
283	3.82	-1.178095.E-03	-2.102334.E-03
284	3.83	-1.162981.E-03	-2.083687.E-03
285	3.84	-1.148038.E-03	-2.064930.E-03
286	3.85	-1.133267.E-03	-2.046081.E-03
287	3.86	-1.118666.E-03	-2.027157.E-03
288	3.87	-1.104237.E-03	-2.008172.E-03
289	3.88	-1.089978.E-03	-1.989143.E-03
290	3.89	-1.075889.E-03	-1.970083.E-03
291	3.90	-1.061969.E-03	-1.951005.E-03
292	3.91	-1.048218.E-03	-1.931922.E-03
293	3.92	-1.034635.E-03	-1.912846.E-03
294	3.93	-1.021219.E-03	-1.893787.E-03
295	3.94	-1.007969.E-03	-1.874756.E-03
296	3.95	-9.948843.E-04	-1.855763.E-03
297	3.96	-9.819637.E-04	-1.836816.E-03
298	3.97	-9.692060.E-04	-1.817925.E-03
299	3.98	-9.566102.E-04	-1.799098.E-03
300	3.99	-9.441750.E-04	-1.780342.E-03
301	4.00	-9.318992.E-04	-1.761664.E-03
302	4.01	-9.197816.E-04	-1.743070.E-03
303	4.02	-9.078206.E-04	-1.724568.E-03
304	4.03	-8.960151.E-04	-1.706163.E-03
305	4.04	-8.843635.E-04	-1.687860.E-03
306	4.05	-8.728646.E-04	-1.669664.E-03
307	4.06	-8.615168.E-04	-1.651579.E-03
308	4.07	-8.503186.E-04	-1.633611.E-03
309	4.08	-8.392687.E-04	-1.615763.E-03
310	4.09	-8.283654.E-04	-1.598039.E-03
311	4.10	-8.176073.E-04	-1.580442.E-03
312	4.11	-8.069929.E-04	-1.562975.E-03
313	4.12	-7.965205.E-04	-1.545641.E-03
314	4.13	-7.861887.E-04	-1.528443.E-03
315	4.14	-7.759958.E-04	-1.511383.E-03
316	4.15	-7.659404.E-04	-1.494464.E-03
317	4.16	-7.560208.E-04	-1.477687.E-03
318	4.17	-7.462356.E-04	-1.461053.E-03
319	4.18	-7.365830.E-04	-1.444566.E-03
320	4.19	-7.270616.E-04	-1.428225.E-03
321	4.20	-7.176698.E-04	-1.412032.E-03
322	4.21	-7.084061.E-04	-1.395988.E-03
323	4.22	-6.992687.E-04	-1.380095.E-03
324	4.23	-6.902563.E-04	-1.364352.E-03
325	4.24	-6.813672.E-04	-1.348761.E-03
326	4.25	-6.725999.E-04	-1.333322.E-03
327	4.26	-6.639529.E-04	-1.318034.E-03
328	4.27	-6.554246.E-04	-1.302900.E-03
329	4.28	-6.470136.E-04	-1.287918.E-03
330	4.29	-6.387182.E-04	-1.273089.E-03
331	4.30	-6.305370.E-04	-1.258412.E-03
332	4.31	-6.224686.E-04	-1.243888.E-03
333	4.32	-6.145113.E-04	-1.229517.E-03
334	4.33	-6.066639.E-04	-1.215297.E-03
335	4.34	-5.989247.E-04	-1.201229.E-03
336	4.35	-5.912923.E-04	-1.187312.E-03
337	4.36	-5.837654.E-04	-1.173545.E-03
338	4.37	-5.763424.E-04	-1.159929.E-03
339	4.38	-5.690220.E-04	-1.146462.E-03
340	4.39	-5.618029.E-04	-1.133144.E-03
341	4.40	-5.546835.E-04	-1.119974.E-03
342	4.41	-5.476625.E-04	-1.106951.E-03
343	4.42	-5.407387.E-04	-1.094074.E-03
344	4.43	-5.339105.E-04	-1.081342.E-03
345	4.44	-5.271768.E-04	-1.068756.E-03
346	4.45	-5.205362.E-04	-1.056313.E-03
347	4.46	-5.139874.E-04	-1.044012.E-03
348	4.47	-5.075291.E-04	-1.031853.E-03
349	4.48	-5.011601.E-04	-1.019835.E-03
350	4.49	-4.948790.E-04	-1.007956.E-03
351	4.50	-4.886847.E-04	-9.962150.E-04
352	4.51	-4.825760.E-04	-9.846117.E-04
353	4.52	-4.765515.E-04	-9.731445.E-04
354	4.53	-4.706102.E-04	-9.618122.E-04
355	4.54	-4.647509.E-04	-9.506138.E-04
356	4.55	-4.589723.E-04	-9.395481.E-04
357	4.56	-4.532733.E-04	-9.286138.E-04
358	4.57	-4.476528.E-04	-9.178097.E-04
359	4.58	-4.421097.E-04	-9.071346.E-04
360	4.59	-4.366429.E-04	-8.965873.E-04
361	4.60	-4.312512.E-04	-8.861665.E-04
362	4.61	-4.259337.E-04	-8.758711.E-04
363	4.62	-4.206891.E-04	-8.656998.E-04
364	4.63	-4.155165.E-04	-8.556513.E-04
365	4.64	-4.104148.E-04	-8.457244.E-04
366	4.65	-4.053831.E-04	-8.359178.E-04
367	4.66	-4.004202.E-04	-8.262302.E-04
368	4.67	-3.955253.E-04	-8.166605.E-04
369	4.68	-3.906973.E-04	-8.072074.E-04
370	4.69	-3.859352.E-04	-7.978696.E-04
371	4.70	-3.812382.E-04	-7.886458.E-04
372	4.71	-3.766052.E-04	-7.795348.E-04
373	4.72	-3.720353.E-04	-7.705355.E-04
374	4.73	-3.675276.E-04	-7.616464.E-04
375	4.74	-3.630813.E-04	-7.528665.E-04
376	4.75	-3.586953.E-04	-7.441944.E-04
377	4.76	-3.543690.E-04	-7.356290.E-04
378	4.77	-3.501013.E-04	-7.271689.E-04
379	4.78	-3.458914.E-04	-7.188131.E-04
380	4.79	-3.417385.E-04	-7.105603.E-04
381	4.80	-3.376418.E-04	-7.024093.E-04
382	4.81	-3.336004.E-04	-6.943589.E-04
383	4.82	-3.296136.E-04	-6.864079.E-04
384	4.83	-3.256805.E-04	-6.785551.E-04
385	4.84	-3.218003.E-04	-6.707994.E-04
386	4.85	-3.179724.E-04	-6.631397.E-04
387	4.86	-3.141959.E-04	-6.555747.E-04
388	4.87	-3.104701.E-04	-6.481033.E-04
389	4.88	-3.067943.E-04	-6.407244.E-04
390	4.89	-3.031676.E-04	-6.334369.E-04
391	4.90	-2.995895.E-04	-6.262396.E-04
392	4.91	-2.960592.E-04	-6.191315.E-04
393	4.92	-2.925761.E-04	-6.121114.E-04
394	4.93	-2.891393.E-04	-6.051783.E-04
395	4.94	-2.857483.E-04	-5.983310.E-04
396	4.95	-2.824024.E-04	-5.915686.E-04
397	4.96	-2.791010.E-04	-5.848900.E-04
398	4.97	-2.758434.E-04	-5.782941.E-04
399	4.98	-2.726289.E-04	-5.717798.E-04
400	4.99	-2.694569.E-04	-5.653463.E-04
401	5.00	-2.663269.E-04	-5.589924.E-04
402	5.01	-2.632382.E-04	-5.527171.E-04
403	5.02	-2.601903.E-04	-5.465195.E-04
404	5.03	-2.571824.E-04	-5.403986.E-04
405	5.04	-2.542142.E-04	-5.343534.E-04
406	5.05	-2.512849.E-04	-5.283829.E-04
407	5.06	-2.483940.E-04	-5.224862.E-04
408	5.07	-2.455410.E-04	-5.166624.E-04
409	5.08	-2.427254.E-04	-5.109105.E-04
410	5.09	-2.399465.E-04	-5.052295.E-04
411	5.10	-2.372039.E-04	-4.996187.E-04
412	5.11	-2.344970.E-04	-4.940771.E-04
413	5.12	-2.318254.E-04	-4.886038.E-04
414	5.13	-2.291885.E-04	-4.831979.E-04
415	5.14	-2.265858.E-04	-4.778586.E-04
416	5.15	-2.240168.E-04	-4.725850.E-04
417	5.16	-2.214811.E-04	-4.673763.E-04
418	5.17	-2.189782.E-04	-4.622315.E-04
419	5.18	-2.165076.E-04	-4.571500.E-04
420	5.19	-2.140689.E-04	-4.521308.E-04
421	5.20	-2.116615.E-04	-4.471733.E-04
422	5.21	-2.092851.E-04	-4.422765.E-04
423	5.22	-2.069392.E-04	-4.374396.E-04
424	5.23	-2.046234.E-04	-4.326620.E-04
425	5.24	-2.023372.E-04	-4.279429.E-04
426	5.25	-2.000803.E-04	-4.232814.E-04
427	5.26	-1.978522.E-04	-4.186768.E-04
428	5.27	-1.956524.E-04	-4.141285.E-04
429	5.28	-1.934807.E-04	-4.096356.E-04
430	5.29	-1.913366.E-04	-4.051974.E-04
431	5.30	-1.892197.E-04	-4.008133.E-04
432	5.31	-1.871297.E-04	-3.964825.E-04
433	5.32	-1.850661.E-04	-3.922043.E-04
434	5.33	-1.830286.E-04	-3.879781.E-04
435	5.34	-1.810168.E-04	-3.838032.E-04
436	5.35	-1.790304.E-04	-3.796788.E-04
437	5.36	-1.770690.E-04	-3.756044.E-04
438	5.37	-1.751322.E-04	-3.715793.E-04
439	5.38	-1.732198.E-04	-3.676029.E-04
440	5.39	-1.713313.E-04	-3.636745.E-04
441	5.40	-1.694664.E-04	-3.597935.E-04
442	5.41	-1.676249.E-04	-3.559592.E-04
443	5.42	-1.658063.E-04	-3.521711.E-04
444	5.43	-1.640104.E-04	-3.484286.E-04
445	5.44	-1.622368.E-04	-3.447311.E-04
446	5.45	-1.604853.E-04	-3.410779.E-04
447	5.46	-1.587555.E-04	-3.374686.E-04
448	5.47	-1.570472.E-04	-3.339025.E-04
449	5.48	-1.553599.E-04	-3.303791.E-04
450	5.49	-1.536935.E-04	-3.268978.E-04
451	5.50	-1.520477.E-04	-3.234581.E-04
452	5.51	-1.504221.E-04	-3.200594.E-04
453	5.52	-1.488165.E-04	-3.167013.E-04
454	5.53	-1.472307.E-04	-3.133831.E-04
455	5.54	-1.456642.E-04	-3.101043.E-04
456	5.55	-1.441170.E-04	-3.068645.E-04
457	5.56	-1.425887.E-04	-3.036632.E-04
458	5.57	-1.410790.E-04	-3.004998.E-04
459	5.58	-1.395877.E-04	-2.973739.E-04
460	5.59	-1.381146.E-04	-2.942849.E-04
461	5.60	-1.366594.E-04	-2.912324.E-04
462	5.61	-1.352218.E-04	-2.882159.E-04
463	5.62	-1.338017.E-04	-2.852350.E-04
464	5.63	-1.323987.E-04	-2.822892.E-04
465	5.64	-1.310127.E-04	-2.793780.E-04
466	5.65	-1.296435.E-04	-2.765010.E-04
467	5.66	-1.282907.E-04	-2.736578.E-04
468	5.67	-1.269541.E-04	-2.708478.E-04
469	5.68	-1.256337.E-04	-2.680708.E-04
470	5.69	-1.243290.E-04	-2.653262.E-04
471	5.70	-1.230400.E-04	-2.626137.E-04
472	5.71	-1.217664.E-04	-2.599328.E-04
473	5.72	-1.205080.E-04	-2.572831.E-04
474	5.73	-1.192646.E-04	-2.546643.E-04
475	5.74	-1.180360.E-04	-2.520759.E-04
476	5.75	-1.168220.E-04	-2.495175.E-04
477	5.76	-1.156225.E-04	-2.469888.E-04
478	5.77	-1.144371.E-04	-2.444894.E-04
479	5.78	-1.132657.E-04	-2.420188.E-04
480	5.79	-1.121082.E-04	-2.395768.E-04
481	5.80	-1.109644.E-04	-2.371630.E-04
482	5.81	-1.098340.E-04	-2.347770.E-04
483	5.82	-1.087169.E-04	-2.324184.E-04
484	5.83	-1.076130.E-04	-2.300870.E-04
485	5.84	-1.065219.E-04	-2.277823.E-04
486	5.85	-1.054437.E-04	-2.255040.E-04
487	5.86	-1.043781.E-04	-2.232518.E-04
488	5.87	-1.033249.E-04	-2.210254.E-04
489	5.88	-1.022840.E-04	-2.188244.E-04
490	5.89	-1.012552.E-04	-2.166485.E-04
491	5.90	-1.002383.E-04	-2.144974.E-04
492	5.91	-9.923327.E-05	-2.123707.E-04
493	5.92	-9.823987.E-05	-2.102683.E-04
494	5.93	-9.725797.E-05	-2.081897.E-04
495	5.94	-9.628741.E-05	-2.061346.E-04
496	5.95	-9.532805.E-05	-2.041028.E-04
497	5.96	-9.437973.E-05	-2.020940.E-04
498	5.97	-9.344233.E-05	-2.001078.E-04
499	5.98	-9.251569.E-05	-1.981441.E-04
500	5.99	-9.159968.E-05	-1.962025.E-04
501	6.00	-9.069416.E-05	-1.942827.E-04
502	6.01	-8.979899.E-05	-1.923844.E-04
503	6.02	-8.891404.E-05	-1.905075.E-04
504	6.03	-8.803918.E-05	-1.886516.E-04
505	6.04	-8.717428.E-05	-1.868165.E-04
506	6.05	-8.631920.E-05	-1.850018.E-04
507	6.06	-8.547384.E-05	-1.832074.E-04
508	6.07	-8.463805.E-05	-1.814330.E-04
509	6.08	-8.381172.E-05	-1.796784.E-04
510	6.09	-8.299472.E-05	-1.779433.E-04
511	6.10	-8.218695.E-05	-1.762274.E-04
512	6.11	-8.138827.E-05	-1.745305.E-04
513	6.12	-8.059858.E-05	-1.728525.E-04
514	6.13	-7.981776.E-05	-1.711930.E-04
515	6.14	-7.904569.E-05	-1.695518.E-04
516	6.15	-7.828227.E-05	-1.679287.E-04
517	6.16	-7.752739.E-05	-1.663235.E-04
518	6.17	-7.678094.E-05	-1.647360.E-04
519	6.18	-7.604281.E-05	-1.631659.E-04
520	6.19	-7.531290.E-05	-1.616130.E-04
521	6.20	-7.459110.E-05	-1.600771.E-04
522	6.21	-7.387731.E-05	-1.585581.E-04
523	6.22	-7.317144.E-05	-1.570556.E-04
524	6.23	-7.247338.E-05	-1.555695.E-04
525	6.24	-7.178303.E-05	-1.540997.E-04
526	6.25	-7.110030.E-05	-1.526458.E-04
527	6.26	-7.042510.E-05	-1.512077.E-04
528	6.27	-6.975732.E-05	-1.497852.E-04
529	6.28	-6.909688.E-05	-1.483782.E-04
530	6.29	-6.844369.E-05	-1.469864.E-04
531	6.30	-6.779765.E-05	-1.456096.E-04
532	6.31	-6.715868.E-05	-1.442477.E-04
533	6.32	-6.652669.E-05	-1.429005.E-04
534	6.33	-6.590159.E-05	-1.415678.E-04
535	6.34	-6.528330.E-05	-1.402494.E-04
536	6.35	-6.467174.E-05	-1.389452.E-04
537	6.36	-6.406681.E-05	-1.376550.E-04
538	6.37	-6.346845.E-05	-1.363786.E-04
539	6.38	-6.287656.E-05	-1.351158.E-04
540	6.39	-6.229107.E-05	-1.338666.E-04
541	6.40	-6.171191.E-05	-1.326306.E-04
542	6.41	-6.113899.E-05	-1.314079.E-04
543	6.42	-6.057223.E-05	-1.301981.E-04
544	6.43	-6.001157.E-05	-1.290012.E-04
545	6.44	-5.945693.E-05	-1.278170.E-04
546	6.45	-5.890823.E-05	-1.266453.E-04
547	6.46	-5.836541.E-05	-1.254861.E-04
548	6.47	-5.782839.E-05	-1.243391.E-04
549	6.48	-5.729709.E-05	-1.232042.E-04
550	6.49	-5.677146.E-05	-1.220812.E-04
551	6.50	-5.625143.E-05	-1.209701.E-04
552	6.51	-5.573692.E-05	-1.198707.E-04
553	6.52	-5.522787.E-05	-1.187828.E-04
554	6.53	-5.472421.E-05	-1.177063.E-04
555	6.54	-5.422588.E-05	-1.166411.E-04
556	6.55	-5.373282.E-05	-1.155870.E-04
557	6.56	-5.324496.E-05	-1.145440.E-04
558	6.57	-5.276224.E-05	-1.135118.E-04
559	6.58	-5.228460.E-05	-1.124903.E-04
560	6.59	-5.181197.E-05	-1.114795.E-04
561	6.60	-5.134430.E-05	-1.104792.E-04
562	6.61	-5.088154.E-05	-1.094893.E-04
563	6.62	-5.042361.E-05	-1.085096.E-04
564	6.63	-4.997047.E-05	-1.075400.E-04
565	6.64	-4.952205.E-05	-1.065805.E-04
566	6.65	-4.907830.E-05	-1.056309.E-04
567	6.66	-4.863917.E-05	-1.046910.E-04
568	6.67	-4.820460.E-05	-1.037608.E-04
569	6.68	-4.777454.E-05	-1.028402.E-04
570	6.69	-4.734893.E-05	-1.019290.E-04
571	6.70	-4.692773.E-05	-1.010272.E-04
572	6.71	-4.651087.E-05	-1.001346.E-04
573	6.72	-4.609831.E-05	-9.925113.E-05
574	6.73	-4.569000.E-05	-9.837668.E-05
575	6.74	-4.528589.E-05	-9.751113.E-05
576	6.75	-4.488594.E-05	-9.665440.E-05
577	6.76	-4.449008.E-05	-9.580638.E-05
578	6.77	-4.409828.E-05	-9.496698.E-05
579	6.78	-4.371048.E-05	-9.413608.E-05
580	6.79	-4.332664.E-05	-9.331360.E-05
581	6.80	-4.294672.E-05	-9.249944.E-05
582	6.81	-4.257067.E-05	-9.169350.E-05
583	6.82	-4.219844.E-05	-9.089569.E-05
584	6.83	-4.182999.E-05	-9.010592.E-05
585	6.84	-4.146528.E-05	-8.932409.E-05
586	6.85	-4.110426.E-05	-8.855012.E-05
587	6.86	-4.074690.E-05	-8.778391.E-05
588	6.87	-4.039314.E-05	-8.702538.E-05
589	6.88	-4.004295.E-05	-8.627444.E-05
590	6.89	-3.969629.E-05	-8.553101.E-05
591	6.90	-3.935311.E-05	-8.479500.E-05
592	6.91	-3.901338.E-05	-8.406632.E-05
593	6.92	-3.867706.E-05	-8.334490.E-05
594	6.93	-3.834410.E-05	-8.263065.E-05
595	6.94	-3.801448.E-05	-8.192349.E-05
596	6.95	-3.768814.E-05	-8.122334.E-05
597	6.96	-3.736507.E-05	-8.053013.E-05
598	6.97	-3.704521.E-05	-7.984377.E-05
599	6.98	-3.672853.E-05	-7.916419.E-05
600	6.99	-3.641500.E-05	-7.849131.E-05
601	7.00	-3.610458.E-05	-7.782506.E-05
602	7.01	-3.579723.E-05	-7.716537.E-05
603	7.02	-3.549292.E-05	-7.651215.E-05
604	7.03	-3.519162.E-05	-7.586535.E-05
605	7.04	-3.489329.E-05	-7.522488.E-05
606	7.05	-3.459790.E-05	-7.459068.E-05
607	7.06	-3.430542.E-05	-7.396268.E-05
608	7.07	-3.401581.E-05	-7.334081.E-05
609	7.08	-3.372905.E-05	-7.272500.E-05
610	7.09	-3.344509.E-05	-7.211518.E-05
611	7.10	-3.316391.E-05	-7.151130.E-05
612	7.11	-3.288548.E-05	-7.091328.E-05
613	7.12	-3.260976.E-05	-7.032105.E-05
614	7.13	-3.233674.E-05	-6.973456.E-05
615	7.14	-3.206637.E-05	-6.915375.E-05
616	7.15	-3.179863.E-05	-6.857854.E-05
617	7.16	-3.153348.E-05	-6.800889.E-05
618	7.17	-3.127091.E-05	-6.744472.E-05
619	7.18	-3.101088.E-05	-6.688598.E-05
620	7.19	-3.075336.E-05	-6.633261.E-05
621	7.20	-3.049833.E-05	-6.578455.E-05
622	7.21	-3.024576.E-05	-6.524174.E-05
623	7.22	-2.999562.E-05	-6.470413.E-05
624	7.23	-2.974788.E-05	-6.417165.E-05
625	7.24	-2.950252.E-05	-6.364427.E-05
626	7.25	-2.925952.E-05	-6.312191.E-05
627	7.26	-2.901884.E-05	-6.260452.E-05
628	7.27	-2.878047.E-05	-6.209205.E-05
629	7.28	-2.854437.E-05	-6.158446.E-05
630	7.29	-2.831052.E-05	-6.108167.E-05
631	7.30	-2.807891.E-05	-6.058366.E-05
632	7.31	-2.784949.E-05	-6.009035.E-05
633	7.32	-2.762226.E-05	-5.960170.E-05
634	7.33	-2.739718.E-05	-5.911767.E-05
635	7.34	-2.717423.E-05	-5.863820.E-05
636	7.35	-2.695340.E-05	-5.816324.E-05
637	7.36	-2.673465.E-05	-5.769275.E-05
638	7.37	-2.651796.E-05	-5.722667.E-05
639	7.38	-2.630332.E-05	-5.676496.E-05
640	7.39	-2.609070.E-05	-5.630758.E-05
641	7.40	-2.588008.E-05	-5.585448.E-05
642	7.41	-2.567143.E-05	-5.540561.E-05
643	7.42	-2.546474.E-05	-5.496093.E-05
644	7.43	-2.525999.E-05	-5.452039.E-05
645	7.44	-2.505715.E-05	-5.408395.E-05
646	7.45	-2.485621.E-05	-5.365157.E-05
647	7.46	-2.465714.E-05	-5.322320.E-05
648	7.47	-2.445992.E-05	-5.279880.E-05
649	7.48	-2.426454.E-05	-5.237833.E-05
650	7.49	-2.407098.E-05	-5.196175.E-05
651	7.50	-2.387921.E-05	-5.154902.E-05
652	7.51	-2.368922.E-05	-5.114009.E-05
653	7.52	-2.350099.E-05	-5.073493.E-05
654	7.53	-2.331449.E-05	-5.033350.E-05
655	7.54	-2.312972.E-05	-4.993576.E-05
656	7.55	-2.294665.E-05	-4.954167.E-05
657	7.56	-2.276527.E-05	-4.915119.E-05
658	7.57	-2.258556.E-05	-4.876428.E-05
659	7.58	-2.240749.E-05	-4.838091.E-05
660	7.59	-2.223106.E-05	-4.800105.E-05
661	7.60	-2.205625.E-05	-4.762464.E-05
662	7.61	-2.188303.E-05	-4.725167.E-05
663	7.62	-2.171140.E-05	-4.688209.E-05
664	7.63	-2.154134.E-05	-4.651587.E-05
665	7.64	-2.137282.E-05	-4.615297.E-05
666	7.65	-2.120584.E-05	-4.579335.E-05
667	7.66	-2.104037.E-05	-4.543700.E-05
668	7.67	-2.087641.E-05	-4.508387.E-05
669	7.68	-2.071393.E-05	-4.473392.E-05
670	7.69	-2.055293.E-05	-4.438713.E-05
671	7.70	-2.039338.E-05	-4.404347.E-05
672	7.71	-2.023528.E-05	-4.370289.E-05
673	7.72	-2.007859.E-05	-4.336538.E-05
674	7.73	-1.992333.E-05	-4.303089.E-05
675	7.74	-1.976945.E-05	-4.269941.E-05
676	7.75	-1.961697.E-05	-4.237089.E-05
677	7.76	-1.946585.E-05	-4.204530.E-05
678	7.77	-1.931608.E-05	-4.172263.E-05
679	7.78	-1.916766.E-05	-4.140283.E-05
680	7.79	-1.902056.E-05	-4.108588.E-05
681	7.80	-1.887477.E-05	-4.077175.E-05
682	7.81	-1.873029.E-05	-4.046041.E-05
683	7.82	-1.858709.E-05	-4.015184.E-05
684	7.83	-1.844517.E-05	-3.984600.E-05
685	7.84	-1.830451.E-05	-3.954287.E-05
686	7.85	-1.816510.E-05	-3.924242.E-05
687	7.86	-1.802692.E-05	-3.894462.E-05
688	7.87	-1.788997.E-05	-3.864945.E-05
689	7.88	-1.775423.E-05	-3.835687.E-05
690	7.89	-1.761968.E-05	-3.806688.E-05
691	7.90	-1.748632.E-05	-3.777943.E-05
692	7.91	-1.735414.E-05	-3.749451.E-05
693	7.92	-1.722312.E-05	-3.721208.E-05
694	7.93	-1.709325.E-05	-3.693212.E-05
695	7.94	-1.696453.E-05	-3.665462.E-05
696	7.95	-1.683693.E-05	-3.637954.E-05
697	7.96	-1.671044.E-05	-3.610686.E-05
698	7.97	-1.658507.E-05	-3.583655.E-05
699	7.98	-1.646078.E-05	-3.556860.E-05
700	7.99	-1.633759.E-05	-3.530298.E-05
701	8.00	-1.621546.E-05	-3.503966.E-05
702	8.01	-1.609440.E-05	-3.477862.E-05
703	8.02	-1.597439.E-05	-3.451985.E-05
704	8.03	-1.585542.E-05	-3.426332.E-05
705	8.04	-1.573748.E-05	-3.400900.E-05
706	8.05	-1.562057.E-05	-3.375688.E-05
707	8.06	-1.550466.E-05	-3.350693.E-05
708	8.07	-1.538976.E-05	-3.325913.E-05
709	8.08	-1.527585.E-05	-3.301347.E-05
710	8.09	-1.516292.E-05	-3.276991.E-05
711	8.10	-1.505096.E-05	-3.252845.E-05
712	8.11	-1.493996.E-05	-3.228905.E-05
713	8.12	-1.482992.E-05	-3.205170.E-05
714	8.13	-1.472082.E-05	-3.181638.E-05
715	8.14	-1.461265.E-05	-3.158307.E-05
716	8.15	-1.450541.E-05	-3.135175.E-05
717	8.16	-1.439909.E-05	-3.112240.E-05
718	8.17	-1.429367.E-05	-3.089500.E-05
719	8.18	-1.418915.E-05	-3.066954.E-05
720	8.19	-1.408552.E-05	-3.044599.E-05
721	8.20	-1.398277.E-05	-3.022433.E-05
722	8.21	-1.388090.E-05	-3.000455.E-05
723	8.22	-1.377989.E-05	-2.978663.E-05
724	8.23	-1.367973.E-05	-2.957055.E-05
725	8.24	-1.358043.E-05	-2.935629.E-05
726	8.25	-1.348196.E-05	-2.914384.E-05
727	8.26	-1.338432.E-05	-2.893317.E-05
728	8.27	-1.328751.E-05	-2.872428.E-05
729	8.28	-1.319151.E-05	-2.851714.E-05
730	8.29	-1.309632.E-05	-2.831174.E-05
731	8.30	-1.300193.E-05	-2.810807.E-05
732	8.31	-1.290833.E-05	-2.790609.E-05
733	8.32	-1.281552.E-05	-2.770580.E-05
734	8.33	-1.272348.E-05	-2.750719.E-05
735	8.34	-1.263221.E-05	-2.731023.E-05
736	8.35	-1.254171.E-05	-2.711492.E-05
737	8.36	-1.245196.E-05	-2.692122.E-05
738	8.37	-1.236295.E-05	-2.672914.E-05
739	8.38	-1.227469.E-05	-2.653865.E-05
740	8.39	-1.218716.E-05	-2.634975.E-05
741	8.40	-1.210036.E-05	-2.616240.E-05
742	8.41	-1.201428.E-05	-2.597661.E-05
743	8.42	-1.192891.E-05	-2.579235.E-05
744	8.43	-1.184425.E-05	-2.560961.E-05
745	8.44	-1.176029.E-05	-2.542838.E-05
746	8.45	-1.167702.E-05	-2.524864.E-05
747	8.46	-1.159444.E-05	-2.507038.E-05
748	8.47	-1.151253.E-05	-2.489358.E-05
749	8.48	-1.143131.E-05	-2.471823.E-05
750	8.49	-1.135074.E-05	-2.454432.E-05
751	8.50	-1.127084.E-05	-2.437184.E-05
752	8.51	-1.119160.E-05	-2.420076.E-05
753	8.52	-1.111300.E-05	-2.403108.E-05
754	8.53	-1.103505.E-05	-2.386279.E-05
755	8.54	-1.095773.E-05	-2.369587.E-05
756	8.55	-1.088105.E-05	-2.353031.E-05
757	8.56	-1.080499.E-05	-2.336609.E-05
758	8.57	-1.072954.E-05	-2.320320.E-05
759	8.58	-1.065472.E-05	-2.304164.E-05
760	8.59	-1.058050.E-05	-2.288139.E-05
761	8.60	-1.050688.E-05	-2.272243.E-05
762	8.61	-1.043385.E-05	-2.256476.E-05
763	8.62	-1.036142.E-05	-2.240836.E-05
764	8.63	-1.028958.E-05	-2.225323.E-05
765	8.64	-1.021831.E-05	-2.209934.E-05
766	8.65	-1.014762.E-05	-2.194669.E-05
767	8.66	-1.007750.E-05	-2.179527.E-05
768	8.67	-1.000795.E-05	-2.164507.E-05
769	8.68	-9.938949.E-06	-2.149607.E-05
770	8.69	-9.870505.E-06	-2.134826.E-05
771	8.70	-9.802611.E-06	-2.120164.E-05
772	8.71	-9.735261.E-06	-2.105619.E-05
773	8.72	-9.668449.E-06	-2.091190.E-05
774	8.73	-9.602172.E-06	-2.076876.E-05
775	8.74	-9.536423.E-06	-2.062676.E-05
776	8.75	-9.471199.E-06	-2.048589.E-05
777	8.76	-9.406495.E-06	-2.034614.E-05
778	8.77	-9.342306.E-06	-2.020750.E-05
779	8.78	-9.278626.E-06	-2.006996.E-05
780	8.79	-9.215452.E-06	-1.993351.E-05
781	8.80	-9.152780.E-06	-1.979814.E-05
782	8.81	-9.090603.E-06	-1.966384.E-05
783	8.82	-9.028919.E-06	-1.953060.E-05
784	8.83	-8.967722.E-06	-1.939841.E-05
785	8.84	-8.907008.E-06	-1.926726.E-05
786	8.85	-8.846773.E-06	-1.913715.E-05
787	8.86	-8.787012.E-06	-1.900805.E-05
788	8.87	-8.727722.E-06	-1.887998.E-05
789	8.88	-8.668898.E-06	-1.875290.E-05
790	8.89	-8.610535.E-06	-1.862682.E-05
791	8.90	-8.552630.E-06	-1.850173.E-05
792	8.91	-8.495179.E-06	-1.837762.E-05
793	8.92	-8.438177.E-06	-1.825447.E-05
794	8.93	-8.381621.E-06	-1.813229.E-05
795	8.94	-8.325506.E-06	-1.801105.E-05
796	8.95	-8.269829.E-06	-1.789077.E-05
797	8.96	-8.214586.E-06	-1.777141.E-05
798	8.97	-8.159772.E-06	-1.765299.E-05
799	8.98	-8.105385.E-06	-1.753548.E-05
800	8.99	-8.051420.E-06	-1.741888.E-05
801	9.00	-7.997873.E-06	-1.730319.E-05
802	9.01	-7.944741.E-06	-1.718839.E-05
803	9.02	-7.892020.E-06	-1.707448.E-05
804	9.03	-7.839707.E-06	-1.696144.E-05
805	9.04	-7.787798.E-06	-1.684928.E-05
806	9.05	-7.736289.E-06	-1.673798.E-05
807	9.06	-7.685177.E-06	-1.662754.E-05
808	9.07	-7.634459.E-06	-1.651794.E-05
809	9.08	-7.584130.E-06	-1.640919.E-05
810	9.09	-7.534188.E-06	-1.630127.E-05
811	9.10	-7.484629.E-06	-1.619417.E-05
812	9.11	-7.435449.E-06	-1.608790.E-05
813	9.12	-7.386646.E-06	-1.598243.E-05
814	9.13	-7.338217.E-06	-1.587778.E-05
815	9.14	-7.290157.E-06	-1.577392.E-05
816	9.15	-7.242464.E-06	-1.567085.E-05
817	9.16	-7.195134.E-06	-1.556856.E-05
818	9.17	-7.148165.E-06	-1.546706.E-05
819	9.18	-7.101552.E-06	-1.536632.E-05
820	9.19	-7.055294.E-06	-1.526635.E-05
821	9.20	-7.009387.E-06	-1.516713.E-05
822	9.21	-6.963828.E-06	-1.506867.E-05
823	9.22	-6.918614.E-06	-1.497095.E-05
824	9.23	-6.873742.E-06	-1.487397.E-05
825	9.24	-6.829209.E-06	-1.477771.E-05
826	9.25	-6.785012.E-06	-1.468219.E-05
827	9.26	-6.741148.E-06	-1.458738.E-05
828	9.27	-6.697615.E-06	-1.449329.E-05
829	9.28	-6.654409.E-06	-1.439990.E-05
830	9.29	-6.611528.E-06	-1.430722.E-05
831	9.30	-6.568969.E-06	-1.421522.E-05
832	9.31	-6.526729.E-06	-1.412392.E-05
833	9.32	-6.484805.E-06	-1.403330.E-05
834	9.33	-6.443195.E-06	-1.394336.E-05
835	9.34	-6.401896.E-06	-1.385409.E-05
836	9.35	-6.360906.E-06	-1.376548.E-05
837	9.36	-6.320221.E-06	-1.367754.E-05
838	9.37	-6.279840.E-06	-1.359025.E-05
839	9.38	-6.239759.E-06	-1.350360.E-05
840	9.39	-6.199976.E-06	-1.341760.E-05
841	9.40	-6.160489.E-06	-1.333224.E-05
842	9.41	-6.121294.E-06	-1.324751.E-05
843	9.42	-6.082390.E-06	-1.316341.E-05
844	9.43	-6.043775.E-06	-1.307993.E-05
845	9.44	-6.005445.E-06	-1.299707.E-05
846	9.45	-5.967398.E-06	-1.291481.E-05
847	9.46	-5.929632.E-06	-1.283317.E-05
848	9.47	-5.892144.E-06	-1.275212.E-05
849	9.48	-5.854933.E-06	-1.267167.E-05
850	9.49	-5.817995.E-06	-1.259181.E-05
851	9.50	-5.781329.E-06	-1.251254.E-05
852	9.51	-5.744932.E-06	-1.243385.E-05
853	9.52	-5.708802.E-06	-1.235574.E-05
854	9.53	-5.672937.E-06	-1.227820.E-05
855	9.54	-5.637334.E-06	-1.220122.E-05
856	9.55	-5.601992.E-06	-1.212481.E-05
857	9.56	-5.566908.E-06	-1.204895.E-05
858	9.57	-5.532079.E-06	-1.197365.E-05
859	9.58	-5.497505.E-06	-1.189889.E-05
860	9.59	-5.463183.E-06	-1.182468.E-05
861	9.60	-5.429110.E-06	-1.175100.E-05
862	9.61	-5.395285.E-06	-1.167787.E-05
863	9.62	-5.361705.E-06	-1.160526.E-05
864	9.63	-5.328369.E-06	-1.153318.E-05
865	9.64	-5.295274.E-06	-1.146162.E-05
866	9.65	-5.262419.E-06	-1.139057.E-05
867	9.66	-5.229801.E-06	-1.132004.E-05
868	9.67	-5.197419.E-06	-1.125002.E-05
869	9.68	-5.165271.E-06	-1.118050.E-05
870	9.69	-5.133354.E-06	-1.111148.E-05
871	9.70	-5.101667.E-06	-1.104296.E-05
872	9.71	-5.070208.E-06	-1.097493.E-05
873	9.72	-5.038975.E-06	-1.090739.E-05
874	9.73	-5.007966.E-06	-1.084034.E-05
875	9.74	-4.977179.E-06	-1.077376.E-05
876	9.75	-4.946613.E-06	-1.070766.E-05
877	9.76	-4.916266.E-06	-1.064203.E-05
878	9.77	-4.886136.E-06	-1.057687.E-05
879	9.78	-4.856221.E-06	-1.051218.E-05
880	9.79	-4.826519.E-06	-1.044794.E-05
881	9.80	-4.797029.E-06	-1.038417.E-05
882	9.81	-4.767749.E-06	-1.032085.E-05
883	9.82	-4.738677.E-06	-1.025797.E-05
884	9.83	-4.709812.E-06	-1.019555.E-05
885	9.84	-4.681151.E-06	-1.013356.E-05
886	9.85	-4.652694.E-06	-1.007202.E-05
887	9.86	-4.624438.E-06	-1.001091.E-05
888	9.87	-4.596383.E-06	-9.950227.E-06
889	9.88	-4.568525.E-06	-9.889977.E-06
890	9.89	-4.540865.E-06	-9.830153.E-06
891	9.90	-4.513399.E-06	-9.770749.E-06
892	9.91	-4.486127.E-06	-9.711764.E-06
893	9.92	-4.459048.E-06	-9.653194.E-06
894	9.93	-4.432158.E-06	-9.595035.E-06
895	9.94	-4.405458.E-06	-9.537285.E-06
896	9.95	-4.378945.E-06	-9.479939.E-06
897	9.96	-4.352618.E-06	-9.422995.E-06
898	9.97	-4.326475.E-06	-9.366449.E-06
899	9.98	-4.300516.E-06	-9.310299.E-06
900	9.99	-4.274737.E-06	-9.254541.E-06
901	10.00	-4.249139.E-06	-9.199172.E-06
902	10.01	-4.223720.E-06	-9.144188.E-06
903	10.02	-4.198478.E-06	-9.089588.E-06
904	10.03	-4.173411.E-06	-9.035367.E-06
905	10.04	-4.148519.E-06	-8.981524.E-06
906	10.05	-4.123800.E-06	-8.928054.E-06
907	10.06	-4.099253.E-06	-8.874954.E-06
908	10.07	-4.074876.E-06	-8.822223.E-06
909	10.08	-4.050667.E-06	-8.769857.E-06
910	10.09	-4.026627.E-06	-8.717853.E-06
911	10.10	-4.002752.E-06	-8.666208.E-06
912	10.11	-3.979043.E-06	-8.614919.E-06
913	10.12	-3.955497.E-06	-8.563984.E-06
914	10.13	-3.932114.E-06	-8.513400.E-06
915	10.14	-3.908892.E-06	-8.463164.E-06
916	10.15	-3.885829.E-06	-8.413274.E-06
917	10.16	-3.862925.E-06	-8.363726.E-06
918	10.17	-3.840179.E-06	-8.314518.E-06
919	10.18	-3.817588.E-06	-8.265647.E-06
920	10.19	-3.795153.E-06	-8.217111.E-06
921	10.20	-3.772871.E-06	-8.168907.E-06
922	10.21	-3.750741.E-06	-8.121032.E-06
923	10.22	-3.728763.E-06	-8.073484.E-06
924	10.23	-3.706935.E-06	-8.026261.E-06
925	10.24	-3.685255.E-06	-7.979359.E-06
926	10.25	-3.663724.E-06	-7.932777.E-06
927	10.26	-3.642339.E-06	-7.886512.E-06
928	10.27	-3.621099.E-06	-7.840561.E-06
929	10.28	-3.600004.E-06	-7.794921.E-06
930	10.29	-3.579052.E-06	-7.749592.E-06
931	10.30	-3.558243.E-06	-7.704569.E-06
932	10.31	-3.537574.E-06	-7.659852.E-06
933	10.32	-3.517045.E-06	-7.615436.E-06
934	10.33	-3.496655.E-06	-7.571321.E-06
935	10.34	-3.476403.E-06	-7.527503.E-06
936	10.35	-3.456287.E-06	-7.483981.E-06
937	10.36	-3.436307.E-06	-7.440752.E-06
938	10.37	-3.416462.E-06	-7.397814.E-06
939	10.38	-3.396750.E-06	-7.355165.E-06
940	10.39	-3.377171.E-06	-7.312802.E-06
941	10.40	-3.357723.E-06	-7.270723.E-06
942	10.41	-3.338406.E-06	-7.228927.E-06
943	10.42	-3.319218.E-06	-7.187410.E-06
944	10.43	-3.300159.E-06	-7.146172.E-06
945	10.44	-3.281227.E-06	-7.105209.E-06
946	10.45	-3.262422.E-06	-7.064519.E-06
947	10.46	-3.243743.E-06	-7.024101.E-06
948	10.47	-3.225188.E-06	-6.983953.E-06
949	10.48	-3.206757.E-06	-6.944072.E-06
950	10.49	-3.188449.E-06	-6.904456.E-06
951	10.50	-3.170262.E-06	-6.865103.E-06
952	10.51	-3.152197.E-06	-6.826012.E-06
953	10.52	-3.134251.E-06	-6.787180.E-06
954	10.53	-3.116424.E-06	-6.748606.E-06
955	10.54	-3.098716.E-06	-6.710287.E-06
956	10.55	-3.081125.E-06	-6.672222.E-06
957	10.56	-3.063650.E-06	-6.634408.E-06
958	10.57	-3.046291.E-06	-6.596844.E-06
959	10.58	-3.029046.E-06	-6.559528.E-06
960	10.59	-3.011915.E-06	-6.522457.E-06
961	10.60	-2.994897.E-06	-6.485631.E-06
962	10.61	-2.977991.E-06	-6.449047.E-06
963	10.62	-2.961197.E-06	-6.412703.E-06
964	10.63	-2.944512.E-06	-6.376599.E-06
965	10.64	-2.927938.E-06	-6.340731.E-06
966	10.65	-2.911472.E-06	-6.305098.E-06
967	10.66	-2.895114.E-06	-6.269698.E-06
968	10.67	-2.878863.E-06	-6.234530.E-06
969	10.68	-2.862718.E-06	-6.199592.E-06
970	10.69	-2.846679.E-06	-6.164882.E-06
971	10.70	-2.830744.E-06	-6.130398.E-06
972	10.71	-2.814914.E-06	-6.096140.E-06
973	10.72	-2.799187.E-06	-6.062104.E-06
974	10.73	-2.783562.E-06	-6.028290.E-06
975	10.74	-2.768039.E-06	-5.994695.E-06
976	10.75	-2.752616.E-06	-5.961319.E-06
977	10.76	-2.737294.E-06	-5.928159.E-06
978	10.77	-2.722072.E-06	-5.895214.E-06
979	10.78	-2.706947.E-06	-5.862483.E-06
980	10.79	-2.691921.E-06	-5.829963.E-06
981	10.80	-2.676992.E-06	-5.797653.E-06
982	10.81	-2.662160.E-06	-5.765552.E-06
983	10.82	-2.647423.E-06	-5.733658.E-06
984	10.83	-2.632782.E-06	-5.701970.E-06
985	10.84	-2.618234.E-06	-5.670486.E-06
986	10.85	-2.603781.E-06	-5.639205.E-06
987	10.86	-2.589420.E-06	-5.608124.E-06
988	10.87	-2.575152.E-06	-5.577243.E-06
989	10.88	-2.560976.E-06	-5.546560.E-06
990	10.89	-2.546890.E-06	-5.516074.E-06
991	10.90	-2.532895.E-06	-5.485784.E-06
992	10.91	-2.518989.E-06	-5.455687.E-06
993	10.92	-2.505172.E-06	-5.425782.E-06
994	10.93	-2.491444.E-06	-5.396069.E-06
995	10.94	-2.477803.E-06	-5.366545.E-06
996	10.95	-2.464250.E-06	-5.337209.E-06
997	10.96	-2.450782.E-06	-5.308060.E-06
998	10.97	-2.437401.E-06	-5.279097.E-06
999	10.98	-2.424105.E-06	-5.250318.E-06
1000	10.99	-2.410893.E-06	-5.221722.E-06
1001	11.00	-2.397765.E-06	-5.193307.E-06
1002	11.01	-2.384720.E-06	-5.165073.E-06
1003	11.02	-2.371759.E-06	-5.137017.E-06
1004	11.03	-2.358879.E-06	-5.109139.E-06
1005	11.04	-2.346081.E-06	-5.081437.E-06
1006	11.05	-2.333363.E-06	-5.053910.E-06
1007	11.06	-2.320727.E-06	-5.026557.E-06
1008	11.07	-2.308169.E-06	-4.999377.E-06
1009	11.08	-2.295691.E-06	-4.972367.E-06
1010	11.09	-2.283292.E-06	-4.945528.E-06
1011	11.10	-2.270971.E-06	-4.918858.E-06
1012	11.11	-2.258727.E-06	-4.892355.E-06
1013	11.12	-2.246560.E-06	-4.866019.E-06
1014	11.13	-2.234470.E-06	-4.839848.E-06
1015	11.14	-2.222455.E-06	-4.813841.E-06
1016	11.15	-2.210516.E-06	-4.787997.E-06
1017	11.16	-2.198651.E-06	-4.762314.E-06
1018	11.17	-2.186861.E-06	-4.736792.E-06
1019	11.18	-2.175144.E-06	-4.711429.E-06
1020	11.19	-2.163501.E-06	-4.686225.E-06
1021	11.20	-2.151930.E-06	-4.661178.E-06
1022	11.21	-2.140432.E-06	-4.636287.E-06
1023	11.22	-2.129004.E-06	-4.611550.E-06
1024	11.23	-2.117648.E-06	-4.586968.E-06
1025	11.24	-2.106363.E-06	-4.562538.E-06
1026	11.25	-2.095148.E-06	-4.538260.E-06
1027	11.26	-2.084002.E-06	-4.514133.E-06
1028	11.27	-2.072926.E-06	-4.490154.E-06
1029	11.28	-2.061918.E-06	-4.466325.E-06
1030	11.29	-2.050978.E-06	-4.442643.E-06
1031	11.30	-2.040106.E-06	-4.419107.E-06
1032	11.31	-2.029301.E-06	-4.395716.E-06
1033	11.32	-2.018563.E-06	-4.372470.E-06
1034	11.33	-2.007891.E-06	-4.349367.E-06
1035	11.34	-1.997284.E-06	-4.326406.E-06
1036	11.35	-1.986743.E-06	-4.303586.E-06
1037	11.36	-1.976267.E-06	-4.280907.E-06
1038	11.37	-1.965855.E-06	-4.258367.E-06
1039	11.38	-1.955508.E-06	-4.235965.E-06
1040	11.39	-1.945223.E-06	-4.213701.E-06
1041	11.40	-1.935002.E-06	-4.191573.E-06
1042	11.41	-1.924843.E-06	-4.169581.E-06
1043	11.42	-1.914747.E-06	-4.147723.E-06
1044	11.43	-1.904712.E-06	-4.125998.E-06
1045	11.44	-1.894739.E-06	-4.104406.E-06
1046	11.45	-1.884826.E-06	-4.082946.E-06
1047	11.46	-1.874974.E-06	-4.061617.E-06
1048	11.47	-1.865182.E-06	-4.040417.E-06
1049	11.48	-1.855449.E-06	-4.019347.E-06
1050	11.49	-1.845776.E-06	-3.998404.E-06
1051	11.50	-1.836161.E-06	-3.977589.E-06
1052	11.51	-1.826605.E-06	-3.956900.E-06
1053	11.52	-1.817107.E-06	-3.936336.E-06
1054	11.53	-1.807667.E-06	-3.915897.E-06
1055	11.54	-1.798283.E-06	-3.895581.E-06
1056	11.55	-1.788956.E-06	-3.875389.E-06
1057	11.56	-1.779686.E-06	-3.855318.E-06
1058	11.57	-1.770472.E-06	-3.835369.E-06
1059	11.58	-1.761313.E-06	-3.815540.E-06
1060	11.59	-1.752210.E-06	-3.795830.E-06
1061	11.60	-1.743161.E-06	-3.776239.E-06
1062	11.61	-1.734167.E-06	-3.756766.E-06
1063	11.62	-1.725227.E-06	-3.737410.E-06
1064	11.63	-1.716341.E-06	-3.718170.E-06
1065	11.64	-1.707508.E-06	-3.699045.E-06
1066	11.65	-1.698728.E-06	-3.680035.E-06
1067	11.66	-1.690000.E-06	-3.661140.E-06
1068	11.67	-1.681325.E-06	-3.642357.E-06
1069	11.68	-1.672702.E-06	-3.623686.E-06
1070	11.69	-1.664130.E-06	-3.605127.E-06
1071	11.70	-1.655610.E-06	-3.586679.E-06
1072	11.71	-1.647140.E-06	-3.568341.E-06
1073	11.72	-1.638721.E-06	-3.550112.E-06
1074	11.73	-1.630352.E-06	-3.531991.E-06
1075	11.74	-1.622033.E-06	-3.513979.E-06
1076	11.75	-1.613764.E-06	-3.496073.E-06
1077	11.76	-1.605543.E-06	-3.478274.E-06
1078	11.77	-1.597371.E-06	-3.460580.E-06
1079	11.78	-1.589248.E-06	-3.442992.E-06
1080	11.79	-1.581173.E-06	-3.425507.E-06
1081	11.80	-1.573146.E-06	-3.408126.E-06
1082	11.81	-1.565166.E-06	-3.390848.E-06
1083	11.82	-1.557234.E-06	-3.373672.E-06
1084	11.83	-1.549348.E-06	-3.356597.E-06
1085	11.84	-1.541509.E-06	-3.339623.E-06
1086	11.85	-1.533716.E-06	-3.322749.E-06
1087	11.86	-1.525969.E-06	-3.305975.E-06
1088	11.87	-1.518268.E-06	-3.289299.E-06
1089	11.88	-1.510612.E-06	-3.272721.E-06
1090	11.89	-1.503001.E-06	-3.256241.E-06
1091	11.90	-1.495434.E-06	-3.239857.E-06
1092	11.91	-1.487912.E-06	-3.223569.E-06
1093	11.92	-1.480435.E-06	-3.207377.E-06
1094	11.93	-1.473001.E-06	-3.191280.E-06
1095	11.94	-1.465610.E-06	-3.175276.E-06
1096	11.95	-1.458263.E-06	-3.159367.E-06
1097	11.96	-1.450958.E-06	-3.143550.E-06
1098	11.97	-1.443697.E-06	-3.127825.E-06
1099	11.98	-1.436477.E-06	-3.112193.E-06
1100	11.99	-1.429300.E-06	-3.096651.E-06
1101	12.00	-1.422165.E-06	-3.081199.E-06
1102	12.01	-1.415071.E-06	-3.065838.E-06
1103	12.02	-1.408018.E-06	-3.050566.E-06
1104	12.03	-1.401006.E-06	-3.035382.E-06
1105	12.04	-1.394035.E-06	-3.020287.E-06
1106	12.05	-1.387105.E-06	-3.005279.E-06
1107	12.06	-1.380214.E-06	-2.990358.E-06
1108	12.07	-1.373364.E-06	-2.975523.E-06
1109	12.08	-1.366553.E-06	-2.960775.E-06
1110	12.09	-1.359782.E-06	-2.946111.E-06
1111	12.10	-1.353049.E-06	-2.931532.E-06
1112	12.11	-1.346356.E-06	-2.917037.E-06
1113	12.12	-1.339701.E-06	-2.902626.E-06
1114	12.13	-1.333084.E-06	-2.888297.E-06
1115	12.14	-1.326506.E-06	-2.874051.E-06
1116	12.15	-1.319965.E-06	-2.859887.E-06
1117	12.16	-1.313462.E-06	-2.845804.E-06
1118	12.17	-1.306996.E-06	-2.831803.E-06
1119	12.18	-1.300568.E-06	-2.817881.E-06
1120	12.19	-1.294176.E-06	-2.804039.E-06
1121	12.20	-1.287821.E-06	-2.790277.E-06
1122	12.21	-1.281502.E-06	-2.776593.E-06
1123	12.22	-1.275219.E-06	-2.762987.E-06
1124	12.23	-1.268973.E-06	-2.749459.E-06
1125	12.24	-1.262762.E-06	-2.736009.E-06
1126	12.25	-1.256586.E-06	-2.722635.E-06
1127	12.26	-1.250446.E-06	-2.709337.E-06
1128	12.27	-1.244340.E-06	-2.696115.E-06
1129	12.28	-1.238270.E-06	-2.682968.E-06
1130	12.29	-1.232234.E-06	-2.669896.E-06
1131	12.30	-1.226232.E-06	-2.656898.E-06
1132	12.31	-1.220264.E-06	-2.643974.E-06
1133	12.32	-1.214330.E-06	-2.631123.E-06
1134	12.33	-1.208430.E-06	-2.618345.E-06
1135	12.34	-1.202563.E-06	-2.605639.E-06
1136	12.35	-1.196729.E-06	-2.593005.E-06
1137	12.36	-1.190929.E-06	-2.580443.E-06
1138	12.37	-1.185161.E-06	-2.567951.E-06
1139	12.38	-1.179426.E-06	-2.555530.E-06
1140	12.39	-1.173723.E-06	-2.543179.E-06
1141	12.40	-1.168052.E-06	-2.530898.E-06
1142	12.41	-1.162413.E-06	-2.518686.E-06
1143	12.42	-1.156806.E-06	-2.506542.E-06
1144	12.43	-1.151230.E-06	-2.494467.E-06
1145	12.44	-1.145686.E-06	-2.482459.E-06
1146	12.45	-1.140173.E-06	-2.470519.E-06
1147	12.46	-1.134690.E-06	-2.458646.E-06
1148	12.47	-1.129239.E-06	-2.446839.E-06
1149	12.48	-1.123818.E-06	-2.435098.E-06
1150	12.49	-1.118427.E-06	-2.423423.E-06
1151	12.50	-1.113067.E-06	-2.411814.E-06
1152	12.51	-1.107736.E-06	-2.400269.E-06
1153	12.52	-1.102436.E-06	-2.388788.E-06
1154	12.53	-1.097164.E-06	-2.377372.E-06
1155	12.54	-1.091923.E-06	-2.366019.E-06
1156	12.55	-1.086710.E-06	-2.354729.E-06
1157	12.56	-1.081526.E-06	-2.343502.E-06
1158	12.57	-1.076372.E-06	-2.332338.E-06
1159	12.58	-1.071245.E-06	-2.321235.E-06
1160	12.59	-1.066148.E-06	-2.310194.E-06
1161	12.60	-1.061078.E-06	-2.299215.E-06
1162	12.61	-1.056037.E-06	-2.288296.E-06
1163	12.62	-1.051024.E-06	-2.277438.E-06
1164	12.63	-1.046038.E-06	-2.266639.E-06
1165	12.64	-1.041080.E-06	-2.255901.E-06
1166	12.65	-1.036149.E-06	-2.245221.E-06
1167	12.66	-1.031246.E-06	-2.234601.E-06
1168	12.67	-1.026369.E-06	-2.224039.E-06
1169	12.68	-1.021520.E-06	-2.213535.E-06
1170	12.69	-1.016697.E-06	-2.203089.E-06
1171	12.70	-1.011901.E-06	-2.192701.E-06
1172	12.71	-1.007131.E-06	-2.182370.E-06
1173	12.72	-1.002387.E-06	-2.172095.E-06
1174	12.73	-9.976694.E-07	-2.161877.E-06
1175	12.74	-9.929777.E-07	-2.151715.E-06
1176	12.75	-9.883116.E-07	-2.141608.E-06
1177	12.76	-9.836712.E-07	-2.131557.E-06
1178	12.77	-9.790561.E-07	-2.121561.E-06
1179	12.78	-9.744663.E-07	-2.111620.E-06
1180	12.79	-9.699015.E-07	-2.101733.E-06
1181	12.80	-9.653617.E-07	-2.091899.E-06
1182	12.81	-9.608466.E-07	-2.082120.E-06
1183	12.82	-9.563562.E-07	-2.072393.E-06
1184	12.83	-9.518903.E-07	-2.062720.E-06
1185	12.84	-9.474486.E-07	-2.053099.E-06
1186	12.85	-9.430311.E-07	-2.043531.E-06
1187	12.86	-9.386376.E-07	-2.034015.E-06
1188	12.87	-9.342680.E-07	-2.024550.E-06
1189	12.88	-9.299221.E-07	-2.015136.E-06
1190	12.89	-9.255998.E-07	-2.005774.E-06
1191	12.90	-9.213009.E-07	-1.996462.E-06
1192	12.91	-9.170252.E-07	-1.987201.E-06
1193	12.92	-9.127727.E-07	-1.977990.E-06
1194	12.93	-9.085432.E-07	-1.968828.E-06
1195	12.94	-9.043365.E-07	-1.959716.E-06
1196	12.95	-9.001526.E-07	-1.950654.E-06
1197	12.96	-8.959912.E-07	-1.941640.E-06
1198	12.97	-8.918522.E-07	-1.932674.E-06
1199	12.98	-8.877355.E-07	-1.923757.E-06
1200	12.99	-8.836410.E-07	-1.914888.E-06
