# DATE: 2024-07-07  UNITS: metal  CONTRIBUTOR: By STUDENT			
# FHEP: Temp 303 [K], mr 0.666666666666667 [g/mol], Sigma 2.765 [A], Epsilon 0.0023712358386385 [eV]			
			
ENTRY			
N 1200 R 1.0 12.99			
			
1	1.00	4.370379E+03	4.294706E+04
2	1.01	3.834813E+03	3.720569E+04
3	1.02	3.369519E+03	3.228184E+04
4	1.03	2.964682E+03	2.805225E+04
5	1.04	2.611938E+03	2.441323E+04
6	1.05	2.304150E+03	2.127741E+04
7	1.06	2.035217E+03	1.857105E+04
8	1.07	1.799915E+03	1.623182E+04
9	1.08	1.593763E+03	1.420691E+04
10	1.09	1.412915E+03	1.245154E+04
11	1.10	1.254061E+03	1.092766E+04
12	1.11	1.114351E+03	9.602873E+03
13	1.12	9.913264E+02	8.449584E+03
14	1.13	8.828630E+02	7.444232E+03
15	1.14	7.871237E+02	6.566671E+03
16	1.15	7.025171E+02	5.799654E+03
17	1.16	6.276630E+02	5.128394E+03
18	1.17	5.613627E+02	4.540192E+03
19	1.18	5.025739E+02	4.024129E+03
20	1.19	4.503888E+02	3.570804E+03
21	1.20	4.040162E+02	3.172111E+03
22	1.21	3.627656E+02	2.821049E+03
23	1.22	3.260334E+02	2.511569E+03
24	1.23	2.932915E+02	2.238433E+03
25	1.24	2.640775E+02	1.997100E+03
26	1.25	2.379857E+02	1.783631E+03
27	1.26	2.146599E+02	1.594602E+03
28	1.27	1.937874E+02	1.427035E+03
29	1.28	1.750926E+02	1.278337E+03
30	1.29	1.583331E+02	1.146245E+03
31	1.30	1.432950E+02	1.028784E+03
32	1.31	1.297895E+02	9.242276E+02
33	1.32	1.176499E+02	8.310661E+02
34	1.33	1.067287E+02	7.479762E+02
35	1.34	9.689539E+01	6.737974E+02
36	1.35	8.803420E+01	6.075111E+02
37	1.36	8.004253E+01	5.482221E+02
38	1.37	7.282927E+01	4.951429E+02
39	1.38	6.631345E+01	4.475798E+02
40	1.39	6.042307E+01	4.049214E+02
41	1.40	5.509400E+01	3.666283E+02
42	1.41	5.026913E+01	3.322238E+02
43	1.42	4.589751E+01	3.012865E+02
44	1.43	4.193366E+01	2.734436E+02
45	1.44	3.833697E+01	2.483647E+02
46	1.45	3.507110E+01	2.257568E+02
47	1.46	3.210356E+01	2.053600E+02
48	1.47	2.940525E+01	1.869435E+02
49	1.48	2.695008E+01	1.703018E+02
50	1.49	2.471464E+01	1.552522E+02
51	1.50	2.267794E+01	1.416321E+02
52	1.51	2.082111E+01	1.292964E+02
53	1.52	1.912717E+01	1.181156E+02
54	1.53	1.758088E+01	1.079743E+02
55	1.54	1.616848E+01	9.876905E+01
56	1.55	1.487760E+01	9.040759E+01
57	1.56	1.369707E+01	8.280722E+01
58	1.57	1.261682E+01	7.589387E+01
59	1.58	1.162775E+01	6.960115E+01
60	1.59	1.072165E+01	6.386947E+01
61	1.60	9.891085E+00	5.864534E+01
62	1.61	9.129333E+00	5.388069E+01
63	1.62	8.430308E+00	4.953230E+01
64	1.63	7.788497E+00	4.556127E+01
65	1.64	7.198903E+00	4.193256E+01
66	1.65	6.656990E+00	3.861461E+01
67	1.66	6.158644E+00	3.557894E+01
68	1.67	5.700128E+00	3.279985E+01
69	1.68	5.278046E+00	3.025414E+01
70	1.69	4.889309E+00	2.792084E+01
71	1.70	4.531106E+00	2.578098E+01
72	1.71	4.200881E+00	2.381740E+01
73	1.72	3.896302E+00	2.201456E+01
74	1.73	3.615247E+00	2.035837E+01
75	1.74	3.355777E+00	1.883607E+01
76	1.75	3.116127E+00	1.743607E+01
77	1.76	2.894681E+00	1.614786E+01
78	1.77	2.689968E+00	1.496188E+01
79	1.78	2.500640E+00	1.386944E+01
80	1.79	2.325465E+00	1.286266E+01
81	1.80	2.163316E+00	1.193434E+01
82	1.81	2.013162E+00	1.107794E+01
83	1.82	1.874059E+00	1.028749E+01
84	1.83	1.745140E+00	9.557557E+00
85	1.84	1.625612E+00	8.883185E+00
86	1.85	1.514748E+00	8.259846E+00
87	1.86	1.411880E+00	7.683407E+00
88	1.87	1.316394E+00	7.150092E+00
89	1.88	1.227727E+00	6.656448E+00
90	1.89	1.145361E+00	6.199319E+00
91	1.90	1.068822E+00	5.775813E+00
92	1.91	9.976699E-01	5.383285E+00
93	1.92	9.315037E-01	5.019312E+00
94	1.93	8.699519E-01	4.681670E+00
95	1.94	8.126732E-01	4.368322E+00
96	1.95	7.593528E-01	4.077399E+00
97	1.96	7.097007E-01	3.807185E+00
98	1.97	6.634493E-01	3.556103E+00
99	1.98	6.203519E-01	3.322705E+00
100	1.99	5.801805E-01	3.105659E+00
101	2.00	5.427250E-01	2.903741E+00
102	2.01	5.077909E-01	2.715824E+00
103	2.02	4.751987E-01	2.540871E+00
104	2.03	4.447823E-01	2.377926E+00
105	2.04	4.163883E-01	2.226108E+00
106	2.05	3.898746E-01	2.084606E+00
107	2.06	3.651097E-01	1.952672E+00
108	2.07	3.419719E-01	1.829614E+00
109	2.08	3.203484E-01	1.714796E+00
110	2.09	3.001347E-01	1.607628E+00
111	2.10	2.812340E-01	1.507567E+00
112	2.11	2.635565E-01	1.414110E+00
113	2.12	2.470188E-01	1.326791E+00
114	2.13	2.315438E-01	1.245182E+00
115	2.14	2.170595E-01	1.168883E+00
116	2.15	2.034994E-01	1.097528E+00
117	2.16	1.908015E-01	1.030774E+00
118	2.17	1.789084E-01	9.683054E-01
119	2.18	1.677667E-01	9.098295E-01
120	2.19	1.573265E-01	8.550745E-01
121	2.20	1.475417E-01	8.037884E-01
122	2.21	1.383693E-01	7.557375E-01
123	2.22	1.297691E-01	7.107047E-01
124	2.23	1.217040E-01	6.684885E-01
125	2.24	1.141392E-01	6.289017E-01
126	2.25	1.070423E-01	5.917703E-01
127	2.26	1.003833E-01	5.569325E-01
128	2.27	9.413405E-02	5.242381E-01
129	2.28	8.826833E-02	4.935470E-01
130	2.29	8.276172E-02	4.647291E-01
131	2.30	7.759143E-02	4.376631E-01
132	2.31	7.273618E-02	4.122363E-01
133	2.32	6.817612E-02	3.883434E-01
134	2.33	6.389271E-02	3.658866E-01
135	2.34	5.986862E-02	3.447744E-01
136	2.35	5.608768E-02	3.249217E-01
137	2.36	5.253476E-02	3.062491E-01
138	2.37	4.919572E-02	2.886825E-01
139	2.38	4.605736E-02	2.721527E-01
140	2.39	4.310730E-02	2.565951E-01
141	2.40	4.033399E-02	2.419495E-01
142	2.41	3.772661E-02	2.281595E-01
143	2.42	3.527502E-02	2.151724E-01
144	2.43	3.296975E-02	2.029390E-01
145	2.44	3.080191E-02	1.914134E-01
146	2.45	2.876319E-02	1.805524E-01
147	2.46	2.684580E-02	1.703158E-01
148	2.47	2.504244E-02	1.606660E-01
149	2.48	2.334626E-02	1.515676E-01
150	2.49	2.175085E-02	1.429876E-01
151	2.50	2.025018E-02	1.348951E-01
152	2.51	1.883863E-02	1.272611E-01
153	2.52	1.751089E-02	1.200584E-01
154	2.53	1.626199E-02	1.132617E-01
155	2.54	1.508728E-02	1.068469E-01
156	2.55	1.398237E-02	1.007918E-01
157	2.56	1.294316E-02	9.507526E-02
158	2.57	1.196579E-02	8.967766E-02
159	2.58	1.104663E-02	8.458048E-02
160	2.59	1.018228E-02	7.976634E-02
161	2.60	9.369539E-03	7.521895E-02
162	2.61	8.605394E-03	7.092298E-02
163	2.62	7.887022E-03	6.686405E-02
164	2.63	7.211763E-03	6.302864E-02
165	2.64	6.577118E-03	5.940402E-02
166	2.65	5.980736E-03	5.597826E-02
167	2.66	5.420405E-03	5.274011E-02
168	2.67	4.894044E-03	4.967900E-02
169	2.68	4.399695E-03	4.678499E-02
170	2.69	3.935514E-03	4.404872E-02
171	2.70	3.499767E-03	4.146138E-02
172	2.71	3.090820E-03	3.901469E-02
173	2.72	2.707136E-03	3.670082E-02
174	2.73	2.347266E-03	3.451243E-02
175	2.74	2.009845E-03	3.244259E-02
176	2.75	1.693588E-03	3.048477E-02
177	2.76	1.397284E-03	2.863282E-02
178	2.77	1.119792E-03	2.688094E-02
179	2.78	8.600361E-04	2.522367E-02
180	2.79	6.170032E-04	2.365584E-02
181	2.80	3.897373E-04	2.217260E-02
182	2.81	1.773374E-04	2.076936E-02
183	2.82	-2.104606E-05	1.944179E-02
184	2.83	-2.062144E-04	1.818581E-02
185	2.84	-3.789231E-04	1.699757E-02
186	2.85	-5.398851E-04	1.587341E-02
187	2.86	-6.897729E-04	1.480992E-02
188	2.87	-8.292207E-04	1.380383E-02
189	2.88	-9.588273E-04	1.285210E-02
190	2.89	-1.079158E-03	1.195181E-02
191	2.90	-1.190745E-03	1.110024E-02
192	2.91	-1.294091E-03	1.029480E-02
193	2.92	-1.389673E-03	9.533050E-03
194	2.93	-1.477938E-03	8.812672E-03
195	2.94	-1.559310E-03	8.131484E-03
196	2.95	-1.634188E-03	7.487422E-03
197	2.96	-1.702949E-03	6.878532E-03
198	2.97	-1.765950E-03	6.302964E-03
199	2.98	-1.823528E-03	5.758972E-03
200	2.99	-1.875999E-03	5.244900E-03
201	3.00	-1.923665E-03	4.759182E-03
202	3.01	-1.966809E-03	4.300338E-03
203	3.02	-2.005698E-03	3.866964E-03
204	3.03	-2.040585E-03	3.457732E-03
205	3.04	-2.071709E-03	3.071384E-03
206	3.05	-2.099297E-03	2.706730E-03
207	3.06	-2.123560E-03	2.362641E-03
208	3.07	-2.144701E-03	2.038049E-03
209	3.08	-2.162909E-03	1.731942E-03
210	3.09	-2.178365E-03	1.443360E-03
211	3.10	-2.191238E-03	1.171395E-03
212	3.11	-2.201688E-03	9.151859E-04
213	3.12	-2.209867E-03	6.739152E-04
214	3.13	-2.215918E-03	4.468096E-04
215	3.14	-2.219977E-03	2.331352E-04
216	3.15	-2.222171E-03	3.219634E-05
217	3.16	-2.222620E-03	-1.566666E-04
218	3.17	-2.221439E-03	-3.340792E-04
219	3.18	-2.218736E-03	-5.006349E-04
220	3.19	-2.214611E-03	-6.568965E-04
221	3.20	-2.209161E-03	-8.033979E-04
222	3.21	-2.202477E-03	-9.406455E-04
223	3.22	-2.194644E-03	-1.069120E-03
224	3.23	-2.185742E-03	-1.189278E-03
225	3.24	-2.175849E-03	-1.301551E-03
226	3.25	-2.165037E-03	-1.406350E-03
227	3.26	-2.153372E-03	-1.504066E-03
228	3.27	-2.140920E-03	-1.595067E-03
229	3.28	-2.127741E-03	-1.679706E-03
230	3.29	-2.113892E-03	-1.758316E-03
231	3.30	-2.099426E-03	-1.831213E-03
232	3.31	-2.084396E-03	-1.898698E-03
233	3.32	-2.068847E-03	-1.961056E-03
234	3.33	-2.052827E-03	-2.018559E-03
235	3.34	-2.036377E-03	-2.071462E-03
236	3.35	-2.019537E-03	-2.120012E-03
237	3.36	-2.002345E-03	-2.164439E-03
238	3.37	-1.984837E-03	-2.204964E-03
239	3.38	-1.967046E-03	-2.241797E-03
240	3.39	-1.949004E-03	-2.275137E-03
241	3.40	-1.930740E-03	-2.305171E-03
242	3.41	-1.912282E-03	-2.332081E-03
243	3.42	-1.893657E-03	-2.356035E-03
244	3.43	-1.874889E-03	-2.377196E-03
245	3.44	-1.856001E-03	-2.395717E-03
246	3.45	-1.837016E-03	-2.411746E-03
247	3.46	-1.817953E-03	-2.425419E-03
248	3.47	-1.798831E-03	-2.436870E-03
249	3.48	-1.779669E-03	-2.446223E-03
250	3.49	-1.760484E-03	-2.453597E-03
251	3.50	-1.741291E-03	-2.459106E-03
252	3.51	-1.722104E-03	-2.462856E-03
253	3.52	-1.702938E-03	-2.464949E-03
254	3.53	-1.683806E-03	-2.465483E-03
255	3.54	-1.664719E-03	-2.464550E-03
256	3.55	-1.645688E-03	-2.462235E-03
257	3.56	-1.626725E-03	-2.458624E-03
258	3.57	-1.607839E-03	-2.453794E-03
259	3.58	-1.589038E-03	-2.447820E-03
260	3.59	-1.570332E-03	-2.440774E-03
261	3.60	-1.551728E-03	-2.432723E-03
262	3.61	-1.533233E-03	-2.423730E-03
263	3.62	-1.514854E-03	-2.413857E-03
264	3.63	-1.496597E-03	-2.403162E-03
265	3.64	-1.478467E-03	-2.391698E-03
266	3.65	-1.460470E-03	-2.379520E-03
267	3.66	-1.442611E-03	-2.366674E-03
268	3.67	-1.424894E-03	-2.353210E-03
269	3.68	-1.407322E-03	-2.339170E-03
270	3.69	-1.389900E-03	-2.324598E-03
271	3.70	-1.372631E-03	-2.309533E-03
272	3.71	-1.355517E-03	-2.294013E-03
273	3.72	-1.338561E-03	-2.278074E-03
274	3.73	-1.321766E-03	-2.261750E-03
275	3.74	-1.305134E-03	-2.245074E-03
276	3.75	-1.288665E-03	-2.228076E-03
277	3.76	-1.272363E-03	-2.210785E-03
278	3.77	-1.256228E-03	-2.193229E-03
279	3.78	-1.240262E-03	-2.175434E-03
280	3.79	-1.224465E-03	-2.157424E-03
281	3.80	-1.208837E-03	-2.139223E-03
282	3.81	-1.193381E-03	-2.120853E-03
283	3.82	-1.178095E-03	-2.102334E-03
284	3.83	-1.162981E-03	-2.083687E-03
285	3.84	-1.148038E-03	-2.064930E-03
286	3.85	-1.133267E-03	-2.046081E-03
287	3.86	-1.118666E-03	-2.027157E-03
288	3.87	-1.104237E-03	-2.008172E-03
289	3.88	-1.089978E-03	-1.989143E-03
290	3.89	-1.075889E-03	-1.970083E-03
291	3.90	-1.061969E-03	-1.951005E-03
292	3.91	-1.048218E-03	-1.931922E-03
293	3.92	-1.034635E-03	-1.912846E-03
294	3.93	-1.021219E-03	-1.893787E-03
295	3.94	-1.007969E-03	-1.874756E-03
296	3.95	-9.948843E-04	-1.855763E-03
297	3.96	-9.819637E-04	-1.836816E-03
298	3.97	-9.692060E-04	-1.817925E-03
299	3.98	-9.566102E-04	-1.799098E-03
300	3.99	-9.441750E-04	-1.780342E-03
301	4.00	-9.318992E-04	-1.761664E-03
302	4.01	-9.197816E-04	-1.743070E-03
303	4.02	-9.078206E-04	-1.724568E-03
304	4.03	-8.960151E-04	-1.706163E-03
305	4.04	-8.843635E-04	-1.687860E-03
306	4.05	-8.728646E-04	-1.669664E-03
307	4.06	-8.615168E-04	-1.651579E-03
308	4.07	-8.503186E-04	-1.633611E-03
309	4.08	-8.392687E-04	-1.615763E-03
310	4.09	-8.283654E-04	-1.598039E-03
311	4.10	-8.176073E-04	-1.580442E-03
312	4.11	-8.069929E-04	-1.562975E-03
313	4.12	-7.965205E-04	-1.545641E-03
314	4.13	-7.861887E-04	-1.528443E-03
315	4.14	-7.759958E-04	-1.511383E-03
316	4.15	-7.659404E-04	-1.494464E-03
317	4.16	-7.560208E-04	-1.477687E-03
318	4.17	-7.462356E-04	-1.461053E-03
319	4.18	-7.365830E-04	-1.444566E-03
320	4.19	-7.270616E-04	-1.428225E-03
321	4.20	-7.176698E-04	-1.412032E-03
322	4.21	-7.084061E-04	-1.395988E-03
323	4.22	-6.992687E-04	-1.380095E-03
324	4.23	-6.902563E-04	-1.364352E-03
325	4.24	-6.813672E-04	-1.348761E-03
326	4.25	-6.725999E-04	-1.333322E-03
327	4.26	-6.639529E-04	-1.318034E-03
328	4.27	-6.554246E-04	-1.302900E-03
329	4.28	-6.470136E-04	-1.287918E-03
330	4.29	-6.387182E-04	-1.273089E-03
331	4.30	-6.305370E-04	-1.258412E-03
332	4.31	-6.224686E-04	-1.243888E-03
333	4.32	-6.145113E-04	-1.229517E-03
334	4.33	-6.066639E-04	-1.215297E-03
335	4.34	-5.989247E-04	-1.201229E-03
336	4.35	-5.912923E-04	-1.187312E-03
337	4.36	-5.837654E-04	-1.173545E-03
338	4.37	-5.763424E-04	-1.159929E-03
339	4.38	-5.690220E-04	-1.146462E-03
340	4.39	-5.618029E-04	-1.133144E-03
341	4.40	-5.546835E-04	-1.119974E-03
342	4.41	-5.476625E-04	-1.106951E-03
343	4.42	-5.407387E-04	-1.094074E-03
344	4.43	-5.339105E-04	-1.081342E-03
345	4.44	-5.271768E-04	-1.068756E-03
346	4.45	-5.205362E-04	-1.056313E-03
347	4.46	-5.139874E-04	-1.044012E-03
348	4.47	-5.075291E-04	-1.031853E-03
349	4.48	-5.011601E-04	-1.019835E-03
350	4.49	-4.948790E-04	-1.007956E-03
351	4.50	-4.886847E-04	-9.962150E-04
352	4.51	-4.825760E-04	-9.846117E-04
353	4.52	-4.765515E-04	-9.731445E-04
354	4.53	-4.706102E-04	-9.618122E-04
355	4.54	-4.647509E-04	-9.506138E-04
356	4.55	-4.589723E-04	-9.395481E-04
357	4.56	-4.532733E-04	-9.286138E-04
358	4.57	-4.476528E-04	-9.178097E-04
359	4.58	-4.421097E-04	-9.071346E-04
360	4.59	-4.366429E-04	-8.965873E-04
361	4.60	-4.312512E-04	-8.861665E-04
362	4.61	-4.259337E-04	-8.758711E-04
363	4.62	-4.206891E-04	-8.656998E-04
364	4.63	-4.155165E-04	-8.556513E-04
365	4.64	-4.104148E-04	-8.457244E-04
366	4.65	-4.053831E-04	-8.359178E-04
367	4.66	-4.004202E-04	-8.262302E-04
368	4.67	-3.955253E-04	-8.166605E-04
369	4.68	-3.906973E-04	-8.072074E-04
370	4.69	-3.859352E-04	-7.978696E-04
371	4.70	-3.812382E-04	-7.886458E-04
372	4.71	-3.766052E-04	-7.795348E-04
373	4.72	-3.720353E-04	-7.705355E-04
374	4.73	-3.675276E-04	-7.616464E-04
375	4.74	-3.630813E-04	-7.528665E-04
376	4.75	-3.586953E-04	-7.441944E-04
377	4.76	-3.543690E-04	-7.356290E-04
378	4.77	-3.501013E-04	-7.271689E-04
379	4.78	-3.458914E-04	-7.188131E-04
380	4.79	-3.417385E-04	-7.105603E-04
381	4.80	-3.376418E-04	-7.024093E-04
382	4.81	-3.336004E-04	-6.943589E-04
383	4.82	-3.296136E-04	-6.864079E-04
384	4.83	-3.256805E-04	-6.785551E-04
385	4.84	-3.218003E-04	-6.707994E-04
386	4.85	-3.179724E-04	-6.631397E-04
387	4.86	-3.141959E-04	-6.555747E-04
388	4.87	-3.104701E-04	-6.481033E-04
389	4.88	-3.067943E-04	-6.407244E-04
390	4.89	-3.031676E-04	-6.334369E-04
391	4.90	-2.995895E-04	-6.262396E-04
392	4.91	-2.960592E-04	-6.191315E-04
393	4.92	-2.925761E-04	-6.121114E-04
394	4.93	-2.891393E-04	-6.051783E-04
395	4.94	-2.857483E-04	-5.983310E-04
396	4.95	-2.824024E-04	-5.915686E-04
397	4.96	-2.791010E-04	-5.848900E-04
398	4.97	-2.758434E-04	-5.782941E-04
399	4.98	-2.726289E-04	-5.717798E-04
400	4.99	-2.694569E-04	-5.653463E-04
401	5.00	-2.663269E-04	-5.589924E-04
402	5.01	-2.632382E-04	-5.527171E-04
403	5.02	-2.601903E-04	-5.465195E-04
404	5.03	-2.571824E-04	-5.403986E-04
405	5.04	-2.542142E-04	-5.343534E-04
406	5.05	-2.512849E-04	-5.283829E-04
407	5.06	-2.483940E-04	-5.224862E-04
408	5.07	-2.455410E-04	-5.166624E-04
409	5.08	-2.427254E-04	-5.109105E-04
410	5.09	-2.399465E-04	-5.052295E-04
411	5.10	-2.372039E-04	-4.996187E-04
412	5.11	-2.344970E-04	-4.940771E-04
413	5.12	-2.318254E-04	-4.886038E-04
414	5.13	-2.291885E-04	-4.831979E-04
415	5.14	-2.265858E-04	-4.778586E-04
416	5.15	-2.240168E-04	-4.725850E-04
417	5.16	-2.214811E-04	-4.673763E-04
418	5.17	-2.189782E-04	-4.622315E-04
419	5.18	-2.165076E-04	-4.571500E-04
420	5.19	-2.140689E-04	-4.521308E-04
421	5.20	-2.116615E-04	-4.471733E-04
422	5.21	-2.092851E-04	-4.422765E-04
423	5.22	-2.069392E-04	-4.374396E-04
424	5.23	-2.046234E-04	-4.326620E-04
425	5.24	-2.023372E-04	-4.279429E-04
426	5.25	-2.000803E-04	-4.232814E-04
427	5.26	-1.978522E-04	-4.186768E-04
428	5.27	-1.956524E-04	-4.141285E-04
429	5.28	-1.934807E-04	-4.096356E-04
430	5.29	-1.913366E-04	-4.051974E-04
431	5.30	-1.892197E-04	-4.008133E-04
432	5.31	-1.871297E-04	-3.964825E-04
433	5.32	-1.850661E-04	-3.922043E-04
434	5.33	-1.830286E-04	-3.879781E-04
435	5.34	-1.810168E-04	-3.838032E-04
436	5.35	-1.790304E-04	-3.796788E-04
437	5.36	-1.770690E-04	-3.756044E-04
438	5.37	-1.751322E-04	-3.715793E-04
439	5.38	-1.732198E-04	-3.676029E-04
440	5.39	-1.713313E-04	-3.636745E-04
441	5.40	-1.694664E-04	-3.597935E-04
442	5.41	-1.676249E-04	-3.559592E-04
443	5.42	-1.658063E-04	-3.521711E-04
444	5.43	-1.640104E-04	-3.484286E-04
445	5.44	-1.622368E-04	-3.447311E-04
446	5.45	-1.604853E-04	-3.410779E-04
447	5.46	-1.587555E-04	-3.374686E-04
448	5.47	-1.570472E-04	-3.339025E-04
449	5.48	-1.553599E-04	-3.303791E-04
450	5.49	-1.536935E-04	-3.268978E-04
451	5.50	-1.520477E-04	-3.234581E-04
452	5.51	-1.504221E-04	-3.200594E-04
453	5.52	-1.488165E-04	-3.167013E-04
454	5.53	-1.472307E-04	-3.133831E-04
455	5.54	-1.456642E-04	-3.101043E-04
456	5.55	-1.441170E-04	-3.068645E-04
457	5.56	-1.425887E-04	-3.036632E-04
458	5.57	-1.410790E-04	-3.004998E-04
459	5.58	-1.395877E-04	-2.973739E-04
460	5.59	-1.381146E-04	-2.942849E-04
461	5.60	-1.366594E-04	-2.912324E-04
462	5.61	-1.352218E-04	-2.882159E-04
463	5.62	-1.338017E-04	-2.852350E-04
464	5.63	-1.323987E-04	-2.822892E-04
465	5.64	-1.310127E-04	-2.793780E-04
466	5.65	-1.296435E-04	-2.765010E-04
467	5.66	-1.282907E-04	-2.736578E-04
468	5.67	-1.269541E-04	-2.708478E-04
469	5.68	-1.256337E-04	-2.680708E-04
470	5.69	-1.243290E-04	-2.653262E-04
471	5.70	-1.230400E-04	-2.626137E-04
472	5.71	-1.217664E-04	-2.599328E-04
473	5.72	-1.205080E-04	-2.572831E-04
474	5.73	-1.192646E-04	-2.546643E-04
475	5.74	-1.180360E-04	-2.520759E-04
476	5.75	-1.168220E-04	-2.495175E-04
477	5.76	-1.156225E-04	-2.469888E-04
478	5.77	-1.144371E-04	-2.444894E-04
479	5.78	-1.132657E-04	-2.420188E-04
480	5.79	-1.121082E-04	-2.395768E-04
481	5.80	-1.109644E-04	-2.371630E-04
482	5.81	-1.098340E-04	-2.347770E-04
483	5.82	-1.087169E-04	-2.324184E-04
484	5.83	-1.076130E-04	-2.300870E-04
485	5.84	-1.065219E-04	-2.277823E-04
486	5.85	-1.054437E-04	-2.255040E-04
487	5.86	-1.043781E-04	-2.232518E-04
488	5.87	-1.033249E-04	-2.210254E-04
489	5.88	-1.022840E-04	-2.188244E-04
490	5.89	-1.012552E-04	-2.166485E-04
491	5.90	-1.002383E-04	-2.144974E-04
492	5.91	-9.923327E-05	-2.123707E-04
493	5.92	-9.823987E-05	-2.102683E-04
494	5.93	-9.725797E-05	-2.081897E-04
495	5.94	-9.628741E-05	-2.061346E-04
496	5.95	-9.532805E-05	-2.041028E-04
497	5.96	-9.437973E-05	-2.020940E-04
498	5.97	-9.344233E-05	-2.001078E-04
499	5.98	-9.251569E-05	-1.981441E-04
500	5.99	-9.159968E-05	-1.962025E-04
501	6.00	-9.069416E-05	-1.942827E-04
502	6.01	-8.979899E-05	-1.923844E-04
503	6.02	-8.891404E-05	-1.905075E-04
504	6.03	-8.803918E-05	-1.886516E-04
505	6.04	-8.717428E-05	-1.868165E-04
506	6.05	-8.631920E-05	-1.850018E-04
507	6.06	-8.547384E-05	-1.832074E-04
508	6.07	-8.463805E-05	-1.814330E-04
509	6.08	-8.381172E-05	-1.796784E-04
510	6.09	-8.299472E-05	-1.779433E-04
511	6.10	-8.218695E-05	-1.762274E-04
512	6.11	-8.138827E-05	-1.745305E-04
513	6.12	-8.059858E-05	-1.728525E-04
514	6.13	-7.981776E-05	-1.711930E-04
515	6.14	-7.904569E-05	-1.695518E-04
516	6.15	-7.828227E-05	-1.679287E-04
517	6.16	-7.752739E-05	-1.663235E-04
518	6.17	-7.678094E-05	-1.647360E-04
519	6.18	-7.604281E-05	-1.631659E-04
520	6.19	-7.531290E-05	-1.616130E-04
521	6.20	-7.459110E-05	-1.600771E-04
522	6.21	-7.387731E-05	-1.585581E-04
523	6.22	-7.317144E-05	-1.570556E-04
524	6.23	-7.247338E-05	-1.555695E-04
525	6.24	-7.178303E-05	-1.540997E-04
526	6.25	-7.110030E-05	-1.526458E-04
527	6.26	-7.042510E-05	-1.512077E-04
528	6.27	-6.975732E-05	-1.497852E-04
529	6.28	-6.909688E-05	-1.483782E-04
530	6.29	-6.844369E-05	-1.469864E-04
531	6.30	-6.779765E-05	-1.456096E-04
532	6.31	-6.715868E-05	-1.442477E-04
533	6.32	-6.652669E-05	-1.429005E-04
534	6.33	-6.590159E-05	-1.415678E-04
535	6.34	-6.528330E-05	-1.402494E-04
536	6.35	-6.467174E-05	-1.389452E-04
537	6.36	-6.406681E-05	-1.376550E-04
538	6.37	-6.346845E-05	-1.363786E-04
539	6.38	-6.287656E-05	-1.351158E-04
540	6.39	-6.229107E-05	-1.338666E-04
541	6.40	-6.171191E-05	-1.326306E-04
542	6.41	-6.113899E-05	-1.314079E-04
543	6.42	-6.057223E-05	-1.301981E-04
544	6.43	-6.001157E-05	-1.290012E-04
545	6.44	-5.945693E-05	-1.278170E-04
546	6.45	-5.890823E-05	-1.266453E-04
547	6.46	-5.836541E-05	-1.254861E-04
548	6.47	-5.782839E-05	-1.243391E-04
549	6.48	-5.729709E-05	-1.232042E-04
550	6.49	-5.677146E-05	-1.220812E-04
551	6.50	-5.625143E-05	-1.209701E-04
552	6.51	-5.573692E-05	-1.198707E-04
553	6.52	-5.522787E-05	-1.187828E-04
554	6.53	-5.472421E-05	-1.177063E-04
555	6.54	-5.422588E-05	-1.166411E-04
556	6.55	-5.373282E-05	-1.155870E-04
557	6.56	-5.324496E-05	-1.145440E-04
558	6.57	-5.276224E-05	-1.135118E-04
559	6.58	-5.228460E-05	-1.124903E-04
560	6.59	-5.181197E-05	-1.114795E-04
561	6.60	-5.134430E-05	-1.104792E-04
562	6.61	-5.088154E-05	-1.094893E-04
563	6.62	-5.042361E-05	-1.085096E-04
564	6.63	-4.997047E-05	-1.075400E-04
565	6.64	-4.952205E-05	-1.065805E-04
566	6.65	-4.907830E-05	-1.056309E-04
567	6.66	-4.863917E-05	-1.046910E-04
568	6.67	-4.820460E-05	-1.037608E-04
569	6.68	-4.777454E-05	-1.028402E-04
570	6.69	-4.734893E-05	-1.019290E-04
571	6.70	-4.692773E-05	-1.010272E-04
572	6.71	-4.651087E-05	-1.001346E-04
573	6.72	-4.609831E-05	-9.925113E-05
574	6.73	-4.569000E-05	-9.837668E-05
575	6.74	-4.528589E-05	-9.751113E-05
576	6.75	-4.488594E-05	-9.665440E-05
577	6.76	-4.449008E-05	-9.580638E-05
578	6.77	-4.409828E-05	-9.496698E-05
579	6.78	-4.371048E-05	-9.413608E-05
580	6.79	-4.332664E-05	-9.331360E-05
581	6.80	-4.294672E-05	-9.249944E-05
582	6.81	-4.257067E-05	-9.169350E-05
583	6.82	-4.219844E-05	-9.089569E-05
584	6.83	-4.182999E-05	-9.010592E-05
585	6.84	-4.146528E-05	-8.932409E-05
586	6.85	-4.110426E-05	-8.855012E-05
587	6.86	-4.074690E-05	-8.778391E-05
588	6.87	-4.039314E-05	-8.702538E-05
589	6.88	-4.004295E-05	-8.627444E-05
590	6.89	-3.969629E-05	-8.553101E-05
591	6.90	-3.935311E-05	-8.479500E-05
592	6.91	-3.901338E-05	-8.406632E-05
593	6.92	-3.867706E-05	-8.334490E-05
594	6.93	-3.834410E-05	-8.263065E-05
595	6.94	-3.801448E-05	-8.192349E-05
596	6.95	-3.768814E-05	-8.122334E-05
597	6.96	-3.736507E-05	-8.053013E-05
598	6.97	-3.704521E-05	-7.984377E-05
599	6.98	-3.672853E-05	-7.916419E-05
600	6.99	-3.641500E-05	-7.849131E-05
601	7.00	-3.610458E-05	-7.782506E-05
602	7.01	-3.579723E-05	-7.716537E-05
603	7.02	-3.549292E-05	-7.651215E-05
604	7.03	-3.519162E-05	-7.586535E-05
605	7.04	-3.489329E-05	-7.522488E-05
606	7.05	-3.459790E-05	-7.459068E-05
607	7.06	-3.430542E-05	-7.396268E-05
608	7.07	-3.401581E-05	-7.334081E-05
609	7.08	-3.372905E-05	-7.272500E-05
610	7.09	-3.344509E-05	-7.211518E-05
611	7.10	-3.316391E-05	-7.151130E-05
612	7.11	-3.288548E-05	-7.091328E-05
613	7.12	-3.260976E-05	-7.032105E-05
614	7.13	-3.233674E-05	-6.973456E-05
615	7.14	-3.206637E-05	-6.915375E-05
616	7.15	-3.179863E-05	-6.857854E-05
617	7.16	-3.153348E-05	-6.800889E-05
618	7.17	-3.127091E-05	-6.744472E-05
619	7.18	-3.101088E-05	-6.688598E-05
620	7.19	-3.075336E-05	-6.633261E-05
621	7.20	-3.049833E-05	-6.578455E-05
622	7.21	-3.024576E-05	-6.524174E-05
623	7.22	-2.999562E-05	-6.470413E-05
624	7.23	-2.974788E-05	-6.417165E-05
625	7.24	-2.950252E-05	-6.364427E-05
626	7.25	-2.925952E-05	-6.312191E-05
627	7.26	-2.901884E-05	-6.260452E-05
628	7.27	-2.878047E-05	-6.209205E-05
629	7.28	-2.854437E-05	-6.158446E-05
630	7.29	-2.831052E-05	-6.108167E-05
631	7.30	-2.807891E-05	-6.058366E-05
632	7.31	-2.784949E-05	-6.009035E-05
633	7.32	-2.762226E-05	-5.960170E-05
634	7.33	-2.739718E-05	-5.911767E-05
635	7.34	-2.717423E-05	-5.863820E-05
636	7.35	-2.695340E-05	-5.816324E-05
637	7.36	-2.673465E-05	-5.769275E-05
638	7.37	-2.651796E-05	-5.722667E-05
639	7.38	-2.630332E-05	-5.676496E-05
640	7.39	-2.609070E-05	-5.630758E-05
641	7.40	-2.588008E-05	-5.585448E-05
642	7.41	-2.567143E-05	-5.540561E-05
643	7.42	-2.546474E-05	-5.496093E-05
644	7.43	-2.525999E-05	-5.452039E-05
645	7.44	-2.505715E-05	-5.408395E-05
646	7.45	-2.485621E-05	-5.365157E-05
647	7.46	-2.465714E-05	-5.322320E-05
648	7.47	-2.445992E-05	-5.279880E-05
649	7.48	-2.426454E-05	-5.237833E-05
650	7.49	-2.407098E-05	-5.196175E-05
651	7.50	-2.387921E-05	-5.154902E-05
652	7.51	-2.368922E-05	-5.114009E-05
653	7.52	-2.350099E-05	-5.073493E-05
654	7.53	-2.331449E-05	-5.033350E-05
655	7.54	-2.312972E-05	-4.993576E-05
656	7.55	-2.294665E-05	-4.954167E-05
657	7.56	-2.276527E-05	-4.915119E-05
658	7.57	-2.258556E-05	-4.876428E-05
659	7.58	-2.240749E-05	-4.838091E-05
660	7.59	-2.223106E-05	-4.800105E-05
661	7.60	-2.205625E-05	-4.762464E-05
662	7.61	-2.188303E-05	-4.725167E-05
663	7.62	-2.171140E-05	-4.688209E-05
664	7.63	-2.154134E-05	-4.651587E-05
665	7.64	-2.137282E-05	-4.615297E-05
666	7.65	-2.120584E-05	-4.579335E-05
667	7.66	-2.104037E-05	-4.543700E-05
668	7.67	-2.087641E-05	-4.508387E-05
669	7.68	-2.071393E-05	-4.473392E-05
670	7.69	-2.055293E-05	-4.438713E-05
671	7.70	-2.039338E-05	-4.404347E-05
672	7.71	-2.023528E-05	-4.370289E-05
673	7.72	-2.007859E-05	-4.336538E-05
674	7.73	-1.992333E-05	-4.303089E-05
675	7.74	-1.976945E-05	-4.269941E-05
676	7.75	-1.961697E-05	-4.237089E-05
677	7.76	-1.946585E-05	-4.204530E-05
678	7.77	-1.931608E-05	-4.172263E-05
679	7.78	-1.916766E-05	-4.140283E-05
680	7.79	-1.902056E-05	-4.108588E-05
681	7.80	-1.887477E-05	-4.077175E-05
682	7.81	-1.873029E-05	-4.046041E-05
683	7.82	-1.858709E-05	-4.015184E-05
684	7.83	-1.844517E-05	-3.984600E-05
685	7.84	-1.830451E-05	-3.954287E-05
686	7.85	-1.816510E-05	-3.924242E-05
687	7.86	-1.802692E-05	-3.894462E-05
688	7.87	-1.788997E-05	-3.864945E-05
689	7.88	-1.775423E-05	-3.835687E-05
690	7.89	-1.761968E-05	-3.806688E-05
691	7.90	-1.748632E-05	-3.777943E-05
692	7.91	-1.735414E-05	-3.749451E-05
693	7.92	-1.722312E-05	-3.721208E-05
694	7.93	-1.709325E-05	-3.693212E-05
695	7.94	-1.696453E-05	-3.665462E-05
696	7.95	-1.683693E-05	-3.637954E-05
697	7.96	-1.671044E-05	-3.610686E-05
698	7.97	-1.658507E-05	-3.583655E-05
699	7.98	-1.646078E-05	-3.556860E-05
700	7.99	-1.633759E-05	-3.530298E-05
701	8.00	-1.621546E-05	-3.503966E-05
702	8.01	-1.609440E-05	-3.477862E-05
703	8.02	-1.597439E-05	-3.451985E-05
704	8.03	-1.585542E-05	-3.426332E-05
705	8.04	-1.573748E-05	-3.400900E-05
706	8.05	-1.562057E-05	-3.375688E-05
707	8.06	-1.550466E-05	-3.350693E-05
708	8.07	-1.538976E-05	-3.325913E-05
709	8.08	-1.527585E-05	-3.301347E-05
710	8.09	-1.516292E-05	-3.276991E-05
711	8.10	-1.505096E-05	-3.252845E-05
712	8.11	-1.493996E-05	-3.228905E-05
713	8.12	-1.482992E-05	-3.205170E-05
714	8.13	-1.472082E-05	-3.181638E-05
715	8.14	-1.461265E-05	-3.158307E-05
716	8.15	-1.450541E-05	-3.135175E-05
717	8.16	-1.439909E-05	-3.112240E-05
718	8.17	-1.429367E-05	-3.089500E-05
719	8.18	-1.418915E-05	-3.066954E-05
720	8.19	-1.408552E-05	-3.044599E-05
721	8.20	-1.398277E-05	-3.022433E-05
722	8.21	-1.388090E-05	-3.000455E-05
723	8.22	-1.377989E-05	-2.978663E-05
724	8.23	-1.367973E-05	-2.957055E-05
725	8.24	-1.358043E-05	-2.935629E-05
726	8.25	-1.348196E-05	-2.914384E-05
727	8.26	-1.338432E-05	-2.893317E-05
728	8.27	-1.328751E-05	-2.872428E-05
729	8.28	-1.319151E-05	-2.851714E-05
730	8.29	-1.309632E-05	-2.831174E-05
731	8.30	-1.300193E-05	-2.810807E-05
732	8.31	-1.290833E-05	-2.790609E-05
733	8.32	-1.281552E-05	-2.770580E-05
734	8.33	-1.272348E-05	-2.750719E-05
735	8.34	-1.263221E-05	-2.731023E-05
736	8.35	-1.254171E-05	-2.711492E-05
737	8.36	-1.245196E-05	-2.692122E-05
738	8.37	-1.236295E-05	-2.672914E-05
739	8.38	-1.227469E-05	-2.653865E-05
740	8.39	-1.218716E-05	-2.634975E-05
741	8.40	-1.210036E-05	-2.616240E-05
742	8.41	-1.201428E-05	-2.597661E-05
743	8.42	-1.192891E-05	-2.579235E-05
744	8.43	-1.184425E-05	-2.560961E-05
745	8.44	-1.176029E-05	-2.542838E-05
746	8.45	-1.167702E-05	-2.524864E-05
747	8.46	-1.159444E-05	-2.507038E-05
748	8.47	-1.151253E-05	-2.489358E-05
749	8.48	-1.143131E-05	-2.471823E-05
750	8.49	-1.135074E-05	-2.454432E-05
751	8.50	-1.127084E-05	-2.437184E-05
752	8.51	-1.119160E-05	-2.420076E-05
753	8.52	-1.111300E-05	-2.403108E-05
754	8.53	-1.103505E-05	-2.386279E-05
755	8.54	-1.095773E-05	-2.369587E-05
756	8.55	-1.088105E-05	-2.353031E-05
757	8.56	-1.080499E-05	-2.336609E-05
758	8.57	-1.072954E-05	-2.320320E-05
759	8.58	-1.065472E-05	-2.304164E-05
760	8.59	-1.058050E-05	-2.288139E-05
761	8.60	-1.050688E-05	-2.272243E-05
762	8.61	-1.043385E-05	-2.256476E-05
763	8.62	-1.036142E-05	-2.240836E-05
764	8.63	-1.028958E-05	-2.225323E-05
765	8.64	-1.021831E-05	-2.209934E-05
766	8.65	-1.014762E-05	-2.194669E-05
767	8.66	-1.007750E-05	-2.179527E-05
768	8.67	-1.000795E-05	-2.164507E-05
769	8.68	-9.938949E-06	-2.149607E-05
770	8.69	-9.870505E-06	-2.134826E-05
771	8.70	-9.802611E-06	-2.120164E-05
772	8.71	-9.735261E-06	-2.105619E-05
773	8.72	-9.668449E-06	-2.091190E-05
774	8.73	-9.602172E-06	-2.076876E-05
775	8.74	-9.536423E-06	-2.062676E-05
776	8.75	-9.471199E-06	-2.048589E-05
777	8.76	-9.406495E-06	-2.034614E-05
778	8.77	-9.342306E-06	-2.020750E-05
779	8.78	-9.278626E-06	-2.006996E-05
780	8.79	-9.215452E-06	-1.993351E-05
781	8.80	-9.152780E-06	-1.979814E-05
782	8.81	-9.090603E-06	-1.966384E-05
783	8.82	-9.028919E-06	-1.953060E-05
784	8.83	-8.967722E-06	-1.939841E-05
785	8.84	-8.907008E-06	-1.926726E-05
786	8.85	-8.846773E-06	-1.913715E-05
787	8.86	-8.787012E-06	-1.900805E-05
788	8.87	-8.727722E-06	-1.887998E-05
789	8.88	-8.668898E-06	-1.875290E-05
790	8.89	-8.610535E-06	-1.862682E-05
791	8.90	-8.552630E-06	-1.850173E-05
792	8.91	-8.495179E-06	-1.837762E-05
793	8.92	-8.438177E-06	-1.825447E-05
794	8.93	-8.381621E-06	-1.813229E-05
795	8.94	-8.325506E-06	-1.801105E-05
796	8.95	-8.269829E-06	-1.789077E-05
797	8.96	-8.214586E-06	-1.777141E-05
798	8.97	-8.159772E-06	-1.765299E-05
799	8.98	-8.105385E-06	-1.753548E-05
800	8.99	-8.051420E-06	-1.741888E-05
801	9.00	-7.997873E-06	-1.730319E-05
802	9.01	-7.944741E-06	-1.718839E-05
803	9.02	-7.892020E-06	-1.707448E-05
804	9.03	-7.839707E-06	-1.696144E-05
805	9.04	-7.787798E-06	-1.684928E-05
806	9.05	-7.736289E-06	-1.673798E-05
807	9.06	-7.685177E-06	-1.662754E-05
808	9.07	-7.634459E-06	-1.651794E-05
809	9.08	-7.584130E-06	-1.640919E-05
810	9.09	-7.534188E-06	-1.630127E-05
811	9.10	-7.484629E-06	-1.619417E-05
812	9.11	-7.435449E-06	-1.608790E-05
813	9.12	-7.386646E-06	-1.598243E-05
814	9.13	-7.338217E-06	-1.587778E-05
815	9.14	-7.290157E-06	-1.577392E-05
816	9.15	-7.242464E-06	-1.567085E-05
817	9.16	-7.195134E-06	-1.556856E-05
818	9.17	-7.148165E-06	-1.546706E-05
819	9.18	-7.101552E-06	-1.536632E-05
820	9.19	-7.055294E-06	-1.526635E-05
821	9.20	-7.009387E-06	-1.516713E-05
822	9.21	-6.963828E-06	-1.506867E-05
823	9.22	-6.918614E-06	-1.497095E-05
824	9.23	-6.873742E-06	-1.487397E-05
825	9.24	-6.829209E-06	-1.477771E-05
826	9.25	-6.785012E-06	-1.468219E-05
827	9.26	-6.741148E-06	-1.458738E-05
828	9.27	-6.697615E-06	-1.449329E-05
829	9.28	-6.654409E-06	-1.439990E-05
830	9.29	-6.611528E-06	-1.430722E-05
831	9.30	-6.568969E-06	-1.421522E-05
832	9.31	-6.526729E-06	-1.412392E-05
833	9.32	-6.484805E-06	-1.403330E-05
834	9.33	-6.443195E-06	-1.394336E-05
835	9.34	-6.401896E-06	-1.385409E-05
836	9.35	-6.360906E-06	-1.376548E-05
837	9.36	-6.320221E-06	-1.367754E-05
838	9.37	-6.279840E-06	-1.359025E-05
839	9.38	-6.239759E-06	-1.350360E-05
840	9.39	-6.199976E-06	-1.341760E-05
841	9.40	-6.160489E-06	-1.333224E-05
842	9.41	-6.121294E-06	-1.324751E-05
843	9.42	-6.082390E-06	-1.316341E-05
844	9.43	-6.043775E-06	-1.307993E-05
845	9.44	-6.005445E-06	-1.299707E-05
846	9.45	-5.967398E-06	-1.291481E-05
847	9.46	-5.929632E-06	-1.283317E-05
848	9.47	-5.892144E-06	-1.275212E-05
849	9.48	-5.854933E-06	-1.267167E-05
850	9.49	-5.817995E-06	-1.259181E-05
851	9.50	-5.781329E-06	-1.251254E-05
852	9.51	-5.744932E-06	-1.243385E-05
853	9.52	-5.708802E-06	-1.235574E-05
854	9.53	-5.672937E-06	-1.227820E-05
855	9.54	-5.637334E-06	-1.220122E-05
856	9.55	-5.601992E-06	-1.212481E-05
857	9.56	-5.566908E-06	-1.204895E-05
858	9.57	-5.532079E-06	-1.197365E-05
859	9.58	-5.497505E-06	-1.189889E-05
860	9.59	-5.463183E-06	-1.182468E-05
861	9.60	-5.429110E-06	-1.175100E-05
862	9.61	-5.395285E-06	-1.167787E-05
863	9.62	-5.361705E-06	-1.160526E-05
864	9.63	-5.328369E-06	-1.153318E-05
865	9.64	-5.295274E-06	-1.146162E-05
866	9.65	-5.262419E-06	-1.139057E-05
867	9.66	-5.229801E-06	-1.132004E-05
868	9.67	-5.197419E-06	-1.125002E-05
869	9.68	-5.165271E-06	-1.118050E-05
870	9.69	-5.133354E-06	-1.111148E-05
871	9.70	-5.101667E-06	-1.104296E-05
872	9.71	-5.070208E-06	-1.097493E-05
873	9.72	-5.038975E-06	-1.090739E-05
874	9.73	-5.007966E-06	-1.084034E-05
875	9.74	-4.977179E-06	-1.077376E-05
876	9.75	-4.946613E-06	-1.070766E-05
877	9.76	-4.916266E-06	-1.064203E-05
878	9.77	-4.886136E-06	-1.057687E-05
879	9.78	-4.856221E-06	-1.051218E-05
880	9.79	-4.826519E-06	-1.044794E-05
881	9.80	-4.797029E-06	-1.038417E-05
882	9.81	-4.767749E-06	-1.032085E-05
883	9.82	-4.738677E-06	-1.025797E-05
884	9.83	-4.709812E-06	-1.019555E-05
885	9.84	-4.681151E-06	-1.013356E-05
886	9.85	-4.652694E-06	-1.007202E-05
887	9.86	-4.624438E-06	-1.001091E-05
888	9.87	-4.596383E-06	-9.950227E-06
889	9.88	-4.568525E-06	-9.889977E-06
890	9.89	-4.540865E-06	-9.830153E-06
891	9.90	-4.513399E-06	-9.770749E-06
892	9.91	-4.486127E-06	-9.711764E-06
893	9.92	-4.459048E-06	-9.653194E-06
894	9.93	-4.432158E-06	-9.595035E-06
895	9.94	-4.405458E-06	-9.537285E-06
896	9.95	-4.378945E-06	-9.479939E-06
897	9.96	-4.352618E-06	-9.422995E-06
898	9.97	-4.326475E-06	-9.366449E-06
899	9.98	-4.300516E-06	-9.310299E-06
900	9.99	-4.274737E-06	-9.254541E-06
901	10.00	-4.249139E-06	-9.199172E-06
902	10.01	-4.223720E-06	-9.144188E-06
903	10.02	-4.198478E-06	-9.089588E-06
904	10.03	-4.173411E-06	-9.035367E-06
905	10.04	-4.148519E-06	-8.981524E-06
906	10.05	-4.123800E-06	-8.928054E-06
907	10.06	-4.099253E-06	-8.874954E-06
908	10.07	-4.074876E-06	-8.822223E-06
909	10.08	-4.050667E-06	-8.769857E-06
910	10.09	-4.026627E-06	-8.717853E-06
911	10.10	-4.002752E-06	-8.666208E-06
912	10.11	-3.979043E-06	-8.614919E-06
913	10.12	-3.955497E-06	-8.563984E-06
914	10.13	-3.932114E-06	-8.513400E-06
915	10.14	-3.908892E-06	-8.463164E-06
916	10.15	-3.885829E-06	-8.413274E-06
917	10.16	-3.862925E-06	-8.363726E-06
918	10.17	-3.840179E-06	-8.314518E-06
919	10.18	-3.817588E-06	-8.265647E-06
920	10.19	-3.795153E-06	-8.217111E-06
921	10.20	-3.772871E-06	-8.168907E-06
922	10.21	-3.750741E-06	-8.121032E-06
923	10.22	-3.728763E-06	-8.073484E-06
924	10.23	-3.706935E-06	-8.026261E-06
925	10.24	-3.685255E-06	-7.979359E-06
926	10.25	-3.663724E-06	-7.932777E-06
927	10.26	-3.642339E-06	-7.886512E-06
928	10.27	-3.621099E-06	-7.840561E-06
929	10.28	-3.600004E-06	-7.794921E-06
930	10.29	-3.579052E-06	-7.749592E-06
931	10.30	-3.558243E-06	-7.704569E-06
932	10.31	-3.537574E-06	-7.659852E-06
933	10.32	-3.517045E-06	-7.615436E-06
934	10.33	-3.496655E-06	-7.571321E-06
935	10.34	-3.476403E-06	-7.527503E-06
936	10.35	-3.456287E-06	-7.483981E-06
937	10.36	-3.436307E-06	-7.440752E-06
938	10.37	-3.416462E-06	-7.397814E-06
939	10.38	-3.396750E-06	-7.355165E-06
940	10.39	-3.377171E-06	-7.312802E-06
941	10.40	-3.357723E-06	-7.270723E-06
942	10.41	-3.338406E-06	-7.228927E-06
943	10.42	-3.319218E-06	-7.187410E-06
944	10.43	-3.300159E-06	-7.146172E-06
945	10.44	-3.281227E-06	-7.105209E-06
946	10.45	-3.262422E-06	-7.064519E-06
947	10.46	-3.243743E-06	-7.024101E-06
948	10.47	-3.225188E-06	-6.983953E-06
949	10.48	-3.206757E-06	-6.944072E-06
950	10.49	-3.188449E-06	-6.904456E-06
951	10.50	-3.170262E-06	-6.865103E-06
952	10.51	-3.152197E-06	-6.826012E-06
953	10.52	-3.134251E-06	-6.787180E-06
954	10.53	-3.116424E-06	-6.748606E-06
955	10.54	-3.098716E-06	-6.710287E-06
956	10.55	-3.081125E-06	-6.672222E-06
957	10.56	-3.063650E-06	-6.634408E-06
958	10.57	-3.046291E-06	-6.596844E-06
959	10.58	-3.029046E-06	-6.559528E-06
960	10.59	-3.011915E-06	-6.522457E-06
961	10.60	-2.994897E-06	-6.485631E-06
962	10.61	-2.977991E-06	-6.449047E-06
963	10.62	-2.961197E-06	-6.412703E-06
964	10.63	-2.944512E-06	-6.376599E-06
965	10.64	-2.927938E-06	-6.340731E-06
966	10.65	-2.911472E-06	-6.305098E-06
967	10.66	-2.895114E-06	-6.269698E-06
968	10.67	-2.878863E-06	-6.234530E-06
969	10.68	-2.862718E-06	-6.199592E-06
970	10.69	-2.846679E-06	-6.164882E-06
971	10.70	-2.830744E-06	-6.130398E-06
972	10.71	-2.814914E-06	-6.096140E-06
973	10.72	-2.799187E-06	-6.062104E-06
974	10.73	-2.783562E-06	-6.028290E-06
975	10.74	-2.768039E-06	-5.994695E-06
976	10.75	-2.752616E-06	-5.961319E-06
977	10.76	-2.737294E-06	-5.928159E-06
978	10.77	-2.722072E-06	-5.895214E-06
979	10.78	-2.706947E-06	-5.862483E-06
980	10.79	-2.691921E-06	-5.829963E-06
981	10.80	-2.676992E-06	-5.797653E-06
982	10.81	-2.662160E-06	-5.765552E-06
983	10.82	-2.647423E-06	-5.733658E-06
984	10.83	-2.632782E-06	-5.701970E-06
985	10.84	-2.618234E-06	-5.670486E-06
986	10.85	-2.603781E-06	-5.639205E-06
987	10.86	-2.589420E-06	-5.608124E-06
988	10.87	-2.575152E-06	-5.577243E-06
989	10.88	-2.560976E-06	-5.546560E-06
990	10.89	-2.546890E-06	-5.516074E-06
991	10.90	-2.532895E-06	-5.485784E-06
992	10.91	-2.518989E-06	-5.455687E-06
993	10.92	-2.505172E-06	-5.425782E-06
994	10.93	-2.491444E-06	-5.396069E-06
995	10.94	-2.477803E-06	-5.366545E-06
996	10.95	-2.464250E-06	-5.337209E-06
997	10.96	-2.450782E-06	-5.308060E-06
998	10.97	-2.437401E-06	-5.279097E-06
999	10.98	-2.424105E-06	-5.250318E-06
1000	10.99	-2.410893E-06	-5.221722E-06
1001	11.00	-2.397765E-06	-5.193307E-06
1002	11.01	-2.384720E-06	-5.165073E-06
1003	11.02	-2.371759E-06	-5.137017E-06
1004	11.03	-2.358879E-06	-5.109139E-06
1005	11.04	-2.346081E-06	-5.081437E-06
1006	11.05	-2.333363E-06	-5.053910E-06
1007	11.06	-2.320727E-06	-5.026557E-06
1008	11.07	-2.308169E-06	-4.999377E-06
1009	11.08	-2.295691E-06	-4.972367E-06
1010	11.09	-2.283292E-06	-4.945528E-06
1011	11.10	-2.270971E-06	-4.918858E-06
1012	11.11	-2.258727E-06	-4.892355E-06
1013	11.12	-2.246560E-06	-4.866019E-06
1014	11.13	-2.234470E-06	-4.839848E-06
1015	11.14	-2.222455E-06	-4.813841E-06
1016	11.15	-2.210516E-06	-4.787997E-06
1017	11.16	-2.198651E-06	-4.762314E-06
1018	11.17	-2.186861E-06	-4.736792E-06
1019	11.18	-2.175144E-06	-4.711429E-06
1020	11.19	-2.163501E-06	-4.686225E-06
1021	11.20	-2.151930E-06	-4.661178E-06
1022	11.21	-2.140432E-06	-4.636287E-06
1023	11.22	-2.129004E-06	-4.611550E-06
1024	11.23	-2.117648E-06	-4.586968E-06
1025	11.24	-2.106363E-06	-4.562538E-06
1026	11.25	-2.095148E-06	-4.538260E-06
1027	11.26	-2.084002E-06	-4.514133E-06
1028	11.27	-2.072926E-06	-4.490154E-06
1029	11.28	-2.061918E-06	-4.466325E-06
1030	11.29	-2.050978E-06	-4.442643E-06
1031	11.30	-2.040106E-06	-4.419107E-06
1032	11.31	-2.029301E-06	-4.395716E-06
1033	11.32	-2.018563E-06	-4.372470E-06
1034	11.33	-2.007891E-06	-4.349367E-06
1035	11.34	-1.997284E-06	-4.326406E-06
1036	11.35	-1.986743E-06	-4.303586E-06
1037	11.36	-1.976267E-06	-4.280907E-06
1038	11.37	-1.965855E-06	-4.258367E-06
1039	11.38	-1.955508E-06	-4.235965E-06
1040	11.39	-1.945223E-06	-4.213701E-06
1041	11.40	-1.935002E-06	-4.191573E-06
1042	11.41	-1.924843E-06	-4.169581E-06
1043	11.42	-1.914747E-06	-4.147723E-06
1044	11.43	-1.904712E-06	-4.125998E-06
1045	11.44	-1.894739E-06	-4.104406E-06
1046	11.45	-1.884826E-06	-4.082946E-06
1047	11.46	-1.874974E-06	-4.061617E-06
1048	11.47	-1.865182E-06	-4.040417E-06
1049	11.48	-1.855449E-06	-4.019347E-06
1050	11.49	-1.845776E-06	-3.998404E-06
1051	11.50	-1.836161E-06	-3.977589E-06
1052	11.51	-1.826605E-06	-3.956900E-06
1053	11.52	-1.817107E-06	-3.936336E-06
1054	11.53	-1.807667E-06	-3.915897E-06
1055	11.54	-1.798283E-06	-3.895581E-06
1056	11.55	-1.788956E-06	-3.875389E-06
1057	11.56	-1.779686E-06	-3.855318E-06
1058	11.57	-1.770472E-06	-3.835369E-06
1059	11.58	-1.761313E-06	-3.815540E-06
1060	11.59	-1.752210E-06	-3.795830E-06
1061	11.60	-1.743161E-06	-3.776239E-06
1062	11.61	-1.734167E-06	-3.756766E-06
1063	11.62	-1.725227E-06	-3.737410E-06
1064	11.63	-1.716341E-06	-3.718170E-06
1065	11.64	-1.707508E-06	-3.699045E-06
1066	11.65	-1.698728E-06	-3.680035E-06
1067	11.66	-1.690000E-06	-3.661140E-06
1068	11.67	-1.681325E-06	-3.642357E-06
1069	11.68	-1.672702E-06	-3.623686E-06
1070	11.69	-1.664130E-06	-3.605127E-06
1071	11.70	-1.655610E-06	-3.586679E-06
1072	11.71	-1.647140E-06	-3.568341E-06
1073	11.72	-1.638721E-06	-3.550112E-06
1074	11.73	-1.630352E-06	-3.531991E-06
1075	11.74	-1.622033E-06	-3.513979E-06
1076	11.75	-1.613764E-06	-3.496073E-06
1077	11.76	-1.605543E-06	-3.478274E-06
1078	11.77	-1.597371E-06	-3.460580E-06
1079	11.78	-1.589248E-06	-3.442992E-06
1080	11.79	-1.581173E-06	-3.425507E-06
1081	11.80	-1.573146E-06	-3.408126E-06
1082	11.81	-1.565166E-06	-3.390848E-06
1083	11.82	-1.557234E-06	-3.373672E-06
1084	11.83	-1.549348E-06	-3.356597E-06
1085	11.84	-1.541509E-06	-3.339623E-06
1086	11.85	-1.533716E-06	-3.322749E-06
1087	11.86	-1.525969E-06	-3.305975E-06
1088	11.87	-1.518268E-06	-3.289299E-06
1089	11.88	-1.510612E-06	-3.272721E-06
1090	11.89	-1.503001E-06	-3.256241E-06
1091	11.90	-1.495434E-06	-3.239857E-06
1092	11.91	-1.487912E-06	-3.223569E-06
1093	11.92	-1.480435E-06	-3.207377E-06
1094	11.93	-1.473001E-06	-3.191280E-06
1095	11.94	-1.465610E-06	-3.175276E-06
1096	11.95	-1.458263E-06	-3.159367E-06
1097	11.96	-1.450958E-06	-3.143550E-06
1098	11.97	-1.443697E-06	-3.127825E-06
1099	11.98	-1.436477E-06	-3.112193E-06
1100	11.99	-1.429300E-06	-3.096651E-06
1101	12.00	-1.422165E-06	-3.081199E-06
1102	12.01	-1.415071E-06	-3.065838E-06
1103	12.02	-1.408018E-06	-3.050566E-06
1104	12.03	-1.401006E-06	-3.035382E-06
1105	12.04	-1.394035E-06	-3.020287E-06
1106	12.05	-1.387105E-06	-3.005279E-06
1107	12.06	-1.380214E-06	-2.990358E-06
1108	12.07	-1.373364E-06	-2.975523E-06
1109	12.08	-1.366553E-06	-2.960775E-06
1110	12.09	-1.359782E-06	-2.946111E-06
1111	12.10	-1.353049E-06	-2.931532E-06
1112	12.11	-1.346356E-06	-2.917037E-06
1113	12.12	-1.339701E-06	-2.902626E-06
1114	12.13	-1.333084E-06	-2.888297E-06
1115	12.14	-1.326506E-06	-2.874051E-06
1116	12.15	-1.319965E-06	-2.859887E-06
1117	12.16	-1.313462E-06	-2.845804E-06
1118	12.17	-1.306996E-06	-2.831803E-06
1119	12.18	-1.300568E-06	-2.817881E-06
1120	12.19	-1.294176E-06	-2.804039E-06
1121	12.20	-1.287821E-06	-2.790277E-06
1122	12.21	-1.281502E-06	-2.776593E-06
1123	12.22	-1.275219E-06	-2.762987E-06
1124	12.23	-1.268973E-06	-2.749459E-06
1125	12.24	-1.262762E-06	-2.736009E-06
1126	12.25	-1.256586E-06	-2.722635E-06
1127	12.26	-1.250446E-06	-2.709337E-06
1128	12.27	-1.244340E-06	-2.696115E-06
1129	12.28	-1.238270E-06	-2.682968E-06
1130	12.29	-1.232234E-06	-2.669896E-06
1131	12.30	-1.226232E-06	-2.656898E-06
1132	12.31	-1.220264E-06	-2.643974E-06
1133	12.32	-1.214330E-06	-2.631123E-06
1134	12.33	-1.208430E-06	-2.618345E-06
1135	12.34	-1.202563E-06	-2.605639E-06
1136	12.35	-1.196729E-06	-2.593005E-06
1137	12.36	-1.190929E-06	-2.580443E-06
1138	12.37	-1.185161E-06	-2.567951E-06
1139	12.38	-1.179426E-06	-2.555530E-06
1140	12.39	-1.173723E-06	-2.543179E-06
1141	12.40	-1.168052E-06	-2.530898E-06
1142	12.41	-1.162413E-06	-2.518686E-06
1143	12.42	-1.156806E-06	-2.506542E-06
1144	12.43	-1.151230E-06	-2.494467E-06
1145	12.44	-1.145686E-06	-2.482459E-06
1146	12.45	-1.140173E-06	-2.470519E-06
1147	12.46	-1.134690E-06	-2.458646E-06
1148	12.47	-1.129239E-06	-2.446839E-06
1149	12.48	-1.123818E-06	-2.435098E-06
1150	12.49	-1.118427E-06	-2.423423E-06
1151	12.50	-1.113067E-06	-2.411814E-06
1152	12.51	-1.107736E-06	-2.400269E-06
1153	12.52	-1.102436E-06	-2.388788E-06
1154	12.53	-1.097164E-06	-2.377372E-06
1155	12.54	-1.091923E-06	-2.366019E-06
1156	12.55	-1.086710E-06	-2.354729E-06
1157	12.56	-1.081526E-06	-2.343502E-06
1158	12.57	-1.076372E-06	-2.332338E-06
1159	12.58	-1.071245E-06	-2.321235E-06
1160	12.59	-1.066148E-06	-2.310194E-06
1161	12.60	-1.061078E-06	-2.299215E-06
1162	12.61	-1.056037E-06	-2.288296E-06
1163	12.62	-1.051024E-06	-2.277438E-06
1164	12.63	-1.046038E-06	-2.266639E-06
1165	12.64	-1.041080E-06	-2.255901E-06
1166	12.65	-1.036149E-06	-2.245221E-06
1167	12.66	-1.031246E-06	-2.234601E-06
1168	12.67	-1.026369E-06	-2.224039E-06
1169	12.68	-1.021520E-06	-2.213535E-06
1170	12.69	-1.016697E-06	-2.203089E-06
1171	12.70	-1.011901E-06	-2.192701E-06
1172	12.71	-1.007131E-06	-2.182370E-06
1173	12.72	-1.002387E-06	-2.172095E-06
1174	12.73	-9.976694E-07	-2.161877E-06
1175	12.74	-9.929777E-07	-2.151715E-06
1176	12.75	-9.883116E-07	-2.141608E-06
1177	12.76	-9.836712E-07	-2.131557E-06
1178	12.77	-9.790561E-07	-2.121561E-06
1179	12.78	-9.744663E-07	-2.111620E-06
1180	12.79	-9.699015E-07	-2.101733E-06
1181	12.80	-9.653617E-07	-2.091899E-06
1182	12.81	-9.608466E-07	-2.082120E-06
1183	12.82	-9.563562E-07	-2.072393E-06
1184	12.83	-9.518903E-07	-2.062720E-06
1185	12.84	-9.474486E-07	-2.053099E-06
1186	12.85	-9.430311E-07	-2.043531E-06
1187	12.86	-9.386376E-07	-2.034015E-06
1188	12.87	-9.342680E-07	-2.024550E-06
1189	12.88	-9.299221E-07	-2.015136E-06
1190	12.89	-9.255998E-07	-2.005774E-06
1191	12.90	-9.213009E-07	-1.996462E-06
1192	12.91	-9.170252E-07	-1.987201E-06
1193	12.92	-9.127727E-07	-1.977990E-06
1194	12.93	-9.085432E-07	-1.968828E-06
1195	12.94	-9.043365E-07	-1.959716E-06
1196	12.95	-9.001526E-07	-1.950654E-06
1197	12.96	-8.959912E-07	-1.941640E-06
1198	12.97	-8.918522E-07	-1.932674E-06
1199	12.98	-8.877355E-07	-1.923757E-06
1200	12.99	-8.836410E-07	-1.914888E-06
