# DATE: 2024-07-07  UNITS: metal  CONTRIBUTOR: By STUDENT			
# FHEP: Temp 303 [K], mr 1 [g/mol], Sigma 2.96 [A], Epsilon 0.002947127975604 [eV]			
			
ENTRY			
N 1200 R 1.0 12.99			
			
1	1.00	9.982162E+03	8.681439E+04
2	1.01	8.776707E+03	7.533984E+04
3	1.02	7.727332E+03	6.548409E+04
4	1.03	6.812497E+03	5.700490E+04
5	1.04	6.013816E+03	4.969827E+04
6	1.05	5.315567E+03	4.339210E+04
7	1.06	4.704285E+03	3.794097E+04
8	1.07	4.168419E+03	3.322179E+04
9	1.08	3.698046E+03	2.913017E+04
10	1.09	3.284630E+03	2.557746E+04
11	1.10	2.920812E+03	2.248824E+04
12	1.11	2.600245E+03	1.979824E+04
13	1.12	2.317443E+03	1.745262E+04
14	1.13	2.067658E+03	1.540449E+04
15	1.14	1.846777E+03	1.361373E+04
16	1.15	1.651230E+03	1.204594E+04
17	1.16	1.477915E+03	1.067157E+04
18	1.17	1.324134E+03	9.465228E+03
19	1.18	1.187537E+03	8.405047E+03
20	1.19	1.066073E+03	7.472172E+03
21	1.20	9.579523E+02	6.650321E+03
22	1.21	8.616097E+02	5.925422E+03
23	1.22	7.756748E+02	5.285288E+03
24	1.23	6.989468E+02	4.719357E+03
25	1.24	6.303720E+02	4.218461E+03
26	1.25	5.690250E+02	3.774633E+03
27	1.26	5.140919E+02	3.380940E+03
28	1.27	4.648563E+02	3.031342E+03
29	1.28	4.206869E+02	2.720572E+03
30	1.29	3.810267E+02	2.444027E+03
31	1.30	3.453837E+02	2.197687E+03
32	1.31	3.133232E+02	1.978030E+03
33	1.32	2.844603E+02	1.781971E+03
34	1.33	2.584541E+02	1.606803E+03
35	1.34	2.350026E+02	1.450149E+03
36	1.35	2.138375E+02	1.309919E+03
37	1.36	1.947204E+02	1.184274E+03
38	1.37	1.774397E+02	1.071592E+03
39	1.38	1.618066E+02	9.704457E+02
40	1.39	1.476534E+02	8.795719E+02
41	1.40	1.348302E+02	7.978556E+02
42	1.41	1.232034E+02	7.243102E+02
43	1.42	1.126536E+02	6.580623E+02
44	1.43	1.030743E+02	5.983374E+02
45	1.44	9.436998E+01	5.444486E+02
46	1.45	8.645517E+01	4.957859E+02
47	1.46	7.925332E+01	4.518071E+02
48	1.47	7.269578E+01	4.120297E+02
49	1.48	6.672090E+01	3.760244E+02
50	1.49	6.127334E+01	3.434082E+02
51	1.50	5.630334E+01	3.138396E+02
52	1.51	5.176613E+01	2.870140E+02
53	1.52	4.762143E+01	2.626587E+02
54	1.53	4.383293E+01	2.405303E+02
55	1.54	4.036790E+01	2.204107E+02
56	1.55	3.719682E+01	2.021047E+02
57	1.56	3.429302E+01	1.854370E+02
58	1.57	3.163242E+01	1.702507E+02
59	1.58	2.919325E+01	1.564047E+02
60	1.59	2.695580E+01	1.437723E+02
61	1.60	2.490225E+01	1.322395E+02
62	1.61	2.301643E+01	1.217038E+02
63	1.62	2.128371E+01	1.120727E+02
64	1.63	1.969079E+01	1.032631E+02
65	1.64	1.822562E+01	9.519982E+01
66	1.65	1.687726E+01	8.781510E+01
67	1.66	1.563575E+01	8.104774E+01
68	1.67	1.449204E+01	7.484242E+01
69	1.68	1.343790E+01	6.914909E+01
70	1.69	1.246583E+01	6.392248E+01
71	1.70	1.156902E+01	5.912155E+01
72	1.71	1.074123E+01	5.470915E+01
73	1.72	9.976789E+00	5.065156E+01
74	1.73	9.270523E+00	4.691818E+01
75	1.74	8.617700E+00	4.348125E+01
76	1.75	8.014004E+00	4.031552E+01
77	1.76	7.455486E+00	3.739804E+01
78	1.77	6.938537E+00	3.470794E+01
79	1.78	6.459853E+00	3.222622E+01
80	1.79	6.016412E+00	2.993556E+01
81	1.80	5.605445E+00	2.782021E+01
82	1.81	5.224413E+00	2.586576E+01
83	1.82	4.870990E+00	2.405909E+01
84	1.83	4.543041E+00	2.238823E+01
85	1.84	4.238609E+00	2.084223E+01
86	1.85	3.955895E+00	1.941108E+01
87	1.86	3.693247E+00	1.808563E+01
88	1.87	3.449145E+00	1.685751E+01
89	1.88	3.222195E+00	1.571907E+01
90	1.89	3.011112E+00	1.466328E+01
91	1.90	2.814713E+00	1.368370E+01
92	1.91	2.631911E+00	1.277444E+01
93	1.92	2.461703E+00	1.193010E+01
94	1.93	2.303165E+00	1.114569E+01
95	1.94	2.155444E+00	1.041666E+01
96	1.95	2.017756E+00	9.738829E+00
97	1.96	1.889376E+00	9.108332E+00
98	1.97	1.769632E+00	8.521631E+00
99	1.98	1.657909E+00	7.975466E+00
100	1.99	1.553634E+00	7.466836E+00
101	2.00	1.456280E+00	6.992978E+00
102	2.01	1.365358E+00	6.551345E+00
103	2.02	1.280417E+00	6.139590E+00
104	2.03	1.201039E+00	5.755549E+00
105	2.04	1.126837E+00	5.397224E+00
106	2.05	1.057452E+00	5.062770E+00
107	2.06	9.925537E-01	4.750487E+00
108	2.07	9.318334E-01	4.458800E+00
109	2.08	8.750060E-01	4.186256E+00
110	2.09	8.218070E-01	3.931509E+00
111	2.10	7.719908E-01	3.693318E+00
112	2.11	7.253295E-01	3.470530E+00
113	2.12	6.816116E-01	3.262081E+00
114	2.13	6.406407E-01	3.066983E+00
115	2.14	6.022339E-01	2.884322E+00
116	2.15	5.662218E-01	2.713250E+00
117	2.16	5.324463E-01	2.552982E+00
118	2.17	5.007608E-01	2.402788E+00
119	2.18	4.710287E-01	2.261992E+00
120	2.19	4.431228E-01	2.129965E+00
121	2.20	4.169247E-01	2.006125E+00
122	2.21	3.923244E-01	1.889929E+00
123	2.22	3.692191E-01	1.780874E+00
124	2.23	3.475130E-01	1.678491E+00
125	2.24	3.271170E-01	1.582345E+00
126	2.25	3.079478E-01	1.492030E+00
127	2.26	2.899279E-01	1.407169E+00
128	2.27	2.729849E-01	1.327412E+00
129	2.28	2.570512E-01	1.252430E+00
130	2.29	2.420636E-01	1.181920E+00
131	2.30	2.279633E-01	1.115597E+00
132	2.31	2.146951E-01	1.053197E+00
133	2.32	2.022077E-01	9.944716E-01
134	2.33	1.904530E-01	9.391917E-01
135	2.34	1.793860E-01	8.871419E-01
136	2.35	1.689647E-01	8.381214E-01
137	2.36	1.591497E-01	7.919428E-01
138	2.37	1.499042E-01	7.484311E-01
139	2.38	1.411938E-01	7.074225E-01
140	2.39	1.329862E-01	6.687642E-01
141	2.40	1.252513E-01	6.323132E-01
142	2.41	1.179607E-01	5.979358E-01
143	2.42	1.110879E-01	5.655068E-01
144	2.43	1.046081E-01	5.349091E-01
145	2.44	9.849801E-02	5.060332E-01
146	2.45	9.273576E-02	4.787764E-01
147	2.46	8.730089E-02	4.530426E-01
148	2.47	8.217417E-02	4.287417E-01
149	2.48	7.733758E-02	4.057894E-01
150	2.49	7.277419E-02	3.841065E-01
151	2.50	6.846812E-02	3.636188E-01
152	2.51	6.440445E-02	3.442567E-01
153	2.52	6.056917E-02	3.259550E-01
154	2.53	5.694912E-02	3.086524E-01
155	2.54	5.353193E-02	2.922913E-01
156	2.55	5.030598E-02	2.768179E-01
157	2.56	4.726033E-02	2.621813E-01
158	2.57	4.438472E-02	2.483339E-01
159	2.58	4.166948E-02	2.352310E-01
160	2.59	3.910553E-02	2.228305E-01
161	2.60	3.668430E-02	2.110929E-01
162	2.61	3.439777E-02	1.999808E-01
163	2.62	3.223834E-02	1.894595E-01
164	2.63	3.019889E-02	1.794959E-01
165	2.64	2.827271E-02	1.700590E-01
166	2.65	2.645348E-02	1.611198E-01
167	2.66	2.473523E-02	1.526508E-01
168	2.67	2.311235E-02	1.446261E-01
169	2.68	2.157957E-02	1.370214E-01
170	2.69	2.013188E-02	1.298137E-01
171	2.70	1.876461E-02	1.229815E-01
172	2.71	1.747331E-02	1.165044E-01
173	2.72	1.625380E-02	1.103631E-01
174	2.73	1.510216E-02	1.045396E-01
175	2.74	1.401466E-02	9.901682E-02
176	2.75	1.298779E-02	9.377859E-02
177	2.76	1.201826E-02	8.880973E-02
178	2.77	1.110292E-02	8.409591E-02
179	2.78	1.023885E-02	7.962359E-02
180	2.79	9.423247E-03	7.537997E-02
181	2.80	8.653491E-03	7.135299E-02
182	2.81	7.927099E-03	6.753125E-02
183	2.82	7.241727E-03	6.390398E-02
184	2.83	6.595161E-03	6.046100E-02
185	2.84	5.985307E-03	5.719269E-02
186	2.85	5.410189E-03	5.408997E-02
187	2.86	4.867939E-03	5.114423E-02
188	2.87	4.356789E-03	4.834736E-02
189	2.88	3.875071E-03	4.569166E-02
190	2.89	3.421205E-03	4.316987E-02
191	2.90	2.993699E-03	4.077511E-02
192	2.91	2.591141E-03	3.850087E-02
193	2.92	2.212196E-03	3.634099E-02
194	2.93	1.855600E-03	3.428964E-02
195	2.94	1.520159E-03	3.234130E-02
196	2.95	1.204740E-03	3.049075E-02
197	2.96	9.082755E-04	2.873303E-02
198	2.97	6.297514E-04	2.706346E-02
199	2.98	3.682094E-04	2.547758E-02
200	2.99	1.227420E-04	2.397121E-02
201	3.00	-1.075097E-04	2.254033E-02
202	3.01	-3.233592E-04	2.118118E-02
203	3.02	-5.255765E-04	1.989017E-02
204	3.03	-7.148911E-04	1.866390E-02
205	3.04	-8.919937E-04	1.749915E-02
206	3.05	-1.057539E-03	1.639286E-02
207	3.06	-1.212146E-03	1.534214E-02
208	3.07	-1.356402E-03	1.434423E-02
209	3.08	-1.490864E-03	1.339652E-02
210	3.09	-1.616058E-03	1.249655E-02
211	3.10	-1.732484E-03	1.164194E-02
212	3.11	-1.840615E-03	1.083049E-02
213	3.12	-1.940900E-03	1.006007E-02
214	3.13	-2.033764E-03	9.328660E-03
215	3.14	-2.119610E-03	8.634362E-03
216	3.15	-2.198819E-03	7.975360E-03
217	3.16	-2.271753E-03	7.349929E-03
218	3.17	-2.338757E-03	6.756435E-03
219	3.18	-2.400154E-03	6.193322E-03
220	3.19	-2.456254E-03	5.659113E-03
221	3.20	-2.507349E-03	5.152404E-03
222	3.21	-2.553716E-03	4.671860E-03
223	3.22	-2.595619E-03	4.216214E-03
224	3.23	-2.633305E-03	3.784259E-03
225	3.24	-2.667013E-03	3.374849E-03
226	3.25	-2.696966E-03	2.986894E-03
227	3.26	-2.723376E-03	2.619357E-03
228	3.27	-2.746445E-03	2.271252E-03
229	3.28	-2.766364E-03	1.941642E-03
230	3.29	-2.783314E-03	1.629634E-03
231	3.30	-2.797468E-03	1.334380E-03
232	3.31	-2.808988E-03	1.055072E-03
233	3.32	-2.818029E-03	7.909416E-04
234	3.33	-2.824738E-03	5.412577E-04
235	3.34	-2.829252E-03	3.053243E-04
236	3.35	-2.831705E-03	8.247892E-05
237	3.36	-2.832220E-03	-1.279090E-04
238	3.37	-2.830917E-03	-3.264398E-04
239	3.38	-2.827908E-03	-5.136850E-04
240	3.39	-2.823299E-03	-6.901887E-04
241	3.40	-2.817192E-03	-8.564693E-04
242	3.41	-2.809681E-03	-1.013020E-03
243	3.42	-2.800857E-03	-1.160311E-03
244	3.43	-2.790807E-03	-1.298790E-03
245	3.44	-2.779613E-03	-1.428883E-03
246	3.45	-2.767350E-03	-1.550996E-03
247	3.46	-2.754092E-03	-1.665517E-03
248	3.47	-2.739909E-03	-1.772813E-03
249	3.48	-2.724867E-03	-1.873236E-03
250	3.49	-2.709026E-03	-1.967122E-03
251	3.50	-2.692447E-03	-2.054787E-03
252	3.51	-2.675185E-03	-2.136537E-03
253	3.52	-2.657293E-03	-2.212661E-03
254	3.53	-2.638820E-03	-2.283435E-03
255	3.54	-2.619815E-03	-2.349122E-03
256	3.55	-2.600321E-03	-2.409973E-03
257	3.56	-2.580382E-03	-2.466226E-03
258	3.57	-2.560037E-03	-2.518109E-03
259	3.58	-2.539323E-03	-2.565840E-03
260	3.59	-2.518278E-03	-2.609625E-03
261	3.60	-2.496934E-03	-2.649661E-03
262	3.61	-2.475324E-03	-2.686137E-03
263	3.62	-2.453478E-03	-2.719233E-03
264	3.63	-2.431424E-03	-2.749118E-03
265	3.64	-2.409190E-03	-2.775956E-03
266	3.65	-2.386799E-03	-2.799902E-03
267	3.66	-2.364278E-03	-2.821105E-03
268	3.67	-2.341648E-03	-2.839705E-03
269	3.68	-2.318930E-03	-2.855838E-03
270	3.69	-2.296145E-03	-2.869631E-03
271	3.70	-2.273311E-03	-2.881207E-03
272	3.71	-2.250446E-03	-2.890683E-03
273	3.72	-2.227567E-03	-2.898170E-03
274	3.73	-2.204689E-03	-2.903774E-03
275	3.74	-2.181828E-03	-2.907596E-03
276	3.75	-2.158997E-03	-2.909733E-03
277	3.76	-2.136210E-03	-2.910276E-03
278	3.77	-2.113477E-03	-2.909314E-03
279	3.78	-2.090811E-03	-2.906929E-03
280	3.79	-2.068223E-03	-2.903201E-03
281	3.80	-2.045722E-03	-2.898207E-03
282	3.81	-2.023317E-03	-2.892018E-03
283	3.82	-2.001019E-03	-2.884704E-03
284	3.83	-1.978833E-03	-2.876329E-03
285	3.84	-1.956768E-03	-2.866958E-03
286	3.85	-1.934832E-03	-2.856649E-03
287	3.86	-1.913030E-03	-2.845460E-03
288	3.87	-1.891368E-03	-2.833444E-03
289	3.88	-1.869853E-03	-2.820653E-03
290	3.89	-1.848488E-03	-2.807136E-03
291	3.90	-1.827280E-03	-2.792941E-03
292	3.91	-1.806232E-03	-2.778111E-03
293	3.92	-1.785347E-03	-2.762690E-03
294	3.93	-1.764631E-03	-2.746717E-03
295	3.94	-1.744086E-03	-2.730232E-03
296	3.95	-1.723715E-03	-2.713270E-03
297	3.96	-1.703520E-03	-2.695867E-03
298	3.97	-1.683505E-03	-2.678056E-03
299	3.98	-1.663670E-03	-2.659869E-03
300	3.99	-1.644019E-03	-2.641335E-03
301	4.00	-1.624553E-03	-2.622483E-03
302	4.01	-1.605273E-03	-2.603341E-03
303	4.02	-1.586180E-03	-2.583934E-03
304	4.03	-1.567276E-03	-2.564287E-03
305	4.04	-1.548562E-03	-2.544423E-03
306	4.05	-1.530037E-03	-2.524364E-03
307	4.06	-1.511703E-03	-2.504132E-03
308	4.07	-1.493559E-03	-2.483746E-03
309	4.08	-1.475607E-03	-2.463226E-03
310	4.09	-1.457845E-03	-2.442589E-03
311	4.10	-1.440275E-03	-2.421852E-03
312	4.11	-1.422895E-03	-2.401033E-03
313	4.12	-1.405706E-03	-2.380146E-03
314	4.13	-1.388707E-03	-2.359205E-03
315	4.14	-1.371898E-03	-2.338225E-03
316	4.15	-1.355277E-03	-2.317219E-03
317	4.16	-1.338845E-03	-2.296199E-03
318	4.17	-1.322600E-03	-2.275176E-03
319	4.18	-1.306542E-03	-2.254163E-03
320	4.19	-1.290669E-03	-2.233169E-03
321	4.20	-1.274981E-03	-2.212204E-03
322	4.21	-1.259477E-03	-2.191278E-03
323	4.22	-1.244155E-03	-2.170399E-03
324	4.23	-1.229015E-03	-2.149575E-03
325	4.24	-1.214054E-03	-2.128816E-03
326	4.25	-1.199273E-03	-2.108127E-03
327	4.26	-1.184668E-03	-2.087516E-03
328	4.27	-1.170240E-03	-2.066989E-03
329	4.28	-1.155987E-03	-2.046553E-03
330	4.29	-1.141907E-03	-2.026212E-03
331	4.30	-1.127999E-03	-2.005974E-03
332	4.31	-1.114261E-03	-1.985842E-03
333	4.32	-1.100692E-03	-1.965821E-03
334	4.33	-1.087291E-03	-1.945916E-03
335	4.34	-1.074055E-03	-1.926131E-03
336	4.35	-1.060984E-03	-1.906469E-03
337	4.36	-1.048075E-03	-1.886934E-03
338	4.37	-1.035328E-03	-1.867530E-03
339	4.38	-1.022740E-03	-1.848259E-03
340	4.39	-1.010309E-03	-1.829124E-03
341	4.40	-9.980354E-04	-1.810128E-03
342	4.41	-9.859162E-04	-1.791273E-03
343	4.42	-9.739499E-04	-1.772561E-03
344	4.43	-9.621351E-04	-1.753994E-03
345	4.44	-9.504699E-04	-1.735575E-03
346	4.45	-9.389530E-04	-1.717303E-03
347	4.46	-9.275824E-04	-1.699182E-03
348	4.47	-9.163567E-04	-1.681213E-03
349	4.48	-9.052743E-04	-1.663395E-03
350	4.49	-8.943334E-04	-1.645731E-03
351	4.50	-8.835324E-04	-1.628221E-03
352	4.51	-8.728698E-04	-1.610867E-03
353	4.52	-8.623439E-04	-1.593667E-03
354	4.53	-8.519531E-04	-1.576624E-03
355	4.54	-8.416958E-04	-1.559738E-03
356	4.55	-8.315704E-04	-1.543008E-03
357	4.56	-8.215754E-04	-1.526435E-03
358	4.57	-8.117091E-04	-1.510018E-03
359	4.58	-8.019700E-04	-1.493759E-03
360	4.59	-7.923565E-04	-1.477657E-03
361	4.60	-7.828671E-04	-1.461712E-03
362	4.61	-7.735003E-04	-1.445923E-03
363	4.62	-7.642544E-04	-1.430290E-03
364	4.63	-7.551281E-04	-1.414813E-03
365	4.64	-7.461198E-04	-1.399491E-03
366	4.65	-7.372280E-04	-1.384324E-03
367	4.66	-7.284513E-04	-1.369311E-03
368	4.67	-7.197882E-04	-1.354452E-03
369	4.68	-7.112372E-04	-1.339747E-03
370	4.69	-7.027969E-04	-1.325193E-03
371	4.70	-6.944659E-04	-1.310791E-03
372	4.71	-6.862428E-04	-1.296540E-03
373	4.72	-6.781261E-04	-1.282439E-03
374	4.73	-6.701145E-04	-1.268487E-03
375	4.74	-6.622067E-04	-1.254683E-03
376	4.75	-6.544012E-04	-1.241026E-03
377	4.76	-6.466968E-04	-1.227516E-03
378	4.77	-6.390921E-04	-1.214151E-03
379	4.78	-6.315858E-04	-1.200930E-03
380	4.79	-6.241766E-04	-1.187853E-03
381	4.80	-6.168632E-04	-1.174918E-03
382	4.81	-6.096443E-04	-1.162125E-03
383	4.82	-6.025188E-04	-1.149471E-03
384	4.83	-5.954853E-04	-1.136956E-03
385	4.84	-5.885427E-04	-1.124580E-03
386	4.85	-5.816896E-04	-1.112340E-03
387	4.86	-5.749250E-04	-1.100236E-03
388	4.87	-5.682477E-04	-1.088266E-03
389	4.88	-5.616564E-04	-1.076430E-03
390	4.89	-5.551500E-04	-1.064725E-03
391	4.90	-5.487275E-04	-1.053152E-03
392	4.91	-5.423875E-04	-1.041709E-03
393	4.92	-5.361292E-04	-1.030394E-03
394	4.93	-5.299512E-04	-1.019207E-03
395	4.94	-5.238527E-04	-1.008145E-03
396	4.95	-5.178324E-04	-9.972093E-04
397	4.96	-5.118893E-04	-9.863970E-04
398	4.97	-5.060224E-04	-9.757073E-04
399	4.98	-5.002307E-04	-9.651391E-04
400	4.99	-4.945131E-04	-9.546910E-04
401	5.00	-4.888687E-04	-9.443620E-04
402	5.01	-4.832964E-04	-9.341508E-04
403	5.02	-4.777952E-04	-9.240562E-04
404	5.03	-4.723643E-04	-9.140771E-04
405	5.04	-4.670026E-04	-9.042121E-04
406	5.05	-4.617092E-04	-8.944603E-04
407	5.06	-4.564832E-04	-8.848202E-04
408	5.07	-4.513236E-04	-8.752909E-04
409	5.08	-4.462296E-04	-8.658711E-04
410	5.09	-4.412003E-04	-8.565596E-04
411	5.10	-4.362347E-04	-8.473552E-04
412	5.11	-4.313320E-04	-8.382569E-04
413	5.12	-4.264915E-04	-8.292634E-04
414	5.13	-4.217121E-04	-8.203737E-04
415	5.14	-4.169931E-04	-8.115865E-04
416	5.15	-4.123337E-04	-8.029008E-04
417	5.16	-4.077330E-04	-7.943154E-04
418	5.17	-4.031903E-04	-7.858292E-04
419	5.18	-3.987047E-04	-7.774410E-04
420	5.19	-3.942756E-04	-7.691499E-04
421	5.20	-3.899020E-04	-7.609547E-04
422	5.21	-3.855833E-04	-7.528543E-04
423	5.22	-3.813188E-04	-7.448476E-04
424	5.23	-3.771076E-04	-7.369336E-04
425	5.24	-3.729491E-04	-7.291112E-04
426	5.25	-3.688425E-04	-7.213793E-04
427	5.26	-3.647871E-04	-7.137370E-04
428	5.27	-3.607823E-04	-7.061831E-04
429	5.28	-3.568274E-04	-6.987167E-04
430	5.29	-3.529216E-04	-6.913368E-04
431	5.30	-3.490643E-04	-6.840423E-04
432	5.31	-3.452549E-04	-6.768322E-04
433	5.32	-3.414927E-04	-6.697056E-04
434	5.33	-3.377771E-04	-6.626615E-04
435	5.34	-3.341074E-04	-6.556988E-04
436	5.35	-3.304830E-04	-6.488168E-04
437	5.36	-3.269034E-04	-6.420143E-04
438	5.37	-3.233678E-04	-6.352905E-04
439	5.38	-3.198757E-04	-6.286444E-04
440	5.39	-3.164266E-04	-6.220751E-04
441	5.40	-3.130198E-04	-6.155817E-04
442	5.41	-3.096547E-04	-6.091633E-04
443	5.42	-3.063309E-04	-6.028189E-04
444	5.43	-3.030477E-04	-5.965478E-04
445	5.44	-2.998046E-04	-5.903491E-04
446	5.45	-2.966011E-04	-5.842218E-04
447	5.46	-2.934366E-04	-5.781651E-04
448	5.47	-2.903107E-04	-5.721782E-04
449	5.48	-2.872227E-04	-5.662602E-04
450	5.49	-2.841722E-04	-5.604104E-04
451	5.50	-2.811587E-04	-5.546278E-04
452	5.51	-2.781817E-04	-5.489117E-04
453	5.52	-2.752407E-04	-5.432612E-04
454	5.53	-2.723352E-04	-5.376757E-04
455	5.54	-2.694648E-04	-5.321542E-04
456	5.55	-2.666289E-04	-5.266960E-04
457	5.56	-2.638272E-04	-5.213004E-04
458	5.57	-2.610591E-04	-5.159667E-04
459	5.58	-2.583242E-04	-5.106939E-04
460	5.59	-2.556222E-04	-5.054815E-04
461	5.60	-2.529524E-04	-5.003286E-04
462	5.61	-2.503146E-04	-4.952346E-04
463	5.62	-2.477082E-04	-4.901987E-04
464	5.63	-2.451330E-04	-4.852203E-04
465	5.64	-2.425884E-04	-4.802986E-04
466	5.65	-2.400740E-04	-4.754330E-04
467	5.66	-2.375895E-04	-4.706227E-04
468	5.67	-2.351345E-04	-4.658671E-04
469	5.68	-2.327085E-04	-4.611656E-04
470	5.69	-2.303113E-04	-4.565174E-04
471	5.70	-2.279423E-04	-4.519219E-04
472	5.71	-2.256013E-04	-4.473786E-04
473	5.72	-2.232879E-04	-4.428867E-04
474	5.73	-2.210017E-04	-4.384456E-04
475	5.74	-2.187423E-04	-4.340547E-04
476	5.75	-2.165095E-04	-4.297134E-04
477	5.76	-2.143028E-04	-4.254210E-04
478	5.77	-2.121219E-04	-4.211771E-04
479	5.78	-2.099665E-04	-4.169810E-04
480	5.79	-2.078363E-04	-4.128321E-04
481	5.80	-2.057309E-04	-4.087299E-04
482	5.81	-2.036500E-04	-4.046737E-04
483	5.82	-2.015933E-04	-4.006631E-04
484	5.83	-1.995604E-04	-3.966974E-04
485	5.84	-1.975511E-04	-3.927762E-04
486	5.85	-1.955651E-04	-3.888988E-04
487	5.86	-1.936020E-04	-3.850648E-04
488	5.87	-1.916616E-04	-3.812736E-04
489	5.88	-1.897435E-04	-3.775247E-04
490	5.89	-1.878475E-04	-3.738176E-04
491	5.90	-1.859733E-04	-3.701518E-04
492	5.91	-1.841207E-04	-3.665267E-04
493	5.92	-1.822892E-04	-3.629420E-04
494	5.93	-1.804787E-04	-3.593970E-04
495	5.94	-1.786890E-04	-3.558914E-04
496	5.95	-1.769196E-04	-3.524246E-04
497	5.96	-1.751704E-04	-3.489961E-04
498	5.97	-1.734412E-04	-3.456056E-04
499	5.98	-1.717316E-04	-3.422525E-04
500	5.99	-1.700414E-04	-3.389364E-04
501	6.00	-1.683703E-04	-3.356569E-04
502	6.01	-1.667182E-04	-3.324134E-04
503	6.02	-1.650848E-04	-3.292057E-04
504	6.03	-1.634698E-04	-3.260331E-04
505	6.04	-1.618730E-04	-3.228954E-04
506	6.05	-1.602942E-04	-3.197921E-04
507	6.06	-1.587331E-04	-3.167228E-04
508	6.07	-1.571896E-04	-3.136870E-04
509	6.08	-1.556633E-04	-3.106844E-04
510	6.09	-1.541542E-04	-3.077146E-04
511	6.10	-1.526619E-04	-3.047771E-04
512	6.11	-1.511863E-04	-3.018717E-04
513	6.12	-1.497272E-04	-2.989978E-04
514	6.13	-1.482843E-04	-2.961552E-04
515	6.14	-1.468574E-04	-2.933434E-04
516	6.15	-1.454464E-04	-2.905621E-04
517	6.16	-1.440510E-04	-2.878109E-04
518	6.17	-1.426710E-04	-2.850895E-04
519	6.18	-1.413064E-04	-2.823974E-04
520	6.19	-1.399568E-04	-2.797345E-04
521	6.20	-1.386220E-04	-2.771002E-04
522	6.21	-1.373020E-04	-2.744943E-04
523	6.22	-1.359965E-04	-2.719164E-04
524	6.23	-1.347053E-04	-2.693662E-04
525	6.24	-1.334283E-04	-2.668434E-04
526	6.25	-1.321652E-04	-2.643476E-04
527	6.26	-1.309160E-04	-2.618785E-04
528	6.27	-1.296804E-04	-2.594358E-04
529	6.28	-1.284583E-04	-2.570192E-04
530	6.29	-1.272495E-04	-2.546284E-04
531	6.30	-1.260538E-04	-2.522630E-04
532	6.31	-1.248711E-04	-2.499228E-04
533	6.32	-1.237013E-04	-2.476075E-04
534	6.33	-1.225441E-04	-2.453168E-04
535	6.34	-1.213994E-04	-2.430504E-04
536	6.35	-1.202670E-04	-2.408079E-04
537	6.36	-1.191469E-04	-2.385892E-04
538	6.37	-1.180389E-04	-2.363939E-04
539	6.38	-1.169427E-04	-2.342218E-04
540	6.39	-1.158584E-04	-2.320726E-04
541	6.40	-1.147856E-04	-2.299460E-04
542	6.41	-1.137244E-04	-2.278418E-04
543	6.42	-1.126745E-04	-2.257597E-04
544	6.43	-1.116358E-04	-2.236994E-04
545	6.44	-1.106081E-04	-2.216607E-04
546	6.45	-1.095915E-04	-2.196434E-04
547	6.46	-1.085856E-04	-2.176471E-04
548	6.47	-1.075904E-04	-2.156716E-04
549	6.48	-1.066058E-04	-2.137168E-04
550	6.49	-1.056316E-04	-2.117823E-04
551	6.50	-1.046677E-04	-2.098679E-04
552	6.51	-1.037140E-04	-2.079735E-04
553	6.52	-1.027703E-04	-2.060986E-04
554	6.53	-1.018366E-04	-2.042432E-04
555	6.54	-1.009127E-04	-2.024070E-04
556	6.55	-9.999847E-05	-2.005898E-04
557	6.56	-9.909386E-05	-1.987914E-04
558	6.57	-9.819872E-05	-1.970115E-04
559	6.58	-9.731294E-05	-1.952499E-04
560	6.59	-9.643642E-05	-1.935065E-04
561	6.60	-9.556903E-05	-1.917809E-04
562	6.61	-9.471069E-05	-1.900731E-04
563	6.62	-9.386126E-05	-1.883828E-04
564	6.63	-9.302067E-05	-1.867097E-04
565	6.64	-9.218879E-05	-1.850538E-04
566	6.65	-9.136553E-05	-1.834148E-04
567	6.66	-9.055078E-05	-1.817925E-04
568	6.67	-8.974446E-05	-1.801867E-04
569	6.68	-8.894645E-05	-1.785973E-04
570	6.69	-8.815666E-05	-1.770240E-04
571	6.70	-8.737499E-05	-1.754667E-04
572	6.71	-8.660136E-05	-1.739252E-04
573	6.72	-8.583567E-05	-1.723992E-04
574	6.73	-8.507782E-05	-1.708887E-04
575	6.74	-8.432772E-05	-1.693935E-04
576	6.75	-8.358529E-05	-1.679133E-04
577	6.76	-8.285044E-05	-1.664480E-04
578	6.77	-8.212307E-05	-1.649975E-04
579	6.78	-8.140310E-05	-1.635616E-04
580	6.79	-8.069045E-05	-1.621400E-04
581	6.80	-7.998504E-05	-1.607327E-04
582	6.81	-7.928677E-05	-1.593395E-04
583	6.82	-7.859557E-05	-1.579602E-04
584	6.83	-7.791136E-05	-1.565947E-04
585	6.84	-7.723405E-05	-1.552429E-04
586	6.85	-7.656357E-05	-1.539044E-04
587	6.86	-7.589984E-05	-1.525793E-04
588	6.87	-7.524278E-05	-1.512674E-04
589	6.88	-7.459232E-05	-1.499685E-04
590	6.89	-7.394838E-05	-1.486824E-04
591	6.90	-7.331088E-05	-1.474091E-04
592	6.91	-7.267976E-05	-1.461484E-04
593	6.92	-7.205494E-05	-1.449001E-04
594	6.93	-7.143636E-05	-1.436641E-04
595	6.94	-7.082393E-05	-1.424403E-04
596	6.95	-7.021759E-05	-1.412286E-04
597	6.96	-6.961728E-05	-1.400287E-04
598	6.97	-6.902291E-05	-1.388407E-04
599	6.98	-6.843444E-05	-1.376642E-04
600	6.99	-6.785179E-05	-1.364993E-04
601	7.00	-6.727489E-05	-1.353458E-04
602	7.01	-6.670368E-05	-1.342035E-04
603	7.02	-6.613810E-05	-1.330724E-04
604	7.03	-6.557809E-05	-1.319523E-04
605	7.04	-6.502358E-05	-1.308430E-04
606	7.05	-6.447451E-05	-1.297446E-04
607	7.06	-6.393082E-05	-1.286568E-04
608	7.07	-6.339245E-05	-1.275796E-04
609	7.08	-6.285934E-05	-1.265128E-04
610	7.09	-6.233144E-05	-1.254563E-04
611	7.10	-6.180868E-05	-1.244100E-04
612	7.11	-6.129101E-05	-1.233738E-04
613	7.12	-6.077838E-05	-1.223475E-04
614	7.13	-6.027072E-05	-1.213312E-04
615	7.14	-5.976798E-05	-1.203246E-04
616	7.15	-5.927011E-05	-1.193276E-04
617	7.16	-5.877706E-05	-1.183402E-04
618	7.17	-5.828877E-05	-1.173623E-04
619	7.18	-5.780519E-05	-1.163937E-04
620	7.19	-5.732626E-05	-1.154344E-04
621	7.20	-5.685194E-05	-1.144842E-04
622	7.21	-5.638218E-05	-1.135431E-04
623	7.22	-5.591693E-05	-1.126109E-04
624	7.23	-5.545613E-05	-1.116875E-04
625	7.24	-5.499975E-05	-1.107730E-04
626	7.25	-5.454772E-05	-1.098671E-04
627	7.26	-5.410001E-05	-1.089697E-04
628	7.27	-5.365657E-05	-1.080809E-04
629	7.28	-5.321735E-05	-1.072004E-04
630	7.29	-5.278231E-05	-1.063283E-04
631	7.30	-5.235139E-05	-1.054643E-04
632	7.31	-5.192456E-05	-1.046085E-04
633	7.32	-5.150177E-05	-1.037608E-04
634	7.33	-5.108299E-05	-1.029209E-04
635	7.34	-5.066815E-05	-1.020890E-04
636	7.35	-5.025723E-05	-1.012648E-04
637	7.36	-4.985019E-05	-1.004484E-04
638	7.37	-4.944697E-05	-9.963955E-05
639	7.38	-4.904754E-05	-9.883827E-05
640	7.39	-4.865186E-05	-9.804444E-05
641	7.40	-4.825988E-05	-9.725800E-05
642	7.41	-4.787158E-05	-9.647887E-05
643	7.42	-4.748691E-05	-9.570697E-05
644	7.43	-4.710582E-05	-9.494222E-05
645	7.44	-4.672829E-05	-9.418456E-05
646	7.45	-4.635428E-05	-9.343390E-05
647	7.46	-4.598375E-05	-9.269017E-05
648	7.47	-4.561665E-05	-9.195330E-05
649	7.48	-4.525296E-05	-9.122321E-05
650	7.49	-4.489264E-05	-9.049985E-05
651	7.50	-4.453566E-05	-8.978313E-05
652	7.51	-4.418197E-05	-8.907299E-05
653	7.52	-4.383155E-05	-8.836936E-05
654	7.53	-4.348436E-05	-8.767217E-05
655	7.54	-4.314036E-05	-8.698136E-05
656	7.55	-4.279953E-05	-8.629686E-05
657	7.56	-4.246183E-05	-8.561860E-05
658	7.57	-4.212722E-05	-8.494652E-05
659	7.58	-4.179568E-05	-8.428056E-05
660	7.59	-4.146717E-05	-8.362065E-05
661	7.60	-4.114166E-05	-8.296673E-05
662	7.61	-4.081912E-05	-8.231874E-05
663	7.62	-4.049952E-05	-8.167662E-05
664	7.63	-4.018283E-05	-8.104030E-05
665	7.64	-3.986902E-05	-8.040974E-05
666	7.65	-3.955806E-05	-7.978486E-05
667	7.66	-3.924991E-05	-7.916562E-05
668	7.67	-3.894456E-05	-7.855195E-05
669	7.68	-3.864197E-05	-7.794380E-05
670	7.69	-3.834211E-05	-7.734110E-05
671	7.70	-3.804496E-05	-7.674382E-05
672	7.71	-3.775048E-05	-7.615188E-05
673	7.72	-3.745866E-05	-7.556524E-05
674	7.73	-3.716945E-05	-7.498384E-05
675	7.74	-3.688285E-05	-7.440763E-05
676	7.75	-3.659881E-05	-7.383656E-05
677	7.76	-3.631731E-05	-7.327057E-05
678	7.77	-3.603834E-05	-7.270962E-05
679	7.78	-3.576185E-05	-7.215364E-05
680	7.79	-3.548784E-05	-7.160261E-05
681	7.80	-3.521626E-05	-7.105645E-05
682	7.81	-3.494710E-05	-7.051513E-05
683	7.82	-3.468033E-05	-6.997859E-05
684	7.83	-3.441593E-05	-6.944679E-05
685	7.84	-3.415387E-05	-6.891968E-05
686	7.85	-3.389414E-05	-6.839722E-05
687	7.86	-3.363670E-05	-6.787935E-05
688	7.87	-3.338153E-05	-6.736603E-05
689	7.88	-3.312862E-05	-6.685721E-05
690	7.89	-3.287794E-05	-6.635286E-05
691	7.90	-3.262946E-05	-6.585292E-05
692	7.91	-3.238316E-05	-6.535736E-05
693	7.92	-3.213903E-05	-6.486612E-05
694	7.93	-3.189704E-05	-6.437917E-05
695	7.94	-3.165717E-05	-6.389647E-05
696	7.95	-3.141939E-05	-6.341796E-05
697	7.96	-3.118369E-05	-6.294362E-05
698	7.97	-3.095005E-05	-6.247339E-05
699	7.98	-3.071845E-05	-6.200724E-05
700	7.99	-3.048886E-05	-6.154514E-05
701	8.00	-3.026127E-05	-6.108703E-05
702	8.01	-3.003565E-05	-6.063287E-05
703	8.02	-2.981199E-05	-6.018264E-05
704	8.03	-2.959027E-05	-5.973630E-05
705	8.04	-2.937046E-05	-5.929379E-05
706	8.05	-2.915256E-05	-5.885509E-05
707	8.06	-2.893653E-05	-5.842016E-05
708	8.07	-2.872237E-05	-5.798897E-05
709	8.08	-2.851005E-05	-5.756147E-05
710	8.09	-2.829956E-05	-5.713763E-05
711	8.10	-2.809088E-05	-5.671741E-05
712	8.11	-2.788398E-05	-5.630079E-05
713	8.12	-2.767886E-05	-5.588771E-05
714	8.13	-2.747550E-05	-5.547816E-05
715	8.14	-2.727387E-05	-5.507210E-05
716	8.15	-2.707396E-05	-5.466948E-05
717	8.16	-2.687576E-05	-5.427029E-05
718	8.17	-2.667925E-05	-5.387448E-05
719	8.18	-2.648441E-05	-5.348203E-05
720	8.19	-2.629122E-05	-5.309289E-05
721	8.20	-2.609967E-05	-5.270705E-05
722	8.21	-2.590975E-05	-5.232446E-05
723	8.22	-2.572144E-05	-5.194510E-05
724	8.23	-2.553472E-05	-5.156894E-05
725	8.24	-2.534957E-05	-5.119594E-05
726	8.25	-2.516599E-05	-5.082607E-05
727	8.26	-2.498395E-05	-5.045931E-05
728	8.27	-2.480345E-05	-5.009562E-05
729	8.28	-2.462447E-05	-4.973498E-05
730	8.29	-2.444698E-05	-4.937736E-05
731	8.30	-2.427099E-05	-4.902272E-05
732	8.31	-2.409647E-05	-4.867105E-05
733	8.32	-2.392341E-05	-4.832230E-05
734	8.33	-2.375180E-05	-4.797646E-05
735	8.34	-2.358162E-05	-4.763350E-05
736	8.35	-2.341285E-05	-4.729338E-05
737	8.36	-2.324550E-05	-4.695609E-05
738	8.37	-2.307953E-05	-4.662160E-05
739	8.38	-2.291495E-05	-4.628987E-05
740	8.39	-2.275173E-05	-4.596088E-05
741	8.40	-2.258986E-05	-4.563462E-05
742	8.41	-2.242934E-05	-4.531104E-05
743	8.42	-2.227014E-05	-4.499013E-05
744	8.43	-2.211226E-05	-4.467187E-05
745	8.44	-2.195568E-05	-4.435622E-05
746	8.45	-2.180039E-05	-4.404316E-05
747	8.46	-2.164638E-05	-4.373267E-05
748	8.47	-2.149363E-05	-4.342473E-05
749	8.48	-2.134214E-05	-4.311930E-05
750	8.49	-2.119189E-05	-4.281638E-05
751	8.50	-2.104288E-05	-4.251592E-05
752	8.51	-2.089508E-05	-4.221792E-05
753	8.52	-2.074849E-05	-4.192235E-05
754	8.53	-2.060310E-05	-4.162918E-05
755	8.54	-2.045889E-05	-4.133840E-05
756	8.55	-2.031586E-05	-4.104997E-05
757	8.56	-2.017399E-05	-4.076389E-05
758	8.57	-2.003328E-05	-4.048012E-05
759	8.58	-1.989371E-05	-4.019865E-05
760	8.59	-1.975527E-05	-3.991946E-05
761	8.60	-1.961795E-05	-3.964252E-05
762	8.61	-1.948174E-05	-3.936782E-05
763	8.62	-1.934664E-05	-3.909533E-05
764	8.63	-1.921262E-05	-3.882503E-05
765	8.64	-1.907969E-05	-3.855690E-05
766	8.65	-1.894782E-05	-3.829093E-05
767	8.66	-1.881702E-05	-3.802709E-05
768	8.67	-1.868727E-05	-3.776537E-05
769	8.68	-1.855856E-05	-3.750574E-05
770	8.69	-1.843088E-05	-3.724818E-05
771	8.70	-1.830422E-05	-3.699268E-05
772	8.71	-1.817858E-05	-3.673922E-05
773	8.72	-1.805394E-05	-3.648778E-05
774	8.73	-1.793030E-05	-3.623835E-05
775	8.74	-1.780764E-05	-3.599089E-05
776	8.75	-1.768596E-05	-3.574540E-05
777	8.76	-1.756525E-05	-3.550186E-05
778	8.77	-1.744549E-05	-3.526024E-05
779	8.78	-1.732669E-05	-3.502054E-05
780	8.79	-1.720883E-05	-3.478274E-05
781	8.80	-1.709190E-05	-3.454681E-05
782	8.81	-1.697590E-05	-3.431274E-05
783	8.82	-1.686081E-05	-3.408052E-05
784	8.83	-1.674663E-05	-3.385013E-05
785	8.84	-1.663336E-05	-3.362154E-05
786	8.85	-1.652097E-05	-3.339476E-05
787	8.86	-1.640947E-05	-3.316975E-05
788	8.87	-1.629884E-05	-3.294651E-05
789	8.88	-1.618909E-05	-3.272501E-05
790	8.89	-1.608019E-05	-3.250525E-05
791	8.90	-1.597215E-05	-3.228720E-05
792	8.91	-1.586495E-05	-3.207085E-05
793	8.92	-1.575859E-05	-3.185620E-05
794	8.93	-1.565306E-05	-3.164321E-05
795	8.94	-1.554835E-05	-3.143188E-05
796	8.95	-1.544446E-05	-3.122219E-05
797	8.96	-1.534138E-05	-3.101413E-05
798	8.97	-1.523909E-05	-3.080768E-05
799	8.98	-1.513760E-05	-3.060283E-05
800	8.99	-1.503690E-05	-3.039956E-05
801	9.00	-1.493698E-05	-3.019787E-05
802	9.01	-1.483783E-05	-2.999773E-05
803	9.02	-1.473945E-05	-2.979913E-05
804	9.03	-1.464183E-05	-2.960207E-05
805	9.04	-1.454496E-05	-2.940652E-05
806	9.05	-1.444884E-05	-2.921247E-05
807	9.06	-1.435346E-05	-2.901992E-05
808	9.07	-1.425881E-05	-2.882884E-05
809	9.08	-1.416488E-05	-2.863922E-05
810	9.09	-1.407168E-05	-2.845106E-05
811	9.10	-1.397919E-05	-2.826433E-05
812	9.11	-1.388741E-05	-2.807903E-05
813	9.12	-1.379633E-05	-2.789515E-05
814	9.13	-1.370595E-05	-2.771266E-05
815	9.14	-1.361626E-05	-2.753157E-05
816	9.15	-1.352724E-05	-2.735185E-05
817	9.16	-1.343891E-05	-2.717350E-05
818	9.17	-1.335125E-05	-2.699650E-05
819	9.18	-1.326426E-05	-2.682084E-05
820	9.19	-1.317792E-05	-2.664651E-05
821	9.20	-1.309224E-05	-2.647350E-05
822	9.21	-1.300721E-05	-2.630180E-05
823	9.22	-1.292282E-05	-2.613139E-05
824	9.23	-1.283907E-05	-2.596227E-05
825	9.24	-1.275595E-05	-2.579442E-05
826	9.25	-1.267346E-05	-2.562783E-05
827	9.26	-1.259159E-05	-2.546250E-05
828	9.27	-1.251034E-05	-2.529841E-05
829	9.28	-1.242969E-05	-2.513555E-05
830	9.29	-1.234965E-05	-2.497391E-05
831	9.30	-1.227021E-05	-2.481347E-05
832	9.31	-1.219137E-05	-2.465424E-05
833	9.32	-1.211312E-05	-2.449620E-05
834	9.33	-1.203545E-05	-2.433934E-05
835	9.34	-1.195836E-05	-2.418364E-05
836	9.35	-1.188185E-05	-2.402911E-05
837	9.36	-1.180591E-05	-2.387572E-05
838	9.37	-1.173053E-05	-2.372347E-05
839	9.38	-1.165571E-05	-2.357236E-05
840	9.39	-1.158145E-05	-2.342236E-05
841	9.40	-1.150774E-05	-2.327348E-05
842	9.41	-1.143458E-05	-2.312569E-05
843	9.42	-1.136195E-05	-2.297900E-05
844	9.43	-1.128987E-05	-2.283339E-05
845	9.44	-1.121832E-05	-2.268886E-05
846	9.45	-1.114729E-05	-2.254539E-05
847	9.46	-1.107679E-05	-2.240298E-05
848	9.47	-1.100681E-05	-2.226161E-05
849	9.48	-1.093735E-05	-2.212128E-05
850	9.49	-1.086839E-05	-2.198199E-05
851	9.50	-1.079994E-05	-2.184371E-05
852	9.51	-1.073200E-05	-2.170644E-05
853	9.52	-1.066455E-05	-2.157018E-05
854	9.53	-1.059759E-05	-2.143492E-05
855	9.54	-1.053113E-05	-2.130064E-05
856	9.55	-1.046515E-05	-2.116734E-05
857	9.56	-1.039965E-05	-2.103502E-05
858	9.57	-1.033463E-05	-2.090365E-05
859	9.58	-1.027008E-05	-2.077324E-05
860	9.59	-1.020600E-05	-2.064378E-05
861	9.60	-1.014239E-05	-2.051526E-05
862	9.61	-1.007924E-05	-2.038767E-05
863	9.62	-1.001655E-05	-2.026100E-05
864	9.63	-9.954313E-06	-2.013525E-05
865	9.64	-9.892525E-06	-2.001041E-05
866	9.65	-9.831185E-06	-1.988647E-05
867	9.66	-9.770287E-06	-1.976342E-05
868	9.67	-9.709829E-06	-1.964126E-05
869	9.68	-9.649807E-06	-1.951998E-05
870	9.69	-9.590217E-06	-1.939956E-05
871	9.70	-9.531055E-06	-1.928002E-05
872	9.71	-9.472319E-06	-1.916133E-05
873	9.72	-9.414004E-06	-1.904349E-05
874	9.73	-9.356108E-06	-1.892650E-05
875	9.74	-9.298626E-06	-1.881034E-05
876	9.75	-9.241556E-06	-1.869502E-05
877	9.76	-9.184894E-06	-1.858051E-05
878	9.77	-9.128637E-06	-1.846683E-05
879	9.78	-9.072781E-06	-1.835395E-05
880	9.79	-9.017323E-06	-1.824188E-05
881	9.80	-8.962260E-06	-1.813060E-05
882	9.81	-8.907588E-06	-1.802011E-05
883	9.82	-8.853305E-06	-1.791041E-05
884	9.83	-8.799408E-06	-1.780149E-05
885	9.84	-8.745893E-06	-1.769333E-05
886	9.85	-8.692757E-06	-1.758595E-05
887	9.86	-8.639997E-06	-1.747932E-05
888	9.87	-8.587610E-06	-1.737344E-05
889	9.88	-8.535593E-06	-1.726831E-05
890	9.89	-8.483943E-06	-1.716392E-05
891	9.90	-8.432658E-06	-1.706027E-05
892	9.91	-8.381733E-06	-1.695734E-05
893	9.92	-8.331167E-06	-1.685514E-05
894	9.93	-8.280956E-06	-1.675365E-05
895	9.94	-8.231098E-06	-1.665288E-05
896	9.95	-8.181590E-06	-1.655281E-05
897	9.96	-8.132428E-06	-1.645345E-05
898	9.97	-8.083610E-06	-1.635477E-05
899	9.98	-8.035134E-06	-1.625679E-05
900	9.99	-7.986997E-06	-1.615949E-05
901	10.00	-7.939196E-06	-1.606287E-05
902	10.01	-7.891728E-06	-1.596692E-05
903	10.02	-7.844590E-06	-1.587164E-05
904	10.03	-7.797781E-06	-1.577702E-05
905	10.04	-7.751297E-06	-1.568305E-05
906	10.05	-7.705136E-06	-1.558974E-05
907	10.06	-7.659295E-06	-1.549708E-05
908	10.07	-7.613772E-06	-1.540506E-05
909	10.08	-7.568564E-06	-1.531367E-05
910	10.09	-7.523669E-06	-1.522291E-05
911	10.10	-7.479084E-06	-1.513278E-05
912	10.11	-7.434807E-06	-1.504328E-05
913	10.12	-7.390835E-06	-1.495439E-05
914	10.13	-7.347166E-06	-1.486611E-05
915	10.14	-7.303798E-06	-1.477843E-05
916	10.15	-7.260729E-06	-1.469136E-05
917	10.16	-7.217955E-06	-1.460489E-05
918	10.17	-7.175474E-06	-1.451901E-05
919	10.18	-7.133285E-06	-1.443372E-05
920	10.19	-7.091386E-06	-1.434901E-05
921	10.20	-7.049772E-06	-1.426488E-05
922	10.21	-7.008444E-06	-1.418133E-05
923	10.22	-6.967397E-06	-1.409834E-05
924	10.23	-6.926631E-06	-1.401592E-05
925	10.24	-6.886143E-06	-1.393406E-05
926	10.25	-6.845930E-06	-1.385276E-05
927	10.26	-6.805991E-06	-1.377201E-05
928	10.27	-6.766323E-06	-1.369181E-05
929	10.28	-6.726925E-06	-1.361216E-05
930	10.29	-6.687794E-06	-1.353304E-05
931	10.30	-6.648929E-06	-1.345446E-05
932	10.31	-6.610326E-06	-1.337641E-05
933	10.32	-6.571985E-06	-1.329889E-05
934	10.33	-6.533903E-06	-1.322189E-05
935	10.34	-6.496077E-06	-1.314541E-05
936	10.35	-6.458508E-06	-1.306944E-05
937	10.36	-6.421191E-06	-1.299399E-05
938	10.37	-6.384125E-06	-1.291904E-05
939	10.38	-6.347309E-06	-1.284460E-05
940	10.39	-6.310740E-06	-1.277066E-05
941	10.40	-6.274417E-06	-1.269721E-05
942	10.41	-6.238337E-06	-1.262426E-05
943	10.42	-6.202499E-06	-1.255179E-05
944	10.43	-6.166901E-06	-1.247981E-05
945	10.44	-6.131541E-06	-1.240830E-05
946	10.45	-6.096417E-06	-1.233728E-05
947	10.46	-6.061528E-06	-1.226673E-05
948	10.47	-6.026871E-06	-1.219665E-05
949	10.48	-5.992445E-06	-1.212703E-05
950	10.49	-5.958248E-06	-1.205788E-05
951	10.50	-5.924279E-06	-1.198919E-05
952	10.51	-5.890535E-06	-1.192095E-05
953	10.52	-5.857016E-06	-1.185317E-05
954	10.53	-5.823718E-06	-1.178584E-05
955	10.54	-5.790642E-06	-1.171895E-05
956	10.55	-5.757784E-06	-1.165250E-05
957	10.56	-5.725143E-06	-1.158649E-05
958	10.57	-5.692718E-06	-1.152092E-05
959	10.58	-5.660507E-06	-1.145578E-05
960	10.59	-5.628508E-06	-1.139106E-05
961	10.60	-5.596720E-06	-1.132678E-05
962	10.61	-5.565142E-06	-1.126292E-05
963	10.62	-5.533771E-06	-1.119947E-05
964	10.63	-5.502606E-06	-1.113644E-05
965	10.64	-5.471645E-06	-1.107383E-05
966	10.65	-5.440888E-06	-1.101163E-05
967	10.66	-5.410332E-06	-1.094983E-05
968	10.67	-5.379976E-06	-1.088844E-05
969	10.68	-5.349818E-06	-1.082744E-05
970	10.69	-5.319857E-06	-1.076685E-05
971	10.70	-5.290092E-06	-1.070665E-05
972	10.71	-5.260521E-06	-1.064684E-05
973	10.72	-5.231143E-06	-1.058743E-05
974	10.73	-5.201956E-06	-1.052840E-05
975	10.74	-5.172958E-06	-1.046975E-05
976	10.75	-5.144149E-06	-1.041148E-05
977	10.76	-5.115527E-06	-1.035359E-05
978	10.77	-5.087091E-06	-1.029608E-05
979	10.78	-5.058838E-06	-1.023893E-05
980	10.79	-5.030769E-06	-1.018216E-05
981	10.80	-5.002881E-06	-1.012575E-05
982	10.81	-4.975173E-06	-1.006971E-05
983	10.82	-4.947644E-06	-1.001403E-05
984	10.83	-4.920293E-06	-9.958709E-06
985	10.84	-4.893118E-06	-9.903742E-06
986	10.85	-4.866117E-06	-9.849130E-06
987	10.86	-4.839291E-06	-9.794868E-06
988	10.87	-4.812636E-06	-9.740954E-06
989	10.88	-4.786153E-06	-9.687386E-06
990	10.89	-4.759839E-06	-9.634162E-06
991	10.90	-4.733695E-06	-9.581278E-06
992	10.91	-4.707717E-06	-9.528732E-06
993	10.92	-4.681906E-06	-9.476522E-06
994	10.93	-4.656259E-06	-9.424645E-06
995	10.94	-4.630776E-06	-9.373099E-06
996	10.95	-4.605456E-06	-9.321882E-06
997	10.96	-4.580297E-06	-9.270990E-06
998	10.97	-4.555299E-06	-9.220423E-06
999	10.98	-4.530459E-06	-9.170176E-06
1000	10.99	-4.505777E-06	-9.120249E-06
1001	11.00	-4.481252E-06	-9.070638E-06
1002	11.01	-4.456882E-06	-9.021342E-06
1003	11.02	-4.432667E-06	-8.972358E-06
1004	11.03	-4.408605E-06	-8.923684E-06
1005	11.04	-4.384696E-06	-8.875317E-06
1006	11.05	-4.360937E-06	-8.827256E-06
1007	11.06	-4.337329E-06	-8.779498E-06
1008	11.07	-4.313869E-06	-8.732041E-06
1009	11.08	-4.290558E-06	-8.684883E-06
1010	11.09	-4.267393E-06	-8.638022E-06
1011	11.10	-4.244374E-06	-8.591455E-06
1012	11.11	-4.221499E-06	-8.545181E-06
1013	11.12	-4.198769E-06	-8.499197E-06
1014	11.13	-4.176181E-06	-8.453502E-06
1015	11.14	-4.153734E-06	-8.408092E-06
1016	11.15	-4.131428E-06	-8.362967E-06
1017	11.16	-4.109262E-06	-8.318124E-06
1018	11.17	-4.087234E-06	-8.273562E-06
1019	11.18	-4.065344E-06	-8.229277E-06
1020	11.19	-4.043591E-06	-8.185269E-06
1021	11.20	-4.021973E-06	-8.141535E-06
1022	11.21	-4.000490E-06	-8.098073E-06
1023	11.22	-3.979141E-06	-8.054881E-06
1024	11.23	-3.957924E-06	-8.011958E-06
1025	11.24	-3.936840E-06	-7.969301E-06
1026	11.25	-3.915886E-06	-7.926909E-06
1027	11.26	-3.895062E-06	-7.884780E-06
1028	11.27	-3.874367E-06	-7.842912E-06
1029	11.28	-3.853801E-06	-7.801302E-06
1030	11.29	-3.833361E-06	-7.759950E-06
1031	11.30	-3.813048E-06	-7.718853E-06
1032	11.31	-3.792861E-06	-7.678010E-06
1033	11.32	-3.772798E-06	-7.637419E-06
1034	11.33	-3.752858E-06	-7.597078E-06
1035	11.34	-3.733042E-06	-7.556985E-06
1036	11.35	-3.713347E-06	-7.517138E-06
1037	11.36	-3.693774E-06	-7.477537E-06
1038	11.37	-3.674320E-06	-7.438178E-06
1039	11.38	-3.654987E-06	-7.399061E-06
1040	11.39	-3.635771E-06	-7.360184E-06
1041	11.40	-3.616674E-06	-7.321544E-06
1042	11.41	-3.597693E-06	-7.283141E-06
1043	11.42	-3.578829E-06	-7.244973E-06
1044	11.43	-3.560079E-06	-7.207038E-06
1045	11.44	-3.541445E-06	-7.169334E-06
1046	11.45	-3.522924E-06	-7.131860E-06
1047	11.46	-3.504515E-06	-7.094614E-06
1048	11.47	-3.486219E-06	-7.057595E-06
1049	11.48	-3.468035E-06	-7.020801E-06
1050	11.49	-3.449960E-06	-6.984231E-06
1051	11.50	-3.431996E-06	-6.947882E-06
1052	11.51	-3.414141E-06	-6.911754E-06
1053	11.52	-3.396394E-06	-6.875845E-06
1054	11.53	-3.378754E-06	-6.840153E-06
1055	11.54	-3.361221E-06	-6.804677E-06
1056	11.55	-3.343794E-06	-6.769416E-06
1057	11.56	-3.326473E-06	-6.734367E-06
1058	11.57	-3.309256E-06	-6.699530E-06
1059	11.58	-3.292143E-06	-6.664903E-06
1060	11.59	-3.275133E-06	-6.630485E-06
1061	11.60	-3.258226E-06	-6.596273E-06
1062	11.61	-3.241420E-06	-6.562267E-06
1063	11.62	-3.224715E-06	-6.528466E-06
1064	11.63	-3.208111E-06	-6.494868E-06
1065	11.64	-3.191606E-06	-6.461470E-06
1066	11.65	-3.175200E-06	-6.428274E-06
1067	11.66	-3.158893E-06	-6.395275E-06
1068	11.67	-3.142683E-06	-6.362475E-06
1069	11.68	-3.126570E-06	-6.329870E-06
1070	11.69	-3.110553E-06	-6.297460E-06
1071	11.70	-3.094633E-06	-6.265243E-06
1072	11.71	-3.078807E-06	-6.233219E-06
1073	11.72	-3.063075E-06	-6.201385E-06
1074	11.73	-3.047437E-06	-6.169740E-06
1075	11.74	-3.031892E-06	-6.138284E-06
1076	11.75	-3.016439E-06	-6.107015E-06
1077	11.76	-3.001079E-06	-6.075931E-06
1078	11.77	-2.985809E-06	-6.045032E-06
1079	11.78	-2.970630E-06	-6.014315E-06
1080	11.79	-2.955541E-06	-5.983781E-06
1081	11.80	-2.940541E-06	-5.953427E-06
1082	11.81	-2.925630E-06	-5.923253E-06
1083	11.82	-2.910808E-06	-5.893257E-06
1084	11.83	-2.896072E-06	-5.863438E-06
1085	11.84	-2.881424E-06	-5.833795E-06
1086	11.85	-2.866862E-06	-5.804327E-06
1087	11.86	-2.852386E-06	-5.775031E-06
1088	11.87	-2.837995E-06	-5.745909E-06
1089	11.88	-2.823688E-06	-5.716957E-06
1090	11.89	-2.809466E-06	-5.688175E-06
1091	11.90	-2.795327E-06	-5.659563E-06
1092	11.91	-2.781271E-06	-5.631118E-06
1093	11.92	-2.767297E-06	-5.602839E-06
1094	11.93	-2.753406E-06	-5.574726E-06
1095	11.94	-2.739595E-06	-5.546778E-06
1096	11.95	-2.725866E-06	-5.518993E-06
1097	11.96	-2.712216E-06	-5.491370E-06
1098	11.97	-2.698646E-06	-5.463908E-06
1099	11.98	-2.685156E-06	-5.436606E-06
1100	11.99	-2.671743E-06	-5.409463E-06
1101	12.00	-2.658409E-06	-5.382478E-06
1102	12.01	-2.645153E-06	-5.355650E-06
1103	12.02	-2.631974E-06	-5.328978E-06
1104	12.03	-2.618871E-06	-5.302460E-06
1105	12.04	-2.605844E-06	-5.276097E-06
1106	12.05	-2.592893E-06	-5.249886E-06
1107	12.06	-2.580016E-06	-5.223827E-06
1108	12.07	-2.567215E-06	-5.197918E-06
1109	12.08	-2.554487E-06	-5.172160E-06
1110	12.09	-2.541833E-06	-5.146550E-06
1111	12.10	-2.529252E-06	-5.121088E-06
1112	12.11	-2.516743E-06	-5.095772E-06
1113	12.12	-2.504307E-06	-5.070603E-06
1114	12.13	-2.491942E-06	-5.045578E-06
1115	12.14	-2.479649E-06	-5.020698E-06
1116	12.15	-2.467426E-06	-4.995960E-06
1117	12.16	-2.455273E-06	-4.971364E-06
1118	12.17	-2.443190E-06	-4.946910E-06
1119	12.18	-2.431177E-06	-4.922596E-06
1120	12.19	-2.419232E-06	-4.898421E-06
1121	12.20	-2.407355E-06	-4.874384E-06
1122	12.21	-2.395547E-06	-4.850485E-06
1123	12.22	-2.383806E-06	-4.826722E-06
1124	12.23	-2.372132E-06	-4.803095E-06
1125	12.24	-2.360525E-06	-4.779603E-06
1126	12.25	-2.348984E-06	-4.756245E-06
1127	12.26	-2.337509E-06	-4.733020E-06
1128	12.27	-2.326099E-06	-4.709927E-06
1129	12.28	-2.314754E-06	-4.686965E-06
1130	12.29	-2.303474E-06	-4.664134E-06
1131	12.30	-2.292258E-06	-4.641432E-06
1132	12.31	-2.281105E-06	-4.618859E-06
1133	12.32	-2.270015E-06	-4.596415E-06
1134	12.33	-2.258989E-06	-4.574097E-06
1135	12.34	-2.248025E-06	-4.551905E-06
1136	12.35	-2.237123E-06	-4.529839E-06
1137	12.36	-2.226282E-06	-4.507898E-06
1138	12.37	-2.215503E-06	-4.486081E-06
1139	12.38	-2.204784E-06	-4.464386E-06
1140	12.39	-2.194126E-06	-4.442814E-06
1141	12.40	-2.183528E-06	-4.421363E-06
1142	12.41	-2.172990E-06	-4.400033E-06
1143	12.42	-2.162511E-06	-4.378823E-06
1144	12.43	-2.152091E-06	-4.357733E-06
1145	12.44	-2.141730E-06	-4.336760E-06
1146	12.45	-2.131426E-06	-4.315905E-06
1147	12.46	-2.121181E-06	-4.295167E-06
1148	12.47	-2.110992E-06	-4.274546E-06
1149	12.48	-2.100861E-06	-4.254039E-06
1150	12.49	-2.090787E-06	-4.233648E-06
1151	12.50	-2.080769E-06	-4.213370E-06
1152	12.51	-2.070806E-06	-4.193205E-06
1153	12.52	-2.060900E-06	-4.173153E-06
1154	12.53	-2.051048E-06	-4.153213E-06
1155	12.54	-2.041252E-06	-4.133383E-06
1156	12.55	-2.031510E-06	-4.113664E-06
1157	12.56	-2.021822E-06	-4.094055E-06
1158	12.57	-2.012188E-06	-4.074555E-06
1159	12.58	-2.002608E-06	-4.055163E-06
1160	12.59	-1.993081E-06	-4.035878E-06
1161	12.60	-1.983606E-06	-4.016700E-06
1162	12.61	-1.974184E-06	-3.997629E-06
1163	12.62	-1.964815E-06	-3.978663E-06
1164	12.63	-1.955497E-06	-3.959802E-06
1165	12.64	-1.946230E-06	-3.941045E-06
1166	12.65	-1.937015E-06	-3.922392E-06
1167	12.66	-1.927851E-06	-3.903841E-06
1168	12.67	-1.918737E-06	-3.885393E-06
1169	12.68	-1.909674E-06	-3.867047E-06
1170	12.69	-1.900660E-06	-3.848801E-06
1171	12.70	-1.891696E-06	-3.830656E-06
1172	12.71	-1.882781E-06	-3.812611E-06
1173	12.72	-1.873915E-06	-3.794664E-06
1174	12.73	-1.865098E-06	-3.776816E-06
1175	12.74	-1.856329E-06	-3.759066E-06
1176	12.75	-1.847609E-06	-3.741413E-06
1177	12.76	-1.838936E-06	-3.723857E-06
1178	12.77	-1.830310E-06	-3.706397E-06
1179	12.78	-1.821732E-06	-3.689032E-06
1180	12.79	-1.813200E-06	-3.671762E-06
1181	12.80	-1.804715E-06	-3.654586E-06
1182	12.81	-1.796277E-06	-3.637504E-06
1183	12.82	-1.787884E-06	-3.620515E-06
1184	12.83	-1.779537E-06	-3.603619E-06
1185	12.84	-1.771236E-06	-3.586814E-06
1186	12.85	-1.762979E-06	-3.570101E-06
1187	12.86	-1.754768E-06	-3.553478E-06
1188	12.87	-1.746601E-06	-3.536946E-06
1189	12.88	-1.738478E-06	-3.520503E-06
1190	12.89	-1.730400E-06	-3.504150E-06
1191	12.90	-1.722365E-06	-3.487885E-06
1192	12.91	-1.714374E-06	-3.471708E-06
1193	12.92	-1.706426E-06	-3.455618E-06
1194	12.93	-1.698521E-06	-3.439615E-06
1195	12.94	-1.690658E-06	-3.423699E-06
1196	12.95	-1.682838E-06	-3.407869E-06
1197	12.96	-1.675060E-06	-3.392124E-06
1198	12.97	-1.667324E-06	-3.376463E-06
1199	12.98	-1.659630E-06	-3.360887E-06
1200	12.99	-1.651977E-06	-3.345395E-06
