# DATE: 2024-07-07  UNITS: metal  CONTRIBUTOR: By STUDENT			
# FHEP: Temp 303 [K], mr 1.71428571428571 [g/mol], Sigma 3.195 [A], Epsilon 0.00366325664804247 [eV]			
			
ENTRY			
N 1200 R 1.0 12.99			
			
1	1.00	2.501144E+04	1.805150E+05
2	1.01	2.204773E+04	1.571086E+05
3	1.02	1.946099E+04	1.369517E+05
4	1.03	1.720007E+04	1.195644E+05
5	1.04	1.522116E+04	1.045420E+05
6	1.05	1.348673E+04	9.154209E+04
7	1.06	1.196455E+04	8.027494E+04
8	1.07	1.062687E+04	7.049463E+04
9	1.08	9.449833E+03	6.199224E+04
10	1.09	8.412836E+03	5.458989E+04
11	1.10	7.498087E+03	4.813597E+04
12	1.11	6.690196E+03	4.250096E+04
13	1.12	5.975833E+03	3.757412E+04
14	1.13	5.343431E+03	3.326055E+04
15	1.14	4.782947E+03	2.947885E+04
16	1.15	4.285643E+03	2.615906E+04
17	1.16	3.843909E+03	2.324099E+04
18	1.17	3.451113E+03	2.067277E+04
19	1.18	3.101459E+03	1.840963E+04
20	1.19	2.789886E+03	1.641288E+04
21	1.20	2.511959E+03	1.464904E+04
22	1.21	2.263797E+03	1.308909E+04
23	1.22	2.041992E+03	1.170785E+04
24	1.23	1.843552E+03	1.048345E+04
25	1.24	1.665846E+03	9.396866E+03
26	1.25	1.506557E+03	8.431507E+03
27	1.26	1.363646E+03	7.572920E+03
28	1.27	1.235312E+03	6.808477E+03
29	1.28	1.119964E+03	6.127139E+03
30	1.29	1.016199E+03	5.519243E+03
31	1.30	9.227718E+02	4.976319E+03
32	1.31	8.385814E+02	4.490939E+03
33	1.32	7.626513E+02	4.056574E+03
34	1.33	6.941146E+02	3.667488E+03
35	1.34	6.322015E+02	3.318627E+03
36	1.35	5.762272E+02	3.005539E+03
37	1.36	5.255825E+02	2.724296E+03
38	1.37	4.797245E+02	2.471430E+03
39	1.38	4.381694E+02	2.243875E+03
40	1.39	4.004853E+02	2.038915E+03
41	1.40	3.662864E+02	1.854149E+03
42	1.41	3.352279E+02	1.687443E+03
43	1.42	3.070013E+02	1.536906E+03
44	1.43	2.813304E+02	1.400858E+03
45	1.44	2.579676E+02	1.277804E+03
46	1.45	2.366909E+02	1.166414E+03
47	1.46	2.173010E+02	1.065502E+03
48	1.47	1.996189E+02	9.740112E+02
49	1.48	1.834837E+02	8.909991E+02
50	1.49	1.687506E+02	8.156228E+02
51	1.50	1.552893E+02	7.471292E+02
52	1.51	1.429822E+02	6.848441E+02
53	1.52	1.317235E+02	6.281638E+02
54	1.53	1.214177E+02	5.765475E+02
55	1.54	1.119784E+02	5.295097E+02
56	1.55	1.033277E+02	4.866146E+02
57	1.56	9.539516E+01	4.474709E+02
58	1.57	8.811695E+01	4.117264E+02
59	1.58	8.143532E+01	3.790645E+02
60	1.59	7.529798E+01	3.491998E+02
61	1.60	6.965748E+01	3.218753E+02
62	1.61	6.447079E+01	2.968590E+02
63	1.62	5.969885E+01	2.739417E+02
64	1.63	5.530619E+01	2.529344E+02
65	1.64	5.126056E+01	2.336661E+02
66	1.65	4.753263E+01	2.159824E+02
67	1.66	4.409571E+01	1.997434E+02
68	1.67	4.092551E+01	1.848223E+02
69	1.68	3.799988E+01	1.711043E+02
70	1.69	3.529866E+01	1.584854E+02
71	1.70	3.280342E+01	1.468709E+02
72	1.71	3.049737E+01	1.361750E+02
73	1.72	2.836517E+01	1.263198E+02
74	1.73	2.639281E+01	1.172342E+02
75	1.74	2.456747E+01	1.088538E+02
76	1.75	2.287744E+01	1.011197E+02
77	1.76	2.131199E+01	9.397857E+01
78	1.77	1.986131E+01	8.738146E+01
79	1.78	1.851640E+01	8.128392E+01
80	1.79	1.726901E+01	7.564533E+01
81	1.80	1.611159E+01	7.042859E+01
82	1.81	1.503721E+01	6.559983E+01
83	1.82	1.403950E+01	6.112806E+01
84	1.83	1.311260E+01	5.698496E+01
85	1.84	1.225116E+01	5.314459E+01
86	1.85	1.145023E+01	4.958319E+01
87	1.86	1.070528E+01	4.627903E+01
88	1.87	1.001211E+01	4.321214E+01
89	1.88	9.366897E+00	4.036425E+01
90	1.89	8.766088E+00	3.771857E+01
91	1.90	8.206422E+00	3.525968E+01
92	1.91	7.684891E+00	3.297343E+01
93	1.92	7.198720E+00	3.084681E+01
94	1.93	6.745352E+00	2.886786E+01
95	1.94	6.322424E+00	2.702558E+01
96	1.95	5.927755E+00	2.530984E+01
97	1.96	5.559331E+00	2.371131E+01
98	1.97	5.215289E+00	2.222140E+01
99	1.98	4.893910E+00	2.083219E+01
100	1.99	4.593600E+00	1.953639E+01
101	2.00	4.312887E+00	1.832724E+01
102	2.01	4.050408E+00	1.719854E+01
103	2.02	3.804900E+00	1.614455E+01
104	2.03	3.575194E+00	1.515996E+01
105	2.04	3.360207E+00	1.423988E+01
106	2.05	3.158933E+00	1.337976E+01
107	2.06	2.970441E+00	1.257543E+01
108	2.07	2.793867E+00	1.182299E+01
109	2.08	2.628409E+00	1.111887E+01
110	2.09	2.473321E+00	1.045973E+01
111	2.10	2.327912E+00	9.842506E+00
112	2.11	2.191540E+00	9.264328E+00
113	2.12	2.063606E+00	8.722554E+00
114	2.13	1.943557E+00	8.214728E+00
115	2.14	1.830874E+00	7.738572E+00
116	2.15	1.725079E+00	7.291969E+00
117	2.16	1.625723E+00	6.872956E+00
118	2.17	1.532391E+00	6.479707E+00
119	2.18	1.444693E+00	6.110527E+00
120	2.19	1.362271E+00	5.763837E+00
121	2.20	1.284785E+00	5.438172E+00
122	2.21	1.211924E+00	5.132167E+00
123	2.22	1.143394E+00	4.844552E+00
124	2.23	1.078922E+00	4.574145E+00
125	2.24	1.018253E+00	4.319844E+00
126	2.25	9.611508E-01	4.080624E+00
127	2.26	9.073920E-01	3.855527E+00
128	2.27	8.567697E-01	3.643663E+00
129	2.28	8.090902E-01	3.444201E+00
130	2.29	7.641726E-01	3.256363E+00
131	2.30	7.218477E-01	3.079427E+00
132	2.31	6.819573E-01	2.912716E+00
133	2.32	6.443535E-01	2.755599E+00
134	2.33	6.088978E-01	2.607486E+00
135	2.34	5.754607E-01	2.467828E+00
136	2.35	5.439210E-01	2.336108E+00
137	2.36	5.141650E-01	2.211845E+00
138	2.37	4.860865E-01	2.094588E+00
139	2.38	4.595859E-01	1.983917E+00
140	2.39	4.345696E-01	1.879437E+00
141	2.40	4.109503E-01	1.780778E+00
142	2.41	3.886460E-01	1.687595E+00
143	2.42	3.675795E-01	1.599564E+00
144	2.43	3.476788E-01	1.516382E+00
145	2.44	3.288760E-01	1.437763E+00
146	2.45	3.111077E-01	1.363442E+00
147	2.46	2.943142E-01	1.293169E+00
148	2.47	2.784393E-01	1.226709E+00
149	2.48	2.634305E-01	1.163841E+00
150	2.49	2.492383E-01	1.104360E+00
151	2.50	2.358163E-01	1.048071E+00
152	2.51	2.231207E-01	9.947923E-01
153	2.52	2.111104E-01	9.443529E-01
154	2.53	1.997470E-01	8.965921E-01
155	2.54	1.889940E-01	8.513588E-01
156	2.55	1.788172E-01	8.085111E-01
157	2.56	1.691846E-01	7.679155E-01
158	2.57	1.600658E-01	7.294465E-01
159	2.58	1.514325E-01	6.929860E-01
160	2.59	1.432576E-01	6.584229E-01
161	2.60	1.355160E-01	6.256525E-01
162	2.61	1.281839E-01	5.945764E-01
163	2.62	1.212388E-01	5.651019E-01
164	2.63	1.146597E-01	5.371417E-01
165	2.64	1.084265E-01	5.106136E-01
166	2.65	1.025205E-01	4.854399E-01
167	2.66	9.692400E-02	4.615476E-01
168	2.67	9.162029E-02	4.388679E-01
169	2.68	8.659360E-02	4.173357E-01
170	2.69	8.182907E-02	3.968899E-01
171	2.70	7.731266E-02	3.774726E-01
172	2.71	7.303113E-02	3.590294E-01
173	2.72	6.897196E-02	3.415087E-01
174	2.73	6.512336E-02	3.248620E-01
175	2.74	6.147416E-02	3.090433E-01
176	2.75	5.801384E-02	2.940095E-01
177	2.76	5.473243E-02	2.797195E-01
178	2.77	5.162054E-02	2.661347E-01
179	2.78	4.866928E-02	2.532186E-01
180	2.79	4.587023E-02	2.409367E-01
181	2.80	4.321546E-02	2.292562E-01
182	2.81	4.069746E-02	2.181465E-01
183	2.82	3.830911E-02	2.075781E-01
184	2.83	3.604371E-02	1.975236E-01
185	2.84	3.389488E-02	1.879569E-01
186	2.85	3.185661E-02	1.788531E-01
187	2.86	2.992322E-02	1.701890E-01
188	2.87	2.808930E-02	1.619424E-01
189	2.88	2.634976E-02	1.540922E-01
190	2.89	2.469976E-02	1.466187E-01
191	2.90	2.313473E-02	1.395030E-01
192	2.91	2.165034E-02	1.327274E-01
193	2.92	2.024248E-02	1.262749E-01
194	2.93	1.890726E-02	1.201296E-01
195	2.94	1.764100E-02	1.142762E-01
196	2.95	1.644021E-02	1.087004E-01
197	2.96	1.530157E-02	1.033886E-01
198	2.97	1.422194E-02	9.832792E-02
199	2.98	1.319837E-02	9.350598E-02
200	2.99	1.222801E-02	8.891121E-02
201	3.00	1.130820E-02	8.453257E-02
202	3.01	1.043641E-02	8.035959E-02
203	3.02	9.610215E-03	7.638232E-02
204	3.03	8.827344E-03	7.259135E-02
205	3.04	8.085627E-03	6.897770E-02
206	3.05	7.383011E-03	6.553288E-02
207	3.06	6.717542E-03	6.224880E-02
208	3.07	6.087371E-03	5.911780E-02
209	3.08	5.490738E-03	5.613259E-02
210	3.09	4.925976E-03	5.328624E-02
211	3.10	4.391499E-03	5.057217E-02
212	3.11	3.885802E-03	4.798412E-02
213	3.12	3.407458E-03	4.551616E-02
214	3.13	2.955109E-03	4.316262E-02
215	3.14	2.527464E-03	4.091813E-02
216	3.15	2.123300E-03	3.877759E-02
217	3.16	1.741453E-03	3.673613E-02
218	3.17	1.380816E-03	3.478912E-02
219	3.18	1.040340E-03	3.293216E-02
220	3.19	7.190254E-04	3.116108E-02
221	3.20	4.159229E-04	2.947189E-02
222	3.21	1.301304E-04	2.786079E-02
223	3.22	-1.392097E-04	2.632418E-02
224	3.23	-3.929130E-04	2.485861E-02
225	3.24	-6.317548E-04	2.346083E-02
226	3.25	-8.564722E-04	2.212771E-02
227	3.26	-1.067766E-03	2.085629E-02
228	3.27	-1.266304E-03	1.964374E-02
229	3.28	-1.452720E-03	1.848737E-02
230	3.29	-1.627616E-03	1.738461E-02
231	3.30	-1.791567E-03	1.633303E-02
232	3.31	-1.945118E-03	1.533029E-02
233	3.32	-2.088789E-03	1.437417E-02
234	3.33	-2.223074E-03	1.346257E-02
235	3.34	-2.348442E-03	1.259345E-02
236	3.35	-2.465341E-03	1.176491E-02
237	3.36	-2.574197E-03	1.097510E-02
238	3.37	-2.675415E-03	1.022228E-02
239	3.38	-2.769380E-03	9.504778E-03
240	3.39	-2.856459E-03	8.821011E-03
241	3.40	-2.937001E-03	8.169458E-03
242	3.41	-3.011339E-03	7.548673E-03
243	3.42	-3.079788E-03	6.957275E-03
244	3.43	-3.142651E-03	6.393947E-03
245	3.44	-3.200213E-03	5.857433E-03
246	3.45	-3.252747E-03	5.346531E-03
247	3.46	-3.300513E-03	4.860098E-03
248	3.47	-3.343759E-03	4.397041E-03
249	3.48	-3.382720E-03	3.956315E-03
250	3.49	-3.417620E-03	3.536925E-03
251	3.50	-3.448671E-03	3.137919E-03
252	3.51	-3.476079E-03	2.758389E-03
253	3.52	-3.500035E-03	2.397468E-03
254	3.53	-3.520723E-03	2.054327E-03
255	3.54	-3.538320E-03	1.728176E-03
256	3.55	-3.552992E-03	1.418257E-03
257	3.56	-3.564898E-03	1.123850E-03
258	3.57	-3.574189E-03	8.442637E-04
259	3.58	-3.581009E-03	5.788398E-04
260	3.59	-3.585495E-03	3.269484E-04
261	3.60	-3.587777E-03	8.798743E-05
262	3.61	-3.587981E-03	-1.386181E-04
263	3.62	-3.586223E-03	-3.534179E-04
264	3.63	-3.582617E-03	-5.569373E-04
265	3.64	-3.577270E-03	-7.496785E-04
266	3.65	-3.570284E-03	-9.321217E-04
267	3.66	-3.561755E-03	-1.104726E-03
268	3.67	-3.551776E-03	-1.267929E-03
269	3.68	-3.540435E-03	-1.422152E-03
270	3.69	-3.527815E-03	-1.567795E-03
271	3.70	-3.513997E-03	-1.705242E-03
272	3.71	-3.499055E-03	-1.834859E-03
273	3.72	-3.483062E-03	-1.956998E-03
274	3.73	-3.466086E-03	-2.071993E-03
275	3.74	-3.448192E-03	-2.180167E-03
276	3.75	-3.429442E-03	-2.281824E-03
277	3.76	-3.409896E-03	-2.377260E-03
278	3.77	-3.389608E-03	-2.466754E-03
279	3.78	-3.368633E-03	-2.550576E-03
280	3.79	-3.347021E-03	-2.628983E-03
281	3.80	-3.324819E-03	-2.702219E-03
282	3.81	-3.302074E-03	-2.770521E-03
283	3.82	-3.278830E-03	-2.834113E-03
284	3.83	-3.255126E-03	-2.893211E-03
285	3.84	-3.231002E-03	-2.948020E-03
286	3.85	-3.206497E-03	-2.998738E-03
287	3.86	-3.181643E-03	-3.045553E-03
288	3.87	-3.156476E-03	-3.088646E-03
289	3.88	-3.131027E-03	-3.128189E-03
290	3.89	-3.105326E-03	-3.164348E-03
291	3.90	-3.079402E-03	-3.197280E-03
292	3.91	-3.053281E-03	-3.227138E-03
293	3.92	-3.026989E-03	-3.254065E-03
294	3.93	-3.000551E-03	-3.278200E-03
295	3.94	-2.973990E-03	-3.299677E-03
296	3.95	-2.947327E-03	-3.318621E-03
297	3.96	-2.920583E-03	-3.335154E-03
298	3.97	-2.893778E-03	-3.349393E-03
299	3.98	-2.866930E-03	-3.361449E-03
300	3.99	-2.840056E-03	-3.371428E-03
301	4.00	-2.813173E-03	-3.379431E-03
302	4.01	-2.786296E-03	-3.385557E-03
303	4.02	-2.759441E-03	-3.389899E-03
304	4.03	-2.732620E-03	-3.392545E-03
305	4.04	-2.705847E-03	-3.393582E-03
306	4.05	-2.679134E-03	-3.393091E-03
307	4.06	-2.652493E-03	-3.391150E-03
308	4.07	-2.625935E-03	-3.387834E-03
309	4.08	-2.599469E-03	-3.383215E-03
310	4.09	-2.573106E-03	-3.377361E-03
311	4.10	-2.546854E-03	-3.370337E-03
312	4.11	-2.520722E-03	-3.362206E-03
313	4.12	-2.494717E-03	-3.353029E-03
314	4.13	-2.468848E-03	-3.342862E-03
315	4.14	-2.443120E-03	-3.331761E-03
316	4.15	-2.417540E-03	-3.319777E-03
317	4.16	-2.392115E-03	-3.306961E-03
318	4.17	-2.366850E-03	-3.293362E-03
319	4.18	-2.341749E-03	-3.279024E-03
320	4.19	-2.316818E-03	-3.263992E-03
321	4.20	-2.292061E-03	-3.248308E-03
322	4.21	-2.267482E-03	-3.232011E-03
323	4.22	-2.243085E-03	-3.215141E-03
324	4.23	-2.218873E-03	-3.197733E-03
325	4.24	-2.194850E-03	-3.179823E-03
326	4.25	-2.171018E-03	-3.161444E-03
327	4.26	-2.147379E-03	-3.142628E-03
328	4.27	-2.123937E-03	-3.123406E-03
329	4.28	-2.100693E-03	-3.103807E-03
330	4.29	-2.077649E-03	-3.083858E-03
331	4.30	-2.054806E-03	-3.063586E-03
332	4.31	-2.032166E-03	-3.043017E-03
333	4.32	-2.009731E-03	-3.022175E-03
334	4.33	-1.987501E-03	-3.001083E-03
335	4.34	-1.965477E-03	-2.979763E-03
336	4.35	-1.943660E-03	-2.958235E-03
337	4.36	-1.922051E-03	-2.936521E-03
338	4.37	-1.900649E-03	-2.914639E-03
339	4.38	-1.879455E-03	-2.892608E-03
340	4.39	-1.858470E-03	-2.870445E-03
341	4.40	-1.837692E-03	-2.848166E-03
342	4.41	-1.817123E-03	-2.825787E-03
343	4.42	-1.796761E-03	-2.803323E-03
344	4.43	-1.776607E-03	-2.780789E-03
345	4.44	-1.756660E-03	-2.758199E-03
346	4.45	-1.736920E-03	-2.735564E-03
347	4.46	-1.717385E-03	-2.712898E-03
348	4.47	-1.698056E-03	-2.690213E-03
349	4.48	-1.678931E-03	-2.667518E-03
350	4.49	-1.660009E-03	-2.644826E-03
351	4.50	-1.641290E-03	-2.622145E-03
352	4.51	-1.622773E-03	-2.599486E-03
353	4.52	-1.604456E-03	-2.576858E-03
354	4.53	-1.586339E-03	-2.554269E-03
355	4.54	-1.568420E-03	-2.531727E-03
356	4.55	-1.550698E-03	-2.509239E-03
357	4.56	-1.533172E-03	-2.486815E-03
358	4.57	-1.515840E-03	-2.464459E-03
359	4.58	-1.498702E-03	-2.442179E-03
360	4.59	-1.481755E-03	-2.419981E-03
361	4.60	-1.464999E-03	-2.397870E-03
362	4.61	-1.448432E-03	-2.375852E-03
363	4.62	-1.432053E-03	-2.353933E-03
364	4.63	-1.415859E-03	-2.332116E-03
365	4.64	-1.399851E-03	-2.310407E-03
366	4.65	-1.384025E-03	-2.288811E-03
367	4.66	-1.368381E-03	-2.267330E-03
368	4.67	-1.352916E-03	-2.245968E-03
369	4.68	-1.337630E-03	-2.224730E-03
370	4.69	-1.322521E-03	-2.203619E-03
371	4.70	-1.307587E-03	-2.182637E-03
372	4.71	-1.292826E-03	-2.161787E-03
373	4.72	-1.278237E-03	-2.141072E-03
374	4.73	-1.263818E-03	-2.120495E-03
375	4.74	-1.249568E-03	-2.100058E-03
376	4.75	-1.235485E-03	-2.079763E-03
377	4.76	-1.221567E-03	-2.059611E-03
378	4.77	-1.207813E-03	-2.039605E-03
379	4.78	-1.194221E-03	-2.019746E-03
380	4.79	-1.180789E-03	-2.000036E-03
381	4.80	-1.167516E-03	-1.980475E-03
382	4.81	-1.154400E-03	-1.961066E-03
383	4.82	-1.141439E-03	-1.941809E-03
384	4.83	-1.128632E-03	-1.922705E-03
385	4.84	-1.115978E-03	-1.903755E-03
386	4.85	-1.103473E-03	-1.884959E-03
387	4.86	-1.091118E-03	-1.866319E-03
388	4.87	-1.078909E-03	-1.847835E-03
389	4.88	-1.066847E-03	-1.829506E-03
390	4.89	-1.054928E-03	-1.811334E-03
391	4.90	-1.043151E-03	-1.793319E-03
392	4.91	-1.031516E-03	-1.775461E-03
393	4.92	-1.020019E-03	-1.757759E-03
394	4.93	-1.008660E-03	-1.740214E-03
395	4.94	-9.974376E-04	-1.722827E-03
396	4.95	-9.863493E-04	-1.705595E-03
397	4.96	-9.753939E-04	-1.688520E-03
398	4.97	-9.645700E-04	-1.671602E-03
399	4.98	-9.538759E-04	-1.654839E-03
400	4.99	-9.433103E-04	-1.638231E-03
401	5.00	-9.328715E-04	-1.621779E-03
402	5.01	-9.225580E-04	-1.605481E-03
403	5.02	-9.123685E-04	-1.589337E-03
404	5.03	-9.023014E-04	-1.573346E-03
405	5.04	-8.923553E-04	-1.557508E-03
406	5.05	-8.825288E-04	-1.541822E-03
407	5.06	-8.728203E-04	-1.526288E-03
408	5.07	-8.632286E-04	-1.510904E-03
409	5.08	-8.537521E-04	-1.495670E-03
410	5.09	-8.443895E-04	-1.480586E-03
411	5.10	-8.351395E-04	-1.465650E-03
412	5.11	-8.260007E-04	-1.450861E-03
413	5.12	-8.169716E-04	-1.436218E-03
414	5.13	-8.080510E-04	-1.421722E-03
415	5.14	-7.992376E-04	-1.407370E-03
416	5.15	-7.905301E-04	-1.393162E-03
417	5.16	-7.819270E-04	-1.379097E-03
418	5.17	-7.734273E-04	-1.365174E-03
419	5.18	-7.650295E-04	-1.351392E-03
420	5.19	-7.567325E-04	-1.337750E-03
421	5.20	-7.485349E-04	-1.324246E-03
422	5.21	-7.404356E-04	-1.310881E-03
423	5.22	-7.324334E-04	-1.297652E-03
424	5.23	-7.245270E-04	-1.284559E-03
425	5.24	-7.167153E-04	-1.271601E-03
426	5.25	-7.089970E-04	-1.258776E-03
427	5.26	-7.013711E-04	-1.246084E-03
428	5.27	-6.938363E-04	-1.233524E-03
429	5.28	-6.863915E-04	-1.221094E-03
430	5.29	-6.790357E-04	-1.208793E-03
431	5.30	-6.717676E-04	-1.196620E-03
432	5.31	-6.645862E-04	-1.184574E-03
433	5.32	-6.574904E-04	-1.172655E-03
434	5.33	-6.504792E-04	-1.160860E-03
435	5.34	-6.435514E-04	-1.149189E-03
436	5.35	-6.367061E-04	-1.137641E-03
437	5.36	-6.299421E-04	-1.126214E-03
438	5.37	-6.232585E-04	-1.114908E-03
439	5.38	-6.166542E-04	-1.103720E-03
440	5.39	-6.101283E-04	-1.092652E-03
441	5.40	-6.036798E-04	-1.081700E-03
442	5.41	-5.973077E-04	-1.070864E-03
443	5.42	-5.910110E-04	-1.060143E-03
444	5.43	-5.847887E-04	-1.049536E-03
445	5.44	-5.786400E-04	-1.039041E-03
446	5.45	-5.725640E-04	-1.028658E-03
447	5.46	-5.665596E-04	-1.018386E-03
448	5.47	-5.606260E-04	-1.008223E-03
449	5.48	-5.547623E-04	-9.981682E-04
450	5.49	-5.489676E-04	-9.882207E-04
451	5.50	-5.432411E-04	-9.783794E-04
452	5.51	-5.375819E-04	-9.686433E-04
453	5.52	-5.319890E-04	-9.590111E-04
454	5.53	-5.264618E-04	-9.494820E-04
455	5.54	-5.209994E-04	-9.400547E-04
456	5.55	-5.156008E-04	-9.307284E-04
457	5.56	-5.102655E-04	-9.215019E-04
458	5.57	-5.049925E-04	-9.123743E-04
459	5.58	-4.997810E-04	-9.033444E-04
460	5.59	-4.946303E-04	-8.944114E-04
461	5.60	-4.895396E-04	-8.855741E-04
462	5.61	-4.845082E-04	-8.768315E-04
463	5.62	-4.795353E-04	-8.681828E-04
464	5.63	-4.746201E-04	-8.596268E-04
465	5.64	-4.697620E-04	-8.511626E-04
466	5.65	-4.649602E-04	-8.427892E-04
467	5.66	-4.602141E-04	-8.345057E-04
468	5.67	-4.555228E-04	-8.263111E-04
469	5.68	-4.508857E-04	-8.182045E-04
470	5.69	-4.463022E-04	-8.101848E-04
471	5.70	-4.417716E-04	-8.022512E-04
472	5.71	-4.372931E-04	-7.944028E-04
473	5.72	-4.328662E-04	-7.866385E-04
474	5.73	-4.284902E-04	-7.789576E-04
475	5.74	-4.241645E-04	-7.713590E-04
476	5.75	-4.198883E-04	-7.638420E-04
477	5.76	-4.156612E-04	-7.564056E-04
478	5.77	-4.114825E-04	-7.490489E-04
479	5.78	-4.073515E-04	-7.417711E-04
480	5.79	-4.032677E-04	-7.345713E-04
481	5.80	-3.992305E-04	-7.274486E-04
482	5.81	-3.952393E-04	-7.204022E-04
483	5.82	-3.912936E-04	-7.134313E-04
484	5.83	-3.873927E-04	-7.065350E-04
485	5.84	-3.835361E-04	-6.997125E-04
486	5.85	-3.797233E-04	-6.929629E-04
487	5.86	-3.759536E-04	-6.862856E-04
488	5.87	-3.722267E-04	-6.796796E-04
489	5.88	-3.685419E-04	-6.731442E-04
490	5.89	-3.648986E-04	-6.666785E-04
491	5.90	-3.612965E-04	-6.602819E-04
492	5.91	-3.577350E-04	-6.539536E-04
493	5.92	-3.542135E-04	-6.476928E-04
494	5.93	-3.507316E-04	-6.414986E-04
495	5.94	-3.472888E-04	-6.353705E-04
496	5.95	-3.438846E-04	-6.293076E-04
497	5.96	-3.405185E-04	-6.233093E-04
498	5.97	-3.371901E-04	-6.173747E-04
499	5.98	-3.338989E-04	-6.115033E-04
500	5.99	-3.306444E-04	-6.056942E-04
501	6.00	-3.274261E-04	-5.999468E-04
502	6.01	-3.242437E-04	-5.942604E-04
503	6.02	-3.210967E-04	-5.886343E-04
504	6.03	-3.179847E-04	-5.830678E-04
505	6.04	-3.149071E-04	-5.775603E-04
506	6.05	-3.118637E-04	-5.721111E-04
507	6.06	-3.088539E-04	-5.667195E-04
508	6.07	-3.058774E-04	-5.613849E-04
509	6.08	-3.029337E-04	-5.561066E-04
510	6.09	-3.000225E-04	-5.508841E-04
511	6.10	-2.971434E-04	-5.457166E-04
512	6.11	-2.942959E-04	-5.406036E-04
513	6.12	-2.914797E-04	-5.355444E-04
514	6.13	-2.886944E-04	-5.305385E-04
515	6.14	-2.859396E-04	-5.255853E-04
516	6.15	-2.832149E-04	-5.206841E-04
517	6.16	-2.805201E-04	-5.158343E-04
518	6.17	-2.778546E-04	-5.110355E-04
519	6.18	-2.752182E-04	-5.062869E-04
520	6.19	-2.726106E-04	-5.015881E-04
521	6.20	-2.700312E-04	-4.969385E-04
522	6.21	-2.674799E-04	-4.923375E-04
523	6.22	-2.649563E-04	-4.877846E-04
524	6.23	-2.624600E-04	-4.832792E-04
525	6.24	-2.599907E-04	-4.788208E-04
526	6.25	-2.575481E-04	-4.744089E-04
527	6.26	-2.551319E-04	-4.700429E-04
528	6.27	-2.527417E-04	-4.657223E-04
529	6.28	-2.503772E-04	-4.614467E-04
530	6.29	-2.480382E-04	-4.572155E-04
531	6.30	-2.457243E-04	-4.530282E-04
532	6.31	-2.434352E-04	-4.488843E-04
533	6.32	-2.411706E-04	-4.447834E-04
534	6.33	-2.389303E-04	-4.407248E-04
535	6.34	-2.367138E-04	-4.367083E-04
536	6.35	-2.345211E-04	-4.327332E-04
537	6.36	-2.323517E-04	-4.287992E-04
538	6.37	-2.302054E-04	-4.249057E-04
539	6.38	-2.280819E-04	-4.210524E-04
540	6.39	-2.259809E-04	-4.172387E-04
541	6.40	-2.239022E-04	-4.134642E-04
542	6.41	-2.218456E-04	-4.097285E-04
543	6.42	-2.198107E-04	-4.060311E-04
544	6.43	-2.177972E-04	-4.023717E-04
545	6.44	-2.158050E-04	-3.987497E-04
546	6.45	-2.138339E-04	-3.951648E-04
547	6.46	-2.118834E-04	-3.916165E-04
548	6.47	-2.099534E-04	-3.881045E-04
549	6.48	-2.080437E-04	-3.846283E-04
550	6.49	-2.061540E-04	-3.811876E-04
551	6.50	-2.042841E-04	-3.777819E-04
552	6.51	-2.024337E-04	-3.744108E-04
553	6.52	-2.006027E-04	-3.710740E-04
554	6.53	-1.987907E-04	-3.677710E-04
555	6.54	-1.969976E-04	-3.645016E-04
556	6.55	-1.952232E-04	-3.612653E-04
557	6.56	-1.934672E-04	-3.580617E-04
558	6.57	-1.917294E-04	-3.548906E-04
559	6.58	-1.900096E-04	-3.517514E-04
560	6.59	-1.883076E-04	-3.486439E-04
561	6.60	-1.866232E-04	-3.455678E-04
562	6.61	-1.849562E-04	-3.425226E-04
563	6.62	-1.833063E-04	-3.395081E-04
564	6.63	-1.816734E-04	-3.365238E-04
565	6.64	-1.800574E-04	-3.335695E-04
566	6.65	-1.784579E-04	-3.306449E-04
567	6.66	-1.768748E-04	-3.277495E-04
568	6.67	-1.753079E-04	-3.248831E-04
569	6.68	-1.737571E-04	-3.220453E-04
570	6.69	-1.722220E-04	-3.192359E-04
571	6.70	-1.707027E-04	-3.164545E-04
572	6.71	-1.691988E-04	-3.137008E-04
573	6.72	-1.677102E-04	-3.109745E-04
574	6.73	-1.662368E-04	-3.082753E-04
575	6.74	-1.647783E-04	-3.056029E-04
576	6.75	-1.633345E-04	-3.029570E-04
577	6.76	-1.619054E-04	-3.003374E-04
578	6.77	-1.604908E-04	-2.977437E-04
579	6.78	-1.590904E-04	-2.951756E-04
580	6.79	-1.577041E-04	-2.926329E-04
581	6.80	-1.563318E-04	-2.901153E-04
582	6.81	-1.549733E-04	-2.876224E-04
583	6.82	-1.536285E-04	-2.851542E-04
584	6.83	-1.522971E-04	-2.827102E-04
585	6.84	-1.509791E-04	-2.802902E-04
586	6.85	-1.496743E-04	-2.778940E-04
587	6.86	-1.483824E-04	-2.755212E-04
588	6.87	-1.471035E-04	-2.731717E-04
589	6.88	-1.458374E-04	-2.708451E-04
590	6.89	-1.445838E-04	-2.685413E-04
591	6.90	-1.433427E-04	-2.662600E-04
592	6.91	-1.421139E-04	-2.640009E-04
593	6.92	-1.408973E-04	-2.617638E-04
594	6.93	-1.396928E-04	-2.595484E-04
595	6.94	-1.385001E-04	-2.573546E-04
596	6.95	-1.373193E-04	-2.551821E-04
597	6.96	-1.361500E-04	-2.530306E-04
598	6.97	-1.349923E-04	-2.508999E-04
599	6.98	-1.338460E-04	-2.487899E-04
600	6.99	-1.327110E-04	-2.467002E-04
601	7.00	-1.315871E-04	-2.446307E-04
602	7.01	-1.304742E-04	-2.425812E-04
603	7.02	-1.293722E-04	-2.405514E-04
604	7.03	-1.282810E-04	-2.385411E-04
605	7.04	-1.272004E-04	-2.365501E-04
606	7.05	-1.261304E-04	-2.345782E-04
607	7.06	-1.250708E-04	-2.326252E-04
608	7.07	-1.240215E-04	-2.306909E-04
609	7.08	-1.229824E-04	-2.287752E-04
610	7.09	-1.219533E-04	-2.268777E-04
611	7.10	-1.209343E-04	-2.249983E-04
612	7.11	-1.199251E-04	-2.231368E-04
613	7.12	-1.189256E-04	-2.212930E-04
614	7.13	-1.179358E-04	-2.194668E-04
615	7.14	-1.169556E-04	-2.176579E-04
616	7.15	-1.159847E-04	-2.158662E-04
617	7.16	-1.150232E-04	-2.140915E-04
618	7.17	-1.140710E-04	-2.123335E-04
619	7.18	-1.131279E-04	-2.105922E-04
620	7.19	-1.121938E-04	-2.088673E-04
621	7.20	-1.112686E-04	-2.071587E-04
622	7.21	-1.103523E-04	-2.054662E-04
623	7.22	-1.094447E-04	-2.037896E-04
624	7.23	-1.085458E-04	-2.021287E-04
625	7.24	-1.076554E-04	-2.004835E-04
626	7.25	-1.067735E-04	-1.988537E-04
627	7.26	-1.059000E-04	-1.972392E-04
628	7.27	-1.050347E-04	-1.956397E-04
629	7.28	-1.041777E-04	-1.940552E-04
630	7.29	-1.033287E-04	-1.924855E-04
631	7.30	-1.024878E-04	-1.909305E-04
632	7.31	-1.016548E-04	-1.893899E-04
633	7.32	-1.008296E-04	-1.878637E-04
634	7.33	-1.000123E-04	-1.863516E-04
635	7.34	-9.920255E-05	-1.848536E-04
636	7.35	-9.840044E-05	-1.833695E-04
637	7.36	-9.760586E-05	-1.818991E-04
638	7.37	-9.681871E-05	-1.804423E-04
639	7.38	-9.603893E-05	-1.789990E-04
640	7.39	-9.526642E-05	-1.775690E-04
641	7.40	-9.450112E-05	-1.761521E-04
642	7.41	-9.374296E-05	-1.747483E-04
643	7.42	-9.299184E-05	-1.733575E-04
644	7.43	-9.224771E-05	-1.719794E-04
645	7.44	-9.151048E-05	-1.706139E-04
646	7.45	-9.078008E-05	-1.692610E-04
647	7.46	-9.005645E-05	-1.679204E-04
648	7.47	-8.933951E-05	-1.665921E-04
649	7.48	-8.862919E-05	-1.652760E-04
650	7.49	-8.792542E-05	-1.639718E-04
651	7.50	-8.722813E-05	-1.626795E-04
652	7.51	-8.653726E-05	-1.613990E-04
653	7.52	-8.585274E-05	-1.601302E-04
654	7.53	-8.517450E-05	-1.588728E-04
655	7.54	-8.450247E-05	-1.576269E-04
656	7.55	-8.383660E-05	-1.563922E-04
657	7.56	-8.317682E-05	-1.551687E-04
658	7.57	-8.252306E-05	-1.539563E-04
659	7.58	-8.187526E-05	-1.527548E-04
660	7.59	-8.123337E-05	-1.515642E-04
661	7.60	-8.059731E-05	-1.503843E-04
662	7.61	-7.996704E-05	-1.492150E-04
663	7.62	-7.934248E-05	-1.480562E-04
664	7.63	-7.872359E-05	-1.469078E-04
665	7.64	-7.811030E-05	-1.457697E-04
666	7.65	-7.750255E-05	-1.446418E-04
667	7.66	-7.690030E-05	-1.435239E-04
668	7.67	-7.630347E-05	-1.424161E-04
669	7.68	-7.571203E-05	-1.413182E-04
670	7.69	-7.512590E-05	-1.402300E-04
671	7.70	-7.454504E-05	-1.391516E-04
672	7.71	-7.396940E-05	-1.380827E-04
673	7.72	-7.339892E-05	-1.370233E-04
674	7.73	-7.283354E-05	-1.359734E-04
675	7.74	-7.227322E-05	-1.349327E-04
676	7.75	-7.171791E-05	-1.339012E-04
677	7.76	-7.116755E-05	-1.328789E-04
678	7.77	-7.062209E-05	-1.318656E-04
679	7.78	-7.008149E-05	-1.308612E-04
680	7.79	-6.954570E-05	-1.298657E-04
681	7.80	-6.901466E-05	-1.288790E-04
682	7.81	-6.848833E-05	-1.279009E-04
683	7.82	-6.796666E-05	-1.269314E-04
684	7.83	-6.744960E-05	-1.259705E-04
685	7.84	-6.693712E-05	-1.250179E-04
686	7.85	-6.642915E-05	-1.240737E-04
687	7.86	-6.592566E-05	-1.231377E-04
688	7.87	-6.542661E-05	-1.222099E-04
689	7.88	-6.493194E-05	-1.212902E-04
690	7.89	-6.444162E-05	-1.203785E-04
691	7.90	-6.395560E-05	-1.194748E-04
692	7.91	-6.347384E-05	-1.185789E-04
693	7.92	-6.299629E-05	-1.176908E-04
694	7.93	-6.252291E-05	-1.168104E-04
695	7.94	-6.205367E-05	-1.159376E-04
696	7.95	-6.158852E-05	-1.150723E-04
697	7.96	-6.112742E-05	-1.142146E-04
698	7.97	-6.067033E-05	-1.133642E-04
699	7.98	-6.021721E-05	-1.125212E-04
700	7.99	-5.976802E-05	-1.116854E-04
701	8.00	-5.932273E-05	-1.108569E-04
702	8.01	-5.888129E-05	-1.100354E-04
703	8.02	-5.844366E-05	-1.092210E-04
704	8.03	-5.800982E-05	-1.084136E-04
705	8.04	-5.757972E-05	-1.076131E-04
706	8.05	-5.715332E-05	-1.068195E-04
707	8.06	-5.673059E-05	-1.060326E-04
708	8.07	-5.631150E-05	-1.052525E-04
709	8.08	-5.589600E-05	-1.044790E-04
710	8.09	-5.548407E-05	-1.037120E-04
711	8.10	-5.507567E-05	-1.029517E-04
712	8.11	-5.467075E-05	-1.021977E-04
713	8.12	-5.426930E-05	-1.014502E-04
714	8.13	-5.387128E-05	-1.007090E-04
715	8.14	-5.347664E-05	-9.997409E-05
716	8.15	-5.308537E-05	-9.924540E-05
717	8.16	-5.269742E-05	-9.852285E-05
718	8.17	-5.231277E-05	-9.780641E-05
719	8.18	-5.193139E-05	-9.709601E-05
720	8.19	-5.155323E-05	-9.639159E-05
721	8.20	-5.117828E-05	-9.569309E-05
722	8.21	-5.080649E-05	-9.500046E-05
723	8.22	-5.043785E-05	-9.431365E-05
724	8.23	-5.007231E-05	-9.363259E-05
725	8.24	-4.970985E-05	-9.295723E-05
726	8.25	-4.935045E-05	-9.228753E-05
727	8.26	-4.899406E-05	-9.162342E-05
728	8.27	-4.864067E-05	-9.096485E-05
729	8.28	-4.829024E-05	-9.031177E-05
730	8.29	-4.794274E-05	-8.966413E-05
731	8.30	-4.759815E-05	-8.902187E-05
732	8.31	-4.725644E-05	-8.838495E-05
733	8.32	-4.691759E-05	-8.775332E-05
734	8.33	-4.658156E-05	-8.712692E-05
735	8.34	-4.624832E-05	-8.650571E-05
736	8.35	-4.591786E-05	-8.588964E-05
737	8.36	-4.559015E-05	-8.527865E-05
738	8.37	-4.526515E-05	-8.467271E-05
739	8.38	-4.494285E-05	-8.407177E-05
740	8.39	-4.462321E-05	-8.347577E-05
741	8.40	-4.430622E-05	-8.288468E-05
742	8.41	-4.399185E-05	-8.229844E-05
743	8.42	-4.368007E-05	-8.171701E-05
744	8.43	-4.337086E-05	-8.114035E-05
745	8.44	-4.306420E-05	-8.056841E-05
746	8.45	-4.276005E-05	-8.000115E-05
747	8.46	-4.245841E-05	-7.943852E-05
748	8.47	-4.215924E-05	-7.888049E-05
749	8.48	-4.186252E-05	-7.832700E-05
750	8.49	-4.156823E-05	-7.777802E-05
751	8.50	-4.127635E-05	-7.723351E-05
752	8.51	-4.098685E-05	-7.669342E-05
753	8.52	-4.069971E-05	-7.615772E-05
754	8.53	-4.041491E-05	-7.562636E-05
755	8.54	-4.013243E-05	-7.509930E-05
756	8.55	-3.985225E-05	-7.457651E-05
757	8.56	-3.957434E-05	-7.405794E-05
758	8.57	-3.929868E-05	-7.354355E-05
759	8.58	-3.902526E-05	-7.303332E-05
760	8.59	-3.875405E-05	-7.252719E-05
761	8.60	-3.848504E-05	-7.202514E-05
762	8.61	-3.821819E-05	-7.152712E-05
763	8.62	-3.795350E-05	-7.103310E-05
764	8.63	-3.769094E-05	-7.054304E-05
765	8.64	-3.743049E-05	-7.005690E-05
766	8.65	-3.717214E-05	-6.957466E-05
767	8.66	-3.691586E-05	-6.909627E-05
768	8.67	-3.666164E-05	-6.862170E-05
769	8.68	-3.640945E-05	-6.815091E-05
770	8.69	-3.615928E-05	-6.768388E-05
771	8.70	-3.591111E-05	-6.722056E-05
772	8.71	-3.566492E-05	-6.676093E-05
773	8.72	-3.542070E-05	-6.630494E-05
774	8.73	-3.517842E-05	-6.585258E-05
775	8.74	-3.493807E-05	-6.540379E-05
776	8.75	-3.469963E-05	-6.495856E-05
777	8.76	-3.446308E-05	-6.451685E-05
778	8.77	-3.422841E-05	-6.407863E-05
779	8.78	-3.399560E-05	-6.364386E-05
780	8.79	-3.376463E-05	-6.321252E-05
781	8.80	-3.353548E-05	-6.278458E-05
782	8.81	-3.330815E-05	-6.236000E-05
783	8.82	-3.308261E-05	-6.193876E-05
784	8.83	-3.285884E-05	-6.152082E-05
785	8.84	-3.263684E-05	-6.110616E-05
786	8.85	-3.241658E-05	-6.069475E-05
787	8.86	-3.219805E-05	-6.028655E-05
788	8.87	-3.198124E-05	-5.988154E-05
789	8.88	-3.176612E-05	-5.947970E-05
790	8.89	-3.155269E-05	-5.908099E-05
791	8.90	-3.134093E-05	-5.868538E-05
792	8.91	-3.113082E-05	-5.829285E-05
793	8.92	-3.092235E-05	-5.790337E-05
794	8.93	-3.071550E-05	-5.751691E-05
795	8.94	-3.051027E-05	-5.713345E-05
796	8.95	-3.030663E-05	-5.675297E-05
797	8.96	-3.010457E-05	-5.637542E-05
798	8.97	-2.990408E-05	-5.600080E-05
799	8.98	-2.970514E-05	-5.562907E-05
800	8.99	-2.950775E-05	-5.526020E-05
801	9.00	-2.931188E-05	-5.489418E-05
802	9.01	-2.911752E-05	-5.453097E-05
803	9.02	-2.892466E-05	-5.417056E-05
804	9.03	-2.873329E-05	-5.381292E-05
805	9.04	-2.854340E-05	-5.345802E-05
806	9.05	-2.835496E-05	-5.310584E-05
807	9.06	-2.816797E-05	-5.275635E-05
808	9.07	-2.798242E-05	-5.240954E-05
809	9.08	-2.779829E-05	-5.206538E-05
810	9.09	-2.761557E-05	-5.172385E-05
811	9.10	-2.743424E-05	-5.138492E-05
812	9.11	-2.725431E-05	-5.104857E-05
813	9.12	-2.707574E-05	-5.071478E-05
814	9.13	-2.689854E-05	-5.038353E-05
815	9.14	-2.672269E-05	-5.005479E-05
816	9.15	-2.654818E-05	-4.972855E-05
817	9.16	-2.637499E-05	-4.940478E-05
818	9.17	-2.620312E-05	-4.908346E-05
819	9.18	-2.603255E-05	-4.876457E-05
820	9.19	-2.586327E-05	-4.844808E-05
821	9.20	-2.569528E-05	-4.813399E-05
822	9.21	-2.552855E-05	-4.782226E-05
823	9.22	-2.536309E-05	-4.751288E-05
824	9.23	-2.519887E-05	-4.720582E-05
825	9.24	-2.503589E-05	-4.690108E-05
826	9.25	-2.487414E-05	-4.659862E-05
827	9.26	-2.471360E-05	-4.629843E-05
828	9.27	-2.455427E-05	-4.600048E-05
829	9.28	-2.439614E-05	-4.570477E-05
830	9.29	-2.423919E-05	-4.541126E-05
831	9.30	-2.408342E-05	-4.511995E-05
832	9.31	-2.392881E-05	-4.483081E-05
833	9.32	-2.377536E-05	-4.454383E-05
834	9.33	-2.362305E-05	-4.425898E-05
835	9.34	-2.347188E-05	-4.397625E-05
836	9.35	-2.332184E-05	-4.369562E-05
837	9.36	-2.317291E-05	-4.341707E-05
838	9.37	-2.302509E-05	-4.314059E-05
839	9.38	-2.287836E-05	-4.286615E-05
840	9.39	-2.273273E-05	-4.259374E-05
841	9.40	-2.258817E-05	-4.232335E-05
842	9.41	-2.244469E-05	-4.205496E-05
843	9.42	-2.230227E-05	-4.178854E-05
844	9.43	-2.216089E-05	-4.152409E-05
845	9.44	-2.202056E-05	-4.126158E-05
846	9.45	-2.188127E-05	-4.100100E-05
847	9.46	-2.174300E-05	-4.074234E-05
848	9.47	-2.160575E-05	-4.048557E-05
849	9.48	-2.146951E-05	-4.023069E-05
850	9.49	-2.133427E-05	-3.997767E-05
851	9.50	-2.120002E-05	-3.972650E-05
852	9.51	-2.106675E-05	-3.947717E-05
853	9.52	-2.093446E-05	-3.922966E-05
854	9.53	-2.080314E-05	-3.898395E-05
855	9.54	-2.067277E-05	-3.874004E-05
856	9.55	-2.054336E-05	-3.849790E-05
857	9.56	-2.041489E-05	-3.825752E-05
858	9.57	-2.028735E-05	-3.801888E-05
859	9.58	-2.016075E-05	-3.778198E-05
860	9.59	-2.003506E-05	-3.754679E-05
861	9.60	-1.991028E-05	-3.731331E-05
862	9.61	-1.978641E-05	-3.708152E-05
863	9.62	-1.966344E-05	-3.685140E-05
864	9.63	-1.954136E-05	-3.662294E-05
865	9.64	-1.942016E-05	-3.639613E-05
866	9.65	-1.929983E-05	-3.617095E-05
867	9.66	-1.918038E-05	-3.594740E-05
868	9.67	-1.906178E-05	-3.572545E-05
869	9.68	-1.894404E-05	-3.550510E-05
870	9.69	-1.882715E-05	-3.528633E-05
871	9.70	-1.871109E-05	-3.506912E-05
872	9.71	-1.859587E-05	-3.485347E-05
873	9.72	-1.848147E-05	-3.463937E-05
874	9.73	-1.836790E-05	-3.442679E-05
875	9.74	-1.825513E-05	-3.421573E-05
876	9.75	-1.814318E-05	-3.400618E-05
877	9.76	-1.803202E-05	-3.379812E-05
878	9.77	-1.792165E-05	-3.359154E-05
879	9.78	-1.781208E-05	-3.338643E-05
880	9.79	-1.770328E-05	-3.318278E-05
881	9.80	-1.759525E-05	-3.298058E-05
882	9.81	-1.748800E-05	-3.277980E-05
883	9.82	-1.738150E-05	-3.258045E-05
884	9.83	-1.727576E-05	-3.238251E-05
885	9.84	-1.717077E-05	-3.218597E-05
886	9.85	-1.706652E-05	-3.199082E-05
887	9.86	-1.696301E-05	-3.179704E-05
888	9.87	-1.686023E-05	-3.160463E-05
889	9.88	-1.675818E-05	-3.141358E-05
890	9.89	-1.665685E-05	-3.122387E-05
891	9.90	-1.655623E-05	-3.103549E-05
892	9.91	-1.645631E-05	-3.084844E-05
893	9.92	-1.635710E-05	-3.066269E-05
894	9.93	-1.625859E-05	-3.047825E-05
895	9.94	-1.616076E-05	-3.029510E-05
896	9.95	-1.606363E-05	-3.011323E-05
897	9.96	-1.596717E-05	-2.993263E-05
898	9.97	-1.587138E-05	-2.975329E-05
899	9.98	-1.577627E-05	-2.957520E-05
900	9.99	-1.568182E-05	-2.939836E-05
901	10.00	-1.558803E-05	-2.922274E-05
902	10.01	-1.549489E-05	-2.904834E-05
903	10.02	-1.540240E-05	-2.887516E-05
904	10.03	-1.531055E-05	-2.870317E-05
905	10.04	-1.521934E-05	-2.853238E-05
906	10.05	-1.512877E-05	-2.836277E-05
907	10.06	-1.503882E-05	-2.819434E-05
908	10.07	-1.494949E-05	-2.802707E-05
909	10.08	-1.486079E-05	-2.786095E-05
910	10.09	-1.477269E-05	-2.769598E-05
911	10.10	-1.468520E-05	-2.753215E-05
912	10.11	-1.459832E-05	-2.736945E-05
913	10.12	-1.451204E-05	-2.720786E-05
914	10.13	-1.442635E-05	-2.704738E-05
915	10.14	-1.434125E-05	-2.688801E-05
916	10.15	-1.425673E-05	-2.672973E-05
917	10.16	-1.417279E-05	-2.657253E-05
918	10.17	-1.408943E-05	-2.641641E-05
919	10.18	-1.400664E-05	-2.626136E-05
920	10.19	-1.392442E-05	-2.610737E-05
921	10.20	-1.384276E-05	-2.595443E-05
922	10.21	-1.376166E-05	-2.580253E-05
923	10.22	-1.368111E-05	-2.565166E-05
924	10.23	-1.360111E-05	-2.550183E-05
925	10.24	-1.352165E-05	-2.535301E-05
926	10.25	-1.344274E-05	-2.520520E-05
927	10.26	-1.336436E-05	-2.505840E-05
928	10.27	-1.328652E-05	-2.491259E-05
929	10.28	-1.320920E-05	-2.476777E-05
930	10.29	-1.313241E-05	-2.462392E-05
931	10.30	-1.305613E-05	-2.448106E-05
932	10.31	-1.298037E-05	-2.433915E-05
933	10.32	-1.290513E-05	-2.419820E-05
934	10.33	-1.283039E-05	-2.405821E-05
935	10.34	-1.275616E-05	-2.391916E-05
936	10.35	-1.268243E-05	-2.378104E-05
937	10.36	-1.260919E-05	-2.364385E-05
938	10.37	-1.253645E-05	-2.350758E-05
939	10.38	-1.246419E-05	-2.337223E-05
940	10.39	-1.239242E-05	-2.323778E-05
941	10.40	-1.232113E-05	-2.310423E-05
942	10.41	-1.225032E-05	-2.297158E-05
943	10.42	-1.217999E-05	-2.283982E-05
944	10.43	-1.211012E-05	-2.270893E-05
945	10.44	-1.204072E-05	-2.257892E-05
946	10.45	-1.197179E-05	-2.244977E-05
947	10.46	-1.190331E-05	-2.232149E-05
948	10.47	-1.183529E-05	-2.219405E-05
949	10.48	-1.176772E-05	-2.206747E-05
950	10.49	-1.170061E-05	-2.194172E-05
951	10.50	-1.163393E-05	-2.181681E-05
952	10.51	-1.156771E-05	-2.169273E-05
953	10.52	-1.150192E-05	-2.156947E-05
954	10.53	-1.143656E-05	-2.144703E-05
955	10.54	-1.137164E-05	-2.132539E-05
956	10.55	-1.130715E-05	-2.120456E-05
957	10.56	-1.124308E-05	-2.108452E-05
958	10.57	-1.117944E-05	-2.096528E-05
959	10.58	-1.111622E-05	-2.084682E-05
960	10.59	-1.105341E-05	-2.072914E-05
961	10.60	-1.099102E-05	-2.061223E-05
962	10.61	-1.092903E-05	-2.049609E-05
963	10.62	-1.086746E-05	-2.038071E-05
964	10.63	-1.080628E-05	-2.026609E-05
965	10.64	-1.074551E-05	-2.015222E-05
966	10.65	-1.068514E-05	-2.003910E-05
967	10.66	-1.062516E-05	-1.992671E-05
968	10.67	-1.056558E-05	-1.981506E-05
969	10.68	-1.050638E-05	-1.970414E-05
970	10.69	-1.044757E-05	-1.959394E-05
971	10.70	-1.038915E-05	-1.948446E-05
972	10.71	-1.033110E-05	-1.937569E-05
973	10.72	-1.027344E-05	-1.926762E-05
974	10.73	-1.021614E-05	-1.916026E-05
975	10.74	-1.015922E-05	-1.905360E-05
976	10.75	-1.010267E-05	-1.894763E-05
977	10.76	-1.004649E-05	-1.884234E-05
978	10.77	-9.990670E-06	-1.873773E-05
979	10.78	-9.935211E-06	-1.863380E-05
980	10.79	-9.880111E-06	-1.853055E-05
981	10.80	-9.825368E-06	-1.842796E-05
982	10.81	-9.770977E-06	-1.832603E-05
983	10.82	-9.716938E-06	-1.822475E-05
984	10.83	-9.663246E-06	-1.812413E-05
985	10.84	-9.609901E-06	-1.802416E-05
986	10.85	-9.556898E-06	-1.792482E-05
987	10.86	-9.504236E-06	-1.782613E-05
988	10.87	-9.451912E-06	-1.772807E-05
989	10.88	-9.399924E-06	-1.763063E-05
990	10.89	-9.348269E-06	-1.753382E-05
991	10.90	-9.296944E-06	-1.743763E-05
992	10.91	-9.245948E-06	-1.734205E-05
993	10.92	-9.195278E-06	-1.724709E-05
994	10.93	-9.144931E-06	-1.715273E-05
995	10.94	-9.094906E-06	-1.705897E-05
996	10.95	-9.045199E-06	-1.696580E-05
997	10.96	-8.995809E-06	-1.687323E-05
998	10.97	-8.946733E-06	-1.678125E-05
999	10.98	-8.897970E-06	-1.668985E-05
1000	10.99	-8.849515E-06	-1.659904E-05
1001	11.00	-8.801369E-06	-1.650879E-05
1002	11.01	-8.753527E-06	-1.641912E-05
1003	11.02	-8.705988E-06	-1.633002E-05
1004	11.03	-8.658751E-06	-1.624148E-05
1005	11.04	-8.611812E-06	-1.615350E-05
1006	11.05	-8.565169E-06	-1.606607E-05
1007	11.06	-8.518821E-06	-1.597919E-05
1008	11.07	-8.472765E-06	-1.589287E-05
1009	11.08	-8.426999E-06	-1.580708E-05
1010	11.09	-8.381521E-06	-1.572184E-05
1011	11.10	-8.336329E-06	-1.563713E-05
1012	11.11	-8.291421E-06	-1.555295E-05
1013	11.12	-8.246795E-06	-1.546930E-05
1014	11.13	-8.202449E-06	-1.538617E-05
1015	11.14	-8.158380E-06	-1.530356E-05
1016	11.15	-8.114588E-06	-1.522147E-05
1017	11.16	-8.071069E-06	-1.513990E-05
1018	11.17	-8.027823E-06	-1.505883E-05
1019	11.18	-7.984846E-06	-1.497827E-05
1020	11.19	-7.942138E-06	-1.489821E-05
1021	11.20	-7.899695E-06	-1.481864E-05
1022	11.21	-7.857517E-06	-1.473958E-05
1023	11.22	-7.815601E-06	-1.466100E-05
1024	11.23	-7.773946E-06	-1.458291E-05
1025	11.24	-7.732550E-06	-1.450531E-05
1026	11.25	-7.691410E-06	-1.442819E-05
1027	11.26	-7.650526E-06	-1.435154E-05
1028	11.27	-7.609895E-06	-1.427537E-05
1029	11.28	-7.569515E-06	-1.419967E-05
1030	11.29	-7.529385E-06	-1.412444E-05
1031	11.30	-7.489502E-06	-1.404967E-05
1032	11.31	-7.449866E-06	-1.397537E-05
1033	11.32	-7.410475E-06	-1.390152E-05
1034	11.33	-7.371326E-06	-1.382813E-05
1035	11.34	-7.332418E-06	-1.375518E-05
1036	11.35	-7.293749E-06	-1.368269E-05
1037	11.36	-7.255318E-06	-1.361064E-05
1038	11.37	-7.217123E-06	-1.353903E-05
1039	11.38	-7.179162E-06	-1.346786E-05
1040	11.39	-7.141434E-06	-1.339713E-05
1041	11.40	-7.103937E-06	-1.332683E-05
1042	11.41	-7.066670E-06	-1.325696E-05
1043	11.42	-7.029630E-06	-1.318752E-05
1044	11.43	-6.992816E-06	-1.311850E-05
1045	11.44	-6.956227E-06	-1.304990E-05
1046	11.45	-6.919862E-06	-1.298172E-05
1047	11.46	-6.883717E-06	-1.291395E-05
1048	11.47	-6.847793E-06	-1.284660E-05
1049	11.48	-6.812087E-06	-1.277965E-05
1050	11.49	-6.776599E-06	-1.271311E-05
1051	11.50	-6.741325E-06	-1.264698E-05
1052	11.51	-6.706266E-06	-1.258124E-05
1053	11.52	-6.671419E-06	-1.251591E-05
1054	11.53	-6.636783E-06	-1.245097E-05
1055	11.54	-6.602357E-06	-1.238642E-05
1056	11.55	-6.568138E-06	-1.232226E-05
1057	11.56	-6.534127E-06	-1.225849E-05
1058	11.57	-6.500320E-06	-1.219510E-05
1059	11.58	-6.466718E-06	-1.213210E-05
1060	11.59	-6.433318E-06	-1.206947E-05
1061	11.60	-6.400119E-06	-1.200722E-05
1062	11.61	-6.367119E-06	-1.194535E-05
1063	11.62	-6.334318E-06	-1.188384E-05
1064	11.63	-6.301714E-06	-1.182271E-05
1065	11.64	-6.269305E-06	-1.176194E-05
1066	11.65	-6.237091E-06	-1.170153E-05
1067	11.66	-6.205069E-06	-1.164149E-05
1068	11.67	-6.173239E-06	-1.158181E-05
1069	11.68	-6.141599E-06	-1.152248E-05
1070	11.69	-6.110149E-06	-1.146351E-05
1071	11.70	-6.078886E-06	-1.140488E-05
1072	11.71	-6.047809E-06	-1.134661E-05
1073	11.72	-6.016918E-06	-1.128868E-05
1074	11.73	-5.986210E-06	-1.123110E-05
1075	11.74	-5.955685E-06	-1.117386E-05
1076	11.75	-5.925342E-06	-1.111696E-05
1077	11.76	-5.895178E-06	-1.106040E-05
1078	11.77	-5.865194E-06	-1.100418E-05
1079	11.78	-5.835387E-06	-1.094828E-05
1080	11.79	-5.805757E-06	-1.089272E-05
1081	11.80	-5.776302E-06	-1.083749E-05
1082	11.81	-5.747022E-06	-1.078258E-05
1083	11.82	-5.717914E-06	-1.072799E-05
1084	11.83	-5.688978E-06	-1.067373E-05
1085	11.84	-5.660213E-06	-1.061979E-05
1086	11.85	-5.631617E-06	-1.056617E-05
1087	11.86	-5.603190E-06	-1.051286E-05
1088	11.87	-5.574930E-06	-1.045986E-05
1089	11.88	-5.546836E-06	-1.040718E-05
1090	11.89	-5.518907E-06	-1.035480E-05
1091	11.90	-5.491142E-06	-1.030273E-05
1092	11.91	-5.463539E-06	-1.025097E-05
1093	11.92	-5.436099E-06	-1.019951E-05
1094	11.93	-5.408819E-06	-1.014835E-05
1095	11.94	-5.381698E-06	-1.009749E-05
1096	11.95	-5.354736E-06	-1.004693E-05
1097	11.96	-5.327931E-06	-9.996662E-06
1098	11.97	-5.301283E-06	-9.946687E-06
1099	11.98	-5.274790E-06	-9.897003E-06
1100	11.99	-5.248452E-06	-9.847608E-06
1101	12.00	-5.222267E-06	-9.798501E-06
1102	12.01	-5.196234E-06	-9.749678E-06
1103	12.02	-5.170352E-06	-9.701140E-06
1104	12.03	-5.144620E-06	-9.652883E-06
1105	12.04	-5.119038E-06	-9.604905E-06
1106	12.05	-5.093604E-06	-9.557205E-06
1107	12.06	-5.068317E-06	-9.509782E-06
1108	12.07	-5.043177E-06	-9.462632E-06
1109	12.08	-5.018182E-06	-9.415755E-06
1110	12.09	-4.993331E-06	-9.369149E-06
1111	12.10	-4.968624E-06	-9.322811E-06
1112	12.11	-4.944059E-06	-9.276741E-06
1113	12.12	-4.919635E-06	-9.230935E-06
1114	12.13	-4.895353E-06	-9.185393E-06
1115	12.14	-4.871210E-06	-9.140113E-06
1116	12.15	-4.847206E-06	-9.095093E-06
1117	12.16	-4.823339E-06	-9.050332E-06
1118	12.17	-4.799610E-06	-9.005827E-06
1119	12.18	-4.776016E-06	-8.961577E-06
1120	12.19	-4.752558E-06	-8.917581E-06
1121	12.20	-4.729234E-06	-8.873836E-06
1122	12.21	-4.706044E-06	-8.830341E-06
1123	12.22	-4.682986E-06	-8.787095E-06
1124	12.23	-4.660060E-06	-8.744095E-06
1125	12.24	-4.637264E-06	-8.701341E-06
1126	12.25	-4.614599E-06	-8.658830E-06
1127	12.26	-4.592062E-06	-8.616561E-06
1128	12.27	-4.569654E-06	-8.574533E-06
1129	12.28	-4.547374E-06	-8.532743E-06
1130	12.29	-4.525220E-06	-8.491191E-06
1131	12.30	-4.503191E-06	-8.449875E-06
1132	12.31	-4.481288E-06	-8.408793E-06
1133	12.32	-4.459509E-06	-8.367943E-06
1134	12.33	-4.437853E-06	-8.327325E-06
1135	12.34	-4.416320E-06	-8.286937E-06
1136	12.35	-4.394909E-06	-8.246777E-06
1137	12.36	-4.373618E-06	-8.206843E-06
1138	12.37	-4.352448E-06	-8.167135E-06
1139	12.38	-4.331398E-06	-8.127651E-06
1140	12.39	-4.310465E-06	-8.088389E-06
1141	12.40	-4.289651E-06	-8.049349E-06
1142	12.41	-4.268954E-06	-8.010528E-06
1143	12.42	-4.248374E-06	-7.971925E-06
1144	12.43	-4.227909E-06	-7.933538E-06
1145	12.44	-4.207558E-06	-7.895368E-06
1146	12.45	-4.187322E-06	-7.857411E-06
1147	12.46	-4.167200E-06	-7.819667E-06
1148	12.47	-4.147190E-06	-7.782134E-06
1149	12.48	-4.127292E-06	-7.744811E-06
1150	12.49	-4.107506E-06	-7.707697E-06
1151	12.50	-4.087830E-06	-7.670790E-06
1152	12.51	-4.068264E-06	-7.634089E-06
1153	12.52	-4.048807E-06	-7.597592E-06
1154	12.53	-4.029458E-06	-7.561299E-06
1155	12.54	-4.010217E-06	-7.525208E-06
1156	12.55	-3.991084E-06	-7.489317E-06
1157	12.56	-3.972057E-06	-7.453626E-06
1158	12.57	-3.953135E-06	-7.418134E-06
1159	12.58	-3.934319E-06	-7.382838E-06
1160	12.59	-3.915607E-06	-7.347738E-06
1161	12.60	-3.896998E-06	-7.312832E-06
1162	12.61	-3.878493E-06	-7.278120E-06
1163	12.62	-3.860090E-06	-7.243600E-06
1164	12.63	-3.841789E-06	-7.209270E-06
1165	12.64	-3.823589E-06	-7.175130E-06
1166	12.65	-3.805490E-06	-7.141179E-06
1167	12.66	-3.787490E-06	-7.107414E-06
1168	12.67	-3.769590E-06	-7.073836E-06
1169	12.68	-3.751788E-06	-7.040443E-06
1170	12.69	-3.734084E-06	-7.007233E-06
1171	12.70	-3.716478E-06	-6.974206E-06
1172	12.71	-3.698968E-06	-6.941360E-06
1173	12.72	-3.681555E-06	-6.908695E-06
1174	12.73	-3.664237E-06	-6.876208E-06
1175	12.74	-3.647014E-06	-6.843900E-06
1176	12.75	-3.629885E-06	-6.811769E-06
1177	12.76	-3.612850E-06	-6.779813E-06
1178	12.77	-3.595909E-06	-6.748032E-06
1179	12.78	-3.579060E-06	-6.716425E-06
1180	12.79	-3.562303E-06	-6.684990E-06
1181	12.80	-3.545637E-06	-6.653727E-06
1182	12.81	-3.529062E-06	-6.622634E-06
1183	12.82	-3.512578E-06	-6.591711E-06
1184	12.83	-3.496183E-06	-6.560955E-06
1185	12.84	-3.479878E-06	-6.530367E-06
1186	12.85	-3.463661E-06	-6.499945E-06
1187	12.86	-3.447532E-06	-6.469689E-06
1188	12.87	-3.431491E-06	-6.439596E-06
1189	12.88	-3.415537E-06	-6.409667E-06
1190	12.89	-3.399669E-06	-6.379899E-06
1191	12.90	-3.383887E-06	-6.350293E-06
1192	12.91	-3.368191E-06	-6.320847E-06
1193	12.92	-3.352580E-06	-6.291560E-06
1194	12.93	-3.337052E-06	-6.262431E-06
1195	12.94	-3.321609E-06	-6.233460E-06
1196	12.95	-3.306249E-06	-6.204644E-06
1197	12.96	-3.290972E-06	-6.175984E-06
1198	12.97	-3.275777E-06	-6.147478E-06
1199	12.98	-3.260663E-06	-6.119125E-06
1200	12.99	-3.245631E-06	-6.090925E-06
