# DATE: 2024-07-07  UNITS: metal  CONTRIBUTOR: By STUDENT			
# FHEP: Temp 77 [K], mr 0.5 [g/mol], Sigma 2.72 [A], Epsilon 0.0008617333262 [eV]			
			
ENTRY			
N 1200 R 1.0 12.99			
			
1	1.00	4.448187E+03	5.688418E+04
2	1.01	3.879425E+03	4.906107E+04
3	1.02	3.388087E+03	4.237712E+04
4	1.03	2.963009E+03	3.665744E+04
5	1.04	2.594723E+03	3.175538E+04
6	1.05	2.275189E+03	2.754768E+04
7	1.06	1.997570E+03	2.393062E+04
8	1.07	1.756037E+03	2.081676E+04
9	1.08	1.545618E+03	1.813224E+04
10	1.09	1.362066E+03	1.581463E+04
11	1.10	1.201743E+03	1.381101E+04
12	1.11	1.061531E+03	1.207648E+04
13	1.12	9.387565E+02	1.057292E+04
14	1.13	8.311187E+02	9.267852E+03
15	1.14	7.366385E+02	8.133623E+03
16	1.15	6.536097E+02	7.146622E+03
17	1.16	5.805599E+02	6.286671E+03
18	1.17	5.162166E+02	5.536500E+03
19	1.18	4.594787E+02	4.881310E+03
20	1.19	4.093923E+02	4.308399E+03
21	1.20	3.651299E+02	3.806852E+03
22	1.21	3.259726E+02	3.367278E+03
23	1.22	2.912954E+02	2.981587E+03
24	1.23	2.605543E+02	2.642799E+03
25	1.24	2.332748E+02	2.344888E+03
26	1.25	2.090431E+02	2.082639E+03
27	1.26	1.874977E+02	1.851541E+03
28	1.27	1.683222E+02	1.647682E+03
29	1.28	1.512399E+02	1.467668E+03
30	1.29	1.360080E+02	1.308550E+03
31	1.30	1.224137E+02	1.167763E+03
32	1.31	1.102699E+02	1.043073E+03
33	1.32	9.941222E+01	9.325335E+02
34	1.33	8.969592E+01	8.344462E+02
35	1.34	8.099352E+01	7.473269E+02
36	1.35	7.319261E+01	6.698781E+02
37	1.36	6.619395E+01	6.009640E+02
38	1.37	5.990985E+01	5.395892E+02
39	1.38	5.426279E+01	4.848808E+02
40	1.39	4.918412E+01	4.360724E+02
41	1.40	4.461304E+01	3.924905E+02
42	1.41	4.049562E+01	3.535425E+02
43	1.42	3.678400E+01	3.187068E+02
44	1.43	3.343566E+01	2.875236E+02
45	1.44	3.041280E+01	2.595875E+02
46	1.45	2.768178E+01	2.345402E+02
47	1.46	2.521265E+01	2.120654E+02
48	1.47	2.297870E+01	1.918832E+02
49	1.48	2.095611E+01	1.737459E+02
50	1.49	1.912363E+01	1.574339E+02
51	1.50	1.746224E+01	1.427526E+02
52	1.51	1.595496E+01	1.295293E+02
53	1.52	1.458659E+01	1.176104E+02
54	1.53	1.334351E+01	1.068597E+02
55	1.54	1.221352E+01	9.715573E+01
56	1.55	1.118569E+01	8.839048E+01
57	1.56	1.025018E+01	8.046769E+01
58	1.57	9.398186E+00	7.330149E+01
59	1.58	8.621769E+00	6.681528E+01
60	1.59	7.913800E+00	6.094064E+01
61	1.60	7.267862E+00	5.561640E+01
62	1.61	6.678174E+00	5.078789E+01
63	1.62	6.139527E+00	4.640613E+01
64	1.63	5.647221E+00	4.242729E+01
65	1.64	5.197017E+00	3.881205E+01
66	1.65	4.785085E+00	3.552517E+01
67	1.66	4.407965E+00	3.253501E+01
68	1.67	4.062528E+00	2.981313E+01
69	1.68	3.745944E+00	2.733399E+01
70	1.69	3.455649E+00	2.507463E+01
71	1.70	3.189323E+00	2.301436E+01
72	1.71	2.944860E+00	2.113457E+01
73	1.72	2.720353E+00	1.941846E+01
74	1.73	2.514070E+00	1.785092E+01
75	1.74	2.324437E+00	1.641828E+01
76	1.75	2.150026E+00	1.510823E+01
77	1.76	1.989538E+00	1.390961E+01
78	1.77	1.841791E+00	1.281238E+01
79	1.78	1.705711E+00	1.180743E+01
80	1.79	1.580318E+00	1.088650E+01
81	1.80	1.464721E+00	1.004215E+01
82	1.81	1.358105E+00	9.267607E+00
83	1.82	1.259730E+00	8.556745E+00
84	1.83	1.168920E+00	7.904003E+00
85	1.84	1.085055E+00	7.304334E+00
86	1.85	1.007572E+00	6.753154E+00
87	1.86	9.359556E-01	6.246299E+00
88	1.87	8.697334E-01	5.779982E+00
89	1.88	8.084743E-01	5.350760E+00
90	1.89	7.517834E-01	4.955497E+00
91	1.90	6.992991E-01	4.591340E+00
92	1.91	6.506902E-01	4.255687E+00
93	1.92	6.056531E-01	3.946170E+00
94	1.93	5.639093E-01	3.660626E+00
95	1.94	5.252035E-01	3.397082E+00
96	1.95	4.893011E-01	3.153738E+00
97	1.96	4.559868E-01	2.928949E+00
98	1.97	4.250630E-01	2.721212E+00
99	1.98	3.963478E-01	2.529153E+00
100	1.99	3.696742E-01	2.351515E+00
101	2.00	3.448883E-01	2.187147E+00
102	2.01	3.218487E-01	2.034998E+00
103	2.02	3.004251E-01	1.894101E+00
104	2.03	2.804976E-01	1.763573E+00
105	2.04	2.619556E-01	1.642604E+00
106	2.05	2.446972E-01	1.530449E+00
107	2.06	2.286285E-01	1.426428E+00
108	2.07	2.136627E-01	1.329913E+00
109	2.08	1.997200E-01	1.240329E+00
110	2.09	1.867263E-01	1.157148E+00
111	2.10	1.746135E-01	1.079884E+00
112	2.11	1.633185E-01	1.008090E+00
113	2.12	1.527831E-01	9.413552E-01
114	2.13	1.429534E-01	8.793007E-01
115	2.14	1.337795E-01	8.215783E-01
116	2.15	1.252154E-01	7.678671E-01
117	2.16	1.172184E-01	7.178712E-01
118	2.17	1.097488E-01	6.713180E-01
119	2.18	1.027702E-01	6.279560E-01
120	2.19	9.624853E-02	5.875532E-01
121	2.20	9.015237E-02	5.498953E-01
122	2.21	8.445256E-02	5.147847E-01
123	2.22	7.912202E-02	4.820385E-01
124	2.23	7.413565E-02	4.514881E-01
125	2.24	6.947015E-02	4.229774E-01
126	2.25	6.510386E-02	3.963620E-01
127	2.26	6.101669E-02	3.715086E-01
128	2.27	5.718995E-02	3.482934E-01
129	2.28	5.360629E-02	3.266022E-01
130	2.29	5.024956E-02	3.063290E-01
131	2.30	4.710476E-02	2.873758E-01
132	2.31	4.415791E-02	2.696515E-01
133	2.32	4.139602E-02	2.530718E-01
134	2.33	3.880699E-02	2.375586E-01
135	2.34	3.637956E-02	2.230393E-01
136	2.35	3.410322E-02	2.094466E-01
137	2.36	3.196821E-02	1.967180E-01
138	2.37	2.996542E-02	1.847955E-01
139	2.38	2.808634E-02	1.736251E-01
140	2.39	2.632306E-02	1.631568E-01
141	2.40	2.466818E-02	1.533440E-01
142	2.41	2.311482E-02	1.441434E-01
143	2.42	2.165655E-02	1.355147E-01
144	2.43	2.028735E-02	1.274204E-01
145	2.44	1.900161E-02	1.198257E-01
146	2.45	1.779411E-02	1.126980E-01
147	2.46	1.665994E-02	1.060072E-01
148	2.47	1.559453E-02	9.972507E-02
149	2.48	1.459361E-02	9.382533E-02
150	2.49	1.365318E-02	8.828352E-02
151	2.50	1.276950E-02	8.307683E-02
152	2.51	1.193907E-02	7.818397E-02
153	2.52	1.115863E-02	7.358510E-02
154	2.53	1.042511E-02	6.926167E-02
155	2.54	9.735645E-03	6.519639E-02
156	2.55	9.087552E-03	6.137312E-02
157	2.56	8.478317E-03	5.777677E-02
158	2.57	7.905585E-03	5.439323E-02
159	2.58	7.367151E-03	5.120936E-02
160	2.59	6.860946E-03	4.821282E-02
161	2.60	6.385034E-03	4.539212E-02
162	2.61	5.937596E-03	4.273648E-02
163	2.62	5.516928E-03	4.023584E-02
164	2.63	5.121434E-03	3.788077E-02
165	2.64	4.749612E-03	3.566245E-02
166	2.65	4.400056E-03	3.357262E-02
167	2.66	4.071445E-03	3.160354E-02
168	2.67	3.762540E-03	2.974798E-02
169	2.68	3.472177E-03	2.799915E-02
170	2.69	3.199262E-03	2.635069E-02
171	2.70	2.942769E-03	2.479663E-02
172	2.71	2.701734E-03	2.333138E-02
173	2.72	2.475250E-03	2.194970E-02
174	2.73	2.262465E-03	2.064668E-02
175	2.74	2.062579E-03	1.941769E-02
176	2.75	1.874839E-03	1.825842E-02
177	2.76	1.698537E-03	1.716478E-02
178	2.77	1.533008E-03	1.613298E-02
179	2.78	1.377626E-03	1.515942E-02
180	2.79	1.231802E-03	1.424074E-02
181	2.80	1.094982E-03	1.337377E-02
182	2.81	9.666438E-04	1.255554E-02
183	2.82	8.462972E-04	1.178326E-02
184	2.83	7.334800E-04	1.105430E-02
185	2.84	6.277572E-04	1.036620E-02
186	2.85	5.287194E-04	9.716622E-03
187	2.86	4.359806E-04	9.103390E-03
188	2.87	3.491778E-04	8.524447E-03
189	2.88	2.679686E-04	7.977857E-03
190	2.89	1.920306E-04	7.461801E-03
191	2.90	1.210600E-04	6.974562E-03
192	2.91	5.477050E-05	6.514528E-03
193	2.92	-7.107695E-06	6.080177E-03
194	2.93	-6.482894E-05	5.670078E-03
195	2.94	-1.186330E-04	5.282881E-03
196	2.95	-1.687459E-04	4.917315E-03
197	2.96	-2.153808E-04	4.572181E-03
198	2.97	-2.587387E-04	4.246350E-03
199	2.98	-2.990092E-04	3.938756E-03
200	2.99	-3.363710E-04	3.648396E-03
201	3.00	-3.709929E-04	3.374322E-03
202	3.01	-4.030338E-04	3.115640E-03
203	3.02	-4.326439E-04	2.871507E-03
204	3.03	-4.599648E-04	2.641129E-03
205	3.04	-4.851302E-04	2.423753E-03
206	3.05	-5.082661E-04	2.218672E-03
207	3.06	-5.294916E-04	2.025217E-03
208	3.07	-5.489190E-04	1.842755E-03
209	3.08	-5.666542E-04	1.670690E-03
210	3.09	-5.827975E-04	1.508459E-03
211	3.10	-5.974432E-04	1.355529E-03
212	3.11	-6.106805E-04	1.211398E-03
213	3.12	-6.225936E-04	1.075590E-03
214	3.13	-6.332619E-04	9.476560E-04
215	3.14	-6.427605E-04	8.271722E-04
216	3.15	-6.511602E-04	7.137369E-04
217	3.16	-6.585279E-04	6.069709E-04
218	3.17	-6.649268E-04	5.065154E-04
219	3.18	-6.704164E-04	4.120314E-04
220	3.19	-6.750531E-04	3.231980E-04
221	3.20	-6.788900E-04	2.397117E-04
222	3.21	-6.819774E-04	1.612855E-04
223	3.22	-6.843625E-04	8.764786E-05
224	3.23	-6.860901E-04	1.854169E-05
225	3.24	-6.872025E-04	-4.627620E-05
226	3.25	-6.877396E-04	-1.070360E-04
227	3.26	-6.877389E-04	-1.639555E-04
228	3.27	-6.872361E-04	-2.172410E-04
229	3.28	-6.862647E-04	-2.670878E-04
230	3.29	-6.848563E-04	-3.136808E-04
231	3.30	-6.830408E-04	-3.571950E-04
232	3.31	-6.808464E-04	-3.977962E-04
233	3.32	-6.782999E-04	-4.356414E-04
234	3.33	-6.754261E-04	-4.708794E-04
235	3.34	-6.722490E-04	-5.036510E-04
236	3.35	-6.687908E-04	-5.340897E-04
237	3.36	-6.650726E-04	-5.623219E-04
238	3.37	-6.611143E-04	-5.884675E-04
239	3.38	-6.569346E-04	-6.126398E-04
240	3.39	-6.525513E-04	-6.349466E-04
241	3.40	-6.479810E-04	-6.554896E-04
242	3.41	-6.432394E-04	-6.743656E-04
243	3.42	-6.383413E-04	-6.916660E-04
244	3.43	-6.333007E-04	-7.074777E-04
245	3.44	-6.281306E-04	-7.218829E-04
246	3.45	-6.228436E-04	-7.349595E-04
247	3.46	-6.174511E-04	-7.467815E-04
248	3.47	-6.119643E-04	-7.574190E-04
249	3.48	-6.063933E-04	-7.669383E-04
250	3.49	-6.007478E-04	-7.754024E-04
251	3.50	-5.950371E-04	-7.828710E-04
252	3.51	-5.892696E-04	-7.894008E-04
253	3.52	-5.834535E-04	-7.950453E-04
254	3.53	-5.775962E-04	-7.998555E-04
255	3.54	-5.717048E-04	-8.038796E-04
256	3.55	-5.657861E-04	-8.071634E-04
257	3.56	-5.598462E-04	-8.097501E-04
258	3.57	-5.538911E-04	-8.116809E-04
259	3.58	-5.479261E-04	-8.129948E-04
260	3.59	-5.419565E-04	-8.137288E-04
261	3.60	-5.359869E-04	-8.139178E-04
262	3.61	-5.300220E-04	-8.135951E-04
263	3.62	-5.240658E-04	-8.127922E-04
264	3.63	-5.181224E-04	-8.115389E-04
265	3.64	-5.121952E-04	-8.098635E-04
266	3.65	-5.062878E-04	-8.077928E-04
267	3.66	-5.004033E-04	-8.053523E-04
268	3.67	-4.945445E-04	-8.025660E-04
269	3.68	-4.887143E-04	-7.994568E-04
270	3.69	-4.829152E-04	-7.960463E-04
271	3.70	-4.771495E-04	-7.923550E-04
272	3.71	-4.714193E-04	-7.884022E-04
273	3.72	-4.657267E-04	-7.842065E-04
274	3.73	-4.600734E-04	-7.797852E-04
275	3.74	-4.544612E-04	-7.751549E-04
276	3.75	-4.488916E-04	-7.703310E-04
277	3.76	-4.433660E-04	-7.653286E-04
278	3.77	-4.378857E-04	-7.601615E-04
279	3.78	-4.324518E-04	-7.548430E-04
280	3.79	-4.270655E-04	-7.493856E-04
281	3.80	-4.217276E-04	-7.438013E-04
282	3.81	-4.164390E-04	-7.381012E-04
283	3.82	-4.112005E-04	-7.322960E-04
284	3.83	-4.060128E-04	-7.263956E-04
285	3.84	-4.008763E-04	-7.204097E-04
286	3.85	-3.957917E-04	-7.143471E-04
287	3.86	-3.907594E-04	-7.082164E-04
288	3.87	-3.857797E-04	-7.020255E-04
289	3.88	-3.808530E-04	-6.957820E-04
290	3.89	-3.759794E-04	-6.894930E-04
291	3.90	-3.711593E-04	-6.831652E-04
292	3.91	-3.663926E-04	-6.768051E-04
293	3.92	-3.616796E-04	-6.704185E-04
294	3.93	-3.570201E-04	-6.640111E-04
295	3.94	-3.524143E-04	-6.575883E-04
296	3.95	-3.478621E-04	-6.511550E-04
297	3.96	-3.433634E-04	-6.447159E-04
298	3.97	-3.389180E-04	-6.382755E-04
299	3.98	-3.345259E-04	-6.318379E-04
300	3.99	-3.301867E-04	-6.254070E-04
301	4.00	-3.259005E-04	-6.189864E-04
302	4.01	-3.216668E-04	-6.125797E-04
303	4.02	-3.174854E-04	-6.061900E-04
304	4.03	-3.133560E-04	-5.998204E-04
305	4.04	-3.092783E-04	-5.934737E-04
306	4.05	-3.052521E-04	-5.871524E-04
307	4.06	-3.012768E-04	-5.808592E-04
308	4.07	-2.973522E-04	-5.745962E-04
309	4.08	-2.934780E-04	-5.683656E-04
310	4.09	-2.896536E-04	-5.621694E-04
311	4.10	-2.858787E-04	-5.560095E-04
312	4.11	-2.821529E-04	-5.498875E-04
313	4.12	-2.784757E-04	-5.438051E-04
314	4.13	-2.748467E-04	-5.377637E-04
315	4.14	-2.712655E-04	-5.317647E-04
316	4.15	-2.677316E-04	-5.258092E-04
317	4.16	-2.642445E-04	-5.198985E-04
318	4.17	-2.608038E-04	-5.140336E-04
319	4.18	-2.574090E-04	-5.082155E-04
320	4.19	-2.540596E-04	-5.024449E-04
321	4.20	-2.507551E-04	-4.967227E-04
322	4.21	-2.474950E-04	-4.910496E-04
323	4.22	-2.442790E-04	-4.854262E-04
324	4.23	-2.411063E-04	-4.798531E-04
325	4.24	-2.379767E-04	-4.743308E-04
326	4.25	-2.348895E-04	-4.688596E-04
327	4.26	-2.318444E-04	-4.634401E-04
328	4.27	-2.288407E-04	-4.580724E-04
329	4.28	-2.258780E-04	-4.527568E-04
330	4.29	-2.229558E-04	-4.474937E-04
331	4.30	-2.200736E-04	-4.422830E-04
332	4.31	-2.172310E-04	-4.371250E-04
333	4.32	-2.144273E-04	-4.320198E-04
334	4.33	-2.116622E-04	-4.269673E-04
335	4.34	-2.089352E-04	-4.219676E-04
336	4.35	-2.062457E-04	-4.170207E-04
337	4.36	-2.035933E-04	-4.121265E-04
338	4.37	-2.009775E-04	-4.072849E-04
339	4.38	-1.983978E-04	-4.024958E-04
340	4.39	-1.958538E-04	-3.977590E-04
341	4.40	-1.933450E-04	-3.930744E-04
342	4.41	-1.908709E-04	-3.884417E-04
343	4.42	-1.884311E-04	-3.838609E-04
344	4.43	-1.860250E-04	-3.793315E-04
345	4.44	-1.836523E-04	-3.748534E-04
346	4.45	-1.813125E-04	-3.704263E-04
347	4.46	-1.790052E-04	-3.660499E-04
348	4.47	-1.767298E-04	-3.617239E-04
349	4.48	-1.744860E-04	-3.574480E-04
350	4.49	-1.722734E-04	-3.532218E-04
351	4.50	-1.700914E-04	-3.490449E-04
352	4.51	-1.679397E-04	-3.449172E-04
353	4.52	-1.658179E-04	-3.408380E-04
354	4.53	-1.637255E-04	-3.368072E-04
355	4.54	-1.616622E-04	-3.328243E-04
356	4.55	-1.596274E-04	-3.288888E-04
357	4.56	-1.576209E-04	-3.250005E-04
358	4.57	-1.556422E-04	-3.211589E-04
359	4.58	-1.536909E-04	-3.173635E-04
360	4.59	-1.517667E-04	-3.136140E-04
361	4.60	-1.498691E-04	-3.099100E-04
362	4.61	-1.479978E-04	-3.062509E-04
363	4.62	-1.461523E-04	-3.026365E-04
364	4.63	-1.443325E-04	-2.990661E-04
365	4.64	-1.425377E-04	-2.955395E-04
366	4.65	-1.407678E-04	-2.920562E-04
367	4.66	-1.390223E-04	-2.886156E-04
368	4.67	-1.373009E-04	-2.852175E-04
369	4.68	-1.356033E-04	-2.818613E-04
370	4.69	-1.339290E-04	-2.785466E-04
371	4.70	-1.322779E-04	-2.752730E-04
372	4.71	-1.306494E-04	-2.720399E-04
373	4.72	-1.290434E-04	-2.688470E-04
374	4.73	-1.274594E-04	-2.656939E-04
375	4.74	-1.258972E-04	-2.625800E-04
376	4.75	-1.243565E-04	-2.595049E-04
377	4.76	-1.228368E-04	-2.564683E-04
378	4.77	-1.213380E-04	-2.534695E-04
379	4.78	-1.198598E-04	-2.505084E-04
380	4.79	-1.184017E-04	-2.475843E-04
381	4.80	-1.169636E-04	-2.446968E-04
382	4.81	-1.155451E-04	-2.418456E-04
383	4.82	-1.141459E-04	-2.390301E-04
384	4.83	-1.127658E-04	-2.362500E-04
385	4.84	-1.114046E-04	-2.335049E-04
386	4.85	-1.100618E-04	-2.307943E-04
387	4.86	-1.087373E-04	-2.281177E-04
388	4.87	-1.074307E-04	-2.254749E-04
389	4.88	-1.061419E-04	-2.228654E-04
390	4.89	-1.048706E-04	-2.202887E-04
391	4.90	-1.036164E-04	-2.177444E-04
392	4.91	-1.023792E-04	-2.152323E-04
393	4.92	-1.011587E-04	-2.127518E-04
394	4.93	-9.995467E-05	-2.103025E-04
395	4.94	-9.876686E-05	-2.078842E-04
396	4.95	-9.759504E-05	-2.054963E-04
397	4.96	-9.643896E-05	-2.031385E-04
398	4.97	-9.529841E-05	-2.008105E-04
399	4.98	-9.417316E-05	-1.985118E-04
400	4.99	-9.306297E-05	-1.962421E-04
401	5.00	-9.196764E-05	-1.940009E-04
402	5.01	-9.088695E-05	-1.917880E-04
403	5.02	-8.982068E-05	-1.896030E-04
404	5.03	-8.876863E-05	-1.874455E-04
405	5.04	-8.773059E-05	-1.853152E-04
406	5.05	-8.670634E-05	-1.832117E-04
407	5.06	-8.569570E-05	-1.811346E-04
408	5.07	-8.469847E-05	-1.790837E-04
409	5.08	-8.371445E-05	-1.770586E-04
410	5.09	-8.274344E-05	-1.750589E-04
411	5.10	-8.178527E-05	-1.730843E-04
412	5.11	-8.083974E-05	-1.711345E-04
413	5.12	-7.990667E-05	-1.692092E-04
414	5.13	-7.898589E-05	-1.673080E-04
415	5.14	-7.807720E-05	-1.654307E-04
416	5.15	-7.718045E-05	-1.635769E-04
417	5.16	-7.629545E-05	-1.617463E-04
418	5.17	-7.542204E-05	-1.599385E-04
419	5.18	-7.456004E-05	-1.581534E-04
420	5.19	-7.370930E-05	-1.563906E-04
421	5.20	-7.286966E-05	-1.546498E-04
422	5.21	-7.204095E-05	-1.529308E-04
423	5.22	-7.122301E-05	-1.512331E-04
424	5.23	-7.041569E-05	-1.495566E-04
425	5.24	-6.961885E-05	-1.479010E-04
426	5.25	-6.883232E-05	-1.462660E-04
427	5.26	-6.805597E-05	-1.446513E-04
428	5.27	-6.728963E-05	-1.430567E-04
429	5.28	-6.653319E-05	-1.414818E-04
430	5.29	-6.578648E-05	-1.399265E-04
431	5.30	-6.504937E-05	-1.383904E-04
432	5.31	-6.432173E-05	-1.368734E-04
433	5.32	-6.360342E-05	-1.353751E-04
434	5.33	-6.289431E-05	-1.338953E-04
435	5.34	-6.219426E-05	-1.324338E-04
436	5.35	-6.150315E-05	-1.309903E-04
437	5.36	-6.082086E-05	-1.295646E-04
438	5.37	-6.014725E-05	-1.281564E-04
439	5.38	-5.948220E-05	-1.267656E-04
440	5.39	-5.882559E-05	-1.253918E-04
441	5.40	-5.817731E-05	-1.240349E-04
442	5.41	-5.753724E-05	-1.226946E-04
443	5.42	-5.690525E-05	-1.213708E-04
444	5.43	-5.628124E-05	-1.200631E-04
445	5.44	-5.566509E-05	-1.187714E-04
446	5.45	-5.505670E-05	-1.174955E-04
447	5.46	-5.445595E-05	-1.162351E-04
448	5.47	-5.386274E-05	-1.149901E-04
449	5.48	-5.327696E-05	-1.137603E-04
450	5.49	-5.269851E-05	-1.125453E-04
451	5.50	-5.212728E-05	-1.113452E-04
452	5.51	-5.156318E-05	-1.101596E-04
453	5.52	-5.100611E-05	-1.089883E-04
454	5.53	-5.045596E-05	-1.078313E-04
455	5.54	-4.991264E-05	-1.066882E-04
456	5.55	-4.937606E-05	-1.055589E-04
457	5.56	-4.884613E-05	-1.044432E-04
458	5.57	-4.832274E-05	-1.033410E-04
459	5.58	-4.780582E-05	-1.022520E-04
460	5.59	-4.729526E-05	-1.011761E-04
461	5.60	-4.679099E-05	-1.001132E-04
462	5.61	-4.629292E-05	-9.906293E-05
463	5.62	-4.580096E-05	-9.802527E-05
464	5.63	-4.531502E-05	-9.700003E-05
465	5.64	-4.483503E-05	-9.598702E-05
466	5.65	-4.436091E-05	-9.498611E-05
467	5.66	-4.389256E-05	-9.399712E-05
468	5.67	-4.342992E-05	-9.301990E-05
469	5.68	-4.297290E-05	-9.205430E-05
470	5.69	-4.252144E-05	-9.110015E-05
471	5.70	-4.207544E-05	-9.015732E-05
472	5.71	-4.163485E-05	-8.922566E-05
473	5.72	-4.119958E-05	-8.830501E-05
474	5.73	-4.076956E-05	-8.739524E-05
475	5.74	-4.034473E-05	-8.649620E-05
476	5.75	-3.992501E-05	-8.560776E-05
477	5.76	-3.951033E-05	-8.472976E-05
478	5.77	-3.910062E-05	-8.386209E-05
479	5.78	-3.869582E-05	-8.300460E-05
480	5.79	-3.829587E-05	-8.215716E-05
481	5.80	-3.790068E-05	-8.131964E-05
482	5.81	-3.751022E-05	-8.049191E-05
483	5.82	-3.712439E-05	-7.967385E-05
484	5.83	-3.674316E-05	-7.886533E-05
485	5.84	-3.636645E-05	-7.806622E-05
486	5.85	-3.599421E-05	-7.727641E-05
487	5.86	-3.562637E-05	-7.649577E-05
488	5.87	-3.526287E-05	-7.572419E-05
489	5.88	-3.490367E-05	-7.496155E-05
490	5.89	-3.454870E-05	-7.420772E-05
491	5.90	-3.419790E-05	-7.346261E-05
492	5.91	-3.385122E-05	-7.272610E-05
493	5.92	-3.350861E-05	-7.199807E-05
494	5.93	-3.317001E-05	-7.127843E-05
495	5.94	-3.283536E-05	-7.056705E-05
496	5.95	-3.250463E-05	-6.986384E-05
497	5.96	-3.217775E-05	-6.916869E-05
498	5.97	-3.185467E-05	-6.848149E-05
499	5.98	-3.153535E-05	-6.780215E-05
500	5.99	-3.121973E-05	-6.713057E-05
501	6.00	-3.090777E-05	-6.646664E-05
502	6.01	-3.059942E-05	-6.581027E-05
503	6.02	-3.029463E-05	-6.516137E-05
504	6.03	-2.999335E-05	-6.451983E-05
505	6.04	-2.969555E-05	-6.388557E-05
506	6.05	-2.940117E-05	-6.325849E-05
507	6.06	-2.911016E-05	-6.263850E-05
508	6.07	-2.882250E-05	-6.202551E-05
509	6.08	-2.853813E-05	-6.141944E-05
510	6.09	-2.825700E-05	-6.082019E-05
511	6.10	-2.797909E-05	-6.022768E-05
512	6.11	-2.770434E-05	-5.964182E-05
513	6.12	-2.743272E-05	-5.906254E-05
514	6.13	-2.716419E-05	-5.848974E-05
515	6.14	-2.689870E-05	-5.792336E-05
516	6.15	-2.663622E-05	-5.736329E-05
517	6.16	-2.637670E-05	-5.680948E-05
518	6.17	-2.612012E-05	-5.626183E-05
519	6.18	-2.586643E-05	-5.572028E-05
520	6.19	-2.561560E-05	-5.518474E-05
521	6.20	-2.536758E-05	-5.465515E-05
522	6.21	-2.512235E-05	-5.413142E-05
523	6.22	-2.487987E-05	-5.361348E-05
524	6.23	-2.464011E-05	-5.310127E-05
525	6.24	-2.440302E-05	-5.259471E-05
526	6.25	-2.416858E-05	-5.209373E-05
527	6.26	-2.393675E-05	-5.159826E-05
528	6.27	-2.370750E-05	-5.110823E-05
529	6.28	-2.348079E-05	-5.062359E-05
530	6.29	-2.325660E-05	-5.014425E-05
531	6.30	-2.303490E-05	-4.967015E-05
532	6.31	-2.281564E-05	-4.920124E-05
533	6.32	-2.259881E-05	-4.873744E-05
534	6.33	-2.238437E-05	-4.827870E-05
535	6.34	-2.217229E-05	-4.782495E-05
536	6.35	-2.196254E-05	-4.737613E-05
537	6.36	-2.175509E-05	-4.693217E-05
538	6.37	-2.154992E-05	-4.649303E-05
539	6.38	-2.134699E-05	-4.605865E-05
540	6.39	-2.114628E-05	-4.562895E-05
541	6.40	-2.094776E-05	-4.520389E-05
542	6.41	-2.075140E-05	-4.478342E-05
543	6.42	-2.055718E-05	-4.436746E-05
544	6.43	-2.036507E-05	-4.395598E-05
545	6.44	-2.017505E-05	-4.354892E-05
546	6.45	-1.998708E-05	-4.314621E-05
547	6.46	-1.980115E-05	-4.274782E-05
548	6.47	-1.961722E-05	-4.235368E-05
549	6.48	-1.943528E-05	-4.196375E-05
550	6.49	-1.925530E-05	-4.157798E-05
551	6.50	-1.907725E-05	-4.119631E-05
552	6.51	-1.890111E-05	-4.081869E-05
553	6.52	-1.872687E-05	-4.044509E-05
554	6.53	-1.855449E-05	-4.007544E-05
555	6.54	-1.838395E-05	-3.970971E-05
556	6.55	-1.821523E-05	-3.934784E-05
557	6.56	-1.804831E-05	-3.898980E-05
558	6.57	-1.788317E-05	-3.863552E-05
559	6.58	-1.771978E-05	-3.828498E-05
560	6.59	-1.755813E-05	-3.793812E-05
561	6.60	-1.739819E-05	-3.759490E-05
562	6.61	-1.723994E-05	-3.725528E-05
563	6.62	-1.708336E-05	-3.691921E-05
564	6.63	-1.692844E-05	-3.658666E-05
565	6.64	-1.677515E-05	-3.625758E-05
566	6.65	-1.662347E-05	-3.593192E-05
567	6.66	-1.647339E-05	-3.560966E-05
568	6.67	-1.632488E-05	-3.529075E-05
569	6.68	-1.617792E-05	-3.497515E-05
570	6.69	-1.603250E-05	-3.466282E-05
571	6.70	-1.588861E-05	-3.435373E-05
572	6.71	-1.574621E-05	-3.404783E-05
573	6.72	-1.560530E-05	-3.374509E-05
574	6.73	-1.546585E-05	-3.344547E-05
575	6.74	-1.532785E-05	-3.314893E-05
576	6.75	-1.519128E-05	-3.285545E-05
577	6.76	-1.505612E-05	-3.256498E-05
578	6.77	-1.492237E-05	-3.227748E-05
579	6.78	-1.478999E-05	-3.199293E-05
580	6.79	-1.465898E-05	-3.171129E-05
581	6.80	-1.452932E-05	-3.143253E-05
582	6.81	-1.440099E-05	-3.115661E-05
583	6.82	-1.427398E-05	-3.088350E-05
584	6.83	-1.414828E-05	-3.061316E-05
585	6.84	-1.402386E-05	-3.034558E-05
586	6.85	-1.390071E-05	-3.008070E-05
587	6.86	-1.377882E-05	-2.981851E-05
588	6.87	-1.365817E-05	-2.955897E-05
589	6.88	-1.353875E-05	-2.930206E-05
590	6.89	-1.342054E-05	-2.904773E-05
591	6.90	-1.330354E-05	-2.879597E-05
592	6.91	-1.318772E-05	-2.854674E-05
593	6.92	-1.307307E-05	-2.830001E-05
594	6.93	-1.295958E-05	-2.805576E-05
595	6.94	-1.284724E-05	-2.781395E-05
596	6.95	-1.273603E-05	-2.757457E-05
597	6.96	-1.262594E-05	-2.733758E-05
598	6.97	-1.251696E-05	-2.710295E-05
599	6.98	-1.240907E-05	-2.687066E-05
600	6.99	-1.230226E-05	-2.664068E-05
601	7.00	-1.219653E-05	-2.641299E-05
602	7.01	-1.209185E-05	-2.618755E-05
603	7.02	-1.198821E-05	-2.596436E-05
604	7.03	-1.188561E-05	-2.574337E-05
605	7.04	-1.178403E-05	-2.552456E-05
606	7.05	-1.168346E-05	-2.530792E-05
607	7.06	-1.158388E-05	-2.509341E-05
608	7.07	-1.148530E-05	-2.488101E-05
609	7.08	-1.138769E-05	-2.467070E-05
610	7.09	-1.129105E-05	-2.446246E-05
611	7.10	-1.119536E-05	-2.425626E-05
612	7.11	-1.110061E-05	-2.405207E-05
613	7.12	-1.100680E-05	-2.384989E-05
614	7.13	-1.091391E-05	-2.364967E-05
615	7.14	-1.082193E-05	-2.345142E-05
616	7.15	-1.073085E-05	-2.325509E-05
617	7.16	-1.064067E-05	-2.306067E-05
618	7.17	-1.055136E-05	-2.286814E-05
619	7.18	-1.046293E-05	-2.267748E-05
620	7.19	-1.037537E-05	-2.248866E-05
621	7.20	-1.028865E-05	-2.230168E-05
622	7.21	-1.020278E-05	-2.211650E-05
623	7.22	-1.011774E-05	-2.193310E-05
624	7.23	-1.003353E-05	-2.175148E-05
625	7.24	-9.950131E-06	-2.157160E-05
626	7.25	-9.867540E-06	-2.139345E-05
627	7.26	-9.785747E-06	-2.121701E-05
628	7.27	-9.704744E-06	-2.104226E-05
629	7.28	-9.624520E-06	-2.086919E-05
630	7.29	-9.545069E-06	-2.069777E-05
631	7.30	-9.466381E-06	-2.052798E-05
632	7.31	-9.388448E-06	-2.035982E-05
633	7.32	-9.311262E-06	-2.019325E-05
634	7.33	-9.234814E-06	-2.002828E-05
635	7.34	-9.159097E-06	-1.986486E-05
636	7.35	-9.084103E-06	-1.970300E-05
637	7.36	-9.009823E-06	-1.954267E-05
638	7.37	-8.936251E-06	-1.938386E-05
639	7.38	-8.863378E-06	-1.922655E-05
640	7.39	-8.791196E-06	-1.907073E-05
641	7.40	-8.719699E-06	-1.891637E-05
642	7.41	-8.648879E-06	-1.876346E-05
643	7.42	-8.578728E-06	-1.861200E-05
644	7.43	-8.509240E-06	-1.846195E-05
645	7.44	-8.440407E-06	-1.831331E-05
646	7.45	-8.372223E-06	-1.816606E-05
647	7.46	-8.304679E-06	-1.802019E-05
648	7.47	-8.237770E-06	-1.787569E-05
649	7.48	-8.171489E-06	-1.773253E-05
650	7.49	-8.105828E-06	-1.759070E-05
651	7.50	-8.040782E-06	-1.745019E-05
652	7.51	-7.976344E-06	-1.731099E-05
653	7.52	-7.912507E-06	-1.717308E-05
654	7.53	-7.849264E-06	-1.703645E-05
655	7.54	-7.786611E-06	-1.690108E-05
656	7.55	-7.724539E-06	-1.676696E-05
657	7.56	-7.663044E-06	-1.663408E-05
658	7.57	-7.602119E-06	-1.650243E-05
659	7.58	-7.541758E-06	-1.637199E-05
660	7.59	-7.481954E-06	-1.624275E-05
661	7.60	-7.422704E-06	-1.611469E-05
662	7.61	-7.363999E-06	-1.598781E-05
663	7.62	-7.305835E-06	-1.586209E-05
664	7.63	-7.248206E-06	-1.573752E-05
665	7.64	-7.191107E-06	-1.561409E-05
666	7.65	-7.134531E-06	-1.549179E-05
667	7.66	-7.078474E-06	-1.537060E-05
668	7.67	-7.022929E-06	-1.525052E-05
669	7.68	-6.967893E-06	-1.513152E-05
670	7.69	-6.913358E-06	-1.501361E-05
671	7.70	-6.859321E-06	-1.489676E-05
672	7.71	-6.805775E-06	-1.478098E-05
673	7.72	-6.752716E-06	-1.466624E-05
674	7.73	-6.700139E-06	-1.455253E-05
675	7.74	-6.648039E-06	-1.443986E-05
676	7.75	-6.596411E-06	-1.432820E-05
677	7.76	-6.545249E-06	-1.421754E-05
678	7.77	-6.494550E-06	-1.410788E-05
679	7.78	-6.444308E-06	-1.399920E-05
680	7.79	-6.394519E-06	-1.389150E-05
681	7.80	-6.345178E-06	-1.378476E-05
682	7.81	-6.296280E-06	-1.367897E-05
683	7.82	-6.247822E-06	-1.357413E-05
684	7.83	-6.199797E-06	-1.347023E-05
685	7.84	-6.152203E-06	-1.336725E-05
686	7.85	-6.105034E-06	-1.326519E-05
687	7.86	-6.058287E-06	-1.316403E-05
688	7.87	-6.011956E-06	-1.306377E-05
689	7.88	-5.966038E-06	-1.296440E-05
690	7.89	-5.920529E-06	-1.286592E-05
691	7.90	-5.875424E-06	-1.276830E-05
692	7.91	-5.830719E-06	-1.267154E-05
693	7.92	-5.786411E-06	-1.257564E-05
694	7.93	-5.742495E-06	-1.248058E-05
695	7.94	-5.698967E-06	-1.238636E-05
696	7.95	-5.655823E-06	-1.229297E-05
697	7.96	-5.613060E-06	-1.220039E-05
698	7.97	-5.570674E-06	-1.210863E-05
699	7.98	-5.528660E-06	-1.201768E-05
700	7.99	-5.487016E-06	-1.192751E-05
701	8.00	-5.445737E-06	-1.183814E-05
702	8.01	-5.404819E-06	-1.174954E-05
703	8.02	-5.364260E-06	-1.166172E-05
704	8.03	-5.324056E-06	-1.157466E-05
705	8.04	-5.284202E-06	-1.148836E-05
706	8.05	-5.244697E-06	-1.140280E-05
707	8.06	-5.205535E-06	-1.131799E-05
708	8.07	-5.166714E-06	-1.123391E-05
709	8.08	-5.128230E-06	-1.115056E-05
710	8.09	-5.090080E-06	-1.106794E-05
711	8.10	-5.052261E-06	-1.098602E-05
712	8.11	-5.014769E-06	-1.090481E-05
713	8.12	-4.977601E-06	-1.082430E-05
714	8.13	-4.940755E-06	-1.074448E-05
715	8.14	-4.904226E-06	-1.066534E-05
716	8.15	-4.868011E-06	-1.058689E-05
717	8.16	-4.832109E-06	-1.050910E-05
718	8.17	-4.796515E-06	-1.043198E-05
719	8.18	-4.761226E-06	-1.035553E-05
720	8.19	-4.726240E-06	-1.027972E-05
721	8.20	-4.691553E-06	-1.020456E-05
722	8.21	-4.657163E-06	-1.013004E-05
723	8.22	-4.623067E-06	-1.005615E-05
724	8.23	-4.589261E-06	-9.982893E-06
725	8.24	-4.555744E-06	-9.910256E-06
726	8.25	-4.522512E-06	-9.838234E-06
727	8.26	-4.489562E-06	-9.766822E-06
728	8.27	-4.456892E-06	-9.696013E-06
729	8.28	-4.424499E-06	-9.625802E-06
730	8.29	-4.392381E-06	-9.556184E-06
731	8.30	-4.360534E-06	-9.487152E-06
732	8.31	-4.328956E-06	-9.418700E-06
733	8.32	-4.297644E-06	-9.350824E-06
734	8.33	-4.266597E-06	-9.283517E-06
735	8.34	-4.235811E-06	-9.216775E-06
736	8.35	-4.205283E-06	-9.150592E-06
737	8.36	-4.175013E-06	-9.084962E-06
738	8.37	-4.144996E-06	-9.019880E-06
739	8.38	-4.115230E-06	-8.955342E-06
740	8.39	-4.085714E-06	-8.891341E-06
741	8.40	-4.056444E-06	-8.827873E-06
742	8.41	-4.027419E-06	-8.764933E-06
743	8.42	-3.998635E-06	-8.702516E-06
744	8.43	-3.970092E-06	-8.640616E-06
745	8.44	-3.941786E-06	-8.579229E-06
746	8.45	-3.913715E-06	-8.518350E-06
747	8.46	-3.885877E-06	-8.457974E-06
748	8.47	-3.858269E-06	-8.398097E-06
749	8.48	-3.830891E-06	-8.338714E-06
750	8.49	-3.803738E-06	-8.279819E-06
751	8.50	-3.776810E-06	-8.221410E-06
752	8.51	-3.750104E-06	-8.163480E-06
753	8.52	-3.723619E-06	-8.106025E-06
754	8.53	-3.697351E-06	-8.049042E-06
755	8.54	-3.671299E-06	-7.992526E-06
756	8.55	-3.645461E-06	-7.936471E-06
757	8.56	-3.619835E-06	-7.880875E-06
758	8.57	-3.594419E-06	-7.825732E-06
759	8.58	-3.569211E-06	-7.771039E-06
760	8.59	-3.544209E-06	-7.716791E-06
761	8.60	-3.519411E-06	-7.662985E-06
762	8.61	-3.494816E-06	-7.609615E-06
763	8.62	-3.470420E-06	-7.556679E-06
764	8.63	-3.446223E-06	-7.504171E-06
765	8.64	-3.422223E-06	-7.452088E-06
766	8.65	-3.398418E-06	-7.400427E-06
767	8.66	-3.374805E-06	-7.349183E-06
768	8.67	-3.351384E-06	-7.298352E-06
769	8.68	-3.328152E-06	-7.247931E-06
770	8.69	-3.305108E-06	-7.197916E-06
771	8.70	-3.282250E-06	-7.148303E-06
772	8.71	-3.259576E-06	-7.099088E-06
773	8.72	-3.237085E-06	-7.050268E-06
774	8.73	-3.214774E-06	-7.001839E-06
775	8.74	-3.192643E-06	-6.953798E-06
776	8.75	-3.170689E-06	-6.906141E-06
777	8.76	-3.148912E-06	-6.858864E-06
778	8.77	-3.127308E-06	-6.811965E-06
779	8.78	-3.105878E-06	-6.765439E-06
780	8.79	-3.084618E-06	-6.719283E-06
781	8.80	-3.063528E-06	-6.673494E-06
782	8.81	-3.042607E-06	-6.628069E-06
783	8.82	-3.021851E-06	-6.583004E-06
784	8.83	-3.001261E-06	-6.538296E-06
785	8.84	-2.980834E-06	-6.493942E-06
786	8.85	-2.960570E-06	-6.449938E-06
787	8.86	-2.940466E-06	-6.406282E-06
788	8.87	-2.920521E-06	-6.362971E-06
789	8.88	-2.900734E-06	-6.320000E-06
790	8.89	-2.881103E-06	-6.277367E-06
791	8.90	-2.861626E-06	-6.235070E-06
792	8.91	-2.842304E-06	-6.193105E-06
793	8.92	-2.823133E-06	-6.151469E-06
794	8.93	-2.804113E-06	-6.110159E-06
795	8.94	-2.785243E-06	-6.069172E-06
796	8.95	-2.766520E-06	-6.028506E-06
797	8.96	-2.747945E-06	-5.988157E-06
798	8.97	-2.729514E-06	-5.948123E-06
799	8.98	-2.711228E-06	-5.908400E-06
800	8.99	-2.693084E-06	-5.868987E-06
801	9.00	-2.675082E-06	-5.829880E-06
802	9.01	-2.657221E-06	-5.791077E-06
803	9.02	-2.639498E-06	-5.752575E-06
804	9.03	-2.621913E-06	-5.714371E-06
805	9.04	-2.604465E-06	-5.676463E-06
806	9.05	-2.587152E-06	-5.638848E-06
807	9.06	-2.569973E-06	-5.601523E-06
808	9.07	-2.552927E-06	-5.564487E-06
809	9.08	-2.536013E-06	-5.527735E-06
810	9.09	-2.519230E-06	-5.491267E-06
811	9.10	-2.502576E-06	-5.455078E-06
812	9.11	-2.486050E-06	-5.419168E-06
813	9.12	-2.469652E-06	-5.383534E-06
814	9.13	-2.453379E-06	-5.348172E-06
815	9.14	-2.437232E-06	-5.313081E-06
816	9.15	-2.421208E-06	-5.278258E-06
817	9.16	-2.405308E-06	-5.243702E-06
818	9.17	-2.389529E-06	-5.209409E-06
819	9.18	-2.373871E-06	-5.175377E-06
820	9.19	-2.358332E-06	-5.141604E-06
821	9.20	-2.342912E-06	-5.108089E-06
822	9.21	-2.327609E-06	-5.074828E-06
823	9.22	-2.312423E-06	-5.041819E-06
824	9.23	-2.297353E-06	-5.009060E-06
825	9.24	-2.282397E-06	-4.976550E-06
826	9.25	-2.267554E-06	-4.944285E-06
827	9.26	-2.252824E-06	-4.912265E-06
828	9.27	-2.238206E-06	-4.880486E-06
829	9.28	-2.223698E-06	-4.848946E-06
830	9.29	-2.209300E-06	-4.817644E-06
831	9.30	-2.195010E-06	-4.786578E-06
832	9.31	-2.180828E-06	-4.755745E-06
833	9.32	-2.166753E-06	-4.725144E-06
834	9.33	-2.152784E-06	-4.694772E-06
835	9.34	-2.138920E-06	-4.664627E-06
836	9.35	-2.125160E-06	-4.634708E-06
837	9.36	-2.111503E-06	-4.605013E-06
838	9.37	-2.097949E-06	-4.575540E-06
839	9.38	-2.084496E-06	-4.546286E-06
840	9.39	-2.071143E-06	-4.517251E-06
841	9.40	-2.057890E-06	-4.488431E-06
842	9.41	-2.044736E-06	-4.459826E-06
843	9.42	-2.031680E-06	-4.431434E-06
844	9.43	-2.018722E-06	-4.403252E-06
845	9.44	-2.005859E-06	-4.375278E-06
846	9.45	-1.993092E-06	-4.347512E-06
847	9.46	-1.980420E-06	-4.319952E-06
848	9.47	-1.967842E-06	-4.292595E-06
849	9.48	-1.955357E-06	-4.265440E-06
850	9.49	-1.942964E-06	-4.238485E-06
851	9.50	-1.930663E-06	-4.211729E-06
852	9.51	-1.918453E-06	-4.185169E-06
853	9.52	-1.906333E-06	-4.158805E-06
854	9.53	-1.894302E-06	-4.132635E-06
855	9.54	-1.882359E-06	-4.106656E-06
856	9.55	-1.870504E-06	-4.080868E-06
857	9.56	-1.858737E-06	-4.055268E-06
858	9.57	-1.847055E-06	-4.029856E-06
859	9.58	-1.835459E-06	-4.004629E-06
860	9.59	-1.823949E-06	-3.979586E-06
861	9.60	-1.812522E-06	-3.954726E-06
862	9.61	-1.801178E-06	-3.930047E-06
863	9.62	-1.789918E-06	-3.905547E-06
864	9.63	-1.778739E-06	-3.881226E-06
865	9.64	-1.767642E-06	-3.857081E-06
866	9.65	-1.756626E-06	-3.833111E-06
867	9.66	-1.745690E-06	-3.809314E-06
868	9.67	-1.734833E-06	-3.785690E-06
869	9.68	-1.724055E-06	-3.762237E-06
870	9.69	-1.713354E-06	-3.738953E-06
871	9.70	-1.702732E-06	-3.715837E-06
872	9.71	-1.692186E-06	-3.692887E-06
873	9.72	-1.681716E-06	-3.670103E-06
874	9.73	-1.671322E-06	-3.647483E-06
875	9.74	-1.661002E-06	-3.625025E-06
876	9.75	-1.650757E-06	-3.602728E-06
877	9.76	-1.640586E-06	-3.580591E-06
878	9.77	-1.630488E-06	-3.558613E-06
879	9.78	-1.620462E-06	-3.536792E-06
880	9.79	-1.610508E-06	-3.515127E-06
881	9.80	-1.600625E-06	-3.493617E-06
882	9.81	-1.590813E-06	-3.472260E-06
883	9.82	-1.581071E-06	-3.451055E-06
884	9.83	-1.571399E-06	-3.430001E-06
885	9.84	-1.561796E-06	-3.409097E-06
886	9.85	-1.552261E-06	-3.388342E-06
887	9.86	-1.542794E-06	-3.367733E-06
888	9.87	-1.533394E-06	-3.347271E-06
889	9.88	-1.524061E-06	-3.326954E-06
890	9.89	-1.514795E-06	-3.306781E-06
891	9.90	-1.505594E-06	-3.286750E-06
892	9.91	-1.496458E-06	-3.266860E-06
893	9.92	-1.487386E-06	-3.247111E-06
894	9.93	-1.478379E-06	-3.227501E-06
895	9.94	-1.469436E-06	-3.208029E-06
896	9.95	-1.460555E-06	-3.188694E-06
897	9.96	-1.451738E-06	-3.169495E-06
898	9.97	-1.442982E-06	-3.150431E-06
899	9.98	-1.434288E-06	-3.131500E-06
900	9.99	-1.425654E-06	-3.112702E-06
901	10.00	-1.417082E-06	-3.094036E-06
902	10.01	-1.408569E-06	-3.075500E-06
903	10.02	-1.400117E-06	-3.057093E-06
904	10.03	-1.391723E-06	-3.038815E-06
905	10.04	-1.383388E-06	-3.020664E-06
906	10.05	-1.375111E-06	-3.002640E-06
907	10.06	-1.366892E-06	-2.984741E-06
908	10.07	-1.358730E-06	-2.966966E-06
909	10.08	-1.350625E-06	-2.949315E-06
910	10.09	-1.342577E-06	-2.931786E-06
911	10.10	-1.334584E-06	-2.914379E-06
912	10.11	-1.326647E-06	-2.897092E-06
913	10.12	-1.318765E-06	-2.879924E-06
914	10.13	-1.310937E-06	-2.862876E-06
915	10.14	-1.303164E-06	-2.845945E-06
916	10.15	-1.295444E-06	-2.829130E-06
917	10.16	-1.287778E-06	-2.812432E-06
918	10.17	-1.280164E-06	-2.795848E-06
919	10.18	-1.272603E-06	-2.779378E-06
920	10.19	-1.265095E-06	-2.763022E-06
921	10.20	-1.257637E-06	-2.746777E-06
922	10.21	-1.250231E-06	-2.730644E-06
923	10.22	-1.242876E-06	-2.714622E-06
924	10.23	-1.235572E-06	-2.698709E-06
925	10.24	-1.228317E-06	-2.682905E-06
926	10.25	-1.221112E-06	-2.667208E-06
927	10.26	-1.213956E-06	-2.651619E-06
928	10.27	-1.206850E-06	-2.636136E-06
929	10.28	-1.199791E-06	-2.620758E-06
930	10.29	-1.192781E-06	-2.605485E-06
931	10.30	-1.185819E-06	-2.590316E-06
932	10.31	-1.178904E-06	-2.575250E-06
933	10.32	-1.172036E-06	-2.560286E-06
934	10.33	-1.165215E-06	-2.545423E-06
935	10.34	-1.158440E-06	-2.530661E-06
936	10.35	-1.151711E-06	-2.515998E-06
937	10.36	-1.145027E-06	-2.501435E-06
938	10.37	-1.138389E-06	-2.486970E-06
939	10.38	-1.131795E-06	-2.472602E-06
940	10.39	-1.125247E-06	-2.458331E-06
941	10.40	-1.118742E-06	-2.444157E-06
942	10.41	-1.112281E-06	-2.430077E-06
943	10.42	-1.105864E-06	-2.416092E-06
944	10.43	-1.099489E-06	-2.402201E-06
945	10.44	-1.093158E-06	-2.388403E-06
946	10.45	-1.086869E-06	-2.374697E-06
947	10.46	-1.080623E-06	-2.361083E-06
948	10.47	-1.074418E-06	-2.347561E-06
949	10.48	-1.068255E-06	-2.334128E-06
950	10.49	-1.062133E-06	-2.320785E-06
951	10.50	-1.056052E-06	-2.307531E-06
952	10.51	-1.050011E-06	-2.294365E-06
953	10.52	-1.044011E-06	-2.281287E-06
954	10.53	-1.038051E-06	-2.268295E-06
955	10.54	-1.032130E-06	-2.255390E-06
956	10.55	-1.026249E-06	-2.242571E-06
957	10.56	-1.020407E-06	-2.229836E-06
958	10.57	-1.014603E-06	-2.217186E-06
959	10.58	-1.008839E-06	-2.204619E-06
960	10.59	-1.003112E-06	-2.192136E-06
961	10.60	-9.974232E-07	-2.179734E-06
962	10.61	-9.917720E-07	-2.167415E-06
963	10.62	-9.861582E-07	-2.155177E-06
964	10.63	-9.805815E-07	-2.143019E-06
965	10.64	-9.750415E-07	-2.130942E-06
966	10.65	-9.695380E-07	-2.118943E-06
967	10.66	-9.640708E-07	-2.107024E-06
968	10.67	-9.586395E-07	-2.095182E-06
969	10.68	-9.532439E-07	-2.083419E-06
970	10.69	-9.478836E-07	-2.071732E-06
971	10.70	-9.425586E-07	-2.060122E-06
972	10.71	-9.372684E-07	-2.048587E-06
973	10.72	-9.320128E-07	-2.037128E-06
974	10.73	-9.267916E-07	-2.025743E-06
975	10.74	-9.216045E-07	-2.014433E-06
976	10.75	-9.164513E-07	-2.003197E-06
977	10.76	-9.113316E-07	-1.992033E-06
978	10.77	-9.062453E-07	-1.980942E-06
979	10.78	-9.011922E-07	-1.969923E-06
980	10.79	-8.961718E-07	-1.958975E-06
981	10.80	-8.911841E-07	-1.948099E-06
982	10.81	-8.862287E-07	-1.937292E-06
983	10.82	-8.813055E-07	-1.926556E-06
984	10.83	-8.764142E-07	-1.915889E-06
985	10.84	-8.715545E-07	-1.905291E-06
986	10.85	-8.667262E-07	-1.894761E-06
987	10.86	-8.619292E-07	-1.884299E-06
988	10.87	-8.571631E-07	-1.873904E-06
989	10.88	-8.524277E-07	-1.863577E-06
990	10.89	-8.477228E-07	-1.853315E-06
991	10.90	-8.430482E-07	-1.843120E-06
992	10.91	-8.384037E-07	-1.832990E-06
993	10.92	-8.337890E-07	-1.822925E-06
994	10.93	-8.292039E-07	-1.812924E-06
995	10.94	-8.246482E-07	-1.802987E-06
996	10.95	-8.201217E-07	-1.793114E-06
997	10.96	-8.156242E-07	-1.783303E-06
998	10.97	-8.111555E-07	-1.773556E-06
999	10.98	-8.067153E-07	-1.763870E-06
1000	10.99	-8.023034E-07	-1.754246E-06
1001	11.00	-7.979197E-07	-1.744684E-06
1002	11.01	-7.935639E-07	-1.735182E-06
1003	11.02	-7.892358E-07	-1.725740E-06
1004	11.03	-7.849352E-07	-1.716359E-06
1005	11.04	-7.806620E-07	-1.707036E-06
1006	11.05	-7.764159E-07	-1.697773E-06
1007	11.06	-7.721967E-07	-1.688569E-06
1008	11.07	-7.680043E-07	-1.679422E-06
1009	11.08	-7.638384E-07	-1.670334E-06
1010	11.09	-7.596989E-07	-1.661303E-06
1011	11.10	-7.555855E-07	-1.652328E-06
1012	11.11	-7.514981E-07	-1.643410E-06
1013	11.12	-7.474365E-07	-1.634549E-06
1014	11.13	-7.434005E-07	-1.625743E-06
1015	11.14	-7.393898E-07	-1.616992E-06
1016	11.15	-7.354045E-07	-1.608296E-06
1017	11.16	-7.314441E-07	-1.599655E-06
1018	11.17	-7.275087E-07	-1.591068E-06
1019	11.18	-7.235979E-07	-1.582535E-06
1020	11.19	-7.197116E-07	-1.574055E-06
1021	11.20	-7.158497E-07	-1.565628E-06
1022	11.21	-7.120120E-07	-1.557253E-06
1023	11.22	-7.081982E-07	-1.548931E-06
1024	11.23	-7.044083E-07	-1.540661E-06
1025	11.24	-7.006420E-07	-1.532442E-06
1026	11.25	-6.968992E-07	-1.524274E-06
1027	11.26	-6.931797E-07	-1.516157E-06
1028	11.27	-6.894833E-07	-1.508091E-06
1029	11.28	-6.858100E-07	-1.500074E-06
1030	11.29	-6.821594E-07	-1.492107E-06
1031	11.30	-6.785316E-07	-1.484190E-06
1032	11.31	-6.749262E-07	-1.476321E-06
1033	11.32	-6.713431E-07	-1.468502E-06
1034	11.33	-6.677823E-07	-1.460730E-06
1035	11.34	-6.642435E-07	-1.453006E-06
1036	11.35	-6.607265E-07	-1.445330E-06
1037	11.36	-6.572312E-07	-1.437702E-06
1038	11.37	-6.537575E-07	-1.430120E-06
1039	11.38	-6.503053E-07	-1.422585E-06
1040	11.39	-6.468742E-07	-1.415096E-06
1041	11.40	-6.434643E-07	-1.407653E-06
1042	11.41	-6.400754E-07	-1.400256E-06
1043	11.42	-6.367072E-07	-1.392904E-06
1044	11.43	-6.333598E-07	-1.385597E-06
1045	11.44	-6.300328E-07	-1.378334E-06
1046	11.45	-6.267263E-07	-1.371117E-06
1047	11.46	-6.234399E-07	-1.363943E-06
1048	11.47	-6.201737E-07	-1.356813E-06
1049	11.48	-6.169274E-07	-1.349726E-06
1050	11.49	-6.137009E-07	-1.342683E-06
1051	11.50	-6.104941E-07	-1.335682E-06
1052	11.51	-6.073069E-07	-1.328724E-06
1053	11.52	-6.041390E-07	-1.321808E-06
1054	11.53	-6.009905E-07	-1.314935E-06
1055	11.54	-5.978610E-07	-1.308103E-06
1056	11.55	-5.947506E-07	-1.301312E-06
1057	11.56	-5.916590E-07	-1.294562E-06
1058	11.57	-5.885862E-07	-1.287854E-06
1059	11.58	-5.855320E-07	-1.281185E-06
1060	11.59	-5.824962E-07	-1.274557E-06
1061	11.60	-5.794788E-07	-1.267969E-06
1062	11.61	-5.764797E-07	-1.261421E-06
1063	11.62	-5.734986E-07	-1.254912E-06
1064	11.63	-5.705356E-07	-1.248442E-06
1065	11.64	-5.675903E-07	-1.242012E-06
1066	11.65	-5.646628E-07	-1.235619E-06
1067	11.66	-5.617529E-07	-1.229266E-06
1068	11.67	-5.588605E-07	-1.222950E-06
1069	11.68	-5.559855E-07	-1.216672E-06
1070	11.69	-5.531277E-07	-1.210432E-06
1071	11.70	-5.502871E-07	-1.204229E-06
1072	11.71	-5.474634E-07	-1.198063E-06
1073	11.72	-5.446567E-07	-1.191933E-06
1074	11.73	-5.418667E-07	-1.185841E-06
1075	11.74	-5.390934E-07	-1.179785E-06
1076	11.75	-5.363366E-07	-1.173764E-06
1077	11.76	-5.335963E-07	-1.167780E-06
1078	11.77	-5.308723E-07	-1.161831E-06
1079	11.78	-5.281646E-07	-1.155918E-06
1080	11.79	-5.254729E-07	-1.150039E-06
1081	11.80	-5.227972E-07	-1.144196E-06
1082	11.81	-5.201374E-07	-1.138387E-06
1083	11.82	-5.174934E-07	-1.132612E-06
1084	11.83	-5.148651E-07	-1.126872E-06
1085	11.84	-5.122524E-07	-1.121166E-06
1086	11.85	-5.096551E-07	-1.115493E-06
1087	11.86	-5.070731E-07	-1.109854E-06
1088	11.87	-5.045064E-07	-1.104248E-06
1089	11.88	-5.019549E-07	-1.098675E-06
1090	11.89	-4.994184E-07	-1.093134E-06
1091	11.90	-4.968969E-07	-1.087627E-06
1092	11.91	-4.943902E-07	-1.082151E-06
1093	11.92	-4.918982E-07	-1.076708E-06
1094	11.93	-4.894209E-07	-1.071297E-06
1095	11.94	-4.869582E-07	-1.065917E-06
1096	11.95	-4.845099E-07	-1.060569E-06
1097	11.96	-4.820759E-07	-1.055253E-06
1098	11.97	-4.796562E-07	-1.049967E-06
1099	11.98	-4.772507E-07	-1.044712E-06
1100	11.99	-4.748593E-07	-1.039488E-06
1101	12.00	-4.724818E-07	-1.034294E-06
1102	12.01	-4.701182E-07	-1.029131E-06
1103	12.02	-4.677684E-07	-1.023998E-06
1104	12.03	-4.654322E-07	-1.018894E-06
1105	12.04	-4.631097E-07	-1.013820E-06
1106	12.05	-4.608007E-07	-1.008776E-06
1107	12.06	-4.585052E-07	-1.003761E-06
1108	12.07	-4.562229E-07	-9.987749E-07
1109	12.08	-4.539539E-07	-9.938177E-07
1110	12.09	-4.516981E-07	-9.888892E-07
1111	12.10	-4.494554E-07	-9.839892E-07
1112	12.11	-4.472256E-07	-9.791176E-07
1113	12.12	-4.450087E-07	-9.742740E-07
1114	12.13	-4.428047E-07	-9.694584E-07
1115	12.14	-4.406133E-07	-9.646706E-07
1116	12.15	-4.384347E-07	-9.599103E-07
1117	12.16	-4.362685E-07	-9.551774E-07
1118	12.17	-4.341149E-07	-9.504717E-07
1119	12.18	-4.319737E-07	-9.457931E-07
1120	12.19	-4.298448E-07	-9.411413E-07
1121	12.20	-4.277281E-07	-9.365162E-07
1122	12.21	-4.256235E-07	-9.319176E-07
1123	12.22	-4.235311E-07	-9.273453E-07
1124	12.23	-4.214506E-07	-9.227992E-07
1125	12.24	-4.193821E-07	-9.182790E-07
1126	12.25	-4.173254E-07	-9.137847E-07
1127	12.26	-4.152804E-07	-9.093160E-07
1128	12.27	-4.132472E-07	-9.048728E-07
1129	12.28	-4.112255E-07	-9.004550E-07
1130	12.29	-4.092154E-07	-8.960622E-07
1131	12.30	-4.072168E-07	-8.916945E-07
1132	12.31	-4.052295E-07	-8.873516E-07
1133	12.32	-4.032535E-07	-8.830333E-07
1134	12.33	-4.012888E-07	-8.787396E-07
1135	12.34	-3.993353E-07	-8.744702E-07
1136	12.35	-3.973928E-07	-8.702249E-07
1137	12.36	-3.954613E-07	-8.660038E-07
1138	12.37	-3.935408E-07	-8.618064E-07
1139	12.38	-3.916312E-07	-8.576329E-07
1140	12.39	-3.897324E-07	-8.534828E-07
1141	12.40	-3.878443E-07	-8.493562E-07
1142	12.41	-3.859669E-07	-8.452529E-07
1143	12.42	-3.841001E-07	-8.411727E-07
1144	12.43	-3.822438E-07	-8.371154E-07
1145	12.44	-3.803979E-07	-8.330810E-07
1146	12.45	-3.785625E-07	-8.290692E-07
1147	12.46	-3.767374E-07	-8.250799E-07
1148	12.47	-3.749225E-07	-8.211131E-07
1149	12.48	-3.731179E-07	-8.171685E-07
1150	12.49	-3.713234E-07	-8.132459E-07
1151	12.50	-3.695389E-07	-8.093453E-07
1152	12.51	-3.677645E-07	-8.054666E-07
1153	12.52	-3.659999E-07	-8.016095E-07
1154	12.53	-3.642453E-07	-7.977740E-07
1155	12.54	-3.625005E-07	-7.939598E-07
1156	12.55	-3.607654E-07	-7.901669E-07
1157	12.56	-3.590400E-07	-7.863952E-07
1158	12.57	-3.573242E-07	-7.826444E-07
1159	12.58	-3.556180E-07	-7.789145E-07
1160	12.59	-3.539213E-07	-7.752053E-07
1161	12.60	-3.522340E-07	-7.715168E-07
1162	12.61	-3.505561E-07	-7.678486E-07
1163	12.62	-3.488875E-07	-7.642009E-07
1164	12.63	-3.472282E-07	-7.605733E-07
1165	12.64	-3.455781E-07	-7.569658E-07
1166	12.65	-3.439371E-07	-7.533782E-07
1167	12.66	-3.423052E-07	-7.498105E-07
1168	12.67	-3.406824E-07	-7.462625E-07
1169	12.68	-3.390685E-07	-7.427341E-07
1170	12.69	-3.374636E-07	-7.392251E-07
1171	12.70	-3.358675E-07	-7.357354E-07
1172	12.71	-3.342802E-07	-7.322650E-07
1173	12.72	-3.327016E-07	-7.288136E-07
1174	12.73	-3.311317E-07	-7.253812E-07
1175	12.74	-3.295705E-07	-7.219677E-07
1176	12.75	-3.280179E-07	-7.185729E-07
1177	12.76	-3.264738E-07	-7.151967E-07
1178	12.77	-3.249382E-07	-7.118390E-07
1179	12.78	-3.234110E-07	-7.084997E-07
1180	12.79	-3.218921E-07	-7.051786E-07
1181	12.80	-3.203816E-07	-7.018757E-07
1182	12.81	-3.188794E-07	-6.985909E-07
1183	12.82	-3.173853E-07	-6.953239E-07
1184	12.83	-3.158995E-07	-6.920748E-07
1185	12.84	-3.144217E-07	-6.888434E-07
1186	12.85	-3.129520E-07	-6.856296E-07
1187	12.86	-3.114903E-07	-6.824332E-07
1188	12.87	-3.100366E-07	-6.792542E-07
1189	12.88	-3.085908E-07	-6.760925E-07
1190	12.89	-3.071528E-07	-6.729480E-07
1191	12.90	-3.057227E-07	-6.698205E-07
1192	12.91	-3.043003E-07	-6.667100E-07
1193	12.92	-3.028857E-07	-6.636163E-07
1194	12.93	-3.014787E-07	-6.605393E-07
1195	12.94	-3.000793E-07	-6.574790E-07
1196	12.95	-2.986875E-07	-6.544352E-07
1197	12.96	-2.973033E-07	-6.514079E-07
1198	12.97	-2.959265E-07	-6.483969E-07
1199	12.98	-2.945572E-07	-6.454021E-07
1200	12.99	-2.931952E-07	-6.424234E-07
