# DATE: 2024-07-07  UNITS: metal  CONTRIBUTOR: By STUDENT			
# FHEP: Temp 303 [K], mr 0.923076923076923 [g/mol], Sigma 3.075 [A], Epsilon 0.00198086233137388 [eV]			
			
ENTRY			
N 1200 R 1.0 12.99			
			
1	1.00	1.101460E+04	9.711000E+04
2	1.01	9.680757E+03	8.422079E+04
3	1.02	8.520072E+03	7.315626E+04
4	1.03	7.508588E+03	6.364257E+04
5	1.04	6.625865E+03	5.544921E+04
6	1.05	5.854433E+03	4.838185E+04
7	1.06	5.179334E+03	4.227630E+04
8	1.07	4.587742E+03	3.699367E+04
9	1.08	4.068643E+03	3.241624E+04
10	1.09	3.612564E+03	2.844407E+04
11	1.10	3.211345E+03	2.499216E+04
12	1.11	2.857947E+03	2.198814E+04
13	1.12	2.546290E+03	1.937028E+04
14	1.13	2.271112E+03	1.708582E+04
15	1.14	2.027859E+03	1.508964E+04
16	1.15	1.812578E+03	1.334306E+04
17	1.16	1.621835E+03	1.181289E+04
18	1.17	1.452646E+03	1.047062E+04
19	1.18	1.302410E+03	9.291702E+03
20	1.19	1.168861E+03	8.254982E+03
21	1.20	1.050020E+03	7.342206E+03
22	1.21	9.441573E+02	6.537601E+03
23	1.22	8.497593E+02	5.827519E+03
24	1.23	7.655000E+02	5.200135E+03
25	1.24	6.902164E+02	4.645189E+03
26	1.25	6.228873E+02	4.153772E+03
27	1.26	5.626147E+02	3.718133E+03
28	1.27	5.086087E+02	3.331526E+03
29	1.28	4.601730E+02	2.988067E+03
30	1.29	4.166939E+02	2.682622E+03
31	1.30	3.776294E+02	2.410704E+03
32	1.31	3.425004E+02	2.168388E+03
33	1.32	3.108834E+02	1.952236E+03
34	1.33	2.824029E+02	1.759234E+03
35	1.34	2.567266E+02	1.586735E+03
36	1.35	2.335592E+02	1.432416E+03
37	1.36	2.126387E+02	1.294230E+03
38	1.37	1.937322E+02	1.170376E+03
39	1.38	1.766324E+02	1.059267E+03
40	1.39	1.611548E+02	9.595027E+02
41	1.40	1.471348E+02	8.698449E+02
42	1.41	1.344256E+02	7.892000E+02
43	1.42	1.228962E+02	7.165996E+02
44	1.43	1.124296E+02	6.511862E+02
45	1.44	1.029209E+02	5.921991E+02
46	1.45	9.427649E+01	5.389635E+02
47	1.46	8.641226E+01	4.908796E+02
48	1.47	7.925296E+01	4.474144E+02
49	1.48	7.273101E+01	4.080932E+02
50	1.49	6.678574E+01	3.724934E+02
51	1.50	6.136262E+01	3.402383E+02
52	1.51	5.641261E+01	3.109916E+02
53	1.52	5.189156E+01	2.844530E+02
54	1.53	4.775972E+01	2.603541E+02
55	1.54	4.398127E+01	2.384548E+02
56	1.55	4.052388E+01	2.185403E+02
57	1.56	3.735837E+01	2.004179E+02
58	1.57	3.445839E+01	1.839150E+02
59	1.58	3.180012E+01	1.688765E+02
60	1.59	2.936202E+01	1.551633E+02
61	1.60	2.712459E+01	1.426503E+02
62	1.61	2.507016E+01	1.312249E+02
63	1.62	2.318273E+01	1.207859E+02
64	1.63	2.144779E+01	1.112421E+02
65	1.64	1.985216E+01	1.025111E+02
66	1.65	1.838387E+01	9.451886E+01
67	1.66	1.703207E+01	8.719832E+01
68	1.67	1.578687E+01	8.048900E+01
69	1.68	1.463929E+01	7.433619E+01
70	1.69	1.358114E+01	6.869042E+01
71	1.70	1.260497E+01	6.350689E+01
72	1.71	1.170399E+01	5.874503E+01
73	1.72	1.087202E+01	5.436807E+01
74	1.73	1.010340E+01	5.034265E+01
75	1.74	9.392980E+00	4.663850E+01
76	1.75	8.736045E+00	4.322811E+01
77	1.76	8.128295E+00	4.008652E+01
78	1.77	7.565795E+00	3.719100E+01
79	1.78	7.044945E+00	3.452089E+01
80	1.79	6.562450E+00	3.205735E+01
81	1.80	6.115292E+00	2.978327E+01
82	1.81	5.700708E+00	2.768300E+01
83	1.82	5.316163E+00	2.574230E+01
84	1.83	4.959332E+00	2.394818E+01
85	1.84	4.628083E+00	2.228874E+01
86	1.85	4.320458E+00	2.075316E+01
87	1.86	4.034657E+00	1.933152E+01
88	1.87	3.769028E+00	1.801474E+01
89	1.88	3.522052E+00	1.679453E+01
90	1.89	3.292330E+00	1.566331E+01
91	1.90	3.078576E+00	1.461409E+01
92	1.91	2.879607E+00	1.364052E+01
93	1.92	2.694330E+00	1.273674E+01
94	1.93	2.521742E+00	1.189739E+01
95	1.94	2.360916E+00	1.111754E+01
96	1.95	2.210997E+00	1.039266E+01
97	1.96	2.071196E+00	9.718607E+00
98	1.97	1.940786E+00	9.091554E+00
99	1.98	1.819094E+00	8.507988E+00
100	1.99	1.705499E+00	7.964675E+00
101	2.00	1.599428E+00	7.458639E+00
102	2.01	1.500350E+00	6.987136E+00
103	2.02	1.407774E+00	6.547643E+00
104	2.03	1.321246E+00	6.137827E+00
105	2.04	1.240345E+00	5.755543E+00
106	2.05	1.164681E+00	5.398807E+00
107	2.06	1.093895E+00	5.065790E+00
108	2.07	1.027652E+00	4.754802E+00
109	2.08	9.656414E-01	4.464281E+00
110	2.09	9.075763E-01	4.192785E+00
111	2.10	8.531897E-01	3.938978E+00
112	2.11	8.022342E-01	3.701627E+00
113	2.12	7.544798E-01	3.479588E+00
114	2.13	7.097131E-01	3.271803E+00
115	2.14	6.677356E-01	3.077294E+00
116	2.15	6.283630E-01	2.895151E+00
117	2.16	5.914238E-01	2.724533E+00
118	2.17	5.567586E-01	2.564660E+00
119	2.18	5.242190E-01	2.414807E+00
120	2.19	4.936669E-01	2.274303E+00
121	2.20	4.649737E-01	2.142523E+00
122	2.21	4.380196E-01	2.018888E+00
123	2.22	4.126932E-01	1.902860E+00
124	2.23	3.888905E-01	1.793938E+00
125	2.24	3.665145E-01	1.691657E+00
126	2.25	3.454748E-01	1.595584E+00
127	2.26	3.256871E-01	1.505316E+00
128	2.27	3.070728E-01	1.420479E+00
129	2.28	2.895585E-01	1.340724E+00
130	2.29	2.730754E-01	1.265724E+00
131	2.30	2.575597E-01	1.195179E+00
132	2.31	2.429515E-01	1.128805E+00
133	2.32	2.291948E-01	1.066338E+00
134	2.33	2.162375E-01	1.007534E+00
135	2.34	2.040306E-01	9.521639E-01
136	2.35	1.925285E-01	9.000130E-01
137	2.36	1.816883E-01	8.508821E-01
138	2.37	1.714702E-01	8.045848E-01
139	2.38	1.618366E-01	7.609469E-01
140	2.39	1.527524E-01	7.198056E-01
141	2.40	1.441848E-01	6.810089E-01
142	2.41	1.361031E-01	6.444144E-01
143	2.42	1.284784E-01	6.098892E-01
144	2.43	1.212836E-01	5.773087E-01
145	2.44	1.144934E-01	5.465563E-01
146	2.45	1.080841E-01	5.175231E-01
147	2.46	1.020334E-01	4.901069E-01
148	2.47	9.632035E-02	4.642119E-01
149	2.48	9.092531E-02	4.397485E-01
150	2.49	8.582986E-02	4.166327E-01
151	2.50	8.101670E-02	3.947857E-01
152	2.51	7.646960E-02	3.741335E-01
153	2.52	7.217327E-02	3.546070E-01
154	2.53	6.811338E-02	3.361409E-01
155	2.54	6.427645E-02	3.186744E-01
156	2.55	6.064980E-02	3.021501E-01
157	2.56	5.722153E-02	2.865142E-01
158	2.57	5.398043E-02	2.717162E-01
159	2.58	5.091595E-02	2.577085E-01
160	2.59	4.801818E-02	2.444465E-01
161	2.60	4.527779E-02	2.318884E-01
162	2.61	4.268599E-02	2.199945E-01
163	2.62	4.023451E-02	2.087280E-01
164	2.63	3.791557E-02	1.980537E-01
165	2.64	3.572182E-02	1.879389E-01
166	2.65	3.364636E-02	1.783528E-01
167	2.66	3.168268E-02	1.692661E-01
168	2.67	2.982464E-02	1.606516E-01
169	2.68	2.806645E-02	1.524833E-01
170	2.69	2.640266E-02	1.447371E-01
171	2.70	2.482813E-02	1.373899E-01
172	2.71	2.333800E-02	1.304202E-01
173	2.72	2.192771E-02	1.238077E-01
174	2.73	2.059294E-02	1.175331E-01
175	2.74	1.932960E-02	1.115784E-01
176	2.75	1.813386E-02	1.059265E-01
177	2.76	1.700208E-02	1.005612E-01
178	2.77	1.593084E-02	9.546747E-02
179	2.78	1.491690E-02	9.063083E-02
180	2.79	1.395721E-02	8.603776E-02
181	2.80	1.304887E-02	8.167548E-02
182	2.81	1.218915E-02	7.753190E-02
183	2.82	1.137549E-02	7.359560E-02
184	2.83	1.060543E-02	6.985580E-02
185	2.84	9.876679E-03	6.630231E-02
186	2.85	9.187056E-03	6.292548E-02
187	2.86	8.534501E-03	5.971621E-02
188	2.87	7.917065E-03	5.666588E-02
189	2.88	7.332907E-03	5.376633E-02
190	2.89	6.780283E-03	5.100987E-02
191	2.90	6.257544E-03	4.838920E-02
192	2.91	5.763128E-03	4.589741E-02
193	2.92	5.295559E-03	4.352797E-02
194	2.93	4.853438E-03	4.127470E-02
195	2.94	4.435442E-03	3.913173E-02
196	2.95	4.040317E-03	3.709352E-02
197	2.96	3.666876E-03	3.515483E-02
198	2.97	3.313996E-03	3.331066E-02
199	2.98	2.980611E-03	3.155630E-02
200	2.99	2.665712E-03	2.988729E-02
201	3.00	2.368345E-03	2.829938E-02
202	3.01	2.087603E-03	2.678856E-02
203	3.02	1.822629E-03	2.535103E-02
204	3.03	1.572608E-03	2.398316E-02
205	3.04	1.336770E-03	2.268154E-02
206	3.05	1.114385E-03	2.144292E-02
207	3.06	9.047581E-04	2.026421E-02
208	3.07	7.072334E-04	1.914248E-02
209	3.08	5.211876E-04	1.807497E-02
210	3.09	3.460296E-04	1.705903E-02
211	3.10	1.811989E-04	1.609217E-02
212	3.11	2.616370E-05	1.517200E-02
213	3.12	-1.195804E-04	1.429628E-02
214	3.13	-2.565122E-04	1.346285E-02
215	3.14	-3.850856E-04	1.266968E-02
216	3.15	-5.057318E-04	1.191485E-02
217	3.16	-6.188597E-04	1.119651E-02
218	3.17	-7.248576E-04	1.051291E-02
219	3.18	-8.240938E-04	9.862397E-03
220	3.19	-9.169182E-04	9.243394E-03
221	3.20	-1.003663E-03	8.654399E-03
222	3.21	-1.084643E-03	8.093987E-03
223	3.22	-1.160158E-03	7.560801E-03
224	3.23	-1.230492E-03	7.053551E-03
225	3.24	-1.295915E-03	6.571011E-03
226	3.25	-1.356684E-03	6.112014E-03
227	3.26	-1.413041E-03	5.675449E-03
228	3.27	-1.465218E-03	5.260260E-03
229	3.28	-1.513434E-03	4.865441E-03
230	3.29	-1.557899E-03	4.490035E-03
231	3.30	-1.598810E-03	4.133131E-03
232	3.31	-1.636355E-03	3.793862E-03
233	3.32	-1.670713E-03	3.471403E-03
234	3.33	-1.702055E-03	3.164966E-03
235	3.34	-1.730541E-03	2.873804E-03
236	3.35	-1.756325E-03	2.597203E-03
237	3.36	-1.779552E-03	2.334484E-03
238	3.37	-1.800362E-03	2.085000E-03
239	3.38	-1.818885E-03	1.848135E-03
240	3.39	-1.835246E-03	1.623300E-03
241	3.40	-1.849564E-03	1.409938E-03
242	3.41	-1.861952E-03	1.207514E-03
243	3.42	-1.872517E-03	1.015519E-03
244	3.43	-1.881362E-03	8.334706E-04
245	3.44	-1.888581E-03	6.609054E-04
246	3.45	-1.894269E-03	4.973834E-04
247	3.46	-1.898511E-03	3.424849E-04
248	3.47	-1.901392E-03	1.958095E-04
249	3.48	-1.902989E-03	5.697565E-05
250	3.49	-1.903378E-03	-7.438078E-05
251	3.50	-1.902630E-03	-1.986069E-04
252	3.51	-1.900813E-03	-3.160340E-04
253	3.52	-1.897990E-03	-4.269777E-04
254	3.53	-1.894224E-03	-5.317396E-04
255	3.54	-1.889571E-03	-6.306070E-04
256	3.55	-1.884087E-03	-7.238542E-04
257	3.56	-1.877824E-03	-8.117430E-04
258	3.57	-1.870831E-03	-8.945231E-04
259	3.58	-1.863157E-03	-9.724328E-04
260	3.59	-1.854845E-03	-1.045699E-03
261	3.60	-1.845938E-03	-1.114540E-03
262	3.61	-1.836477E-03	-1.179162E-03
263	3.62	-1.826499E-03	-1.239763E-03
264	3.63	-1.816042E-03	-1.296532E-03
265	3.64	-1.805139E-03	-1.349649E-03
266	3.65	-1.793823E-03	-1.399286E-03
267	3.66	-1.782125E-03	-1.445608E-03
268	3.67	-1.770076E-03	-1.488770E-03
269	3.68	-1.757701E-03	-1.528923E-03
270	3.69	-1.745029E-03	-1.566210E-03
271	3.70	-1.732084E-03	-1.600768E-03
272	3.71	-1.718890E-03	-1.632726E-03
273	3.72	-1.705470E-03	-1.662209E-03
274	3.73	-1.691844E-03	-1.689336E-03
275	3.74	-1.678033E-03	-1.714221E-03
276	3.75	-1.664056E-03	-1.736971E-03
277	3.76	-1.649932E-03	-1.757692E-03
278	3.77	-1.635677E-03	-1.776480E-03
279	3.78	-1.621308E-03	-1.793432E-03
280	3.79	-1.606839E-03	-1.808636E-03
281	3.80	-1.592286E-03	-1.822180E-03
282	3.81	-1.577662E-03	-1.834145E-03
283	3.82	-1.562981E-03	-1.844611E-03
284	3.83	-1.548253E-03	-1.853651E-03
285	3.84	-1.533492E-03	-1.861339E-03
286	3.85	-1.518707E-03	-1.867742E-03
287	3.86	-1.503909E-03	-1.872925E-03
288	3.87	-1.489108E-03	-1.876952E-03
289	3.88	-1.474313E-03	-1.879882E-03
290	3.89	-1.459532E-03	-1.881772E-03
291	3.90	-1.444773E-03	-1.882676E-03
292	3.91	-1.430044E-03	-1.882646E-03
293	3.92	-1.415353E-03	-1.881733E-03
294	3.93	-1.400705E-03	-1.879982E-03
295	3.94	-1.386107E-03	-1.877440E-03
296	3.95	-1.371565E-03	-1.874151E-03
297	3.96	-1.357085E-03	-1.870154E-03
298	3.97	-1.342671E-03	-1.865490E-03
299	3.98	-1.328328E-03	-1.860195E-03
300	3.99	-1.314062E-03	-1.854307E-03
301	4.00	-1.299875E-03	-1.847860E-03
302	4.01	-1.285772E-03	-1.840885E-03
303	4.02	-1.271756E-03	-1.833415E-03
304	4.03	-1.257832E-03	-1.825479E-03
305	4.04	-1.244001E-03	-1.817106E-03
306	4.05	-1.230267E-03	-1.808322E-03
307	4.06	-1.216632E-03	-1.799154E-03
308	4.07	-1.203099E-03	-1.789627E-03
309	4.08	-1.189670E-03	-1.779763E-03
310	4.09	-1.176347E-03	-1.769586E-03
311	4.10	-1.163131E-03	-1.759117E-03
312	4.11	-1.150026E-03	-1.748377E-03
313	4.12	-1.137031E-03	-1.737384E-03
314	4.13	-1.124148E-03	-1.726158E-03
315	4.14	-1.111380E-03	-1.714716E-03
316	4.15	-1.098725E-03	-1.703075E-03
317	4.16	-1.086186E-03	-1.691252E-03
318	4.17	-1.073764E-03	-1.679261E-03
319	4.18	-1.061458E-03	-1.667117E-03
320	4.19	-1.049270E-03	-1.654835E-03
321	4.20	-1.037200E-03	-1.642426E-03
322	4.21	-1.025249E-03	-1.629905E-03
323	4.22	-1.013416E-03	-1.617283E-03
324	4.23	-1.001702E-03	-1.604571E-03
325	4.24	-9.901069E-04	-1.591780E-03
326	4.25	-9.786308E-04	-1.578921E-03
327	4.26	-9.672737E-04	-1.566003E-03
328	4.27	-9.560354E-04	-1.553036E-03
329	4.28	-9.449157E-04	-1.540028E-03
330	4.29	-9.339143E-04	-1.526989E-03
331	4.30	-9.230310E-04	-1.513925E-03
332	4.31	-9.122654E-04	-1.500845E-03
333	4.32	-9.016171E-04	-1.487756E-03
334	4.33	-8.910856E-04	-1.474664E-03
335	4.34	-8.806704E-04	-1.461576E-03
336	4.35	-8.703710E-04	-1.448498E-03
337	4.36	-8.601867E-04	-1.435436E-03
338	4.37	-8.501170E-04	-1.422396E-03
339	4.38	-8.401611E-04	-1.409382E-03
340	4.39	-8.303184E-04	-1.396399E-03
341	4.40	-8.205882E-04	-1.383453E-03
342	4.41	-8.109697E-04	-1.370547E-03
343	4.42	-8.014621E-04	-1.357686E-03
344	4.43	-7.920647E-04	-1.344873E-03
345	4.44	-7.827766E-04	-1.332113E-03
346	4.45	-7.735970E-04	-1.319408E-03
347	4.46	-7.645250E-04	-1.306761E-03
348	4.47	-7.555597E-04	-1.294177E-03
349	4.48	-7.467003E-04	-1.281657E-03
350	4.49	-7.379459E-04	-1.269205E-03
351	4.50	-7.292955E-04	-1.256822E-03
352	4.51	-7.207482E-04	-1.244512E-03
353	4.52	-7.123030E-04	-1.232276E-03
354	4.53	-7.039591E-04	-1.220116E-03
355	4.54	-6.957155E-04	-1.208034E-03
356	4.55	-6.875712E-04	-1.196033E-03
357	4.56	-6.795252E-04	-1.184113E-03
358	4.57	-6.715766E-04	-1.172276E-03
359	4.58	-6.637244E-04	-1.160524E-03
360	4.59	-6.559676E-04	-1.148857E-03
361	4.60	-6.483053E-04	-1.137277E-03
362	4.61	-6.407365E-04	-1.125785E-03
363	4.62	-6.332601E-04	-1.114382E-03
364	4.63	-6.258753E-04	-1.103068E-03
365	4.64	-6.185810E-04	-1.091845E-03
366	4.65	-6.113762E-04	-1.080713E-03
367	4.66	-6.042600E-04	-1.069673E-03
368	4.67	-5.972314E-04	-1.058725E-03
369	4.68	-5.902894E-04	-1.047869E-03
370	4.69	-5.834330E-04	-1.037107E-03
371	4.70	-5.766614E-04	-1.026439E-03
372	4.71	-5.699734E-04	-1.015863E-03
373	4.72	-5.633683E-04	-1.005382E-03
374	4.73	-5.568449E-04	-9.949949E-04
375	4.74	-5.504024E-04	-9.847017E-04
376	4.75	-5.440399E-04	-9.745026E-04
377	4.76	-5.377563E-04	-9.643976E-04
378	4.77	-5.315507E-04	-9.543866E-04
379	4.78	-5.254223E-04	-9.444696E-04
380	4.79	-5.193701E-04	-9.346463E-04
381	4.80	-5.133932E-04	-9.249167E-04
382	4.81	-5.074906E-04	-9.152804E-04
383	4.82	-5.016616E-04	-9.057372E-04
384	4.83	-4.959052E-04	-8.962869E-04
385	4.84	-4.902204E-04	-8.869291E-04
386	4.85	-4.846065E-04	-8.776635E-04
387	4.86	-4.790626E-04	-8.684896E-04
388	4.87	-4.735878E-04	-8.594072E-04
389	4.88	-4.681812E-04	-8.504157E-04
390	4.89	-4.628420E-04	-8.415148E-04
391	4.90	-4.575694E-04	-8.327038E-04
392	4.91	-4.523625E-04	-8.239825E-04
393	4.92	-4.472206E-04	-8.153502E-04
394	4.93	-4.421427E-04	-8.068064E-04
395	4.94	-4.371281E-04	-7.983506E-04
396	4.95	-4.321760E-04	-7.899823E-04
397	4.96	-4.272856E-04	-7.817007E-04
398	4.97	-4.224562E-04	-7.735055E-04
399	4.98	-4.176869E-04	-7.653959E-04
400	4.99	-4.129769E-04	-7.573714E-04
401	5.00	-4.083256E-04	-7.494313E-04
402	5.01	-4.037322E-04	-7.415750E-04
403	5.02	-3.991958E-04	-7.338019E-04
404	5.03	-3.947159E-04	-7.261114E-04
405	5.04	-3.902917E-04	-7.185027E-04
406	5.05	-3.859224E-04	-7.109752E-04
407	5.06	-3.816074E-04	-7.035283E-04
408	5.07	-3.773459E-04	-6.961612E-04
409	5.08	-3.731373E-04	-6.888734E-04
410	5.09	-3.689809E-04	-6.816641E-04
411	5.10	-3.648760E-04	-6.745326E-04
412	5.11	-3.608219E-04	-6.674783E-04
413	5.12	-3.568180E-04	-6.605005E-04
414	5.13	-3.528636E-04	-6.535984E-04
415	5.14	-3.489581E-04	-6.467714E-04
416	5.15	-3.451009E-04	-6.400189E-04
417	5.16	-3.412913E-04	-6.333400E-04
418	5.17	-3.375286E-04	-6.267341E-04
419	5.18	-3.338124E-04	-6.202006E-04
420	5.19	-3.301419E-04	-6.137386E-04
421	5.20	-3.265166E-04	-6.073476E-04
422	5.21	-3.229359E-04	-6.010269E-04
423	5.22	-3.193993E-04	-5.947756E-04
424	5.23	-3.159060E-04	-5.885933E-04
425	5.24	-3.124556E-04	-5.824791E-04
426	5.25	-3.090475E-04	-5.764324E-04
427	5.26	-3.056812E-04	-5.704525E-04
428	5.27	-3.023561E-04	-5.645387E-04
429	5.28	-2.990717E-04	-5.586903E-04
430	5.29	-2.958273E-04	-5.529068E-04
431	5.30	-2.926226E-04	-5.471873E-04
432	5.31	-2.894570E-04	-5.415313E-04
433	5.32	-2.863300E-04	-5.359380E-04
434	5.33	-2.832410E-04	-5.304068E-04
435	5.34	-2.801896E-04	-5.249371E-04
436	5.35	-2.771753E-04	-5.195282E-04
437	5.36	-2.741976E-04	-5.141794E-04
438	5.37	-2.712560E-04	-5.088902E-04
439	5.38	-2.683500E-04	-5.036598E-04
440	5.39	-2.654792E-04	-4.984876E-04
441	5.40	-2.626432E-04	-4.933730E-04
442	5.41	-2.598414E-04	-4.883154E-04
443	5.42	-2.570734E-04	-4.833141E-04
444	5.43	-2.543388E-04	-4.783686E-04
445	5.44	-2.516371E-04	-4.734782E-04
446	5.45	-2.489679E-04	-4.686423E-04
447	5.46	-2.463308E-04	-4.638602E-04
448	5.47	-2.437253E-04	-4.591315E-04
449	5.48	-2.411511E-04	-4.544556E-04
450	5.49	-2.386078E-04	-4.498317E-04
451	5.50	-2.360949E-04	-4.452594E-04
452	5.51	-2.336120E-04	-4.407380E-04
453	5.52	-2.311587E-04	-4.362670E-04
454	5.53	-2.287347E-04	-4.318459E-04
455	5.54	-2.263396E-04	-4.274740E-04
456	5.55	-2.239730E-04	-4.231508E-04
457	5.56	-2.216345E-04	-4.188758E-04
458	5.57	-2.193238E-04	-4.146484E-04
459	5.58	-2.170405E-04	-4.104680E-04
460	5.59	-2.147843E-04	-4.063342E-04
461	5.60	-2.125547E-04	-4.022463E-04
462	5.61	-2.103515E-04	-3.982040E-04
463	5.62	-2.081743E-04	-3.942065E-04
464	5.63	-2.060227E-04	-3.902535E-04
465	5.64	-2.038965E-04	-3.863445E-04
466	5.65	-2.017953E-04	-3.824788E-04
467	5.66	-1.997188E-04	-3.786561E-04
468	5.67	-1.976667E-04	-3.748757E-04
469	5.68	-1.956386E-04	-3.711374E-04
470	5.69	-1.936343E-04	-3.674404E-04
471	5.70	-1.916533E-04	-3.637844E-04
472	5.71	-1.896956E-04	-3.601690E-04
473	5.72	-1.877606E-04	-3.565935E-04
474	5.73	-1.858482E-04	-3.530576E-04
475	5.74	-1.839581E-04	-3.495608E-04
476	5.75	-1.820899E-04	-3.461027E-04
477	5.76	-1.802434E-04	-3.426827E-04
478	5.77	-1.784183E-04	-3.393005E-04
479	5.78	-1.766143E-04	-3.359556E-04
480	5.79	-1.748312E-04	-3.326476E-04
481	5.80	-1.730687E-04	-3.293760E-04
482	5.81	-1.713265E-04	-3.261404E-04
483	5.82	-1.696044E-04	-3.229405E-04
484	5.83	-1.679021E-04	-3.197757E-04
485	5.84	-1.662194E-04	-3.166457E-04
486	5.85	-1.645559E-04	-3.135501E-04
487	5.86	-1.629116E-04	-3.104884E-04
488	5.87	-1.612860E-04	-3.074603E-04
489	5.88	-1.596791E-04	-3.044654E-04
490	5.89	-1.580905E-04	-3.015033E-04
491	5.90	-1.565200E-04	-2.985736E-04
492	5.91	-1.549674E-04	-2.956759E-04
493	5.92	-1.534324E-04	-2.928098E-04
494	5.93	-1.519149E-04	-2.899750E-04
495	5.94	-1.504146E-04	-2.871711E-04
496	5.95	-1.489313E-04	-2.843978E-04
497	5.96	-1.474648E-04	-2.816547E-04
498	5.97	-1.460149E-04	-2.789414E-04
499	5.98	-1.445813E-04	-2.762576E-04
500	5.99	-1.431639E-04	-2.736029E-04
501	6.00	-1.417624E-04	-2.709771E-04
502	6.01	-1.403767E-04	-2.683797E-04
503	6.02	-1.390065E-04	-2.658104E-04
504	6.03	-1.376517E-04	-2.632690E-04
505	6.04	-1.363121E-04	-2.607550E-04
506	6.05	-1.349875E-04	-2.582681E-04
507	6.06	-1.336776E-04	-2.558082E-04
508	6.07	-1.323824E-04	-2.533747E-04
509	6.08	-1.311016E-04	-2.509674E-04
510	6.09	-1.298350E-04	-2.485861E-04
511	6.10	-1.285825E-04	-2.462303E-04
512	6.11	-1.273439E-04	-2.438999E-04
513	6.12	-1.261191E-04	-2.415944E-04
514	6.13	-1.249078E-04	-2.393137E-04
515	6.14	-1.237098E-04	-2.370574E-04
516	6.15	-1.225251E-04	-2.348252E-04
517	6.16	-1.213535E-04	-2.326169E-04
518	6.17	-1.201947E-04	-2.304322E-04
519	6.18	-1.190487E-04	-2.282708E-04
520	6.19	-1.179152E-04	-2.261324E-04
521	6.20	-1.167942E-04	-2.240168E-04
522	6.21	-1.156855E-04	-2.219237E-04
523	6.22	-1.145889E-04	-2.198528E-04
524	6.23	-1.135042E-04	-2.178039E-04
525	6.24	-1.124314E-04	-2.157768E-04
526	6.25	-1.113703E-04	-2.137711E-04
527	6.26	-1.103207E-04	-2.117866E-04
528	6.27	-1.092825E-04	-2.098231E-04
529	6.28	-1.082556E-04	-2.078803E-04
530	6.29	-1.072398E-04	-2.059581E-04
531	6.30	-1.062349E-04	-2.040561E-04
532	6.31	-1.052410E-04	-2.021741E-04
533	6.32	-1.042577E-04	-2.003119E-04
534	6.33	-1.032851E-04	-1.984692E-04
535	6.34	-1.023229E-04	-1.966459E-04
536	6.35	-1.013711E-04	-1.948417E-04
537	6.36	-1.004294E-04	-1.930564E-04
538	6.37	-9.949791E-05	-1.912898E-04
539	6.38	-9.857634E-05	-1.895416E-04
540	6.39	-9.766462E-05	-1.878116E-04
541	6.40	-9.676264E-05	-1.860997E-04
542	6.41	-9.587026E-05	-1.844056E-04
543	6.42	-9.498739E-05	-1.827292E-04
544	6.43	-9.411390E-05	-1.810702E-04
545	6.44	-9.324969E-05	-1.794283E-04
546	6.45	-9.239464E-05	-1.778035E-04
547	6.46	-9.154864E-05	-1.761956E-04
548	6.47	-9.071158E-05	-1.746042E-04
549	6.48	-8.988337E-05	-1.730293E-04
550	6.49	-8.906389E-05	-1.714707E-04
551	6.50	-8.825304E-05	-1.699281E-04
552	6.51	-8.745072E-05	-1.684014E-04
553	6.52	-8.665682E-05	-1.668904E-04
554	6.53	-8.587125E-05	-1.653949E-04
555	6.54	-8.509391E-05	-1.639148E-04
556	6.55	-8.432470E-05	-1.624499E-04
557	6.56	-8.356353E-05	-1.609999E-04
558	6.57	-8.281030E-05	-1.595648E-04
559	6.58	-8.206491E-05	-1.581444E-04
560	6.59	-8.132728E-05	-1.567384E-04
561	6.60	-8.059732E-05	-1.553468E-04
562	6.61	-7.987493E-05	-1.539693E-04
563	6.62	-7.916003E-05	-1.526058E-04
564	6.63	-7.845253E-05	-1.512562E-04
565	6.64	-7.775233E-05	-1.499203E-04
566	6.65	-7.705937E-05	-1.485980E-04
567	6.66	-7.637355E-05	-1.472890E-04
568	6.67	-7.569479E-05	-1.459932E-04
569	6.68	-7.502300E-05	-1.447105E-04
570	6.69	-7.435812E-05	-1.434408E-04
571	6.70	-7.370005E-05	-1.421839E-04
572	6.71	-7.304871E-05	-1.409396E-04
573	6.72	-7.240404E-05	-1.397078E-04
574	6.73	-7.176596E-05	-1.384884E-04
575	6.74	-7.113437E-05	-1.372812E-04
576	6.75	-7.050923E-05	-1.360861E-04
577	6.76	-6.989044E-05	-1.349030E-04
578	6.77	-6.927793E-05	-1.337317E-04
579	6.78	-6.867164E-05	-1.325720E-04
580	6.79	-6.807149E-05	-1.314240E-04
581	6.80	-6.747742E-05	-1.302873E-04
582	6.81	-6.688934E-05	-1.291620E-04
583	6.82	-6.630720E-05	-1.280479E-04
584	6.83	-6.573093E-05	-1.269448E-04
585	6.84	-6.516045E-05	-1.258526E-04
586	6.85	-6.459571E-05	-1.247713E-04
587	6.86	-6.403663E-05	-1.237006E-04
588	6.87	-6.348316E-05	-1.226405E-04
589	6.88	-6.293523E-05	-1.215909E-04
590	6.89	-6.239278E-05	-1.205516E-04
591	6.90	-6.185575E-05	-1.195226E-04
592	6.91	-6.132407E-05	-1.185036E-04
593	6.92	-6.079768E-05	-1.174947E-04
594	6.93	-6.027653E-05	-1.164956E-04
595	6.94	-5.976055E-05	-1.155064E-04
596	6.95	-5.924969E-05	-1.145268E-04
597	6.96	-5.874389E-05	-1.135567E-04
598	6.97	-5.824310E-05	-1.125962E-04
599	6.98	-5.774725E-05	-1.116450E-04
600	6.99	-5.725629E-05	-1.107031E-04
601	7.00	-5.677017E-05	-1.097703E-04
602	7.01	-5.628884E-05	-1.088466E-04
603	7.02	-5.581223E-05	-1.079318E-04
604	7.03	-5.534030E-05	-1.070260E-04
605	7.04	-5.487300E-05	-1.061288E-04
606	7.05	-5.441027E-05	-1.052404E-04
607	7.06	-5.395207E-05	-1.043605E-04
608	7.07	-5.349834E-05	-1.034891E-04
609	7.08	-5.304903E-05	-1.026261E-04
610	7.09	-5.260410E-05	-1.017714E-04
611	7.10	-5.216349E-05	-1.009250E-04
612	7.11	-5.172717E-05	-1.000866E-04
613	7.12	-5.129507E-05	-9.925627E-05
614	7.13	-5.086717E-05	-9.843390E-05
615	7.14	-5.044340E-05	-9.761939E-05
616	7.15	-5.002373E-05	-9.681266E-05
617	7.16	-4.960810E-05	-9.601362E-05
618	7.17	-4.919648E-05	-9.522219E-05
619	7.18	-4.878882E-05	-9.443830E-05
620	7.19	-4.838508E-05	-9.366186E-05
621	7.20	-4.798522E-05	-9.289279E-05
622	7.21	-4.758919E-05	-9.213101E-05
623	7.22	-4.719695E-05	-9.137645E-05
624	7.23	-4.680846E-05	-9.062902E-05
625	7.24	-4.642368E-05	-8.988865E-05
626	7.25	-4.604258E-05	-8.915528E-05
627	7.26	-4.566510E-05	-8.842881E-05
628	7.27	-4.529121E-05	-8.770918E-05
629	7.28	-4.492087E-05	-8.699632E-05
630	7.29	-4.455405E-05	-8.629016E-05
631	7.30	-4.419071E-05	-8.559061E-05
632	7.31	-4.383080E-05	-8.489762E-05
633	7.32	-4.347429E-05	-8.421112E-05
634	7.33	-4.312115E-05	-8.353103E-05
635	7.34	-4.277134E-05	-8.285729E-05
636	7.35	-4.242483E-05	-8.218984E-05
637	7.36	-4.208157E-05	-8.152860E-05
638	7.37	-4.174153E-05	-8.087351E-05
639	7.38	-4.140469E-05	-8.022450E-05
640	7.39	-4.107100E-05	-7.958152E-05
641	7.40	-4.074043E-05	-7.894450E-05
642	7.41	-4.041295E-05	-7.831337E-05
643	7.42	-4.008852E-05	-7.768808E-05
644	7.43	-3.976712E-05	-7.706857E-05
645	7.44	-3.944871E-05	-7.645476E-05
646	7.45	-3.913327E-05	-7.584662E-05
647	7.46	-3.882075E-05	-7.524407E-05
648	7.47	-3.851112E-05	-7.464706E-05
649	7.48	-3.820437E-05	-7.405553E-05
650	7.49	-3.790045E-05	-7.346942E-05
651	7.50	-3.759934E-05	-7.288868E-05
652	7.51	-3.730101E-05	-7.231325E-05
653	7.52	-3.700543E-05	-7.174308E-05
654	7.53	-3.671256E-05	-7.117811E-05
655	7.54	-3.642239E-05	-7.061829E-05
656	7.55	-3.613488E-05	-7.006357E-05
657	7.56	-3.585001E-05	-6.951389E-05
658	7.57	-3.556775E-05	-6.896921E-05
659	7.58	-3.528807E-05	-6.842946E-05
660	7.59	-3.501094E-05	-6.789461E-05
661	7.60	-3.473634E-05	-6.736460E-05
662	7.61	-3.446424E-05	-6.683937E-05
663	7.62	-3.419462E-05	-6.631889E-05
664	7.63	-3.392745E-05	-6.580310E-05
665	7.64	-3.366270E-05	-6.529196E-05
666	7.65	-3.340035E-05	-6.478542E-05
667	7.66	-3.314038E-05	-6.428342E-05
668	7.67	-3.288276E-05	-6.378593E-05
669	7.68	-3.262747E-05	-6.329291E-05
670	7.69	-3.237447E-05	-6.280429E-05
671	7.70	-3.212376E-05	-6.232005E-05
672	7.71	-3.187531E-05	-6.184013E-05
673	7.72	-3.162908E-05	-6.136449E-05
674	7.73	-3.138507E-05	-6.089309E-05
675	7.74	-3.114324E-05	-6.042589E-05
676	7.75	-3.090358E-05	-5.996284E-05
677	7.76	-3.066606E-05	-5.950390E-05
678	7.77	-3.043067E-05	-5.904904E-05
679	7.78	-3.019737E-05	-5.859820E-05
680	7.79	-2.996615E-05	-5.815135E-05
681	7.80	-2.973699E-05	-5.770845E-05
682	7.81	-2.950987E-05	-5.726946E-05
683	7.82	-2.928476E-05	-5.683434E-05
684	7.83	-2.906165E-05	-5.640306E-05
685	7.84	-2.884051E-05	-5.597556E-05
686	7.85	-2.862133E-05	-5.555182E-05
687	7.86	-2.840408E-05	-5.513181E-05
688	7.87	-2.818876E-05	-5.471547E-05
689	7.88	-2.797533E-05	-5.430278E-05
690	7.89	-2.776377E-05	-5.389369E-05
691	7.90	-2.755408E-05	-5.348819E-05
692	7.91	-2.734623E-05	-5.308621E-05
693	7.92	-2.714020E-05	-5.268774E-05
694	7.93	-2.693597E-05	-5.229274E-05
695	7.94	-2.673354E-05	-5.190118E-05
696	7.95	-2.653287E-05	-5.151301E-05
697	7.96	-2.633395E-05	-5.112821E-05
698	7.97	-2.613676E-05	-5.074675E-05
699	7.98	-2.594129E-05	-5.036858E-05
700	7.99	-2.574753E-05	-4.999369E-05
701	8.00	-2.555544E-05	-4.962203E-05
702	8.01	-2.536502E-05	-4.925357E-05
703	8.02	-2.517625E-05	-4.888829E-05
704	8.03	-2.498911E-05	-4.852616E-05
705	8.04	-2.480359E-05	-4.816713E-05
706	8.05	-2.461967E-05	-4.781119E-05
707	8.06	-2.443734E-05	-4.745829E-05
708	8.07	-2.425658E-05	-4.710842E-05
709	8.08	-2.407737E-05	-4.676155E-05
710	8.09	-2.389971E-05	-4.641763E-05
711	8.10	-2.372356E-05	-4.607665E-05
712	8.11	-2.354893E-05	-4.573858E-05
713	8.12	-2.337579E-05	-4.540339E-05
714	8.13	-2.320413E-05	-4.507104E-05
715	8.14	-2.303394E-05	-4.474152E-05
716	8.15	-2.286520E-05	-4.441480E-05
717	8.16	-2.269789E-05	-4.409084E-05
718	8.17	-2.253201E-05	-4.376963E-05
719	8.18	-2.236754E-05	-4.345113E-05
720	8.19	-2.220447E-05	-4.313533E-05
721	8.20	-2.204278E-05	-4.282219E-05
722	8.21	-2.188246E-05	-4.251168E-05
723	8.22	-2.172349E-05	-4.220379E-05
724	8.23	-2.156587E-05	-4.189849E-05
725	8.24	-2.140958E-05	-4.159575E-05
726	8.25	-2.125461E-05	-4.129555E-05
727	8.26	-2.110094E-05	-4.099787E-05
728	8.27	-2.094856E-05	-4.070268E-05
729	8.28	-2.079746E-05	-4.040996E-05
730	8.29	-2.064763E-05	-4.011968E-05
731	8.30	-2.049906E-05	-3.983182E-05
732	8.31	-2.035173E-05	-3.954636E-05
733	8.32	-2.020563E-05	-3.926327E-05
734	8.33	-2.006075E-05	-3.898254E-05
735	8.34	-1.991708E-05	-3.870414E-05
736	8.35	-1.977461E-05	-3.842805E-05
737	8.36	-1.963332E-05	-3.815424E-05
738	8.37	-1.949321E-05	-3.788270E-05
739	8.38	-1.935426E-05	-3.761341E-05
740	8.39	-1.921646E-05	-3.734633E-05
741	8.40	-1.907980E-05	-3.708146E-05
742	8.41	-1.894428E-05	-3.681878E-05
743	8.42	-1.880987E-05	-3.655825E-05
744	8.43	-1.867658E-05	-3.629987E-05
745	8.44	-1.854438E-05	-3.604360E-05
746	8.45	-1.841327E-05	-3.578944E-05
747	8.46	-1.828324E-05	-3.553736E-05
748	8.47	-1.815428E-05	-3.528734E-05
749	8.48	-1.802638E-05	-3.503937E-05
750	8.49	-1.789952E-05	-3.479341E-05
751	8.50	-1.777371E-05	-3.454947E-05
752	8.51	-1.764892E-05	-3.430751E-05
753	8.52	-1.752515E-05	-3.406752E-05
754	8.53	-1.740239E-05	-3.382948E-05
755	8.54	-1.728064E-05	-3.359338E-05
756	8.55	-1.715987E-05	-3.335918E-05
757	8.56	-1.704009E-05	-3.312689E-05
758	8.57	-1.692128E-05	-3.289647E-05
759	8.58	-1.680343E-05	-3.266792E-05
760	8.59	-1.668654E-05	-3.244121E-05
761	8.60	-1.657059E-05	-3.221633E-05
762	8.61	-1.645558E-05	-3.199326E-05
763	8.62	-1.634151E-05	-3.177199E-05
764	8.63	-1.622835E-05	-3.155249E-05
765	8.64	-1.611610E-05	-3.133476E-05
766	8.65	-1.600476E-05	-3.111877E-05
767	8.66	-1.589431E-05	-3.090451E-05
768	8.67	-1.578475E-05	-3.069197E-05
769	8.68	-1.567607E-05	-3.048113E-05
770	8.69	-1.556825E-05	-3.027197E-05
771	8.70	-1.546131E-05	-3.006447E-05
772	8.71	-1.535521E-05	-2.985863E-05
773	8.72	-1.524997E-05	-2.965443E-05
774	8.73	-1.514556E-05	-2.945185E-05
775	8.74	-1.504199E-05	-2.925089E-05
776	8.75	-1.493924E-05	-2.905151E-05
777	8.76	-1.483730E-05	-2.885371E-05
778	8.77	-1.473618E-05	-2.865748E-05
779	8.78	-1.463586E-05	-2.846280E-05
780	8.79	-1.453633E-05	-2.826966E-05
781	8.80	-1.443759E-05	-2.807804E-05
782	8.81	-1.433963E-05	-2.788793E-05
783	8.82	-1.424245E-05	-2.769932E-05
784	8.83	-1.414603E-05	-2.751219E-05
785	8.84	-1.405037E-05	-2.732653E-05
786	8.85	-1.395547E-05	-2.714233E-05
787	8.86	-1.386131E-05	-2.695957E-05
788	8.87	-1.376789E-05	-2.677824E-05
789	8.88	-1.367520E-05	-2.659833E-05
790	8.89	-1.358324E-05	-2.641982E-05
791	8.90	-1.349200E-05	-2.624271E-05
792	8.91	-1.340148E-05	-2.606698E-05
793	8.92	-1.331166E-05	-2.589261E-05
794	8.93	-1.322254E-05	-2.571961E-05
795	8.94	-1.313411E-05	-2.554794E-05
796	8.95	-1.304638E-05	-2.537761E-05
797	8.96	-1.295932E-05	-2.520860E-05
798	8.97	-1.287295E-05	-2.504090E-05
799	8.98	-1.278724E-05	-2.487449E-05
800	8.99	-1.270220E-05	-2.470937E-05
801	9.00	-1.261781E-05	-2.454553E-05
802	9.01	-1.253408E-05	-2.438295E-05
803	9.02	-1.245099E-05	-2.422162E-05
804	9.03	-1.236855E-05	-2.406153E-05
805	9.04	-1.228674E-05	-2.390268E-05
806	9.05	-1.220556E-05	-2.374504E-05
807	9.06	-1.212501E-05	-2.358861E-05
808	9.07	-1.204507E-05	-2.343338E-05
809	9.08	-1.196575E-05	-2.327934E-05
810	9.09	-1.188704E-05	-2.312648E-05
811	9.10	-1.180893E-05	-2.297478E-05
812	9.11	-1.173142E-05	-2.282424E-05
813	9.12	-1.165450E-05	-2.267485E-05
814	9.13	-1.157816E-05	-2.252659E-05
815	9.14	-1.150241E-05	-2.237947E-05
816	9.15	-1.142724E-05	-2.223346E-05
817	9.16	-1.135263E-05	-2.208856E-05
818	9.17	-1.127860E-05	-2.194475E-05
819	9.18	-1.120513E-05	-2.180204E-05
820	9.19	-1.113221E-05	-2.166041E-05
821	9.20	-1.105985E-05	-2.151984E-05
822	9.21	-1.098803E-05	-2.138034E-05
823	9.22	-1.091676E-05	-2.124189E-05
824	9.23	-1.084603E-05	-2.110448E-05
825	9.24	-1.077582E-05	-2.096811E-05
826	9.25	-1.070615E-05	-2.083276E-05
827	9.26	-1.063701E-05	-2.069843E-05
828	9.27	-1.056838E-05	-2.056510E-05
829	9.28	-1.050027E-05	-2.043278E-05
830	9.29	-1.043267E-05	-2.030144E-05
831	9.30	-1.036557E-05	-2.017109E-05
832	9.31	-1.029898E-05	-2.004171E-05
833	9.32	-1.023289E-05	-1.991329E-05
834	9.33	-1.016729E-05	-1.978584E-05
835	9.34	-1.010218E-05	-1.965933E-05
836	9.35	-1.003756E-05	-1.953376E-05
837	9.36	-9.973416E-06	-1.940913E-05
838	9.37	-9.909751E-06	-1.928542E-05
839	9.38	-9.846560E-06	-1.916263E-05
840	9.39	-9.783837E-06	-1.904075E-05
841	9.40	-9.721580E-06	-1.891977E-05
842	9.41	-9.659784E-06	-1.879969E-05
843	9.42	-9.598446E-06	-1.868049E-05
844	9.43	-9.537561E-06	-1.856217E-05
845	9.44	-9.477126E-06	-1.844473E-05
846	9.45	-9.417137E-06	-1.832814E-05
847	9.46	-9.357590E-06	-1.821242E-05
848	9.47	-9.298481E-06	-1.809755E-05
849	9.48	-9.239808E-06	-1.798352E-05
850	9.49	-9.181565E-06	-1.787032E-05
851	9.50	-9.123750E-06	-1.775795E-05
852	9.51	-9.066359E-06	-1.764641E-05
853	9.52	-9.009389E-06	-1.753568E-05
854	9.53	-8.952835E-06	-1.742576E-05
855	9.54	-8.896695E-06	-1.731665E-05
856	9.55	-8.840965E-06	-1.720832E-05
857	9.56	-8.785642E-06	-1.710079E-05
858	9.57	-8.730721E-06	-1.699404E-05
859	9.58	-8.676201E-06	-1.688806E-05
860	9.59	-8.622077E-06	-1.678285E-05
861	9.60	-8.568346E-06	-1.667841E-05
862	9.61	-8.515005E-06	-1.657472E-05
863	9.62	-8.462051E-06	-1.647178E-05
864	9.63	-8.409481E-06	-1.636959E-05
865	9.64	-8.357291E-06	-1.626813E-05
866	9.65	-8.305478E-06	-1.616741E-05
867	9.66	-8.254039E-06	-1.606741E-05
868	9.67	-8.202971E-06	-1.596813E-05
869	9.68	-8.152272E-06	-1.586957E-05
870	9.69	-8.101937E-06	-1.577171E-05
871	9.70	-8.051964E-06	-1.567456E-05
872	9.71	-8.002351E-06	-1.557810E-05
873	9.72	-7.953093E-06	-1.548233E-05
874	9.73	-7.904189E-06	-1.538725E-05
875	9.74	-7.855634E-06	-1.529285E-05
876	9.75	-7.807428E-06	-1.519912E-05
877	9.76	-7.759565E-06	-1.510606E-05
878	9.77	-7.712045E-06	-1.501367E-05
879	9.78	-7.664863E-06	-1.492193E-05
880	9.79	-7.618018E-06	-1.483084E-05
881	9.80	-7.571506E-06	-1.474041E-05
882	9.81	-7.525325E-06	-1.465061E-05
883	9.82	-7.479472E-06	-1.456145E-05
884	9.83	-7.433945E-06	-1.447292E-05
885	9.84	-7.388740E-06	-1.438502E-05
886	9.85	-7.343856E-06	-1.429774E-05
887	9.86	-7.299289E-06	-1.421108E-05
888	9.87	-7.255037E-06	-1.412503E-05
889	9.88	-7.211098E-06	-1.403958E-05
890	9.89	-7.167468E-06	-1.395474E-05
891	9.90	-7.124146E-06	-1.387049E-05
892	9.91	-7.081129E-06	-1.378684E-05
893	9.92	-7.038415E-06	-1.370377E-05
894	9.93	-6.996001E-06	-1.362128E-05
895	9.94	-6.953885E-06	-1.353938E-05
896	9.95	-6.912063E-06	-1.345804E-05
897	9.96	-6.870535E-06	-1.337728E-05
898	9.97	-6.829298E-06	-1.329708E-05
899	9.98	-6.788349E-06	-1.321744E-05
900	9.99	-6.747686E-06	-1.313835E-05
901	10.00	-6.707306E-06	-1.305982E-05
902	10.01	-6.667208E-06	-1.298183E-05
903	10.02	-6.627390E-06	-1.290439E-05
904	10.03	-6.587848E-06	-1.282748E-05
905	10.04	-6.548581E-06	-1.275110E-05
906	10.05	-6.509587E-06	-1.267526E-05
907	10.06	-6.470864E-06	-1.259994E-05
908	10.07	-6.432408E-06	-1.252514E-05
909	10.08	-6.394219E-06	-1.245086E-05
910	10.09	-6.356294E-06	-1.237709E-05
911	10.10	-6.318632E-06	-1.230383E-05
912	10.11	-6.281229E-06	-1.223108E-05
913	10.12	-6.244084E-06	-1.215883E-05
914	10.13	-6.207195E-06	-1.208707E-05
915	10.14	-6.170559E-06	-1.201581E-05
916	10.15	-6.134176E-06	-1.194503E-05
917	10.16	-6.098043E-06	-1.187474E-05
918	10.17	-6.062157E-06	-1.180493E-05
919	10.18	-6.026518E-06	-1.173561E-05
920	10.19	-5.991123E-06	-1.166675E-05
921	10.20	-5.955970E-06	-1.159836E-05
922	10.21	-5.921057E-06	-1.153045E-05
923	10.22	-5.886382E-06	-1.146299E-05
924	10.23	-5.851945E-06	-1.139600E-05
925	10.24	-5.817741E-06	-1.132946E-05
926	10.25	-5.783771E-06	-1.126337E-05
927	10.26	-5.750032E-06	-1.119773E-05
928	10.27	-5.716522E-06	-1.113254E-05
929	10.28	-5.683240E-06	-1.106779E-05
930	10.29	-5.650184E-06	-1.100347E-05
931	10.30	-5.617351E-06	-1.093960E-05
932	10.31	-5.584741E-06	-1.087615E-05
933	10.32	-5.552351E-06	-1.081313E-05
934	10.33	-5.520180E-06	-1.075054E-05
935	10.34	-5.488227E-06	-1.068837E-05
936	10.35	-5.456488E-06	-1.062662E-05
937	10.36	-5.424964E-06	-1.056529E-05
938	10.37	-5.393652E-06	-1.050436E-05
939	10.38	-5.362550E-06	-1.044385E-05
940	10.39	-5.331658E-06	-1.038374E-05
941	10.40	-5.300972E-06	-1.032403E-05
942	10.41	-5.270493E-06	-1.026473E-05
943	10.42	-5.240218E-06	-1.020582E-05
944	10.43	-5.210145E-06	-1.014730E-05
945	10.44	-5.180273E-06	-1.008918E-05
946	10.45	-5.150601E-06	-1.003144E-05
947	10.46	-5.121127E-06	-9.974091E-06
948	10.47	-5.091850E-06	-9.917120E-06
949	10.48	-5.062767E-06	-9.860529E-06
950	10.49	-5.033878E-06	-9.804314E-06
951	10.50	-5.005181E-06	-9.748472E-06
952	10.51	-4.976675E-06	-9.693001E-06
953	10.52	-4.948358E-06	-9.637897E-06
954	10.53	-4.920228E-06	-9.583158E-06
955	10.54	-4.892285E-06	-9.528781E-06
956	10.55	-4.864527E-06	-9.474764E-06
957	10.56	-4.836952E-06	-9.421103E-06
958	10.57	-4.809560E-06	-9.367796E-06
959	10.58	-4.782348E-06	-9.314840E-06
960	10.59	-4.755315E-06	-9.262233E-06
961	10.60	-4.728461E-06	-9.209972E-06
962	10.61	-4.701783E-06	-9.158055E-06
963	10.62	-4.675281E-06	-9.106478E-06
964	10.63	-4.648953E-06	-9.055240E-06
965	10.64	-4.622797E-06	-9.004337E-06
966	10.65	-4.596813E-06	-8.953768E-06
967	10.66	-4.570999E-06	-8.903530E-06
968	10.67	-4.545354E-06	-8.853619E-06
969	10.68	-4.519877E-06	-8.804035E-06
970	10.69	-4.494566E-06	-8.754774E-06
971	10.70	-4.469420E-06	-8.705835E-06
972	10.71	-4.444438E-06	-8.657213E-06
973	10.72	-4.419619E-06	-8.608908E-06
974	10.73	-4.394962E-06	-8.560918E-06
975	10.74	-4.370464E-06	-8.513238E-06
976	10.75	-4.346126E-06	-8.465868E-06
977	10.76	-4.321946E-06	-8.418805E-06
978	10.77	-4.297922E-06	-8.372047E-06
979	10.78	-4.274054E-06	-8.325591E-06
980	10.79	-4.250341E-06	-8.279436E-06
981	10.80	-4.226781E-06	-8.233578E-06
982	10.81	-4.203373E-06	-8.188017E-06
983	10.82	-4.180116E-06	-8.142749E-06
984	10.83	-4.157009E-06	-8.097772E-06
985	10.84	-4.134051E-06	-8.053085E-06
986	10.85	-4.111240E-06	-8.008685E-06
987	10.86	-4.088576E-06	-7.964571E-06
988	10.87	-4.066058E-06	-7.920739E-06
989	10.88	-4.043685E-06	-7.877189E-06
990	10.89	-4.021454E-06	-7.833917E-06
991	10.90	-3.999367E-06	-7.790922E-06
992	10.91	-3.977420E-06	-7.748202E-06
993	10.92	-3.955614E-06	-7.705755E-06
994	10.93	-3.933947E-06	-7.663579E-06
995	10.94	-3.912419E-06	-7.621672E-06
996	10.95	-3.891028E-06	-7.580032E-06
997	10.96	-3.869773E-06	-7.538656E-06
998	10.97	-3.848653E-06	-7.497544E-06
999	10.98	-3.827668E-06	-7.456693E-06
1000	10.99	-3.806816E-06	-7.416101E-06
1001	11.00	-3.786096E-06	-7.375767E-06
1002	11.01	-3.765508E-06	-7.335688E-06
1003	11.02	-3.745051E-06	-7.295863E-06
1004	11.03	-3.724722E-06	-7.256290E-06
1005	11.04	-3.704523E-06	-7.216967E-06
1006	11.05	-3.684451E-06	-7.177892E-06
1007	11.06	-3.664506E-06	-7.139064E-06
1008	11.07	-3.644686E-06	-7.100480E-06
1009	11.08	-3.624992E-06	-7.062139E-06
1010	11.09	-3.605421E-06	-7.024039E-06
1011	11.10	-3.585974E-06	-6.986179E-06
1012	11.11	-3.566649E-06	-6.948557E-06
1013	11.12	-3.547445E-06	-6.911170E-06
1014	11.13	-3.528362E-06	-6.874018E-06
1015	11.14	-3.509398E-06	-6.837099E-06
1016	11.15	-3.490553E-06	-6.800410E-06
1017	11.16	-3.471827E-06	-6.763951E-06
1018	11.17	-3.453217E-06	-6.727720E-06
1019	11.18	-3.434723E-06	-6.691715E-06
1020	11.19	-3.416345E-06	-6.655934E-06
1021	11.20	-3.398081E-06	-6.620376E-06
1022	11.21	-3.379932E-06	-6.585040E-06
1023	11.22	-3.361895E-06	-6.549923E-06
1024	11.23	-3.343970E-06	-6.515024E-06
1025	11.24	-3.326157E-06	-6.480342E-06
1026	11.25	-3.308454E-06	-6.445875E-06
1027	11.26	-3.290861E-06	-6.411622E-06
1028	11.27	-3.273378E-06	-6.377581E-06
1029	11.28	-3.256002E-06	-6.343750E-06
1030	11.29	-3.238734E-06	-6.310128E-06
1031	11.30	-3.221572E-06	-6.276714E-06
1032	11.31	-3.204517E-06	-6.243506E-06
1033	11.32	-3.187567E-06	-6.210503E-06
1034	11.33	-3.170721E-06	-6.177703E-06
1035	11.34	-3.153979E-06	-6.145105E-06
1036	11.35	-3.137340E-06	-6.112708E-06
1037	11.36	-3.120804E-06	-6.080509E-06
1038	11.37	-3.104369E-06	-6.048508E-06
1039	11.38	-3.088034E-06	-6.016703E-06
1040	11.39	-3.071800E-06	-5.985093E-06
1041	11.40	-3.055666E-06	-5.953676E-06
1042	11.41	-3.039630E-06	-5.922452E-06
1043	11.42	-3.023692E-06	-5.891418E-06
1044	11.43	-3.007852E-06	-5.860574E-06
1045	11.44	-2.992108E-06	-5.829918E-06
1046	11.45	-2.976461E-06	-5.799449E-06
1047	11.46	-2.960908E-06	-5.769165E-06
1048	11.47	-2.945451E-06	-5.739066E-06
1049	11.48	-2.930087E-06	-5.709150E-06
1050	11.49	-2.914817E-06	-5.679415E-06
1051	11.50	-2.899640E-06	-5.649861E-06
1052	11.51	-2.884555E-06	-5.620486E-06
1053	11.52	-2.869561E-06	-5.591288E-06
1054	11.53	-2.854658E-06	-5.562268E-06
1055	11.54	-2.839845E-06	-5.533423E-06
1056	11.55	-2.825122E-06	-5.504753E-06
1057	11.56	-2.810488E-06	-5.476255E-06
1058	11.57	-2.795942E-06	-5.447929E-06
1059	11.58	-2.781484E-06	-5.419775E-06
1060	11.59	-2.767113E-06	-5.391789E-06
1061	11.60	-2.752829E-06	-5.363972E-06
1062	11.61	-2.738630E-06	-5.336322E-06
1063	11.62	-2.724517E-06	-5.308839E-06
1064	11.63	-2.710489E-06	-5.281520E-06
1065	11.64	-2.696544E-06	-5.254365E-06
1066	11.65	-2.682684E-06	-5.227373E-06
1067	11.66	-2.668906E-06	-5.200542E-06
1068	11.67	-2.655211E-06	-5.173872E-06
1069	11.68	-2.641598E-06	-5.147361E-06
1070	11.69	-2.628066E-06	-5.121008E-06
1071	11.70	-2.614615E-06	-5.094813E-06
1072	11.71	-2.601244E-06	-5.068773E-06
1073	11.72	-2.587953E-06	-5.042889E-06
1074	11.73	-2.574741E-06	-5.017159E-06
1075	11.74	-2.561608E-06	-4.991582E-06
1076	11.75	-2.548553E-06	-4.966157E-06
1077	11.76	-2.535575E-06	-4.940882E-06
1078	11.77	-2.522674E-06	-4.915758E-06
1079	11.78	-2.509850E-06	-4.890782E-06
1080	11.79	-2.497102E-06	-4.865954E-06
1081	11.80	-2.484429E-06	-4.841273E-06
1082	11.81	-2.471831E-06	-4.816738E-06
1083	11.82	-2.459308E-06	-4.792348E-06
1084	11.83	-2.446858E-06	-4.768102E-06
1085	11.84	-2.434482E-06	-4.743999E-06
1086	11.85	-2.422179E-06	-4.720038E-06
1087	11.86	-2.409949E-06	-4.696217E-06
1088	11.87	-2.397790E-06	-4.672537E-06
1089	11.88	-2.385703E-06	-4.648996E-06
1090	11.89	-2.373687E-06	-4.625593E-06
1091	11.90	-2.361742E-06	-4.602328E-06
1092	11.91	-2.349866E-06	-4.579198E-06
1093	11.92	-2.338060E-06	-4.556205E-06
1094	11.93	-2.326324E-06	-4.533346E-06
1095	11.94	-2.314656E-06	-4.510620E-06
1096	11.95	-2.303056E-06	-4.488027E-06
1097	11.96	-2.291524E-06	-4.465566E-06
1098	11.97	-2.280059E-06	-4.443236E-06
1099	11.98	-2.268661E-06	-4.421036E-06
1100	11.99	-2.257330E-06	-4.398966E-06
1101	12.00	-2.246064E-06	-4.377024E-06
1102	12.01	-2.234864E-06	-4.355209E-06
1103	12.02	-2.223729E-06	-4.333521E-06
1104	12.03	-2.212659E-06	-4.311959E-06
1105	12.04	-2.201653E-06	-4.290522E-06
1106	12.05	-2.190711E-06	-4.269209E-06
1107	12.06	-2.179832E-06	-4.248020E-06
1108	12.07	-2.169016E-06	-4.226953E-06
1109	12.08	-2.158263E-06	-4.206007E-06
1110	12.09	-2.147572E-06	-4.185183E-06
1111	12.10	-2.136942E-06	-4.164479E-06
1112	12.11	-2.126374E-06	-4.143894E-06
1113	12.12	-2.115867E-06	-4.123428E-06
1114	12.13	-2.105420E-06	-4.103080E-06
1115	12.14	-2.095034E-06	-4.082848E-06
1116	12.15	-2.084707E-06	-4.062733E-06
1117	12.16	-2.074439E-06	-4.042734E-06
1118	12.17	-2.064231E-06	-4.022849E-06
1119	12.18	-2.054081E-06	-4.003078E-06
1120	12.19	-2.043989E-06	-3.983420E-06
1121	12.20	-2.033955E-06	-3.963875E-06
1122	12.21	-2.023978E-06	-3.944442E-06
1123	12.22	-2.014058E-06	-3.925119E-06
1124	12.23	-2.004195E-06	-3.905907E-06
1125	12.24	-1.994389E-06	-3.886805E-06
1126	12.25	-1.984638E-06	-3.867811E-06
1127	12.26	-1.974943E-06	-3.848926E-06
1128	12.27	-1.965303E-06	-3.830148E-06
1129	12.28	-1.955718E-06	-3.811476E-06
1130	12.29	-1.946187E-06	-3.792911E-06
1131	12.30	-1.936711E-06	-3.774451E-06
1132	12.31	-1.927288E-06	-3.756096E-06
1133	12.32	-1.917919E-06	-3.737845E-06
1134	12.33	-1.908603E-06	-3.719698E-06
1135	12.34	-1.899339E-06	-3.701653E-06
1136	12.35	-1.890128E-06	-3.683710E-06
1137	12.36	-1.880969E-06	-3.665868E-06
1138	12.37	-1.871862E-06	-3.648127E-06
1139	12.38	-1.862806E-06	-3.630486E-06
1140	12.39	-1.853802E-06	-3.612945E-06
1141	12.40	-1.844848E-06	-3.595502E-06
1142	12.41	-1.835944E-06	-3.578158E-06
1143	12.42	-1.827091E-06	-3.560910E-06
1144	12.43	-1.818287E-06	-3.543760E-06
1145	12.44	-1.809532E-06	-3.526706E-06
1146	12.45	-1.800827E-06	-3.509748E-06
1147	12.46	-1.792171E-06	-3.492885E-06
1148	12.47	-1.783563E-06	-3.476116E-06
1149	12.48	-1.775003E-06	-3.459441E-06
1150	12.49	-1.766492E-06	-3.442860E-06
1151	12.50	-1.758027E-06	-3.426370E-06
1152	12.51	-1.749611E-06	-3.409973E-06
1153	12.52	-1.741241E-06	-3.393668E-06
1154	12.53	-1.732917E-06	-3.377453E-06
1155	12.54	-1.724640E-06	-3.361329E-06
1156	12.55	-1.716410E-06	-3.345294E-06
1157	12.56	-1.708225E-06	-3.329348E-06
1158	12.57	-1.700085E-06	-3.313491E-06
1159	12.58	-1.691991E-06	-3.297722E-06
1160	12.59	-1.683941E-06	-3.282041E-06
1161	12.60	-1.675936E-06	-3.266446E-06
1162	12.61	-1.667976E-06	-3.250938E-06
1163	12.62	-1.660060E-06	-3.235515E-06
1164	12.63	-1.652187E-06	-3.220178E-06
1165	12.64	-1.644358E-06	-3.204926E-06
1166	12.65	-1.636572E-06	-3.189758E-06
1167	12.66	-1.628829E-06	-3.174673E-06
1168	12.67	-1.621129E-06	-3.159672E-06
1169	12.68	-1.613472E-06	-3.144753E-06
1170	12.69	-1.605856E-06	-3.129916E-06
1171	12.70	-1.598283E-06	-3.115161E-06
1172	12.71	-1.590751E-06	-3.100487E-06
1173	12.72	-1.583260E-06	-3.085893E-06
1174	12.73	-1.575810E-06	-3.071380E-06
1175	12.74	-1.568402E-06	-3.056946E-06
1176	12.75	-1.561034E-06	-3.042591E-06
1177	12.76	-1.553706E-06	-3.028315E-06
1178	12.77	-1.546418E-06	-3.014117E-06
1179	12.78	-1.539171E-06	-2.999996E-06
1180	12.79	-1.531963E-06	-2.985953E-06
1181	12.80	-1.524794E-06	-2.971986E-06
1182	12.81	-1.517664E-06	-2.958095E-06
1183	12.82	-1.510573E-06	-2.944280E-06
1184	12.83	-1.503521E-06	-2.930540E-06
1185	12.84	-1.496507E-06	-2.916875E-06
1186	12.85	-1.489531E-06	-2.903284E-06
1187	12.86	-1.482594E-06	-2.889767E-06
1188	12.87	-1.475694E-06	-2.876323E-06
1189	12.88	-1.468831E-06	-2.862952E-06
1190	12.89	-1.462005E-06	-2.849654E-06
1191	12.90	-1.455217E-06	-2.836427E-06
1192	12.91	-1.448465E-06	-2.823273E-06
1193	12.92	-1.441750E-06	-2.810189E-06
1194	12.93	-1.435071E-06	-2.797176E-06
1195	12.94	-1.428428E-06	-2.784233E-06
1196	12.95	-1.421821E-06	-2.771360E-06
1197	12.96	-1.415249E-06	-2.758556E-06
1198	12.97	-1.408713E-06	-2.745822E-06
1199	12.98	-1.402212E-06	-2.733155E-06
1200	12.99	-1.395747E-06	-2.720557E-06
