# DATE: 2024-07-07  UNITS: metal  CONTRIBUTOR: By STUDENT			
# FHEP: Temp 77 [K], mr 0.923076923076923 [g/mol], Sigma 3.075 [A], Epsilon 0.00198086233137388 [eV]			
			
ENTRY			
N 1200 R 1.0 12.99			
			
1	1.00	2.674119E+04	3.173076E+05
2	1.01	2.336208E+04	2.738861E+05
3	1.02	2.043846E+04	2.367632E+05
4	1.03	1.790517E+04	2.049748E+05
5	1.04	1.570693E+04	1.777122E+05
6	1.05	1.379670E+04	1.542951E+05
7	1.06	1.213444E+04	1.341512E+05
8	1.07	1.068596E+04	1.167973E+05
9	1.08	9.422090E+03	1.018255E+05
10	1.09	8.317834E+03	8.889041E+04
11	1.10	7.351789E+03	7.769948E+04
12	1.11	6.505581E+03	6.800425E+04
13	1.12	5.763419E+03	5.959355E+04
14	1.13	5.111712E+03	5.228754E+04
15	1.14	4.538746E+03	4.593289E+04
16	1.15	4.034411E+03	4.039868E+04
17	1.16	3.589971E+03	3.557292E+04
18	1.17	3.197864E+03	3.135975E+04
19	1.18	2.851541E+03	2.767694E+04
20	1.19	2.545317E+03	2.445388E+04
21	1.20	2.274256E+03	2.162988E+04
22	1.21	2.034065E+03	1.915266E+04
23	1.22	1.821004E+03	1.697719E+04
24	1.23	1.631814E+03	1.506456E+04
25	1.24	1.463650E+03	1.338117E+04
26	1.25	1.314027E+03	1.189794E+04
27	1.26	1.180768E+03	1.058967E+04
28	1.27	1.061970E+03	9.434528E+03
29	1.28	9.559633E+02	8.413524E+03
30	1.29	8.612812E+02	7.510165E+03
31	1.30	7.766364E+02	6.710095E+03
32	1.31	7.008961E+02	6.000804E+03
33	1.32	6.330631E+02	5.371380E+03
34	1.33	5.722585E+02	4.812294E+03
35	1.34	5.177069E+02	4.315217E+03
36	1.35	4.687234E+02	3.872860E+03
37	1.36	4.247029E+02	3.478837E+03
38	1.37	3.851097E+02	3.127550E+03
39	1.38	3.494695E+02	2.814085E+03
40	1.39	3.173621E+02	2.534123E+03
41	1.40	2.884142E+02	2.283867E+03
42	1.41	2.622946E+02	2.059973E+03
43	1.42	2.387090E+02	1.859496E+03
44	1.43	2.173953E+02	1.679837E+03
45	1.44	1.981203E+02	1.518702E+03
46	1.45	1.806763E+02	1.374064E+03
47	1.46	1.648778E+02	1.244131E+03
48	1.47	1.505594E+02	1.127315E+03
49	1.48	1.375733E+02	1.022211E+03
50	1.49	1.257874E+02	9.275723E+02
51	1.50	1.150833E+02	8.422917E+02
52	1.51	1.053553E+02	7.653867E+02
53	1.52	9.650840E+01	6.959835E+02
54	1.53	8.845754E+01	6.333047E+02
55	1.54	8.112634E+01	5.766581E+02
56	1.55	7.444620E+01	5.254268E+02
57	1.56	6.835546E+01	4.790607E+02
58	1.57	6.279867E+01	4.370687E+02
59	1.58	5.772591E+01	3.990122E+02
60	1.59	5.309220E+01	3.644989E+02
61	1.60	4.885702E+01	3.331783E+02
62	1.61	4.498381E+01	3.047362E+02
63	1.62	4.143958E+01	2.788913E+02
64	1.63	3.819450E+01	2.553913E+02
65	1.64	3.522166E+01	2.340099E+02
66	1.65	3.249669E+01	2.145439E+02
67	1.66	2.999754E+01	1.968108E+02
68	1.67	2.770425E+01	1.806463E+02
69	1.68	2.559873E+01	1.659029E+02
70	1.69	2.366458E+01	1.524475E+02
71	1.70	2.188692E+01	1.401604E+02
72	1.71	2.025224E+01	1.289336E+02
73	1.72	1.874827E+01	1.186697E+02
74	1.73	1.736387E+01	1.092807E+02
75	1.74	1.608889E+01	1.006872E+02
76	1.75	1.491411E+01	9.281744E+01
77	1.76	1.383112E+01	8.560649E+01
78	1.77	1.283228E+01	7.899560E+01
79	1.78	1.191061E+01	7.293158E+01
80	1.79	1.105975E+01	6.736623E+01
81	1.80	1.027389E+01	6.225584E+01
82	1.81	9.547747E+00	5.756080E+01
83	1.82	8.876474E+00	5.324512E+01
84	1.83	8.255648E+00	4.927613E+01
85	1.84	7.681227E+00	4.562415E+01
86	1.85	7.149512E+00	4.226218E+01
87	1.86	6.657116E+00	3.916568E+01
88	1.87	6.200938E+00	3.631229E+01
89	1.88	5.778139E+00	3.368167E+01
90	1.89	5.386113E+00	3.125527E+01
91	1.90	5.022473E+00	2.901618E+01
92	1.91	4.685028E+00	2.694898E+01
93	1.92	4.371765E+00	2.503960E+01
94	1.93	4.080838E+00	2.327518E+01
95	1.94	3.810549E+00	2.164399E+01
96	1.95	3.559338E+00	2.013530E+01
97	1.96	3.325770E+00	1.873929E+01
98	1.97	3.108524E+00	1.744698E+01
99	1.98	2.906386E+00	1.625016E+01
100	1.99	2.718236E+00	1.514130E+01
101	2.00	2.543042E+00	1.411349E+01
102	2.01	2.379856E+00	1.316043E+01
103	2.02	2.227799E+00	1.227630E+01
104	2.03	2.086065E+00	1.145578E+01
105	2.04	1.953907E+00	1.069400E+01
106	2.05	1.830636E+00	9.986469E+00
107	2.06	1.715616E+00	9.329058E+00
108	2.07	1.608260E+00	8.717980E+00
109	2.08	1.508024E+00	8.149751E+00
110	2.09	1.414406E+00	7.621164E+00
111	2.10	1.326941E+00	7.129267E+00
112	2.11	1.245200E+00	6.671343E+00
113	2.12	1.168783E+00	6.244887E+00
114	2.13	1.097323E+00	5.847591E+00
115	2.14	1.030477E+00	5.477327E+00
116	2.15	9.679299E-01	5.132133E+00
117	2.16	9.093869E-01	4.810196E+00
118	2.17	8.545762E-01	4.509845E+00
119	2.18	8.032450E-01	4.229535E+00
120	2.19	7.551590E-01	3.967839E+00
121	2.20	7.101004E-01	3.723438E+00
122	2.21	6.678670E-01	3.495112E+00
123	2.22	6.282710E-01	3.281733E+00
124	2.23	5.911378E-01	3.082257E+00
125	2.24	5.563049E-01	2.895718E+00
126	2.25	5.236214E-01	2.721221E+00
127	2.26	4.929468E-01	2.557935E+00
128	2.27	4.641504E-01	2.405094E+00
129	2.28	4.371104E-01	2.261983E+00
130	2.29	4.117134E-01	2.127944E+00
131	2.30	3.878539E-01	2.002361E+00
132	2.31	3.654334E-01	1.884667E+00
133	2.32	3.443602E-01	1.774333E+00
134	2.33	3.245488E-01	1.670869E+00
135	2.34	3.059194E-01	1.573818E+00
136	2.35	2.883975E-01	1.482756E+00
137	2.36	2.719137E-01	1.397290E+00
138	2.37	2.564031E-01	1.317054E+00
139	2.38	2.418051E-01	1.241706E+00
140	2.39	2.280632E-01	1.170929E+00
141	2.40	2.151245E-01	1.104428E+00
142	2.41	2.029395E-01	1.041928E+00
143	2.42	1.914621E-01	9.831716E-01
144	2.43	1.806492E-01	9.279211E-01
145	2.44	1.704601E-01	8.759537E-01
146	2.45	1.608572E-01	8.270616E-01
147	2.46	1.518051E-01	7.810512E-01
148	2.47	1.432706E-01	7.377418E-01
149	2.48	1.352227E-01	6.969648E-01
150	2.49	1.276324E-01	6.585628E-01
151	2.50	1.204723E-01	6.223888E-01
152	2.51	1.137171E-01	5.883052E-01
153	2.52	1.073427E-01	5.561838E-01
154	2.53	1.013267E-01	5.259046E-01
155	2.54	9.564816E-02	4.973554E-01
156	2.55	9.028725E-02	4.704312E-01
157	2.56	8.522549E-02	4.450339E-01
158	2.57	8.044549E-02	4.210717E-01
159	2.58	7.593094E-02	3.984584E-01
160	2.59	7.166651E-02	3.771135E-01
161	2.60	6.763781E-02	3.569617E-01
162	2.61	6.383133E-02	3.379324E-01
163	2.62	6.023435E-02	3.199591E-01
164	2.63	5.683494E-02	3.029800E-01
165	2.64	5.362188E-02	2.869368E-01
166	2.65	5.058461E-02	2.717748E-01
167	2.66	4.771319E-02	2.574430E-01
168	2.67	4.499831E-02	2.438933E-01
169	2.68	4.243116E-02	2.310805E-01
170	2.69	4.000348E-02	2.189624E-01
171	2.70	3.770748E-02	2.074991E-01
172	2.71	3.553584E-02	1.966534E-01
173	2.72	3.348165E-02	1.863901E-01
174	2.73	3.153842E-02	1.766762E-01
175	2.74	2.970001E-02	1.674808E-01
176	2.75	2.796067E-02	1.587748E-01
177	2.76	2.631494E-02	1.505306E-01
178	2.77	2.475772E-02	1.427226E-01
179	2.78	2.328415E-02	1.353265E-01
180	2.79	2.188968E-02	1.283194E-01
181	2.80	2.057002E-02	1.216799E-01
182	2.81	1.932111E-02	1.153876E-01
183	2.82	1.813912E-02	1.094237E-01
184	2.83	1.702045E-02	1.037701E-01
185	2.84	1.596167E-02	9.840989E-02
186	2.85	1.495959E-02	9.332716E-02
187	2.86	1.401115E-02	8.850688E-02
188	2.87	1.311348E-02	8.393489E-02
189	2.88	1.226389E-02	7.959783E-02
190	2.89	1.145981E-02	7.548311E-02
191	2.90	1.069881E-02	7.157885E-02
192	2.91	9.978626E-03	6.787383E-02
193	2.92	9.297081E-03	6.435747E-02
194	2.93	8.652138E-03	6.101978E-02
195	2.94	8.041866E-03	5.785133E-02
196	2.95	7.464439E-03	5.484322E-02
197	2.96	6.918132E-03	5.198702E-02
198	2.97	6.401309E-03	4.927479E-02
199	2.98	5.912428E-03	4.669903E-02
200	2.99	5.450025E-03	4.425263E-02
201	3.00	5.012717E-03	4.192888E-02
202	3.01	4.599195E-03	3.972145E-02
203	3.02	4.208219E-03	3.762433E-02
204	3.03	3.838617E-03	3.563185E-02
205	3.04	3.489277E-03	3.373864E-02
206	3.05	3.159148E-03	3.193963E-02
207	3.06	2.847232E-03	3.023001E-02
208	3.07	2.552587E-03	2.860523E-02
209	3.08	2.274319E-03	2.706099E-02
210	3.09	2.011580E-03	2.559321E-02
211	3.10	1.763569E-03	2.419803E-02
212	3.11	1.529523E-03	2.287179E-02
213	3.12	1.308723E-03	2.161104E-02
214	3.13	1.100486E-03	2.041248E-02
215	3.14	9.041626E-04	1.927302E-02
216	3.15	7.191400E-04	1.818969E-02
217	3.16	5.448355E-04	1.715972E-02
218	3.17	3.806969E-04	1.618044E-02
219	3.18	2.262004E-04	1.524935E-02
220	3.19	8.084945E-05	1.436407E-02
221	3.20	-5.582731E-05	1.352234E-02
222	3.21	-1.842769E-04	1.272200E-02
223	3.22	-3.049233E-04	1.196104E-02
224	3.23	-4.181692E-04	1.123752E-02
225	3.24	-5.243962E-04	1.054961E-02
226	3.25	-6.239669E-04	9.895565E-03
227	3.26	-7.172253E-04	9.273741E-03
228	3.27	-8.044977E-04	8.682570E-03
229	3.28	-8.860943E-04	8.120562E-03
230	3.29	-9.623090E-04	7.586304E-03
231	3.30	-1.033421E-03	7.078454E-03
232	3.31	-1.099697E-03	6.595735E-03
233	3.32	-1.161386E-03	6.136937E-03
234	3.33	-1.218730E-03	5.700906E-03
235	3.34	-1.271954E-03	5.286549E-03
236	3.35	-1.321275E-03	4.892825E-03
237	3.36	-1.366897E-03	4.518744E-03
238	3.37	-1.409015E-03	4.163367E-03
239	3.38	-1.447814E-03	3.825799E-03
240	3.39	-1.483469E-03	3.505189E-03
241	3.40	-1.516147E-03	3.200729E-03
242	3.41	-1.546006E-03	2.911649E-03
243	3.42	-1.573197E-03	2.637218E-03
244	3.43	-1.597863E-03	2.376738E-03
245	3.44	-1.620139E-03	2.129547E-03
246	3.45	-1.640155E-03	1.895014E-03
247	3.46	-1.658033E-03	1.672540E-03
248	3.47	-1.673890E-03	1.461553E-03
249	3.48	-1.687836E-03	1.261508E-03
250	3.49	-1.699977E-03	1.071888E-03
251	3.50	-1.710412E-03	8.922008E-04
252	3.51	-1.719236E-03	7.219755E-04
253	3.52	-1.726541E-03	5.607656E-04
254	3.53	-1.732410E-03	4.081450E-04
255	3.54	-1.736926E-03	2.637081E-04
256	3.55	-1.740167E-03	1.270684E-04
257	3.56	-1.742204E-03	-2.142235E-06
258	3.57	-1.743110E-03	-1.242746E-04
259	3.58	-1.742949E-03	-2.396629E-04
260	3.59	-1.741785E-03	-3.486258E-04
261	3.60	-1.739677E-03	-4.514669E-04
262	3.61	-1.736684E-03	-5.484754E-04
263	3.62	-1.732857E-03	-6.399271E-04
264	3.63	-1.728250E-03	-7.260851E-04
265	3.64	-1.722910E-03	-8.071998E-04
266	3.65	-1.716885E-03	-8.835104E-04
267	3.66	-1.710217E-03	-9.552445E-04
268	3.67	-1.702949E-03	-1.022620E-03
269	3.68	-1.695120E-03	-1.085843E-03
270	3.69	-1.686768E-03	-1.145111E-03
271	3.70	-1.677928E-03	-1.200614E-03
272	3.71	-1.668635E-03	-1.252530E-03
273	3.72	-1.658920E-03	-1.301032E-03
274	3.73	-1.648815E-03	-1.346282E-03
275	3.74	-1.638348E-03	-1.388437E-03
276	3.75	-1.627546E-03	-1.427645E-03
277	3.76	-1.616436E-03	-1.464048E-03
278	3.77	-1.605042E-03	-1.497783E-03
279	3.78	-1.593388E-03	-1.528977E-03
280	3.79	-1.581495E-03	-1.557755E-03
281	3.80	-1.569386E-03	-1.584233E-03
282	3.81	-1.557080E-03	-1.608525E-03
283	3.82	-1.544595E-03	-1.630738E-03
284	3.83	-1.531950E-03	-1.650972E-03
285	3.84	-1.519161E-03	-1.669327E-03
286	3.85	-1.506245E-03	-1.685895E-03
287	3.86	-1.493217E-03	-1.700765E-03
288	3.87	-1.480091E-03	-1.714022E-03
289	3.88	-1.466881E-03	-1.725746E-03
290	3.89	-1.453599E-03	-1.736016E-03
291	3.90	-1.440257E-03	-1.744904E-03
292	3.91	-1.426868E-03	-1.752481E-03
293	3.92	-1.413442E-03	-1.758815E-03
294	3.93	-1.399988E-03	-1.763968E-03
295	3.94	-1.386518E-03	-1.768003E-03
296	3.95	-1.373038E-03	-1.770978E-03
297	3.96	-1.359560E-03	-1.772948E-03
298	3.97	-1.346089E-03	-1.773966E-03
299	3.98	-1.332635E-03	-1.774084E-03
300	3.99	-1.319203E-03	-1.773350E-03
301	4.00	-1.305801E-03	-1.771809E-03
302	4.01	-1.292435E-03	-1.769507E-03
303	4.02	-1.279111E-03	-1.766484E-03
304	4.03	-1.265834E-03	-1.762782E-03
305	4.04	-1.252610E-03	-1.758438E-03
306	4.05	-1.239443E-03	-1.753490E-03
307	4.06	-1.226338E-03	-1.747971E-03
308	4.07	-1.213300E-03	-1.741915E-03
309	4.08	-1.200331E-03	-1.735354E-03
310	4.09	-1.187436E-03	-1.728319E-03
311	4.10	-1.174618E-03	-1.720837E-03
312	4.11	-1.161881E-03	-1.712937E-03
313	4.12	-1.149227E-03	-1.704645E-03
314	4.13	-1.136659E-03	-1.695985E-03
315	4.14	-1.124180E-03	-1.686982E-03
316	4.15	-1.111791E-03	-1.677659E-03
317	4.16	-1.099495E-03	-1.668036E-03
318	4.17	-1.087294E-03	-1.658136E-03
319	4.18	-1.075190E-03	-1.647977E-03
320	4.19	-1.063184E-03	-1.637578E-03
321	4.20	-1.051278E-03	-1.626957E-03
322	4.21	-1.039472E-03	-1.616132E-03
323	4.22	-1.027769E-03	-1.605118E-03
324	4.23	-1.016169E-03	-1.593930E-03
325	4.24	-1.004673E-03	-1.582584E-03
326	4.25	-9.932819E-04	-1.571094E-03
327	4.26	-9.819965E-04	-1.559473E-03
328	4.27	-9.708173E-04	-1.547733E-03
329	4.28	-9.597447E-04	-1.535886E-03
330	4.29	-9.487793E-04	-1.523945E-03
331	4.30	-9.379212E-04	-1.511920E-03
332	4.31	-9.271707E-04	-1.499820E-03
333	4.32	-9.165279E-04	-1.487658E-03
334	4.33	-9.059930E-04	-1.475440E-03
335	4.34	-8.955659E-04	-1.463177E-03
336	4.35	-8.852465E-04	-1.450877E-03
337	4.36	-8.750347E-04	-1.438548E-03
338	4.37	-8.649304E-04	-1.426197E-03
339	4.38	-8.549332E-04	-1.413831E-03
340	4.39	-8.450430E-04	-1.401458E-03
341	4.40	-8.352593E-04	-1.389085E-03
342	4.41	-8.255818E-04	-1.376716E-03
343	4.42	-8.160100E-04	-1.364358E-03
344	4.43	-8.065434E-04	-1.352016E-03
345	4.44	-7.971817E-04	-1.339696E-03
346	4.45	-7.879242E-04	-1.327402E-03
347	4.46	-7.787703E-04	-1.315139E-03
348	4.47	-7.697194E-04	-1.302912E-03
349	4.48	-7.607710E-04	-1.290724E-03
350	4.49	-7.519243E-04	-1.278579E-03
351	4.50	-7.431787E-04	-1.266482E-03
352	4.51	-7.345335E-04	-1.254435E-03
353	4.52	-7.259879E-04	-1.242442E-03
354	4.53	-7.175412E-04	-1.230505E-03
355	4.54	-7.091926E-04	-1.218628E-03
356	4.55	-7.009414E-04	-1.206814E-03
357	4.56	-6.927867E-04	-1.195064E-03
358	4.57	-6.847279E-04	-1.183381E-03
359	4.58	-6.767639E-04	-1.171768E-03
360	4.59	-6.688941E-04	-1.160225E-03
361	4.60	-6.611175E-04	-1.148756E-03
362	4.61	-6.534334E-04	-1.137362E-03
363	4.62	-6.458408E-04	-1.126044E-03
364	4.63	-6.383390E-04	-1.114804E-03
365	4.64	-6.309269E-04	-1.103644E-03
366	4.65	-6.236039E-04	-1.092564E-03
367	4.66	-6.163690E-04	-1.081566E-03
368	4.67	-6.092213E-04	-1.070651E-03
369	4.68	-6.021599E-04	-1.059820E-03
370	4.69	-5.951839E-04	-1.049073E-03
371	4.70	-5.882926E-04	-1.038412E-03
372	4.71	-5.814849E-04	-1.027837E-03
373	4.72	-5.747600E-04	-1.017349E-03
374	4.73	-5.681171E-04	-1.006948E-03
375	4.74	-5.615551E-04	-9.966347E-04
376	4.75	-5.550734E-04	-9.864096E-04
377	4.76	-5.486708E-04	-9.762730E-04
378	4.77	-5.423467E-04	-9.662252E-04
379	4.78	-5.361001E-04	-9.562663E-04
380	4.79	-5.299302E-04	-9.463966E-04
381	4.80	-5.238360E-04	-9.366160E-04
382	4.81	-5.178168E-04	-9.269248E-04
383	4.82	-5.118716E-04	-9.173228E-04
384	4.83	-5.059996E-04	-9.078101E-04
385	4.84	-5.001999E-04	-8.983866E-04
386	4.85	-4.944718E-04	-8.890521E-04
387	4.86	-4.888144E-04	-8.798065E-04
388	4.87	-4.832267E-04	-8.706496E-04
389	4.88	-4.777081E-04	-8.615811E-04
390	4.89	-4.722577E-04	-8.526008E-04
391	4.90	-4.668746E-04	-8.437084E-04
392	4.91	-4.615581E-04	-8.349037E-04
393	4.92	-4.563074E-04	-8.261861E-04
394	4.93	-4.511216E-04	-8.175554E-04
395	4.94	-4.459999E-04	-8.090111E-04
396	4.95	-4.409417E-04	-8.005529E-04
397	4.96	-4.359460E-04	-7.921803E-04
398	4.97	-4.310122E-04	-7.838928E-04
399	4.98	-4.261395E-04	-7.756900E-04
400	4.99	-4.213271E-04	-7.675714E-04
401	5.00	-4.165743E-04	-7.595364E-04
402	5.01	-4.118802E-04	-7.515845E-04
403	5.02	-4.072443E-04	-7.437152E-04
404	5.03	-4.026658E-04	-7.359279E-04
405	5.04	-3.981438E-04	-7.282220E-04
406	5.05	-3.936779E-04	-7.205971E-04
407	5.06	-3.892671E-04	-7.130524E-04
408	5.07	-3.849109E-04	-7.055874E-04
409	5.08	-3.806085E-04	-6.982015E-04
410	5.09	-3.763593E-04	-6.908941E-04
411	5.10	-3.721626E-04	-6.836646E-04
412	5.11	-3.680177E-04	-6.765122E-04
413	5.12	-3.639239E-04	-6.694365E-04
414	5.13	-3.598807E-04	-6.624367E-04
415	5.14	-3.558873E-04	-6.555122E-04
416	5.15	-3.519431E-04	-6.486624E-04
417	5.16	-3.480475E-04	-6.418866E-04
418	5.17	-3.441999E-04	-6.351842E-04
419	5.18	-3.403996E-04	-6.285544E-04
420	5.19	-3.366461E-04	-6.219968E-04
421	5.20	-3.329387E-04	-6.155105E-04
422	5.21	-3.292769E-04	-6.090949E-04
423	5.22	-3.256600E-04	-6.027494E-04
424	5.23	-3.220875E-04	-5.964733E-04
425	5.24	-3.185588E-04	-5.902660E-04
426	5.25	-3.150733E-04	-5.841267E-04
427	5.26	-3.116305E-04	-5.780549E-04
428	5.27	-3.082298E-04	-5.720499E-04
429	5.28	-3.048707E-04	-5.661109E-04
430	5.29	-3.015526E-04	-5.602374E-04
431	5.30	-2.982750E-04	-5.544287E-04
432	5.31	-2.950375E-04	-5.486841E-04
433	5.32	-2.918393E-04	-5.430031E-04
434	5.33	-2.886801E-04	-5.373849E-04
435	5.34	-2.855594E-04	-5.318288E-04
436	5.35	-2.824766E-04	-5.263344E-04
437	5.36	-2.794312E-04	-5.209008E-04
438	5.37	-2.764228E-04	-5.155276E-04
439	5.38	-2.734509E-04	-5.102140E-04
440	5.39	-2.705150E-04	-5.049594E-04
441	5.40	-2.676146E-04	-4.997632E-04
442	5.41	-2.647493E-04	-4.946247E-04
443	5.42	-2.619187E-04	-4.895434E-04
444	5.43	-2.591221E-04	-4.845187E-04
445	5.44	-2.563594E-04	-4.795499E-04
446	5.45	-2.536298E-04	-4.746364E-04
447	5.46	-2.509332E-04	-4.697776E-04
448	5.47	-2.482689E-04	-4.649730E-04
449	5.48	-2.456367E-04	-4.602218E-04
450	5.49	-2.430360E-04	-4.555237E-04
451	5.50	-2.404666E-04	-4.508778E-04
452	5.51	-2.379279E-04	-4.462838E-04
453	5.52	-2.354195E-04	-4.417410E-04
454	5.53	-2.329411E-04	-4.372487E-04
455	5.54	-2.304924E-04	-4.328066E-04
456	5.55	-2.280728E-04	-4.284140E-04
457	5.56	-2.256820E-04	-4.240703E-04
458	5.57	-2.233197E-04	-4.197750E-04
459	5.58	-2.209854E-04	-4.155276E-04
460	5.59	-2.186789E-04	-4.113275E-04
461	5.60	-2.163997E-04	-4.071742E-04
462	5.61	-2.141476E-04	-4.030672E-04
463	5.62	-2.119221E-04	-3.990059E-04
464	5.63	-2.097228E-04	-3.949897E-04
465	5.64	-2.075496E-04	-3.910183E-04
466	5.65	-2.054020E-04	-3.870910E-04
467	5.66	-2.032796E-04	-3.832075E-04
468	5.67	-2.011823E-04	-3.793671E-04
469	5.68	-1.991096E-04	-3.755693E-04
470	5.69	-1.970612E-04	-3.718138E-04
471	5.70	-1.950369E-04	-3.681000E-04
472	5.71	-1.930362E-04	-3.644273E-04
473	5.72	-1.910590E-04	-3.607955E-04
474	5.73	-1.891048E-04	-3.572039E-04
475	5.74	-1.871735E-04	-3.536521E-04
476	5.75	-1.852647E-04	-3.501397E-04
477	5.76	-1.833781E-04	-3.466661E-04
478	5.77	-1.815134E-04	-3.432310E-04
479	5.78	-1.796704E-04	-3.398339E-04
480	5.79	-1.778488E-04	-3.364743E-04
481	5.80	-1.760483E-04	-3.331519E-04
482	5.81	-1.742686E-04	-3.298661E-04
483	5.82	-1.725094E-04	-3.266166E-04
484	5.83	-1.707706E-04	-3.234030E-04
485	5.84	-1.690518E-04	-3.202247E-04
486	5.85	-1.673529E-04	-3.170815E-04
487	5.86	-1.656734E-04	-3.139728E-04
488	5.87	-1.640133E-04	-3.108984E-04
489	5.88	-1.623722E-04	-3.078577E-04
490	5.89	-1.607499E-04	-3.048504E-04
491	5.90	-1.591461E-04	-3.018761E-04
492	5.91	-1.575607E-04	-2.989345E-04
493	5.92	-1.559934E-04	-2.960250E-04
494	5.93	-1.544439E-04	-2.931475E-04
495	5.94	-1.529121E-04	-2.903014E-04
496	5.95	-1.513977E-04	-2.874864E-04
497	5.96	-1.499005E-04	-2.847022E-04
498	5.97	-1.484203E-04	-2.819484E-04
499	5.98	-1.469569E-04	-2.792246E-04
500	5.99	-1.455100E-04	-2.765305E-04
501	6.00	-1.440794E-04	-2.738657E-04
502	6.01	-1.426650E-04	-2.712300E-04
503	6.02	-1.412666E-04	-2.686228E-04
504	6.03	-1.398838E-04	-2.660440E-04
505	6.04	-1.385167E-04	-2.634932E-04
506	6.05	-1.371648E-04	-2.609700E-04
507	6.06	-1.358281E-04	-2.584742E-04
508	6.07	-1.345064E-04	-2.560053E-04
509	6.08	-1.331995E-04	-2.535632E-04
510	6.09	-1.319071E-04	-2.511475E-04
511	6.10	-1.306292E-04	-2.487578E-04
512	6.11	-1.293655E-04	-2.463939E-04
513	6.12	-1.281158E-04	-2.440554E-04
514	6.13	-1.268801E-04	-2.417421E-04
515	6.14	-1.256580E-04	-2.394537E-04
516	6.15	-1.244495E-04	-2.371899E-04
517	6.16	-1.232544E-04	-2.349504E-04
518	6.17	-1.220724E-04	-2.327348E-04
519	6.18	-1.209035E-04	-2.305430E-04
520	6.19	-1.197475E-04	-2.283747E-04
521	6.20	-1.186042E-04	-2.262295E-04
522	6.21	-1.174735E-04	-2.241073E-04
523	6.22	-1.163552E-04	-2.220077E-04
524	6.23	-1.152492E-04	-2.199304E-04
525	6.24	-1.141552E-04	-2.178753E-04
526	6.25	-1.130732E-04	-2.158420E-04
527	6.26	-1.120031E-04	-2.138304E-04
528	6.27	-1.109446E-04	-2.118400E-04
529	6.28	-1.098976E-04	-2.098708E-04
530	6.29	-1.088620E-04	-2.079225E-04
531	6.30	-1.078377E-04	-2.059947E-04
532	6.31	-1.068245E-04	-2.040874E-04
533	6.32	-1.058222E-04	-2.022001E-04
534	6.33	-1.048308E-04	-2.003328E-04
535	6.34	-1.038501E-04	-1.984852E-04
536	6.35	-1.028800E-04	-1.966570E-04
537	6.36	-1.019203E-04	-1.948480E-04
538	6.37	-1.009710E-04	-1.930580E-04
539	6.38	-1.000319E-04	-1.912868E-04
540	6.39	-9.910282E-05	-1.895341E-04
541	6.40	-9.818372E-05	-1.877998E-04
542	6.41	-9.727446E-05	-1.860837E-04
543	6.42	-9.637491E-05	-1.843854E-04
544	6.43	-9.548497E-05	-1.827049E-04
545	6.44	-9.460451E-05	-1.810419E-04
546	6.45	-9.373343E-05	-1.793962E-04
547	6.46	-9.287161E-05	-1.777676E-04
548	6.47	-9.201894E-05	-1.761560E-04
549	6.48	-9.117530E-05	-1.745610E-04
550	6.49	-9.034061E-05	-1.729826E-04
551	6.50	-8.951473E-05	-1.714205E-04
552	6.51	-8.869758E-05	-1.698746E-04
553	6.52	-8.788905E-05	-1.683446E-04
554	6.53	-8.708903E-05	-1.668305E-04
555	6.54	-8.629743E-05	-1.653319E-04
556	6.55	-8.551414E-05	-1.638488E-04
557	6.56	-8.473907E-05	-1.623809E-04
558	6.57	-8.397212E-05	-1.609281E-04
559	6.58	-8.321319E-05	-1.594901E-04
560	6.59	-8.246219E-05	-1.580670E-04
561	6.60	-8.171902E-05	-1.566583E-04
562	6.61	-8.098360E-05	-1.552641E-04
563	6.62	-8.025583E-05	-1.538842E-04
564	6.63	-7.953563E-05	-1.525183E-04
565	6.64	-7.882290E-05	-1.511663E-04
566	6.65	-7.811755E-05	-1.498280E-04
567	6.66	-7.741951E-05	-1.485034E-04
568	6.67	-7.672868E-05	-1.471922E-04
569	6.68	-7.604498E-05	-1.458944E-04
570	6.69	-7.536833E-05	-1.446096E-04
571	6.70	-7.469865E-05	-1.433379E-04
572	6.71	-7.403585E-05	-1.420790E-04
573	6.72	-7.337986E-05	-1.408328E-04
574	6.73	-7.273059E-05	-1.395992E-04
575	6.74	-7.208797E-05	-1.383780E-04
576	6.75	-7.145193E-05	-1.371691E-04
577	6.76	-7.082237E-05	-1.359723E-04
578	6.77	-7.019924E-05	-1.347875E-04
579	6.78	-6.958246E-05	-1.336147E-04
580	6.79	-6.897195E-05	-1.324535E-04
581	6.80	-6.836764E-05	-1.313040E-04
582	6.81	-6.776947E-05	-1.301659E-04
583	6.82	-6.717735E-05	-1.290392E-04
584	6.83	-6.659122E-05	-1.279237E-04
585	6.84	-6.601102E-05	-1.268193E-04
586	6.85	-6.543667E-05	-1.257259E-04
587	6.86	-6.486811E-05	-1.246433E-04
588	6.87	-6.430527E-05	-1.235715E-04
589	6.88	-6.374809E-05	-1.225103E-04
590	6.89	-6.319650E-05	-1.214596E-04
591	6.90	-6.265044E-05	-1.204193E-04
592	6.91	-6.210985E-05	-1.193892E-04
593	6.92	-6.157466E-05	-1.183693E-04
594	6.93	-6.104482E-05	-1.173594E-04
595	6.94	-6.052026E-05	-1.163595E-04
596	6.95	-6.000092E-05	-1.153694E-04
597	6.96	-5.948675E-05	-1.143889E-04
598	6.97	-5.897768E-05	-1.134181E-04
599	6.98	-5.847366E-05	-1.124568E-04
600	6.99	-5.797464E-05	-1.115049E-04
601	7.00	-5.748055E-05	-1.105623E-04
602	7.01	-5.699134E-05	-1.096289E-04
603	7.02	-5.650696E-05	-1.087045E-04
604	7.03	-5.602736E-05	-1.077892E-04
605	7.04	-5.555247E-05	-1.068827E-04
606	7.05	-5.508225E-05	-1.059850E-04
607	7.06	-5.461664E-05	-1.050961E-04
608	7.07	-5.415560E-05	-1.042157E-04
609	7.08	-5.369907E-05	-1.033439E-04
610	7.09	-5.324701E-05	-1.024805E-04
611	7.10	-5.279936E-05	-1.016254E-04
612	7.11	-5.235607E-05	-1.007785E-04
613	7.12	-5.191710E-05	-9.993977E-05
614	7.13	-5.148240E-05	-9.910911E-05
615	7.14	-5.105192E-05	-9.828643E-05
616	7.15	-5.062561E-05	-9.747163E-05
617	7.16	-5.020344E-05	-9.666464E-05
618	7.17	-4.978535E-05	-9.586536E-05
619	7.18	-4.937130E-05	-9.507372E-05
620	7.19	-4.896124E-05	-9.428963E-05
621	7.20	-4.855514E-05	-9.351301E-05
622	7.21	-4.815295E-05	-9.274378E-05
623	7.22	-4.775462E-05	-9.198186E-05
624	7.23	-4.736011E-05	-9.122718E-05
625	7.24	-4.696939E-05	-9.047965E-05
626	7.25	-4.658240E-05	-8.973920E-05
627	7.26	-4.619912E-05	-8.900576E-05
628	7.27	-4.581950E-05	-8.827925E-05
629	7.28	-4.544349E-05	-8.755959E-05
630	7.29	-4.507107E-05	-8.684672E-05
631	7.30	-4.470220E-05	-8.614055E-05
632	7.31	-4.433682E-05	-8.544103E-05
633	7.32	-4.397491E-05	-8.474808E-05
634	7.33	-4.361644E-05	-8.406163E-05
635	7.34	-4.326135E-05	-8.338160E-05
636	7.35	-4.290962E-05	-8.270794E-05
637	7.36	-4.256121E-05	-8.204058E-05
638	7.37	-4.221609E-05	-8.137945E-05
639	7.38	-4.187421E-05	-8.072448E-05
640	7.39	-4.153555E-05	-8.007561E-05
641	7.40	-4.120007E-05	-7.943277E-05
642	7.41	-4.086774E-05	-7.879591E-05
643	7.42	-4.053852E-05	-7.816495E-05
644	7.43	-4.021238E-05	-7.753985E-05
645	7.44	-3.988928E-05	-7.692053E-05
646	7.45	-3.956920E-05	-7.630693E-05
647	7.46	-3.925211E-05	-7.569900E-05
648	7.47	-3.893796E-05	-7.509668E-05
649	7.48	-3.862674E-05	-7.449991E-05
650	7.49	-3.831840E-05	-7.390862E-05
651	7.50	-3.801293E-05	-7.332277E-05
652	7.51	-3.771028E-05	-7.274230E-05
653	7.52	-3.741043E-05	-7.216715E-05
654	7.53	-3.711335E-05	-7.159726E-05
655	7.54	-3.681901E-05	-7.103259E-05
656	7.55	-3.652739E-05	-7.047307E-05
657	7.56	-3.623844E-05	-6.991866E-05
658	7.57	-3.595215E-05	-6.936931E-05
659	7.58	-3.566849E-05	-6.882495E-05
660	7.59	-3.538743E-05	-6.828554E-05
661	7.60	-3.510895E-05	-6.775103E-05
662	7.61	-3.483301E-05	-6.722136E-05
663	7.62	-3.455959E-05	-6.669649E-05
664	7.63	-3.428866E-05	-6.617638E-05
665	7.64	-3.402020E-05	-6.566096E-05
666	7.65	-3.375419E-05	-6.515019E-05
667	7.66	-3.349059E-05	-6.464403E-05
668	7.67	-3.322938E-05	-6.414242E-05
669	7.68	-3.297054E-05	-6.364533E-05
670	7.69	-3.271405E-05	-6.315270E-05
671	7.70	-3.245987E-05	-6.266449E-05
672	7.71	-3.220799E-05	-6.218066E-05
673	7.72	-3.195838E-05	-6.170116E-05
674	7.73	-3.171102E-05	-6.122594E-05
675	7.74	-3.146588E-05	-6.075497E-05
676	7.75	-3.122295E-05	-6.028819E-05
677	7.76	-3.098220E-05	-5.982558E-05
678	7.77	-3.074360E-05	-5.936708E-05
679	7.78	-3.050714E-05	-5.891266E-05
680	7.79	-3.027280E-05	-5.846227E-05
681	7.80	-3.004055E-05	-5.801587E-05
682	7.81	-2.981037E-05	-5.757342E-05
683	7.82	-2.958224E-05	-5.713489E-05
684	7.83	-2.935613E-05	-5.670023E-05
685	7.84	-2.913204E-05	-5.626941E-05
686	7.85	-2.890994E-05	-5.584239E-05
687	7.86	-2.868981E-05	-5.541912E-05
688	7.87	-2.847162E-05	-5.499958E-05
689	7.88	-2.825536E-05	-5.458372E-05
690	7.89	-2.804102E-05	-5.417150E-05
691	7.90	-2.782856E-05	-5.376290E-05
692	7.91	-2.761798E-05	-5.335788E-05
693	7.92	-2.740925E-05	-5.295639E-05
694	7.93	-2.720235E-05	-5.255841E-05
695	7.94	-2.699727E-05	-5.216390E-05
696	7.95	-2.679399E-05	-5.177283E-05
697	7.96	-2.659249E-05	-5.138516E-05
698	7.97	-2.639275E-05	-5.100086E-05
699	7.98	-2.619475E-05	-5.061989E-05
700	7.99	-2.599848E-05	-5.024223E-05
701	8.00	-2.580393E-05	-4.986783E-05
702	8.01	-2.561106E-05	-4.949668E-05
703	8.02	-2.541987E-05	-4.912873E-05
704	8.03	-2.523034E-05	-4.876395E-05
705	8.04	-2.504246E-05	-4.840232E-05
706	8.05	-2.485620E-05	-4.804380E-05
707	8.06	-2.467156E-05	-4.768837E-05
708	8.07	-2.448851E-05	-4.733598E-05
709	8.08	-2.430704E-05	-4.698663E-05
710	8.09	-2.412713E-05	-4.664026E-05
711	8.10	-2.394877E-05	-4.629686E-05
712	8.11	-2.377195E-05	-4.595639E-05
713	8.12	-2.359664E-05	-4.561883E-05
714	8.13	-2.342284E-05	-4.528415E-05
715	8.14	-2.325053E-05	-4.495232E-05
716	8.15	-2.307969E-05	-4.462332E-05
717	8.16	-2.291032E-05	-4.429711E-05
718	8.17	-2.274239E-05	-4.397367E-05
719	8.18	-2.257589E-05	-4.365297E-05
720	8.19	-2.241081E-05	-4.333499E-05
721	8.20	-2.224713E-05	-4.301970E-05
722	8.21	-2.208484E-05	-4.270707E-05
723	8.22	-2.192393E-05	-4.239708E-05
724	8.23	-2.176439E-05	-4.208971E-05
725	8.24	-2.160620E-05	-4.178492E-05
726	8.25	-2.144934E-05	-4.148270E-05
727	8.26	-2.129381E-05	-4.118301E-05
728	8.27	-2.113959E-05	-4.088584E-05
729	8.28	-2.098667E-05	-4.059117E-05
730	8.29	-2.083504E-05	-4.029895E-05
731	8.30	-2.068468E-05	-4.000919E-05
732	8.31	-2.053559E-05	-3.972184E-05
733	8.32	-2.038774E-05	-3.943689E-05
734	8.33	-2.024114E-05	-3.915432E-05
735	8.34	-2.009576E-05	-3.887410E-05
736	8.35	-1.995160E-05	-3.859620E-05
737	8.36	-1.980864E-05	-3.832062E-05
738	8.37	-1.966687E-05	-3.804732E-05
739	8.38	-1.952628E-05	-3.777629E-05
740	8.39	-1.938686E-05	-3.750750E-05
741	8.40	-1.924860E-05	-3.724094E-05
742	8.41	-1.911149E-05	-3.697657E-05
743	8.42	-1.897552E-05	-3.671439E-05
744	8.43	-1.884067E-05	-3.645436E-05
745	8.44	-1.870693E-05	-3.619648E-05
746	8.45	-1.857430E-05	-3.594072E-05
747	8.46	-1.844277E-05	-3.568705E-05
748	8.47	-1.831232E-05	-3.543547E-05
749	8.48	-1.818294E-05	-3.518595E-05
750	8.49	-1.805463E-05	-3.493847E-05
751	8.50	-1.792737E-05	-3.469301E-05
752	8.51	-1.780116E-05	-3.444956E-05
753	8.52	-1.767597E-05	-3.420810E-05
754	8.53	-1.755182E-05	-3.396860E-05
755	8.54	-1.742868E-05	-3.373105E-05
756	8.55	-1.730654E-05	-3.349543E-05
757	8.56	-1.718540E-05	-3.326173E-05
758	8.57	-1.706525E-05	-3.302992E-05
759	8.58	-1.694608E-05	-3.279998E-05
760	8.59	-1.682787E-05	-3.257191E-05
761	8.60	-1.671063E-05	-3.234569E-05
762	8.61	-1.659433E-05	-3.212129E-05
763	8.62	-1.647898E-05	-3.189870E-05
764	8.63	-1.636456E-05	-3.167790E-05
765	8.64	-1.625106E-05	-3.145888E-05
766	8.65	-1.613849E-05	-3.124162E-05
767	8.66	-1.602682E-05	-3.102611E-05
768	8.67	-1.591604E-05	-3.081232E-05
769	8.68	-1.580617E-05	-3.060025E-05
770	8.69	-1.569717E-05	-3.038987E-05
771	8.70	-1.558905E-05	-3.018118E-05
772	8.71	-1.548179E-05	-2.997415E-05
773	8.72	-1.537540E-05	-2.976877E-05
774	8.73	-1.526985E-05	-2.956503E-05
775	8.74	-1.516515E-05	-2.936291E-05
776	8.75	-1.506129E-05	-2.916240E-05
777	8.76	-1.495825E-05	-2.896348E-05
778	8.77	-1.485604E-05	-2.876614E-05
779	8.78	-1.475463E-05	-2.857036E-05
780	8.79	-1.465404E-05	-2.837613E-05
781	8.80	-1.455424E-05	-2.818344E-05
782	8.81	-1.445523E-05	-2.799227E-05
783	8.82	-1.435701E-05	-2.780261E-05
784	8.83	-1.425956E-05	-2.761444E-05
785	8.84	-1.416289E-05	-2.742775E-05
786	8.85	-1.406698E-05	-2.724254E-05
787	8.86	-1.397182E-05	-2.705877E-05
788	8.87	-1.387741E-05	-2.687645E-05
789	8.88	-1.378375E-05	-2.669556E-05
790	8.89	-1.369082E-05	-2.651608E-05
791	8.90	-1.359863E-05	-2.633801E-05
792	8.91	-1.350715E-05	-2.616133E-05
793	8.92	-1.341639E-05	-2.598602E-05
794	8.93	-1.332634E-05	-2.581208E-05
795	8.94	-1.323700E-05	-2.563950E-05
796	8.95	-1.314835E-05	-2.546826E-05
797	8.96	-1.306040E-05	-2.529835E-05
798	8.97	-1.297312E-05	-2.512976E-05
799	8.98	-1.288653E-05	-2.496248E-05
800	8.99	-1.280061E-05	-2.479649E-05
801	9.00	-1.271536E-05	-2.463178E-05
802	9.01	-1.263077E-05	-2.446835E-05
803	9.02	-1.254684E-05	-2.430618E-05
804	9.03	-1.246355E-05	-2.414526E-05
805	9.04	-1.238091E-05	-2.398558E-05
806	9.05	-1.229891E-05	-2.382713E-05
807	9.06	-1.221754E-05	-2.366990E-05
808	9.07	-1.213679E-05	-2.351387E-05
809	9.08	-1.205667E-05	-2.335904E-05
810	9.09	-1.197716E-05	-2.320540E-05
811	9.10	-1.189827E-05	-2.305293E-05
812	9.11	-1.181998E-05	-2.290163E-05
813	9.12	-1.174229E-05	-2.275148E-05
814	9.13	-1.166519E-05	-2.260248E-05
815	9.14	-1.158868E-05	-2.245462E-05
816	9.15	-1.151276E-05	-2.230788E-05
817	9.16	-1.143742E-05	-2.216225E-05
818	9.17	-1.136265E-05	-2.201774E-05
819	9.18	-1.128845E-05	-2.187432E-05
820	9.19	-1.121482E-05	-2.173198E-05
821	9.20	-1.114174E-05	-2.159073E-05
822	9.21	-1.106922E-05	-2.145054E-05
823	9.22	-1.099725E-05	-2.131141E-05
824	9.23	-1.092582E-05	-2.117333E-05
825	9.24	-1.085494E-05	-2.103629E-05
826	9.25	-1.078459E-05	-2.090029E-05
827	9.26	-1.071477E-05	-2.076531E-05
828	9.27	-1.064548E-05	-2.063134E-05
829	9.28	-1.057671E-05	-2.049838E-05
830	9.29	-1.050845E-05	-2.036642E-05
831	9.30	-1.044071E-05	-2.023544E-05
832	9.31	-1.037348E-05	-2.010545E-05
833	9.32	-1.030675E-05	-1.997643E-05
834	9.33	-1.024053E-05	-1.984837E-05
835	9.34	-1.017480E-05	-1.972126E-05
836	9.35	-1.010955E-05	-1.959511E-05
837	9.36	-1.004480E-05	-1.946989E-05
838	9.37	-9.980532E-06	-1.934561E-05
839	9.38	-9.916742E-06	-1.922224E-05
840	9.39	-9.853426E-06	-1.909980E-05
841	9.40	-9.790581E-06	-1.897826E-05
842	9.41	-9.728203E-06	-1.885762E-05
843	9.42	-9.666288E-06	-1.873788E-05
844	9.43	-9.604832E-06	-1.861901E-05
845	9.44	-9.543831E-06	-1.850103E-05
846	9.45	-9.483282E-06	-1.838392E-05
847	9.46	-9.423180E-06	-1.826767E-05
848	9.47	-9.363521E-06	-1.815228E-05
849	9.48	-9.304303E-06	-1.803773E-05
850	9.49	-9.245521E-06	-1.792403E-05
851	9.50	-9.187172E-06	-1.781116E-05
852	9.51	-9.129251E-06	-1.769912E-05
853	9.52	-9.071756E-06	-1.758790E-05
854	9.53	-9.014683E-06	-1.747749E-05
855	9.54	-8.958028E-06	-1.736789E-05
856	9.55	-8.901788E-06	-1.725909E-05
857	9.56	-8.845959E-06	-1.715108E-05
858	9.57	-8.790538E-06	-1.704386E-05
859	9.58	-8.735522E-06	-1.693742E-05
860	9.59	-8.680907E-06	-1.683175E-05
861	9.60	-8.626689E-06	-1.672685E-05
862	9.61	-8.572866E-06	-1.662272E-05
863	9.62	-8.519434E-06	-1.651933E-05
864	9.63	-8.466391E-06	-1.641670E-05
865	9.64	-8.413732E-06	-1.631481E-05
866	9.65	-8.361454E-06	-1.621365E-05
867	9.66	-8.309555E-06	-1.611323E-05
868	9.67	-8.258031E-06	-1.601353E-05
869	9.68	-8.206880E-06	-1.591454E-05
870	9.69	-8.156098E-06	-1.581627E-05
871	9.70	-8.105681E-06	-1.571871E-05
872	9.71	-8.055628E-06	-1.562185E-05
873	9.72	-8.005935E-06	-1.552568E-05
874	9.73	-7.956599E-06	-1.543020E-05
875	9.74	-7.907617E-06	-1.533541E-05
876	9.75	-7.858987E-06	-1.524129E-05
877	9.76	-7.810705E-06	-1.514785E-05
878	9.77	-7.762769E-06	-1.505507E-05
879	9.78	-7.715175E-06	-1.496295E-05
880	9.79	-7.667921E-06	-1.487149E-05
881	9.80	-7.621005E-06	-1.478069E-05
882	9.81	-7.574423E-06	-1.469052E-05
883	9.82	-7.528173E-06	-1.460100E-05
884	9.83	-7.482251E-06	-1.451211E-05
885	9.84	-7.436657E-06	-1.442386E-05
886	9.85	-7.391385E-06	-1.433623E-05
887	9.86	-7.346435E-06	-1.424921E-05
888	9.87	-7.301804E-06	-1.416282E-05
889	9.88	-7.257488E-06	-1.407703E-05
890	9.89	-7.213486E-06	-1.399185E-05
891	9.90	-7.169795E-06	-1.390727E-05
892	9.91	-7.126412E-06	-1.382328E-05
893	9.92	-7.083335E-06	-1.373989E-05
894	9.93	-7.040561E-06	-1.365708E-05
895	9.94	-6.998088E-06	-1.357485E-05
896	9.95	-6.955914E-06	-1.349320E-05
897	9.96	-6.914036E-06	-1.341212E-05
898	9.97	-6.872452E-06	-1.333161E-05
899	9.98	-6.831159E-06	-1.325166E-05
900	9.99	-6.790155E-06	-1.317227E-05
901	10.00	-6.749438E-06	-1.309343E-05
902	10.01	-6.709006E-06	-1.301514E-05
903	10.02	-6.668855E-06	-1.293740E-05
904	10.03	-6.628985E-06	-1.286020E-05
905	10.04	-6.589393E-06	-1.278353E-05
906	10.05	-6.550076E-06	-1.270740E-05
907	10.06	-6.511032E-06	-1.263180E-05
908	10.07	-6.472259E-06	-1.255672E-05
909	10.08	-6.433756E-06	-1.248216E-05
910	10.09	-6.395520E-06	-1.240811E-05
911	10.10	-6.357548E-06	-1.233458E-05
912	10.11	-6.319839E-06	-1.226155E-05
913	10.12	-6.282391E-06	-1.218903E-05
914	10.13	-6.245201E-06	-1.211701E-05
915	10.14	-6.208268E-06	-1.204548E-05
916	10.15	-6.171589E-06	-1.197444E-05
917	10.16	-6.135163E-06	-1.190390E-05
918	10.17	-6.098987E-06	-1.183383E-05
919	10.18	-6.063060E-06	-1.176425E-05
920	10.19	-6.027379E-06	-1.169514E-05
921	10.20	-5.991944E-06	-1.162651E-05
922	10.21	-5.956751E-06	-1.155835E-05
923	10.22	-5.921798E-06	-1.149065E-05
924	10.23	-5.887085E-06	-1.142341E-05
925	10.24	-5.852609E-06	-1.135663E-05
926	10.25	-5.818369E-06	-1.129031E-05
927	10.26	-5.784361E-06	-1.122443E-05
928	10.27	-5.750586E-06	-1.115901E-05
929	10.28	-5.717040E-06	-1.109403E-05
930	10.29	-5.683722E-06	-1.102949E-05
931	10.30	-5.650630E-06	-1.096538E-05
932	10.31	-5.617763E-06	-1.090172E-05
933	10.32	-5.585119E-06	-1.083848E-05
934	10.33	-5.552696E-06	-1.077567E-05
935	10.34	-5.520492E-06	-1.071328E-05
936	10.35	-5.488506E-06	-1.065131E-05
937	10.36	-5.456736E-06	-1.058976E-05
938	10.37	-5.425180E-06	-1.052863E-05
939	10.38	-5.393837E-06	-1.046791E-05
940	10.39	-5.362705E-06	-1.040759E-05
941	10.40	-5.331782E-06	-1.034768E-05
942	10.41	-5.301067E-06	-1.028817E-05
943	10.42	-5.270558E-06	-1.022906E-05
944	10.43	-5.240254E-06	-1.017035E-05
945	10.44	-5.210153E-06	-1.011203E-05
946	10.45	-5.180253E-06	-1.005409E-05
947	10.46	-5.150554E-06	-9.996548E-06
948	10.47	-5.121052E-06	-9.939387E-06
949	10.48	-5.091748E-06	-9.882606E-06
950	10.49	-5.062639E-06	-9.826202E-06
951	10.50	-5.033724E-06	-9.770174E-06
952	10.51	-5.005002E-06	-9.714518E-06
953	10.52	-4.976471E-06	-9.659232E-06
954	10.53	-4.948129E-06	-9.604312E-06
955	10.54	-4.919975E-06	-9.549755E-06
956	10.55	-4.892008E-06	-9.495560E-06
957	10.56	-4.864226E-06	-9.441723E-06
958	10.57	-4.836628E-06	-9.388242E-06
959	10.58	-4.809213E-06	-9.335114E-06
960	10.59	-4.781979E-06	-9.282336E-06
961	10.60	-4.754924E-06	-9.229905E-06
962	10.61	-4.728048E-06	-9.177820E-06
963	10.62	-4.701349E-06	-9.126077E-06
964	10.63	-4.674825E-06	-9.074674E-06
965	10.64	-4.648476E-06	-9.023608E-06
966	10.65	-4.622300E-06	-8.972877E-06
967	10.66	-4.596296E-06	-8.922478E-06
968	10.67	-4.570463E-06	-8.872409E-06
969	10.68	-4.544798E-06	-8.822668E-06
970	10.69	-4.519302E-06	-8.773251E-06
971	10.70	-4.493972E-06	-8.724157E-06
972	10.71	-4.468808E-06	-8.675383E-06
973	10.72	-4.443808E-06	-8.626926E-06
974	10.73	-4.418971E-06	-8.578785E-06
975	10.74	-4.394295E-06	-8.530957E-06
976	10.75	-4.369781E-06	-8.483440E-06
977	10.76	-4.345425E-06	-8.436231E-06
978	10.77	-4.321228E-06	-8.389328E-06
979	10.78	-4.297188E-06	-8.342729E-06
980	10.79	-4.273304E-06	-8.296431E-06
981	10.80	-4.249575E-06	-8.250433E-06
982	10.81	-4.225999E-06	-8.204732E-06
983	10.82	-4.202575E-06	-8.159326E-06
984	10.83	-4.179303E-06	-8.114212E-06
985	10.84	-4.156181E-06	-8.069390E-06
986	10.85	-4.133209E-06	-8.024856E-06
987	10.86	-4.110384E-06	-7.980608E-06
988	10.87	-4.087706E-06	-7.936644E-06
989	10.88	-4.065174E-06	-7.892963E-06
990	10.89	-4.042787E-06	-7.849562E-06
991	10.90	-4.020543E-06	-7.806439E-06
992	10.91	-3.998442E-06	-7.763592E-06
993	10.92	-3.976483E-06	-7.721018E-06
994	10.93	-3.954664E-06	-7.678717E-06
995	10.94	-3.932985E-06	-7.636686E-06
996	10.95	-3.911444E-06	-7.594923E-06
997	10.96	-3.890041E-06	-7.553427E-06
998	10.97	-3.868774E-06	-7.512194E-06
999	10.98	-3.847643E-06	-7.471224E-06
1000	10.99	-3.826646E-06	-7.430514E-06
1001	11.00	-3.805783E-06	-7.390062E-06
1002	11.01	-3.785053E-06	-7.349867E-06
1003	11.02	-3.764454E-06	-7.309927E-06
1004	11.03	-3.743985E-06	-7.270240E-06
1005	11.04	-3.723647E-06	-7.230804E-06
1006	11.05	-3.703437E-06	-7.191617E-06
1007	11.06	-3.683355E-06	-7.152677E-06
1008	11.07	-3.663400E-06	-7.113983E-06
1009	11.08	-3.643571E-06	-7.075534E-06
1010	11.09	-3.623867E-06	-7.037326E-06
1011	11.10	-3.604288E-06	-6.999359E-06
1012	11.11	-3.584831E-06	-6.961630E-06
1013	11.12	-3.565497E-06	-6.924138E-06
1014	11.13	-3.546285E-06	-6.886882E-06
1015	11.14	-3.527193E-06	-6.849859E-06
1016	11.15	-3.508221E-06	-6.813069E-06
1017	11.16	-3.489368E-06	-6.776508E-06
1018	11.17	-3.470634E-06	-6.740176E-06
1019	11.18	-3.452016E-06	-6.704071E-06
1020	11.19	-3.433515E-06	-6.668192E-06
1021	11.20	-3.415129E-06	-6.632536E-06
1022	11.21	-3.396858E-06	-6.597102E-06
1023	11.22	-3.378701E-06	-6.561889E-06
1024	11.23	-3.360657E-06	-6.526895E-06
1025	11.24	-3.342726E-06	-6.492119E-06
1026	11.25	-3.324906E-06	-6.457558E-06
1027	11.26	-3.307197E-06	-6.423212E-06
1028	11.27	-3.289597E-06	-6.389079E-06
1029	11.28	-3.272107E-06	-6.355157E-06
1030	11.29	-3.254726E-06	-6.321445E-06
1031	11.30	-3.237451E-06	-6.287941E-06
1032	11.31	-3.220284E-06	-6.254644E-06
1033	11.32	-3.203223E-06	-6.221553E-06
1034	11.33	-3.186267E-06	-6.188666E-06
1035	11.34	-3.169416E-06	-6.155981E-06
1036	11.35	-3.152669E-06	-6.123498E-06
1037	11.36	-3.136025E-06	-6.091214E-06
1038	11.37	-3.119483E-06	-6.059129E-06
1039	11.38	-3.103043E-06	-6.027240E-06
1040	11.39	-3.086704E-06	-5.995547E-06
1041	11.40	-3.070465E-06	-5.964049E-06
1042	11.41	-3.054326E-06	-5.932743E-06
1043	11.42	-3.038286E-06	-5.901629E-06
1044	11.43	-3.022344E-06	-5.870705E-06
1045	11.44	-3.006500E-06	-5.839969E-06
1046	11.45	-2.990752E-06	-5.809422E-06
1047	11.46	-2.975100E-06	-5.779060E-06
1048	11.47	-2.959544E-06	-5.748884E-06
1049	11.48	-2.944083E-06	-5.718891E-06
1050	11.49	-2.928716E-06	-5.689080E-06
1051	11.50	-2.913442E-06	-5.659451E-06
1052	11.51	-2.898261E-06	-5.630001E-06
1053	11.52	-2.883173E-06	-5.600730E-06
1054	11.53	-2.868176E-06	-5.571636E-06
1055	11.54	-2.853270E-06	-5.542719E-06
1056	11.55	-2.838454E-06	-5.513976E-06
1057	11.56	-2.823728E-06	-5.485407E-06
1058	11.57	-2.809091E-06	-5.457011E-06
1059	11.58	-2.794542E-06	-5.428785E-06
1060	11.59	-2.780082E-06	-5.400730E-06
1061	11.60	-2.765708E-06	-5.372844E-06
1062	11.61	-2.751421E-06	-5.345126E-06
1063	11.62	-2.737221E-06	-5.317575E-06
1064	11.63	-2.723105E-06	-5.290189E-06
1065	11.64	-2.709075E-06	-5.262967E-06
1066	11.65	-2.695128E-06	-5.235909E-06
1067	11.66	-2.681266E-06	-5.209012E-06
1068	11.67	-2.667486E-06	-5.182277E-06
1069	11.68	-2.653789E-06	-5.155702E-06
1070	11.69	-2.640174E-06	-5.129285E-06
1071	11.70	-2.626641E-06	-5.103026E-06
1072	11.71	-2.613188E-06	-5.076924E-06
1073	11.72	-2.599816E-06	-5.050978E-06
1074	11.73	-2.586523E-06	-5.025186E-06
1075	11.74	-2.573310E-06	-4.999548E-06
1076	11.75	-2.560175E-06	-4.974062E-06
1077	11.76	-2.547119E-06	-4.948727E-06
1078	11.77	-2.534140E-06	-4.923543E-06
1079	11.78	-2.521238E-06	-4.898508E-06
1080	11.79	-2.508413E-06	-4.873622E-06
1081	11.80	-2.495664E-06	-4.848883E-06
1082	11.81	-2.482990E-06	-4.824290E-06
1083	11.82	-2.470392E-06	-4.799842E-06
1084	11.83	-2.457868E-06	-4.775540E-06
1085	11.84	-2.445418E-06	-4.751380E-06
1086	11.85	-2.433041E-06	-4.727363E-06
1087	11.86	-2.420738E-06	-4.703487E-06
1088	11.87	-2.408507E-06	-4.679752E-06
1089	11.88	-2.396348E-06	-4.656157E-06
1090	11.89	-2.384260E-06	-4.632700E-06
1091	11.90	-2.372244E-06	-4.609381E-06
1092	11.91	-2.360298E-06	-4.586199E-06
1093	11.92	-2.348423E-06	-4.563152E-06
1094	11.93	-2.336617E-06	-4.540241E-06
1095	11.94	-2.324880E-06	-4.517464E-06
1096	11.95	-2.313212E-06	-4.494820E-06
1097	11.96	-2.301612E-06	-4.472308E-06
1098	11.97	-2.290080E-06	-4.449928E-06
1099	11.98	-2.278616E-06	-4.427678E-06
1100	11.99	-2.267218E-06	-4.405557E-06
1101	12.00	-2.255887E-06	-4.383566E-06
1102	12.01	-2.244622E-06	-4.361703E-06
1103	12.02	-2.233422E-06	-4.339966E-06
1104	12.03	-2.222288E-06	-4.318356E-06
1105	12.04	-2.211218E-06	-4.296872E-06
1106	12.05	-2.200212E-06	-4.275511E-06
1107	12.06	-2.189271E-06	-4.254275E-06
1108	12.07	-2.178393E-06	-4.233162E-06
1109	12.08	-2.167577E-06	-4.212171E-06
1110	12.09	-2.156825E-06	-4.191301E-06
1111	12.10	-2.146135E-06	-4.170551E-06
1112	12.11	-2.135506E-06	-4.149922E-06
1113	12.12	-2.124939E-06	-4.129411E-06
1114	12.13	-2.114432E-06	-4.109018E-06
1115	12.14	-2.103987E-06	-4.088743E-06
1116	12.15	-2.093601E-06	-4.068585E-06
1117	12.16	-2.083275E-06	-4.048542E-06
1118	12.17	-2.073009E-06	-4.028614E-06
1119	12.18	-2.062801E-06	-4.008801E-06
1120	12.19	-2.052652E-06	-3.989101E-06
1121	12.20	-2.042562E-06	-3.969514E-06
1122	12.21	-2.032529E-06	-3.950039E-06
1123	12.22	-2.022554E-06	-3.930676E-06
1124	12.23	-2.012635E-06	-3.911423E-06
1125	12.24	-2.002774E-06	-3.892280E-06
1126	12.25	-1.992968E-06	-3.873247E-06
1127	12.26	-1.983219E-06	-3.854322E-06
1128	12.27	-1.973525E-06	-3.835504E-06
1129	12.28	-1.963887E-06	-3.816794E-06
1130	12.29	-1.954303E-06	-3.798190E-06
1131	12.30	-1.944774E-06	-3.779692E-06
1132	12.31	-1.935299E-06	-3.761298E-06
1133	12.32	-1.925878E-06	-3.743010E-06
1134	12.33	-1.916511E-06	-3.724824E-06
1135	12.34	-1.907196E-06	-3.706742E-06
1136	12.35	-1.897935E-06	-3.688762E-06
1137	12.36	-1.888725E-06	-3.670884E-06
1138	12.37	-1.879568E-06	-3.653107E-06
1139	12.38	-1.870463E-06	-3.635430E-06
1140	12.39	-1.861409E-06	-3.617853E-06
1141	12.40	-1.852406E-06	-3.600374E-06
1142	12.41	-1.843454E-06	-3.582995E-06
1143	12.42	-1.834552E-06	-3.565713E-06
1144	12.43	-1.825700E-06	-3.548528E-06
1145	12.44	-1.816898E-06	-3.531440E-06
1146	12.45	-1.808146E-06	-3.514448E-06
1147	12.46	-1.799443E-06	-3.497551E-06
1148	12.47	-1.790789E-06	-3.480748E-06
1149	12.48	-1.782183E-06	-3.464040E-06
1150	12.49	-1.773625E-06	-3.447425E-06
1151	12.50	-1.765115E-06	-3.430903E-06
1152	12.51	-1.756653E-06	-3.414474E-06
1153	12.52	-1.748239E-06	-3.398136E-06
1154	12.53	-1.739871E-06	-3.381889E-06
1155	12.54	-1.731550E-06	-3.365733E-06
1156	12.55	-1.723275E-06	-3.349667E-06
1157	12.56	-1.715046E-06	-3.333690E-06
1158	12.57	-1.706864E-06	-3.317802E-06
1159	12.58	-1.698726E-06	-3.302003E-06
1160	12.59	-1.690634E-06	-3.286291E-06
1161	12.60	-1.682587E-06	-3.270666E-06
1162	12.61	-1.674585E-06	-3.255128E-06
1163	12.62	-1.666626E-06	-3.239675E-06
1164	12.63	-1.658712E-06	-3.224309E-06
1165	12.64	-1.650842E-06	-3.209027E-06
1166	12.65	-1.643016E-06	-3.193830E-06
1167	12.66	-1.635232E-06	-3.178716E-06
1168	12.67	-1.627492E-06	-3.163686E-06
1169	12.68	-1.619794E-06	-3.148739E-06
1170	12.69	-1.612139E-06	-3.133874E-06
1171	12.70	-1.604526E-06	-3.119091E-06
1172	12.71	-1.596955E-06	-3.104389E-06
1173	12.72	-1.589425E-06	-3.089768E-06
1174	12.73	-1.581937E-06	-3.075228E-06
1175	12.74	-1.574490E-06	-3.060767E-06
1176	12.75	-1.567084E-06	-3.046385E-06
1177	12.76	-1.559718E-06	-3.032082E-06
1178	12.77	-1.552393E-06	-3.017857E-06
1179	12.78	-1.545108E-06	-3.003710E-06
1180	12.79	-1.537863E-06	-2.989641E-06
1181	12.80	-1.530658E-06	-2.975648E-06
1182	12.81	-1.523491E-06	-2.961732E-06
1183	12.82	-1.516364E-06	-2.947891E-06
1184	12.83	-1.509276E-06	-2.934126E-06
1185	12.84	-1.502226E-06	-2.920436E-06
1186	12.85	-1.495215E-06	-2.906820E-06
1187	12.86	-1.488242E-06	-2.893279E-06
1188	12.87	-1.481307E-06	-2.879810E-06
1189	12.88	-1.474410E-06	-2.866415E-06
1190	12.89	-1.467550E-06	-2.853093E-06
1191	12.90	-1.460727E-06	-2.839843E-06
1192	12.91	-1.453941E-06	-2.826664E-06
1193	12.92	-1.447192E-06	-2.813557E-06
1194	12.93	-1.440479E-06	-2.800520E-06
1195	12.94	-1.433803E-06	-2.787554E-06
1196	12.95	-1.427163E-06	-2.774658E-06
1197	12.96	-1.420559E-06	-2.761832E-06
1198	12.97	-1.413990E-06	-2.749074E-06
1199	12.98	-1.407457E-06	-2.736386E-06
1200	12.99	-1.400959E-06	-2.723765E-06
