# DATE: 2024-07-07  UNITS: metal  CONTRIBUTOR: By STUDENT			
# FHEP: Temp 303 [K], mr 0.5 [g/mol], Sigma 2.72 [A], Epsilon 0.0008617333262 [eV]			
			
ENTRY			
N 1200 R 1.0 12.99			
			
1	1.00	1.550980E+03	1.631353E+04
2	1.01	1.359050E+03	1.411625E+04
3	1.02	1.192522E+03	1.223374E+04
4	1.03	1.047823E+03	1.061831E+04
5	1.04	9.219074E+02	9.229850E+03
6	1.05	8.121826E+02	8.034628E+03
7	1.06	7.164336E+02	7.004175E+03
8	1.07	6.327660E+02	6.114446E+03
9	1.08	5.595576E+02	5.345091E+03
10	1.09	4.954168E+02	4.678863E+03
11	1.10	4.391481E+02	4.101119E+03
12	1.11	3.897228E+02	3.599408E+03
13	1.12	3.462548E+02	3.163127E+03
14	1.13	3.079795E+02	2.783231E+03
15	1.14	2.742362E+02	2.451996E+03
16	1.15	2.444533E+02	2.162813E+03
17	1.16	2.181357E+02	1.910019E+03
18	1.17	1.948538E+02	1.688758E+03
19	1.18	1.742346E+02	1.494857E+03
20	1.19	1.559535E+02	1.324726E+03
21	1.20	1.397281E+02	1.175272E+03
22	1.21	1.253118E+02	1.043828E+03
23	1.22	1.124898E+02	9.280886E+02
24	1.23	1.010740E+02	8.260624E+02
25	1.24	9.090013E+01	7.360232E+02
26	1.25	8.182404E+01	6.564750E+02
27	1.26	7.371944E+01	5.861190E+02
28	1.27	6.647546E+01	5.238264E+02
29	1.28	5.999464E+01	4.686149E+02
30	1.29	5.419122E+01	4.196289E+02
31	1.30	4.898968E+01	3.761218E+02
32	1.31	4.432345E+01	3.374422E+02
33	1.32	4.013375E+01	3.030201E+02
34	1.33	3.636868E+01	2.723571E+02
35	1.34	3.298231E+01	2.450164E+02
36	1.35	2.993400E+01	2.206150E+02
37	1.36	2.718776E+01	1.988164E+02
38	1.37	2.471163E+01	1.793251E+02
39	1.38	2.247727E+01	1.618812E+02
40	1.39	2.045949E+01	1.462556E+02
41	1.40	1.863588E+01	1.322464E+02
42	1.41	1.698651E+01	1.196756E+02
43	1.42	1.549361E+01	1.083857E+02
44	1.43	1.414134E+01	9.823780E+01
45	1.44	1.291555E+01	8.910868E+01
46	1.45	1.180363E+01	8.088937E+01
47	1.46	1.079428E+01	7.348321E+01
48	1.47	9.877406E+00	6.680442E+01
49	1.48	9.043963E+00	6.077685E+01
50	1.49	8.285849E+00	5.533276E+01
51	1.50	7.595798E+00	5.041193E+01
52	1.51	6.967288E+00	4.596069E+01
53	1.52	6.394460E+00	4.193125E+01
54	1.53	5.872051E+00	3.828095E+01
55	1.54	5.395324E+00	3.497173E+01
56	1.55	4.960016E+00	3.196957E+01
57	1.56	4.562287E+00	2.924406E+01
58	1.57	4.198675E+00	2.676800E+01
59	1.58	3.866058E+00	2.451700E+01
60	1.59	3.561615E+00	2.246922E+01
61	1.60	3.282801E+00	2.060508E+01
62	1.61	3.027314E+00	1.890698E+01
63	1.62	2.793072E+00	1.735914E+01
64	1.63	2.578190E+00	1.594734E+01
65	1.64	2.380962E+00	1.465882E+01
66	1.65	2.199841E+00	1.348208E+01
67	1.66	2.033423E+00	1.240676E+01
68	1.67	1.880436E+00	1.142352E+01
69	1.68	1.739724E+00	1.052393E+01
70	1.69	1.610237E+00	9.700393E+00
71	1.70	1.491021E+00	8.946033E+00
72	1.71	1.381206E+00	8.254641E+00
73	1.72	1.280004E+00	7.620600E+00
74	1.73	1.186694E+00	7.038825E+00
75	1.74	1.100620E+00	6.504712E+00
76	1.75	1.021185E+00	6.014086E+00
77	1.76	9.478427E-01	5.563164E+00
78	1.77	8.800962E-01	5.148509E+00
79	1.78	8.174905E-01	4.767005E+00
80	1.79	7.596105E-01	4.415819E+00
81	1.80	7.060764E-01	4.092374E+00
82	1.81	6.565411E-01	3.794328E+00
83	1.82	6.106866E-01	3.519549E+00
84	1.83	5.682221E-01	3.266095E+00
85	1.84	5.288811E-01	3.032197E+00
86	1.85	4.924193E-01	2.816243E+00
87	1.86	4.586127E-01	2.616761E+00
88	1.87	4.272559E-01	2.432407E+00
89	1.88	3.981602E-01	2.261956E+00
90	1.89	3.711525E-01	2.104287E+00
91	1.90	3.460737E-01	1.958376E+00
92	1.91	3.227775E-01	1.823285E+00
93	1.92	3.011296E-01	1.698157E+00
94	1.93	2.810062E-01	1.582207E+00
95	1.94	2.622935E-01	1.474715E+00
96	1.95	2.448866E-01	1.375023E+00
97	1.96	2.286890E-01	1.282526E+00
98	1.97	2.136117E-01	1.196669E+00
99	1.98	1.995727E-01	1.116943E+00
100	1.99	1.864962E-01	1.042881E+00
101	2.00	1.743125E-01	9.740522E-01
102	2.01	1.629572E-01	9.100627E-01
103	2.02	1.523706E-01	8.505490E-01
104	2.03	1.424979E-01	7.951769E-01
105	2.04	1.332881E-01	7.436389E-01
106	2.05	1.246944E-01	6.956517E-01
107	2.06	1.166731E-01	6.509543E-01
108	2.07	1.091842E-01	6.093061E-01
109	2.08	1.021904E-01	5.704854E-01
110	2.09	9.565722E-02	5.342874E-01
111	2.10	8.955273E-02	5.005233E-01
112	2.11	8.384735E-02	4.690186E-01
113	2.12	7.851366E-02	4.396122E-01
114	2.13	7.352621E-02	4.121553E-01
115	2.14	6.886141E-02	3.865103E-01
116	2.15	6.449737E-02	3.625497E-01
117	2.16	6.041375E-02	3.401559E-01
118	2.17	5.659170E-02	3.192199E-01
119	2.18	5.301367E-02	2.996406E-01
120	2.19	4.966336E-02	2.813246E-01
121	2.20	4.652564E-02	2.641852E-01
122	2.21	4.358643E-02	2.481421E-01
123	2.22	4.083262E-02	2.331208E-01
124	2.23	3.825202E-02	2.190522E-01
125	2.24	3.583330E-02	2.058720E-01
126	2.25	3.356589E-02	1.935209E-01
127	2.26	3.143995E-02	1.819434E-01
128	2.27	2.944634E-02	1.710882E-01
129	2.28	2.757649E-02	1.609075E-01
130	2.29	2.582247E-02	1.513569E-01
131	2.30	2.417684E-02	1.423951E-01
132	2.31	2.263269E-02	1.339836E-01
133	2.32	2.118356E-02	1.260868E-01
134	2.33	1.982342E-02	1.186714E-01
135	2.34	1.854665E-02	1.117062E-01
136	2.35	1.734800E-02	1.051625E-01
137	2.36	1.622256E-02	9.901324E-02
138	2.37	1.516574E-02	9.323343E-02
139	2.38	1.417328E-02	8.779963E-02
140	2.39	1.324115E-02	8.269001E-02
141	2.40	1.236563E-02	7.788419E-02
142	2.41	1.154321E-02	7.336317E-02
143	2.42	1.077062E-02	6.910920E-02
144	2.43	1.004479E-02	6.510568E-02
145	2.44	9.362856E-03	6.133714E-02
146	2.45	8.722140E-03	5.778910E-02
147	2.46	8.120126E-03	5.444803E-02
148	2.47	7.554460E-03	5.130126E-02
149	2.48	7.022938E-03	4.833698E-02
150	2.49	6.523495E-03	4.554411E-02
151	2.50	6.054195E-03	4.291228E-02
152	2.51	5.613223E-03	4.043179E-02
153	2.52	5.198878E-03	3.809358E-02
154	2.53	4.809565E-03	3.588912E-02
155	2.54	4.443786E-03	3.381045E-02
156	2.55	4.100138E-03	3.185009E-02
157	2.56	3.777304E-03	3.000106E-02
158	2.57	3.474046E-03	2.825678E-02
159	2.58	3.189204E-03	2.661110E-02
160	2.59	2.921687E-03	2.505825E-02
161	2.60	2.670472E-03	2.359280E-02
162	2.61	2.434598E-03	2.220968E-02
163	2.62	2.213161E-03	2.090410E-02
164	2.63	2.005312E-03	1.967159E-02
165	2.64	1.810254E-03	1.850793E-02
166	2.65	1.627237E-03	1.740917E-02
167	2.66	1.455555E-03	1.637159E-02
168	2.67	1.294546E-03	1.539170E-02
169	2.68	1.143587E-03	1.446622E-02
170	2.69	1.002091E-03	1.359205E-02
171	2.70	8.695055E-04	1.276630E-02
172	2.71	7.453128E-04	1.198622E-02
173	2.72	6.290239E-04	1.124926E-02
174	2.73	5.201790E-04	1.055298E-02
175	2.74	4.183455E-04	9.895119E-03
176	2.75	3.231158E-04	9.273525E-03
177	2.76	2.341063E-04	8.686181E-03
178	2.77	1.509558E-04	8.131183E-03
179	2.78	7.332384E-05	7.606741E-03
180	2.79	8.900038E-07	7.111165E-03
181	2.80	-6.664772E-05	6.642865E-03
182	2.81	-1.295739E-04	6.200341E-03
183	2.82	-1.881565E-04	5.782177E-03
184	2.83	-2.426484E-04	5.387040E-03
185	2.84	-2.932876E-04	5.013673E-03
186	2.85	-3.402987E-04	4.660888E-03
187	2.86	-3.838933E-04	4.327567E-03
188	2.87	-4.242708E-04	4.012651E-03
189	2.88	-4.616196E-04	3.715144E-03
190	2.89	-4.961169E-04	3.434105E-03
191	2.90	-5.279301E-04	3.168644E-03
192	2.91	-5.572171E-04	2.917922E-03
193	2.92	-5.841266E-04	2.681145E-03
194	2.93	-6.087990E-04	2.457566E-03
195	2.94	-6.313669E-04	2.246475E-03
196	2.95	-6.519552E-04	2.047206E-03
197	2.96	-6.706818E-04	1.859124E-03
198	2.97	-6.876579E-04	1.681633E-03
199	2.98	-7.029885E-04	1.514169E-03
200	2.99	-7.167726E-04	1.356196E-03
201	3.00	-7.291038E-04	1.207211E-03
202	3.01	-7.400702E-04	1.066735E-03
203	3.02	-7.497551E-04	9.343165E-04
204	3.03	-7.582370E-04	8.095281E-04
205	3.04	-7.655901E-04	6.919654E-04
206	3.05	-7.718843E-04	5.812454E-04
207	3.06	-7.771858E-04	4.770060E-04
208	3.07	-7.815568E-04	3.789044E-04
209	3.08	-7.850562E-04	2.866158E-04
210	3.09	-7.877395E-04	1.998329E-04
211	3.10	-7.896590E-04	1.182648E-04
212	3.11	-7.908643E-04	4.163575E-05
213	3.12	-7.914020E-04	-3.031520E-05
214	3.13	-7.913161E-04	-9.783532E-05
215	3.14	-7.906482E-04	-1.611588E-04
216	3.15	-7.894376E-04	-2.205077E-04
217	3.16	-7.877211E-04	-2.760921E-04
218	3.17	-7.855337E-04	-3.281114E-04
219	3.18	-7.829084E-04	-3.767544E-04
220	3.19	-7.798762E-04	-4.222000E-04
221	3.20	-7.764664E-04	-4.646179E-04
222	3.21	-7.727065E-04	-5.041690E-04
223	3.22	-7.686228E-04	-5.410057E-04
224	3.23	-7.642397E-04	-5.752725E-04
225	3.24	-7.595804E-04	-6.071065E-04
226	3.25	-7.546667E-04	-6.366378E-04
227	3.26	-7.495192E-04	-6.639895E-04
228	3.27	-7.441573E-04	-6.892785E-04
229	3.28	-7.385992E-04	-7.126158E-04
230	3.29	-7.328622E-04	-7.341064E-04
231	3.30	-7.269624E-04	-7.538502E-04
232	3.31	-7.209151E-04	-7.719418E-04
233	3.32	-7.147346E-04	-7.884709E-04
234	3.33	-7.084344E-04	-8.035228E-04
235	3.34	-7.020273E-04	-8.171781E-04
236	3.35	-6.955251E-04	-8.295137E-04
237	3.36	-6.889392E-04	-8.406021E-04
238	3.37	-6.822800E-04	-8.505125E-04
239	3.38	-6.755574E-04	-8.593103E-04
240	3.39	-6.687809E-04	-8.670578E-04
241	3.40	-6.619590E-04	-8.738137E-04
242	3.41	-6.551000E-04	-8.796342E-04
243	3.42	-6.482116E-04	-8.845723E-04
244	3.43	-6.413010E-04	-8.886784E-04
245	3.44	-6.343749E-04	-8.920002E-04
246	3.45	-6.274396E-04	-8.945833E-04
247	3.46	-6.205011E-04	-8.964707E-04
248	3.47	-6.135647E-04	-8.977031E-04
249	3.48	-6.066358E-04	-8.983194E-04
250	3.49	-5.997191E-04	-8.983564E-04
251	3.50	-5.928191E-04	-8.978490E-04
252	3.51	-5.859399E-04	-8.968302E-04
253	3.52	-5.790855E-04	-8.953316E-04
254	3.53	-5.722595E-04	-8.933829E-04
255	3.54	-5.654651E-04	-8.910124E-04
256	3.55	-5.587056E-04	-8.882469E-04
257	3.56	-5.519838E-04	-8.851119E-04
258	3.57	-5.453023E-04	-8.816316E-04
259	3.58	-5.386637E-04	-8.778287E-04
260	3.59	-5.320701E-04	-8.737250E-04
261	3.60	-5.255237E-04	-8.693411E-04
262	3.61	-5.190263E-04	-8.646966E-04
263	3.62	-5.125797E-04	-8.598098E-04
264	3.63	-5.061856E-04	-8.546983E-04
265	3.64	-4.998452E-04	-8.493789E-04
266	3.65	-4.935600E-04	-8.438671E-04
267	3.66	-4.873311E-04	-8.381779E-04
268	3.67	-4.811596E-04	-8.323255E-04
269	3.68	-4.750464E-04	-8.263233E-04
270	3.69	-4.689924E-04	-8.201838E-04
271	3.70	-4.629983E-04	-8.139192E-04
272	3.71	-4.570647E-04	-8.075407E-04
273	3.72	-4.511923E-04	-8.010592E-04
274	3.73	-4.453813E-04	-7.944848E-04
275	3.74	-4.396324E-04	-7.878270E-04
276	3.75	-4.339457E-04	-7.810951E-04
277	3.76	-4.283215E-04	-7.742977E-04
278	3.77	-4.227600E-04	-7.674427E-04
279	3.78	-4.172614E-04	-7.605379E-04
280	3.79	-4.118256E-04	-7.535907E-04
281	3.80	-4.064528E-04	-7.466077E-04
282	3.81	-4.011428E-04	-7.395955E-04
283	3.82	-3.958955E-04	-7.325601E-04
284	3.83	-3.907110E-04	-7.255073E-04
285	3.84	-3.855889E-04	-7.184426E-04
286	3.85	-3.805290E-04	-7.113709E-04
287	3.86	-3.755312E-04	-7.042971E-04
288	3.87	-3.705952E-04	-6.972258E-04
289	3.88	-3.657206E-04	-6.901611E-04
290	3.89	-3.609072E-04	-6.831070E-04
291	3.90	-3.561544E-04	-6.760674E-04
292	3.91	-3.514621E-04	-6.690456E-04
293	3.92	-3.468298E-04	-6.620451E-04
294	3.93	-3.422569E-04	-6.550688E-04
295	3.94	-3.377432E-04	-6.481196E-04
296	3.95	-3.332881E-04	-6.412004E-04
297	3.96	-3.288912E-04	-6.343135E-04
298	3.97	-3.245520E-04	-6.274613E-04
299	3.98	-3.202699E-04	-6.206461E-04
300	3.99	-3.160445E-04	-6.138698E-04
301	4.00	-3.118751E-04	-6.071343E-04
302	4.01	-3.077614E-04	-6.004414E-04
303	4.02	-3.037027E-04	-5.937927E-04
304	4.03	-2.996985E-04	-5.871898E-04
305	4.04	-2.957482E-04	-5.806339E-04
306	4.05	-2.918513E-04	-5.741264E-04
307	4.06	-2.880072E-04	-5.676684E-04
308	4.07	-2.842152E-04	-5.612610E-04
309	4.08	-2.804750E-04	-5.549052E-04
310	4.09	-2.767857E-04	-5.486018E-04
311	4.10	-2.731470E-04	-5.423516E-04
312	4.11	-2.695581E-04	-5.361554E-04
313	4.12	-2.660186E-04	-5.300137E-04
314	4.13	-2.625278E-04	-5.239272E-04
315	4.14	-2.590851E-04	-5.178963E-04
316	4.15	-2.556899E-04	-5.119215E-04
317	4.16	-2.523418E-04	-5.060031E-04
318	4.17	-2.490400E-04	-5.001415E-04
319	4.18	-2.457840E-04	-4.943369E-04
320	4.19	-2.425733E-04	-4.885895E-04
321	4.20	-2.394072E-04	-4.828995E-04
322	4.21	-2.362852E-04	-4.772670E-04
323	4.22	-2.332067E-04	-4.716921E-04
324	4.23	-2.301712E-04	-4.661747E-04
325	4.24	-2.271780E-04	-4.607150E-04
326	4.25	-2.242267E-04	-4.553128E-04
327	4.26	-2.213166E-04	-4.499680E-04
328	4.27	-2.184473E-04	-4.446806E-04
329	4.28	-2.156181E-04	-4.394505E-04
330	4.29	-2.128285E-04	-4.342773E-04
331	4.30	-2.100780E-04	-4.291610E-04
332	4.31	-2.073661E-04	-4.241014E-04
333	4.32	-2.046922E-04	-4.190981E-04
334	4.33	-2.020557E-04	-4.141510E-04
335	4.34	-1.994563E-04	-4.092597E-04
336	4.35	-1.968934E-04	-4.044240E-04
337	4.36	-1.943664E-04	-3.996435E-04
338	4.37	-1.918748E-04	-3.949178E-04
339	4.38	-1.894182E-04	-3.902467E-04
340	4.39	-1.869961E-04	-3.856298E-04
341	4.40	-1.846080E-04	-3.810667E-04
342	4.41	-1.822534E-04	-3.765570E-04
343	4.42	-1.799317E-04	-3.721002E-04
344	4.43	-1.776427E-04	-3.676961E-04
345	4.44	-1.753857E-04	-3.633442E-04
346	4.45	-1.731604E-04	-3.590440E-04
347	4.46	-1.709662E-04	-3.547951E-04
348	4.47	-1.688028E-04	-3.505970E-04
349	4.48	-1.666696E-04	-3.464494E-04
350	4.49	-1.645663E-04	-3.423518E-04
351	4.50	-1.624924E-04	-3.383037E-04
352	4.51	-1.604475E-04	-3.343046E-04
353	4.52	-1.584311E-04	-3.303541E-04
354	4.53	-1.564429E-04	-3.264517E-04
355	4.54	-1.544825E-04	-3.225969E-04
356	4.55	-1.525494E-04	-3.187892E-04
357	4.56	-1.506432E-04	-3.150283E-04
358	4.57	-1.487636E-04	-3.113136E-04
359	4.58	-1.469101E-04	-3.076445E-04
360	4.59	-1.450825E-04	-3.040207E-04
361	4.60	-1.432802E-04	-3.004417E-04
362	4.61	-1.415029E-04	-2.969069E-04
363	4.62	-1.397503E-04	-2.934160E-04
364	4.63	-1.380220E-04	-2.899683E-04
365	4.64	-1.363177E-04	-2.865635E-04
366	4.65	-1.346369E-04	-2.832011E-04
367	4.66	-1.329794E-04	-2.798805E-04
368	4.67	-1.313447E-04	-2.766013E-04
369	4.68	-1.297326E-04	-2.733631E-04
370	4.69	-1.281428E-04	-2.701653E-04
371	4.70	-1.265749E-04	-2.670075E-04
372	4.71	-1.250285E-04	-2.638893E-04
373	4.72	-1.235034E-04	-2.608101E-04
374	4.73	-1.219992E-04	-2.577694E-04
375	4.74	-1.205157E-04	-2.547670E-04
376	4.75	-1.190525E-04	-2.518022E-04
377	4.76	-1.176094E-04	-2.488746E-04
378	4.77	-1.161860E-04	-2.459839E-04
379	4.78	-1.147820E-04	-2.431294E-04
380	4.79	-1.133972E-04	-2.403109E-04
381	4.80	-1.120313E-04	-2.375278E-04
382	4.81	-1.106840E-04	-2.347797E-04
383	4.82	-1.093550E-04	-2.320662E-04
384	4.83	-1.080441E-04	-2.293868E-04
385	4.84	-1.067509E-04	-2.267412E-04
386	4.85	-1.054753E-04	-2.241289E-04
387	4.86	-1.042169E-04	-2.215495E-04
388	4.87	-1.029756E-04	-2.190025E-04
389	4.88	-1.017510E-04	-2.164877E-04
390	4.89	-1.005430E-04	-2.140045E-04
391	4.90	-9.935120E-05	-2.115525E-04
392	4.91	-9.817546E-05	-2.091314E-04
393	4.92	-9.701552E-05	-2.067408E-04
394	4.93	-9.587116E-05	-2.043803E-04
395	4.94	-9.474213E-05	-2.020495E-04
396	4.95	-9.362822E-05	-1.997479E-04
397	4.96	-9.252920E-05	-1.974754E-04
398	4.97	-9.144486E-05	-1.952314E-04
399	4.98	-9.037498E-05	-1.930155E-04
400	4.99	-8.931935E-05	-1.908276E-04
401	5.00	-8.827776E-05	-1.886670E-04
402	5.01	-8.725001E-05	-1.865337E-04
403	5.02	-8.623589E-05	-1.844270E-04
404	5.03	-8.523521E-05	-1.823468E-04
405	5.04	-8.424777E-05	-1.802927E-04
406	5.05	-8.327338E-05	-1.782642E-04
407	5.06	-8.231184E-05	-1.762612E-04
408	5.07	-8.136298E-05	-1.742833E-04
409	5.08	-8.042660E-05	-1.723300E-04
410	5.09	-7.950252E-05	-1.704012E-04
411	5.10	-7.859058E-05	-1.684965E-04
412	5.11	-7.769058E-05	-1.666155E-04
413	5.12	-7.680236E-05	-1.647580E-04
414	5.13	-7.592575E-05	-1.629237E-04
415	5.14	-7.506058E-05	-1.611122E-04
416	5.15	-7.420669E-05	-1.593233E-04
417	5.16	-7.336390E-05	-1.575566E-04
418	5.17	-7.253207E-05	-1.558118E-04
419	5.18	-7.171104E-05	-1.540887E-04
420	5.19	-7.090064E-05	-1.523870E-04
421	5.20	-7.010073E-05	-1.507064E-04
422	5.21	-6.931115E-05	-1.490466E-04
423	5.22	-6.853177E-05	-1.474074E-04
424	5.23	-6.776242E-05	-1.457884E-04
425	5.24	-6.700297E-05	-1.441894E-04
426	5.25	-6.625328E-05	-1.426102E-04
427	5.26	-6.551321E-05	-1.410504E-04
428	5.27	-6.478261E-05	-1.395099E-04
429	5.28	-6.406137E-05	-1.379883E-04
430	5.29	-6.334933E-05	-1.364855E-04
431	5.30	-6.264638E-05	-1.350011E-04
432	5.31	-6.195237E-05	-1.335349E-04
433	5.32	-6.126720E-05	-1.320867E-04
434	5.33	-6.059072E-05	-1.306563E-04
435	5.34	-5.992282E-05	-1.292433E-04
436	5.35	-5.926338E-05	-1.278477E-04
437	5.36	-5.861227E-05	-1.264691E-04
438	5.37	-5.796938E-05	-1.251073E-04
439	5.38	-5.733460E-05	-1.237621E-04
440	5.39	-5.670780E-05	-1.224332E-04
441	5.40	-5.608888E-05	-1.211206E-04
442	5.41	-5.547773E-05	-1.198239E-04
443	5.42	-5.487424E-05	-1.185429E-04
444	5.43	-5.427829E-05	-1.172775E-04
445	5.44	-5.368980E-05	-1.160274E-04
446	5.45	-5.310864E-05	-1.147924E-04
447	5.46	-5.253472E-05	-1.135724E-04
448	5.47	-5.196794E-05	-1.123670E-04
449	5.48	-5.140819E-05	-1.111762E-04
450	5.49	-5.085539E-05	-1.099998E-04
451	5.50	-5.030943E-05	-1.088375E-04
452	5.51	-4.977022E-05	-1.076891E-04
453	5.52	-4.923766E-05	-1.065546E-04
454	5.53	-4.871167E-05	-1.054336E-04
455	5.54	-4.819215E-05	-1.043261E-04
456	5.55	-4.767902E-05	-1.032318E-04
457	5.56	-4.717218E-05	-1.021506E-04
458	5.57	-4.667155E-05	-1.010823E-04
459	5.58	-4.617705E-05	-1.000267E-04
460	5.59	-4.568858E-05	-9.898372E-05
461	5.60	-4.520607E-05	-9.795311E-05
462	5.61	-4.472944E-05	-9.693474E-05
463	5.62	-4.425860E-05	-9.592845E-05
464	5.63	-4.379348E-05	-9.493408E-05
465	5.64	-4.333400E-05	-9.395148E-05
466	5.65	-4.288008E-05	-9.298049E-05
467	5.66	-4.243164E-05	-9.202095E-05
468	5.67	-4.198861E-05	-9.107274E-05
469	5.68	-4.155093E-05	-9.013568E-05
470	5.69	-4.111851E-05	-8.920964E-05
471	5.70	-4.069128E-05	-8.829448E-05
472	5.71	-4.026918E-05	-8.739006E-05
473	5.72	-3.985213E-05	-8.649623E-05
474	5.73	-3.944007E-05	-8.561285E-05
475	5.74	-3.903293E-05	-8.473980E-05
476	5.75	-3.863064E-05	-8.387694E-05
477	5.76	-3.823314E-05	-8.302414E-05
478	5.77	-3.784037E-05	-8.218126E-05
479	5.78	-3.745226E-05	-8.134818E-05
480	5.79	-3.706874E-05	-8.052478E-05
481	5.80	-3.668977E-05	-7.971092E-05
482	5.81	-3.631527E-05	-7.890649E-05
483	5.82	-3.594519E-05	-7.811136E-05
484	5.83	-3.557946E-05	-7.732542E-05
485	5.84	-3.521804E-05	-7.654855E-05
486	5.85	-3.486087E-05	-7.578062E-05
487	5.86	-3.450788E-05	-7.502153E-05
488	5.87	-3.415902E-05	-7.427117E-05
489	5.88	-3.381424E-05	-7.352941E-05
490	5.89	-3.347348E-05	-7.279616E-05
491	5.90	-3.313670E-05	-7.207130E-05
492	5.91	-3.280384E-05	-7.135472E-05
493	5.92	-3.247484E-05	-7.064633E-05
494	5.93	-3.214966E-05	-6.994601E-05
495	5.94	-3.182824E-05	-6.925367E-05
496	5.95	-3.151055E-05	-6.856920E-05
497	5.96	-3.119652E-05	-6.789250E-05
498	5.97	-3.088611E-05	-6.722347E-05
499	5.98	-3.057928E-05	-6.656203E-05
500	5.99	-3.027598E-05	-6.590806E-05
501	6.00	-2.997615E-05	-6.526148E-05
502	6.01	-2.967977E-05	-6.462220E-05
503	6.02	-2.938678E-05	-6.399011E-05
504	6.03	-2.909713E-05	-6.336514E-05
505	6.04	-2.881079E-05	-6.274719E-05
506	6.05	-2.852771E-05	-6.213617E-05
507	6.06	-2.824785E-05	-6.153200E-05
508	6.07	-2.797118E-05	-6.093459E-05
509	6.08	-2.769764E-05	-6.034385E-05
510	6.09	-2.742719E-05	-5.975971E-05
511	6.10	-2.715981E-05	-5.918208E-05
512	6.11	-2.689545E-05	-5.861088E-05
513	6.12	-2.663406E-05	-5.804602E-05
514	6.13	-2.637562E-05	-5.748744E-05
515	6.14	-2.612008E-05	-5.693505E-05
516	6.15	-2.586742E-05	-5.638877E-05
517	6.16	-2.561758E-05	-5.584853E-05
518	6.17	-2.537054E-05	-5.531426E-05
519	6.18	-2.512626E-05	-5.478588E-05
520	6.19	-2.488471E-05	-5.426331E-05
521	6.20	-2.464584E-05	-5.374649E-05
522	6.21	-2.440964E-05	-5.323534E-05
523	6.22	-2.417605E-05	-5.272980E-05
524	6.23	-2.394506E-05	-5.222980E-05
525	6.24	-2.371663E-05	-5.173526E-05
526	6.25	-2.349072E-05	-5.124613E-05
527	6.26	-2.326731E-05	-5.076233E-05
528	6.27	-2.304636E-05	-5.028380E-05
529	6.28	-2.282785E-05	-4.981047E-05
530	6.29	-2.261173E-05	-4.934228E-05
531	6.30	-2.239799E-05	-4.887918E-05
532	6.31	-2.218659E-05	-4.842109E-05
533	6.32	-2.197751E-05	-4.796795E-05
534	6.33	-2.177071E-05	-4.751971E-05
535	6.34	-2.156616E-05	-4.707630E-05
536	6.35	-2.136385E-05	-4.663768E-05
537	6.36	-2.116374E-05	-4.620377E-05
538	6.37	-2.096580E-05	-4.577452E-05
539	6.38	-2.077001E-05	-4.534988E-05
540	6.39	-2.057634E-05	-4.492979E-05
541	6.40	-2.038476E-05	-4.451419E-05
542	6.41	-2.019525E-05	-4.410304E-05
543	6.42	-2.000779E-05	-4.369627E-05
544	6.43	-1.982235E-05	-4.329384E-05
545	6.44	-1.963890E-05	-4.289569E-05
546	6.45	-1.945742E-05	-4.250177E-05
547	6.46	-1.927789E-05	-4.211203E-05
548	6.47	-1.910028E-05	-4.172643E-05
549	6.48	-1.892457E-05	-4.134490E-05
550	6.49	-1.875073E-05	-4.096741E-05
551	6.50	-1.857875E-05	-4.059390E-05
552	6.51	-1.840860E-05	-4.022433E-05
553	6.52	-1.824025E-05	-3.985865E-05
554	6.53	-1.807370E-05	-3.949681E-05
555	6.54	-1.790891E-05	-3.913878E-05
556	6.55	-1.774586E-05	-3.878449E-05
557	6.56	-1.758454E-05	-3.843392E-05
558	6.57	-1.742491E-05	-3.808701E-05
559	6.58	-1.726698E-05	-3.774373E-05
560	6.59	-1.711070E-05	-3.740402E-05
561	6.60	-1.695606E-05	-3.706785E-05
562	6.61	-1.680305E-05	-3.673518E-05
563	6.62	-1.665164E-05	-3.640596E-05
564	6.63	-1.650182E-05	-3.608016E-05
565	6.64	-1.635356E-05	-3.575773E-05
566	6.65	-1.620685E-05	-3.543863E-05
567	6.66	-1.606166E-05	-3.512283E-05
568	6.67	-1.591799E-05	-3.481029E-05
569	6.68	-1.577581E-05	-3.450097E-05
570	6.69	-1.563510E-05	-3.419483E-05
571	6.70	-1.549585E-05	-3.389184E-05
572	6.71	-1.535805E-05	-3.359195E-05
573	6.72	-1.522166E-05	-3.329514E-05
574	6.73	-1.508668E-05	-3.300136E-05
575	6.74	-1.495310E-05	-3.271059E-05
576	6.75	-1.482088E-05	-3.242278E-05
577	6.76	-1.469003E-05	-3.213791E-05
578	6.77	-1.456051E-05	-3.185593E-05
579	6.78	-1.443233E-05	-3.157682E-05
580	6.79	-1.430545E-05	-3.130054E-05
581	6.80	-1.417987E-05	-3.102707E-05
582	6.81	-1.405557E-05	-3.075636E-05
583	6.82	-1.393254E-05	-3.048839E-05
584	6.83	-1.381076E-05	-3.022312E-05
585	6.84	-1.369021E-05	-2.996053E-05
586	6.85	-1.357089E-05	-2.970058E-05
587	6.86	-1.345277E-05	-2.944325E-05
588	6.87	-1.333585E-05	-2.918850E-05
589	6.88	-1.322012E-05	-2.893630E-05
590	6.89	-1.310554E-05	-2.868663E-05
591	6.90	-1.299213E-05	-2.843946E-05
592	6.91	-1.287985E-05	-2.819475E-05
593	6.92	-1.276870E-05	-2.795249E-05
594	6.93	-1.265867E-05	-2.771264E-05
595	6.94	-1.254973E-05	-2.747517E-05
596	6.95	-1.244189E-05	-2.724007E-05
597	6.96	-1.233512E-05	-2.700730E-05
598	6.97	-1.222942E-05	-2.677683E-05
599	6.98	-1.212478E-05	-2.654864E-05
600	6.99	-1.202117E-05	-2.632271E-05
601	7.00	-1.191859E-05	-2.609901E-05
602	7.01	-1.181703E-05	-2.587751E-05
603	7.02	-1.171648E-05	-2.565820E-05
604	7.03	-1.161692E-05	-2.544104E-05
605	7.04	-1.151834E-05	-2.522601E-05
606	7.05	-1.142074E-05	-2.501309E-05
607	7.06	-1.132409E-05	-2.480225E-05
608	7.07	-1.122840E-05	-2.459348E-05
609	7.08	-1.113365E-05	-2.438674E-05
610	7.09	-1.103983E-05	-2.418202E-05
611	7.10	-1.094693E-05	-2.397929E-05
612	7.11	-1.085493E-05	-2.377854E-05
613	7.12	-1.076384E-05	-2.357974E-05
614	7.13	-1.067363E-05	-2.338286E-05
615	7.14	-1.058430E-05	-2.318789E-05
616	7.15	-1.049585E-05	-2.299481E-05
617	7.16	-1.040825E-05	-2.280359E-05
618	7.17	-1.032150E-05	-2.261422E-05
619	7.18	-1.023559E-05	-2.242668E-05
620	7.19	-1.015052E-05	-2.224094E-05
621	7.20	-1.006627E-05	-2.205698E-05
622	7.21	-9.982825E-06	-2.187479E-05
623	7.22	-9.900189E-06	-2.169435E-05
624	7.23	-9.818349E-06	-2.151564E-05
625	7.24	-9.737296E-06	-2.133863E-05
626	7.25	-9.657021E-06	-2.116332E-05
627	7.26	-9.577516E-06	-2.098967E-05
628	7.27	-9.498771E-06	-2.081768E-05
629	7.28	-9.420780E-06	-2.064733E-05
630	7.29	-9.343534E-06	-2.047859E-05
631	7.30	-9.267024E-06	-2.031146E-05
632	7.31	-9.191244E-06	-2.014591E-05
633	7.32	-9.116184E-06	-1.998193E-05
634	7.33	-9.041837E-06	-1.981949E-05
635	7.34	-8.968195E-06	-1.965859E-05
636	7.35	-8.895251E-06	-1.949921E-05
637	7.36	-8.822997E-06	-1.934133E-05
638	7.37	-8.751426E-06	-1.918493E-05
639	7.38	-8.680530E-06	-1.903000E-05
640	7.39	-8.610302E-06	-1.887653E-05
641	7.40	-8.540736E-06	-1.872449E-05
642	7.41	-8.471823E-06	-1.857387E-05
643	7.42	-8.403557E-06	-1.842466E-05
644	7.43	-8.335931E-06	-1.827684E-05
645	7.44	-8.268938E-06	-1.813040E-05
646	7.45	-8.202571E-06	-1.798533E-05
647	7.46	-8.136825E-06	-1.784160E-05
648	7.47	-8.071691E-06	-1.769921E-05
649	7.48	-8.007164E-06	-1.755813E-05
650	7.49	-7.943237E-06	-1.741836E-05
651	7.50	-7.879904E-06	-1.727989E-05
652	7.51	-7.817159E-06	-1.714269E-05
653	7.52	-7.754995E-06	-1.700676E-05
654	7.53	-7.693406E-06	-1.687209E-05
655	7.54	-7.632386E-06	-1.673865E-05
656	7.55	-7.571929E-06	-1.660643E-05
657	7.56	-7.512030E-06	-1.647544E-05
658	7.57	-7.452682E-06	-1.634564E-05
659	7.58	-7.393879E-06	-1.621703E-05
660	7.59	-7.335617E-06	-1.608959E-05
661	7.60	-7.277888E-06	-1.596332E-05
662	7.61	-7.220689E-06	-1.583820E-05
663	7.62	-7.164012E-06	-1.571422E-05
664	7.63	-7.107854E-06	-1.559137E-05
665	7.64	-7.052207E-06	-1.546964E-05
666	7.65	-6.997068E-06	-1.534900E-05
667	7.66	-6.942430E-06	-1.522947E-05
668	7.67	-6.888289E-06	-1.511101E-05
669	7.68	-6.834639E-06	-1.499363E-05
670	7.69	-6.781475E-06	-1.487730E-05
671	7.70	-6.728793E-06	-1.476203E-05
672	7.71	-6.676587E-06	-1.464779E-05
673	7.72	-6.624852E-06	-1.453458E-05
674	7.73	-6.573585E-06	-1.442239E-05
675	7.74	-6.522778E-06	-1.431120E-05
676	7.75	-6.472429E-06	-1.420101E-05
677	7.76	-6.422532E-06	-1.409181E-05
678	7.77	-6.373083E-06	-1.398358E-05
679	7.78	-6.324077E-06	-1.387632E-05
680	7.79	-6.275510E-06	-1.377001E-05
681	7.80	-6.227377E-06	-1.366466E-05
682	7.81	-6.179673E-06	-1.356024E-05
683	7.82	-6.132395E-06	-1.345674E-05
684	7.83	-6.085538E-06	-1.335417E-05
685	7.84	-6.039098E-06	-1.325250E-05
686	7.85	-5.993070E-06	-1.315174E-05
687	7.86	-5.947450E-06	-1.305186E-05
688	7.87	-5.902235E-06	-1.295287E-05
689	7.88	-5.857420E-06	-1.285475E-05
690	7.89	-5.813001E-06	-1.275750E-05
691	7.90	-5.768974E-06	-1.266110E-05
692	7.91	-5.725336E-06	-1.256554E-05
693	7.92	-5.682081E-06	-1.247083E-05
694	7.93	-5.639207E-06	-1.237695E-05
695	7.94	-5.596710E-06	-1.228388E-05
696	7.95	-5.554585E-06	-1.219164E-05
697	7.96	-5.512830E-06	-1.210019E-05
698	7.97	-5.471440E-06	-1.200955E-05
699	7.98	-5.430411E-06	-1.191969E-05
700	7.99	-5.389741E-06	-1.183062E-05
701	8.00	-5.349426E-06	-1.174232E-05
702	8.01	-5.309461E-06	-1.165479E-05
703	8.02	-5.269845E-06	-1.156801E-05
704	8.03	-5.230572E-06	-1.148199E-05
705	8.04	-5.191640E-06	-1.139671E-05
706	8.05	-5.153046E-06	-1.131217E-05
707	8.06	-5.114785E-06	-1.122836E-05
708	8.07	-5.076855E-06	-1.114527E-05
709	8.08	-5.039253E-06	-1.106289E-05
710	8.09	-5.001975E-06	-1.098123E-05
711	8.10	-4.965018E-06	-1.090026E-05
712	8.11	-4.928379E-06	-1.081999E-05
713	8.12	-4.892055E-06	-1.074041E-05
714	8.13	-4.856043E-06	-1.066151E-05
715	8.14	-4.820339E-06	-1.058328E-05
716	8.15	-4.784941E-06	-1.050572E-05
717	8.16	-4.749845E-06	-1.042882E-05
718	8.17	-4.715050E-06	-1.035258E-05
719	8.18	-4.680551E-06	-1.027698E-05
720	8.19	-4.646346E-06	-1.020203E-05
721	8.20	-4.612432E-06	-1.012771E-05
722	8.21	-4.578806E-06	-1.005402E-05
723	8.22	-4.545466E-06	-9.980957E-06
724	8.23	-4.512408E-06	-9.908511E-06
725	8.24	-4.479631E-06	-9.836677E-06
726	8.25	-4.447130E-06	-9.765449E-06
727	8.26	-4.414905E-06	-9.694820E-06
728	8.27	-4.382951E-06	-9.624786E-06
729	8.28	-4.351266E-06	-9.555341E-06
730	8.29	-4.319848E-06	-9.486479E-06
731	8.30	-4.288695E-06	-9.418194E-06
732	8.31	-4.257803E-06	-9.350481E-06
733	8.32	-4.227170E-06	-9.283335E-06
734	8.33	-4.196794E-06	-9.216749E-06
735	8.34	-4.166672E-06	-9.150720E-06
736	8.35	-4.136802E-06	-9.085240E-06
737	8.36	-4.107181E-06	-9.020306E-06
738	8.37	-4.077807E-06	-8.955913E-06
739	8.38	-4.048678E-06	-8.892054E-06
740	8.39	-4.019791E-06	-8.828725E-06
741	8.40	-3.991144E-06	-8.765920E-06
742	8.41	-3.962735E-06	-8.703636E-06
743	8.42	-3.934561E-06	-8.641867E-06
744	8.43	-3.906621E-06	-8.580608E-06
745	8.44	-3.878911E-06	-8.519854E-06
746	8.45	-3.851431E-06	-8.459601E-06
747	8.46	-3.824177E-06	-8.399844E-06
748	8.47	-3.797148E-06	-8.340578E-06
749	8.48	-3.770342E-06	-8.281799E-06
750	8.49	-3.743756E-06	-8.223501E-06
751	8.50	-3.717388E-06	-8.165682E-06
752	8.51	-3.691237E-06	-8.108335E-06
753	8.52	-3.665299E-06	-8.051458E-06
754	8.53	-3.639574E-06	-7.995044E-06
755	8.54	-3.614060E-06	-7.939091E-06
756	8.55	-3.588753E-06	-7.883594E-06
757	8.56	-3.563653E-06	-7.828548E-06
758	8.57	-3.538758E-06	-7.773949E-06
759	8.58	-3.514065E-06	-7.719794E-06
760	8.59	-3.489573E-06	-7.666078E-06
761	8.60	-3.465279E-06	-7.612797E-06
762	8.61	-3.441183E-06	-7.559946E-06
763	8.62	-3.417282E-06	-7.507523E-06
764	8.63	-3.393574E-06	-7.455524E-06
765	8.64	-3.370058E-06	-7.403943E-06
766	8.65	-3.346731E-06	-7.352778E-06
767	8.66	-3.323593E-06	-7.302024E-06
768	8.67	-3.300641E-06	-7.251678E-06
769	8.68	-3.277873E-06	-7.201737E-06
770	8.69	-3.255289E-06	-7.152195E-06
771	8.70	-3.232885E-06	-7.103051E-06
772	8.71	-3.210662E-06	-7.054299E-06
773	8.72	-3.188616E-06	-7.005937E-06
774	8.73	-3.166746E-06	-6.957961E-06
775	8.74	-3.145052E-06	-6.910367E-06
776	8.75	-3.123530E-06	-6.863153E-06
777	8.76	-3.102180E-06	-6.816314E-06
778	8.77	-3.081000E-06	-6.769847E-06
779	8.78	-3.059989E-06	-6.723749E-06
780	8.79	-3.039144E-06	-6.678016E-06
781	8.80	-3.018465E-06	-6.632646E-06
782	8.81	-2.997949E-06	-6.587634E-06
783	8.82	-2.977596E-06	-6.542978E-06
784	8.83	-2.957404E-06	-6.498674E-06
785	8.84	-2.937372E-06	-6.454720E-06
786	8.85	-2.917498E-06	-6.411112E-06
787	8.86	-2.897780E-06	-6.367847E-06
788	8.87	-2.878217E-06	-6.324921E-06
789	8.88	-2.858809E-06	-6.282333E-06
790	8.89	-2.839552E-06	-6.240079E-06
791	8.90	-2.820447E-06	-6.198155E-06
792	8.91	-2.801492E-06	-6.156559E-06
793	8.92	-2.782685E-06	-6.115289E-06
794	8.93	-2.764025E-06	-6.074340E-06
795	8.94	-2.745511E-06	-6.033711E-06
796	8.95	-2.727141E-06	-5.993398E-06
797	8.96	-2.708915E-06	-5.953399E-06
798	8.97	-2.690830E-06	-5.913711E-06
799	8.98	-2.672886E-06	-5.874330E-06
800	8.99	-2.655082E-06	-5.835256E-06
801	9.00	-2.637416E-06	-5.796483E-06
802	9.01	-2.619886E-06	-5.758011E-06
803	9.02	-2.602493E-06	-5.719836E-06
804	9.03	-2.585233E-06	-5.681956E-06
805	9.04	-2.568108E-06	-5.644368E-06
806	9.05	-2.551114E-06	-5.607069E-06
807	9.06	-2.534251E-06	-5.570058E-06
808	9.07	-2.517519E-06	-5.533330E-06
809	9.08	-2.500915E-06	-5.496885E-06
810	9.09	-2.484438E-06	-5.460720E-06
811	9.10	-2.468088E-06	-5.424831E-06
812	9.11	-2.451864E-06	-5.389218E-06
813	9.12	-2.435763E-06	-5.353876E-06
814	9.13	-2.419786E-06	-5.318804E-06
815	9.14	-2.403931E-06	-5.284000E-06
816	9.15	-2.388197E-06	-5.249461E-06
817	9.16	-2.372583E-06	-5.215186E-06
818	9.17	-2.357088E-06	-5.181170E-06
819	9.18	-2.341710E-06	-5.147413E-06
820	9.19	-2.326450E-06	-5.113912E-06
821	9.20	-2.311305E-06	-5.080665E-06
822	9.21	-2.296276E-06	-5.047670E-06
823	9.22	-2.281360E-06	-5.014925E-06
824	9.23	-2.266557E-06	-4.982426E-06
825	9.24	-2.251866E-06	-4.950173E-06
826	9.25	-2.237286E-06	-4.918164E-06
827	9.26	-2.222816E-06	-4.886395E-06
828	9.27	-2.208455E-06	-4.854865E-06
829	9.28	-2.194202E-06	-4.823572E-06
830	9.29	-2.180056E-06	-4.792514E-06
831	9.30	-2.166017E-06	-4.761689E-06
832	9.31	-2.152083E-06	-4.731095E-06
833	9.32	-2.138253E-06	-4.700730E-06
834	9.33	-2.124527E-06	-4.670592E-06
835	9.34	-2.110903E-06	-4.640679E-06
836	9.35	-2.097382E-06	-4.610989E-06
837	9.36	-2.083961E-06	-4.581520E-06
838	9.37	-2.070640E-06	-4.552271E-06
839	9.38	-2.057419E-06	-4.523239E-06
840	9.39	-2.044296E-06	-4.494422E-06
841	9.40	-2.031270E-06	-4.465820E-06
842	9.41	-2.018341E-06	-4.437429E-06
843	9.42	-2.005508E-06	-4.409249E-06
844	9.43	-1.992770E-06	-4.381277E-06
845	9.44	-1.980126E-06	-4.353512E-06
846	9.45	-1.967576E-06	-4.325952E-06
847	9.46	-1.955119E-06	-4.298595E-06
848	9.47	-1.942753E-06	-4.271440E-06
849	9.48	-1.930479E-06	-4.244484E-06
850	9.49	-1.918295E-06	-4.217727E-06
851	9.50	-1.906200E-06	-4.191166E-06
852	9.51	-1.894194E-06	-4.164800E-06
853	9.52	-1.882277E-06	-4.138627E-06
854	9.53	-1.870447E-06	-4.112645E-06
855	9.54	-1.858703E-06	-4.086854E-06
856	9.55	-1.847045E-06	-4.061251E-06
857	9.56	-1.835473E-06	-4.035835E-06
858	9.57	-1.823985E-06	-4.010604E-06
859	9.58	-1.812581E-06	-3.985557E-06
860	9.59	-1.801260E-06	-3.960692E-06
861	9.60	-1.790021E-06	-3.936008E-06
862	9.61	-1.778864E-06	-3.911502E-06
863	9.62	-1.767788E-06	-3.887175E-06
864	9.63	-1.756792E-06	-3.863024E-06
865	9.64	-1.745877E-06	-3.839048E-06
866	9.65	-1.735040E-06	-3.815245E-06
867	9.66	-1.724281E-06	-3.791614E-06
868	9.67	-1.713600E-06	-3.768153E-06
869	9.68	-1.702997E-06	-3.744862E-06
870	9.69	-1.692470E-06	-3.721738E-06
871	9.70	-1.682018E-06	-3.698781E-06
872	9.71	-1.671642E-06	-3.675989E-06
873	9.72	-1.661341E-06	-3.653360E-06
874	9.73	-1.651113E-06	-3.630893E-06
875	9.74	-1.640959E-06	-3.608588E-06
876	9.75	-1.630877E-06	-3.586442E-06
877	9.76	-1.620868E-06	-3.564454E-06
878	9.77	-1.610930E-06	-3.542623E-06
879	9.78	-1.601064E-06	-3.520949E-06
880	9.79	-1.591267E-06	-3.499428E-06
881	9.80	-1.581541E-06	-3.478061E-06
882	9.81	-1.571884E-06	-3.456846E-06
883	9.82	-1.562295E-06	-3.435782E-06
884	9.83	-1.552775E-06	-3.414867E-06
885	9.84	-1.543323E-06	-3.394100E-06
886	9.85	-1.533937E-06	-3.373481E-06
887	9.86	-1.524618E-06	-3.353008E-06
888	9.87	-1.515365E-06	-3.332679E-06
889	9.88	-1.506177E-06	-3.312494E-06
890	9.89	-1.497054E-06	-3.292451E-06
891	9.90	-1.487996E-06	-3.272550E-06
892	9.91	-1.479001E-06	-3.252788E-06
893	9.92	-1.470070E-06	-3.233166E-06
894	9.93	-1.461202E-06	-3.213682E-06
895	9.94	-1.452396E-06	-3.194334E-06
896	9.95	-1.443652E-06	-3.175122E-06
897	9.96	-1.434969E-06	-3.156045E-06
898	9.97	-1.426347E-06	-3.137102E-06
899	9.98	-1.417786E-06	-3.118290E-06
900	9.99	-1.409284E-06	-3.099611E-06
901	10.00	-1.400842E-06	-3.081061E-06
902	10.01	-1.392459E-06	-3.062641E-06
903	10.02	-1.384134E-06	-3.044349E-06
904	10.03	-1.375867E-06	-3.026185E-06
905	10.04	-1.367658E-06	-3.008146E-06
906	10.05	-1.359506E-06	-2.990234E-06
907	10.06	-1.351410E-06	-2.972445E-06
908	10.07	-1.343371E-06	-2.954779E-06
909	10.08	-1.335387E-06	-2.937236E-06
910	10.09	-1.327459E-06	-2.919815E-06
911	10.10	-1.319585E-06	-2.902513E-06
912	10.11	-1.311766E-06	-2.885331E-06
913	10.12	-1.304001E-06	-2.868268E-06
914	10.13	-1.296290E-06	-2.851322E-06
915	10.14	-1.288631E-06	-2.834493E-06
916	10.15	-1.281026E-06	-2.817780E-06
917	10.16	-1.273472E-06	-2.801181E-06
918	10.17	-1.265971E-06	-2.784696E-06
919	10.18	-1.258521E-06	-2.768325E-06
920	10.19	-1.251122E-06	-2.752065E-06
921	10.20	-1.243774E-06	-2.735917E-06
922	10.21	-1.236476E-06	-2.719879E-06
923	10.22	-1.229228E-06	-2.703951E-06
924	10.23	-1.222030E-06	-2.688131E-06
925	10.24	-1.214881E-06	-2.672420E-06
926	10.25	-1.207780E-06	-2.656815E-06
927	10.26	-1.200728E-06	-2.641316E-06
928	10.27	-1.193724E-06	-2.625923E-06
929	10.28	-1.186767E-06	-2.610634E-06
930	10.29	-1.179858E-06	-2.595449E-06
931	10.30	-1.172995E-06	-2.580367E-06
932	10.31	-1.166179E-06	-2.565387E-06
933	10.32	-1.159410E-06	-2.550509E-06
934	10.33	-1.152686E-06	-2.535730E-06
935	10.34	-1.146007E-06	-2.521052E-06
936	10.35	-1.139374E-06	-2.506473E-06
937	10.36	-1.132785E-06	-2.491992E-06
938	10.37	-1.126241E-06	-2.477608E-06
939	10.38	-1.119741E-06	-2.463321E-06
940	10.39	-1.113284E-06	-2.449130E-06
941	10.40	-1.106871E-06	-2.435035E-06
942	10.41	-1.100501E-06	-2.421034E-06
943	10.42	-1.094174E-06	-2.407127E-06
944	10.43	-1.087889E-06	-2.393312E-06
945	10.44	-1.081646E-06	-2.379591E-06
946	10.45	-1.075445E-06	-2.365960E-06
947	10.46	-1.069285E-06	-2.352421E-06
948	10.47	-1.063167E-06	-2.338972E-06
949	10.48	-1.057089E-06	-2.325613E-06
950	10.49	-1.051052E-06	-2.312343E-06
951	10.50	-1.045055E-06	-2.299161E-06
952	10.51	-1.039098E-06	-2.286066E-06
953	10.52	-1.033180E-06	-2.273058E-06
954	10.53	-1.027302E-06	-2.260137E-06
955	10.54	-1.021462E-06	-2.247301E-06
956	10.55	-1.015662E-06	-2.234550E-06
957	10.56	-1.009900E-06	-2.221884E-06
958	10.57	-1.004175E-06	-2.209301E-06
959	10.58	-9.984891E-07	-2.196801E-06
960	10.59	-9.928403E-07	-2.184383E-06
961	10.60	-9.872287E-07	-2.172048E-06
962	10.61	-9.816541E-07	-2.159793E-06
963	10.62	-9.761162E-07	-2.147619E-06
964	10.63	-9.706147E-07	-2.135525E-06
965	10.64	-9.651494E-07	-2.123511E-06
966	10.65	-9.597199E-07	-2.111575E-06
967	10.66	-9.543260E-07	-2.099717E-06
968	10.67	-9.489675E-07	-2.087937E-06
969	10.68	-9.436440E-07	-2.076234E-06
970	10.69	-9.383553E-07	-2.064608E-06
971	10.70	-9.331012E-07	-2.053057E-06
972	10.71	-9.278814E-07	-2.041582E-06
973	10.72	-9.226956E-07	-2.030181E-06
974	10.73	-9.175435E-07	-2.018854E-06
975	10.74	-9.124250E-07	-2.007602E-06
976	10.75	-9.073398E-07	-1.996422E-06
977	10.76	-9.022877E-07	-1.985315E-06
978	10.77	-8.972683E-07	-1.974279E-06
979	10.78	-8.922814E-07	-1.963316E-06
980	10.79	-8.873269E-07	-1.952423E-06
981	10.80	-8.824044E-07	-1.941601E-06
982	10.81	-8.775138E-07	-1.930848E-06
983	10.82	-8.726547E-07	-1.920165E-06
984	10.83	-8.678270E-07	-1.909551E-06
985	10.84	-8.630305E-07	-1.899005E-06
986	10.85	-8.582648E-07	-1.888527E-06
987	10.86	-8.535298E-07	-1.878117E-06
988	10.87	-8.488253E-07	-1.867773E-06
989	10.88	-8.441509E-07	-1.857496E-06
990	10.89	-8.395066E-07	-1.847284E-06
991	10.90	-8.348921E-07	-1.837139E-06
992	10.91	-8.303071E-07	-1.827057E-06
993	10.92	-8.257515E-07	-1.817041E-06
994	10.93	-8.212250E-07	-1.807088E-06
995	10.94	-8.167275E-07	-1.797199E-06
996	10.95	-8.122586E-07	-1.787373E-06
997	10.96	-8.078183E-07	-1.777610E-06
998	10.97	-8.034062E-07	-1.767909E-06
999	10.98	-7.990222E-07	-1.758269E-06
1000	10.99	-7.946661E-07	-1.748691E-06
1001	11.00	-7.903377E-07	-1.739174E-06
1002	11.01	-7.860368E-07	-1.729717E-06
1003	11.02	-7.817632E-07	-1.720320E-06
1004	11.03	-7.775166E-07	-1.710982E-06
1005	11.04	-7.732969E-07	-1.701703E-06
1006	11.05	-7.691040E-07	-1.692483E-06
1007	11.06	-7.649375E-07	-1.683322E-06
1008	11.07	-7.607973E-07	-1.674218E-06
1009	11.08	-7.566832E-07	-1.665171E-06
1010	11.09	-7.525951E-07	-1.656182E-06
1011	11.10	-7.485327E-07	-1.647249E-06
1012	11.11	-7.444959E-07	-1.638372E-06
1013	11.12	-7.404845E-07	-1.629551E-06
1014	11.13	-7.364982E-07	-1.620785E-06
1015	11.14	-7.325370E-07	-1.612074E-06
1016	11.15	-7.286006E-07	-1.603418E-06
1017	11.16	-7.246889E-07	-1.594816E-06
1018	11.17	-7.208016E-07	-1.586268E-06
1019	11.18	-7.169386E-07	-1.577773E-06
1020	11.19	-7.130998E-07	-1.569331E-06
1021	11.20	-7.092849E-07	-1.560942E-06
1022	11.21	-7.054939E-07	-1.552605E-06
1023	11.22	-7.017264E-07	-1.544320E-06
1024	11.23	-6.979824E-07	-1.536086E-06
1025	11.24	-6.942617E-07	-1.527904E-06
1026	11.25	-6.905640E-07	-1.519772E-06
1027	11.26	-6.868894E-07	-1.511691E-06
1028	11.27	-6.832375E-07	-1.503660E-06
1029	11.28	-6.796083E-07	-1.495679E-06
1030	11.29	-6.760016E-07	-1.487747E-06
1031	11.30	-6.724171E-07	-1.479864E-06
1032	11.31	-6.688548E-07	-1.472030E-06
1033	11.32	-6.653145E-07	-1.464244E-06
1034	11.33	-6.617961E-07	-1.456506E-06
1035	11.34	-6.582993E-07	-1.448816E-06
1036	11.35	-6.548241E-07	-1.441173E-06
1037	11.36	-6.513703E-07	-1.433577E-06
1038	11.37	-6.479377E-07	-1.426027E-06
1039	11.38	-6.445261E-07	-1.418524E-06
1040	11.39	-6.411356E-07	-1.411068E-06
1041	11.40	-6.377658E-07	-1.403656E-06
1042	11.41	-6.344166E-07	-1.396290E-06
1043	11.42	-6.310880E-07	-1.388970E-06
1044	11.43	-6.277797E-07	-1.381693E-06
1045	11.44	-6.244916E-07	-1.374462E-06
1046	11.45	-6.212236E-07	-1.367274E-06
1047	11.46	-6.179756E-07	-1.360130E-06
1048	11.47	-6.147473E-07	-1.353030E-06
1049	11.48	-6.115387E-07	-1.345973E-06
1050	11.49	-6.083496E-07	-1.338959E-06
1051	11.50	-6.051799E-07	-1.331987E-06
1052	11.51	-6.020295E-07	-1.325058E-06
1053	11.52	-5.988981E-07	-1.318171E-06
1054	11.53	-5.957858E-07	-1.311326E-06
1055	11.54	-5.926923E-07	-1.304521E-06
1056	11.55	-5.896175E-07	-1.297759E-06
1057	11.56	-5.865614E-07	-1.291036E-06
1058	11.57	-5.835237E-07	-1.284355E-06
1059	11.58	-5.805043E-07	-1.277714E-06
1060	11.59	-5.775031E-07	-1.271113E-06
1061	11.60	-5.745201E-07	-1.264551E-06
1062	11.61	-5.715549E-07	-1.258029E-06
1063	11.62	-5.686077E-07	-1.251547E-06
1064	11.63	-5.656781E-07	-1.245103E-06
1065	11.64	-5.627662E-07	-1.238698E-06
1066	11.65	-5.598717E-07	-1.232331E-06
1067	11.66	-5.569945E-07	-1.226002E-06
1068	11.67	-5.541346E-07	-1.219712E-06
1069	11.68	-5.512919E-07	-1.213459E-06
1070	11.69	-5.484661E-07	-1.207243E-06
1071	11.70	-5.456572E-07	-1.201064E-06
1072	11.71	-5.428651E-07	-1.194923E-06
1073	11.72	-5.400896E-07	-1.188818E-06
1074	11.73	-5.373307E-07	-1.182749E-06
1075	11.74	-5.345882E-07	-1.176716E-06
1076	11.75	-5.318620E-07	-1.170719E-06
1077	11.76	-5.291520E-07	-1.164758E-06
1078	11.77	-5.264581E-07	-1.158832E-06
1079	11.78	-5.237802E-07	-1.152942E-06
1080	11.79	-5.211182E-07	-1.147086E-06
1081	11.80	-5.184719E-07	-1.141265E-06
1082	11.81	-5.158414E-07	-1.135478E-06
1083	11.82	-5.132263E-07	-1.129726E-06
1084	11.83	-5.106268E-07	-1.124007E-06
1085	11.84	-5.080426E-07	-1.118323E-06
1086	11.85	-5.054736E-07	-1.112671E-06
1087	11.86	-5.029197E-07	-1.107053E-06
1088	11.87	-5.003810E-07	-1.101468E-06
1089	11.88	-4.978571E-07	-1.095916E-06
1090	11.89	-4.953481E-07	-1.090397E-06
1091	11.90	-4.928538E-07	-1.084910E-06
1092	11.91	-4.903742E-07	-1.079455E-06
1093	11.92	-4.879091E-07	-1.074032E-06
1094	11.93	-4.854585E-07	-1.068641E-06
1095	11.94	-4.830222E-07	-1.063282E-06
1096	11.95	-4.806001E-07	-1.057953E-06
1097	11.96	-4.781922E-07	-1.052656E-06
1098	11.97	-4.757984E-07	-1.047390E-06
1099	11.98	-4.734186E-07	-1.042154E-06
1100	11.99	-4.710526E-07	-1.036949E-06
1101	12.00	-4.687004E-07	-1.031775E-06
1102	12.01	-4.663619E-07	-1.026630E-06
1103	12.02	-4.640370E-07	-1.021515E-06
1104	12.03	-4.617256E-07	-1.016430E-06
1105	12.04	-4.594277E-07	-1.011375E-06
1106	12.05	-4.571430E-07	-1.006349E-06
1107	12.06	-4.548716E-07	-1.001352E-06
1108	12.07	-4.526134E-07	-9.963835E-07
1109	12.08	-4.503683E-07	-9.914441E-07
1110	12.09	-4.481361E-07	-9.865332E-07
1111	12.10	-4.459168E-07	-9.816507E-07
1112	12.11	-4.437103E-07	-9.767963E-07
1113	12.12	-4.415166E-07	-9.719700E-07
1114	12.13	-4.393355E-07	-9.671714E-07
1115	12.14	-4.371669E-07	-9.624004E-07
1116	12.15	-4.350109E-07	-9.576569E-07
1117	12.16	-4.328672E-07	-9.529406E-07
1118	12.17	-4.307359E-07	-9.482514E-07
1119	12.18	-4.286167E-07	-9.435891E-07
1120	12.19	-4.265098E-07	-9.389535E-07
1121	12.20	-4.244149E-07	-9.343445E-07
1122	12.21	-4.223320E-07	-9.297618E-07
1123	12.22	-4.202610E-07	-9.252054E-07
1124	12.23	-4.182019E-07	-9.206749E-07
1125	12.24	-4.161545E-07	-9.161703E-07
1126	12.25	-4.141188E-07	-9.116915E-07
1127	12.26	-4.120947E-07	-9.072381E-07
1128	12.27	-4.100822E-07	-9.028101E-07
1129	12.28	-4.080811E-07	-8.984073E-07
1130	12.29	-4.060914E-07	-8.940295E-07
1131	12.30	-4.041130E-07	-8.896765E-07
1132	12.31	-4.021458E-07	-8.853483E-07
1133	12.32	-4.001898E-07	-8.810446E-07
1134	12.33	-3.982449E-07	-8.767654E-07
1135	12.34	-3.963110E-07	-8.725103E-07
1136	12.35	-3.943881E-07	-8.682793E-07
1137	12.36	-3.924760E-07	-8.640722E-07
1138	12.37	-3.905747E-07	-8.598889E-07
1139	12.38	-3.886842E-07	-8.557292E-07
1140	12.39	-3.868044E-07	-8.515930E-07
1141	12.40	-3.849351E-07	-8.474800E-07
1142	12.41	-3.830764E-07	-8.433902E-07
1143	12.42	-3.812281E-07	-8.393235E-07
1144	12.43	-3.793903E-07	-8.352795E-07
1145	12.44	-3.775627E-07	-8.312583E-07
1146	12.45	-3.757455E-07	-8.272597E-07
1147	12.46	-3.739384E-07	-8.232835E-07
1148	12.47	-3.721414E-07	-8.193295E-07
1149	12.48	-3.703546E-07	-8.153977E-07
1150	12.49	-3.685777E-07	-8.114879E-07
1151	12.50	-3.668107E-07	-8.075999E-07
1152	12.51	-3.650537E-07	-8.037337E-07
1153	12.52	-3.633064E-07	-7.998890E-07
1154	12.53	-3.615689E-07	-7.960658E-07
1155	12.54	-3.598411E-07	-7.922638E-07
1156	12.55	-3.581229E-07	-7.884831E-07
1157	12.56	-3.564143E-07	-7.847233E-07
1158	12.57	-3.547152E-07	-7.809845E-07
1159	12.58	-3.530255E-07	-7.772664E-07
1160	12.59	-3.513452E-07	-7.735690E-07
1161	12.60	-3.496742E-07	-7.698921E-07
1162	12.61	-3.480125E-07	-7.662355E-07
1163	12.62	-3.463600E-07	-7.625992E-07
1164	12.63	-3.447167E-07	-7.589830E-07
1165	12.64	-3.430824E-07	-7.553868E-07
1166	12.65	-3.414572E-07	-7.518104E-07
1167	12.66	-3.398409E-07	-7.482538E-07
1168	12.67	-3.382336E-07	-7.447168E-07
1169	12.68	-3.366351E-07	-7.411993E-07
1170	12.69	-3.350454E-07	-7.377011E-07
1171	12.70	-3.334645E-07	-7.342223E-07
1172	12.71	-3.318923E-07	-7.307625E-07
1173	12.72	-3.303287E-07	-7.273217E-07
1174	12.73	-3.287737E-07	-7.238998E-07
1175	12.74	-3.272273E-07	-7.204967E-07
1176	12.75	-3.256893E-07	-7.171123E-07
1177	12.76	-3.241597E-07	-7.137463E-07
1178	12.77	-3.226386E-07	-7.103988E-07
1179	12.78	-3.211257E-07	-7.070696E-07
1180	12.79	-3.196211E-07	-7.037586E-07
1181	12.80	-3.181248E-07	-7.004656E-07
1182	12.81	-3.166366E-07	-6.971906E-07
1183	12.82	-3.151565E-07	-6.939335E-07
1184	12.83	-3.136845E-07	-6.906941E-07
1185	12.84	-3.122205E-07	-6.874723E-07
1186	12.85	-3.107644E-07	-6.842681E-07
1187	12.86	-3.093163E-07	-6.810812E-07
1188	12.87	-3.078761E-07	-6.779117E-07
1189	12.88	-3.064436E-07	-6.747593E-07
1190	12.89	-3.050190E-07	-6.716240E-07
1191	12.90	-3.036020E-07	-6.685058E-07
1192	12.91	-3.021928E-07	-6.654044E-07
1193	12.92	-3.007911E-07	-6.623197E-07
1194	12.93	-2.993971E-07	-6.592518E-07
1195	12.94	-2.980105E-07	-6.562004E-07
1196	12.95	-2.966315E-07	-6.531655E-07
1197	12.96	-2.952599E-07	-6.501469E-07
1198	12.97	-2.938957E-07	-6.471446E-07
1199	12.98	-2.925388E-07	-6.441584E-07
1200	12.99	-2.911892E-07	-6.411884E-07
